svm_type c_svc
kernel_type rbf
gamma 0.00101626
nr_class 2
total_sv 2321
rho -0.236238
label 1 -1
nr_sv 1132 1189
SV
1 253:1 291:1 800:1 801:1 856:1 930:1 
1 78:1 406:1 655:1 956:1 
1 78:1 436:1 460:1 807:1 
1 406:1 767:1 
1 78:1 129:1 345:1 806:1 808:1 
1 241:1 291:1 438:1 690:1 856:1 
1 291:1 856:1 931:1 938:1 
1 58:1 178:1 263:1 291:1 856:1 912:1 
1 291:1 446:1 626:1 737:1 856:1 
1 178:1 291:1 515:1 856:1 912:1 
1 291:1 416:1 438:1 452:1 572:1 578:1 704:1 856:1 
1 241:1 291:1 690:1 745:1 856:1 
1 291:1 292:1 438:1 493:1 704:1 856:1 943:1 
1 291:1 436:1 452:1 578:1 704:1 856:1 
1 291:1 292:1 690:1 856:1 
1 241:1 291:1 441:1 452:1 578:1 687:1 704:1 747:1 852:1 856:1 944:1 
1 291:1 416:1 644:1 690:1 856:1 
1 241:1 291:1 437:1 465:1 856:1 
1 291:1 856:1 865:1 963:1 
1 291:1 856:1 865:1 
1 178:1 291:1 292:1 801:1 856:1 865:1 912:1 
1 291:1 313:1 677:1 856:1 953:1 
1 58:1 207:1 291:1 461:1 741:1 856:1 
1 263:1 291:1 436:1 465:1 495:1 541:1 576:1 856:1 
1 241:1 291:1 292:1 437:1 704:1 770:1 833:1 856:1 
1 190:1 291:1 320:1 622:1 676:1 856:1 
1 291:1 704:1 856:1 865:1 
1 91:1 241:1 247:1 291:1 292:1 451:1 856:1 892:1 
1 241:1 247:1 291:1 292:1 397:1 741:1 856:1 
1 241:1 291:1 292:1 437:1 704:1 856:1 911:1 
1 282:1 291:1 465:1 833:1 856:1 941:1 
1 54:1 379:1 436:1 467:1 
1 585:1 963:1 
1 187:1 
1 416:1 
1 30:1 437:1 770:1 
1 
1 241:1 352:1 416:1 452:1 558:1 578:1 926:1 
1 192:1 241:1 446:1 452:1 465:1 926:1 
1 137:1 192:1 247:1 634:1 944:1 
1 291:1 292:1 468:1 478:1 690:1 785:1 856:1 
1 241:1 291:1 704:1 856:1 
1 241:1 291:1 465:1 688:1 856:1 926:1 
1 292:1 473:1 478:1 687:1 785:1 959:1 
1 44:1 83:1 157:1 241:1 291:1 577:1 745:1 800:1 801:1 847:1 856:1 
1 241:1 292:1 452:1 478:1 578:1 
1 134:1 291:1 307:1 856:1 
1 108:1 241:1 291:1 478:1 690:1 785:1 856:1 
1 1:1 30:1 241:1 291:1 292:1 856:1 892:1 
1 241:1 291:1 292:1 478:1 785:1 856:1 
1 291:1 437:1 856:1 
1 291:1 626:1 856:1 
1 44:1 83:1 157:1 291:1 649:1 847:1 856:1 
1 291:1 292:1 690:1 856:1 
1 52:1 291:1 437:1 448:1 478:1 704:1 785:1 801:1 806:1 807:1 856:1 
1 241:1 291:1 292:1 469:1 690:1 856:1 943:1 
1 291:1 292:1 478:1 493:1 704:1 785:1 856:1 943:1 
1 52:1 86:1 167:1 241:1 292:1 688:1 931:1 
1 241:1 291:1 690:1 745:1 856:1 
1 291:1 478:1 690:1 704:1 785:1 856:1 
1 135:1 291:1 690:1 856:1 959:1 
1 291:1 436:1 452:1 578:1 704:1 856:1 
1 291:1 572:1 690:1 856:1 
1 291:1 438:1 704:1 801:1 856:1 
1 105:1 288:1 468:1 
1 224:1 468:1 688:1 770:1 
1 688:1 785:1 
1 13:1 187:1 515:1 850:1 
1 105:1 468:1 848:1 
1 44:1 83:1 157:1 291:1 704:1 847:1 856:1 
1 44:1 157:1 291:1 416:1 451:1 644:1 856:1 
1 241:1 291:1 466:1 649:1 856:1 963:1 
1 241:1 291:1 690:1 856:1 924:1 
1 240:1 241:1 291:1 856:1 956:1 
1 241:1 291:1 704:1 856:1 
1 44:1 83:1 157:1 291:1 292:1 690:1 847:1 856:1 
1 291:1 292:1 690:1 856:1 
1 291:1 466:1 649:1 856:1 963:1 
1 241:1 282:1 291:1 331:1 745:1 807:1 856:1 
1 291:1 856:1 911:1 
1 33:1 291:1 856:1 938:1 
1 44:1 83:1 157:1 291:1 704:1 847:1 856:1 
1 374:1 532:1 
1 337:1 892:1 
1 86:1 465:1 892:1 941:1 
1 734:1 838:1 
1 78:1 346:1 892:1 
1 105:1 892:1 
1 291:1 292:1 451:1 690:1 856:1 
1 29:1 292:1 721:1 926:1 
1 241:1 272:1 291:1 856:1 963:1 
1 51:1 291:1 436:1 856:1 892:1 
1 291:1 292:1 469:1 856:1 
1 134:1 241:1 272:1 291:1 331:1 745:1 856:1 908:1 
1 291:1 438:1 856:1 931:1 
1 291:1 856:1 
1 47:1 124:1 148:1 234:1 291:1 411:1 540:1 579:1 744:1 856:1 919:1 
1 277:1 291:1 340:1 437:1 856:1 
1 256:1 291:1 292:1 856:1 
1 292:1 466:1 687:1 963:1 
1 59:1 292:1 467:1 847:1 931:1 
1 148:1 241:1 291:1 452:1 578:1 579:1 587:1 856:1 919:1 
1 162:1 241:1 291:1 292:1 316:1 649:1 856:1 
1 53:1 291:1 375:1 496:1 856:1 938:1 962:1 
1 241:1 292:1 452:1 578:1 687:1 877:1 
1 291:1 690:1 856:1 938:1 
1 289:1 291:1 452:1 476:1 578:1 688:1 699:1 847:1 856:1 
1 46:1 241:1 267:1 292:1 452:1 468:1 578:1 908:1 930:1 931:1 965:1 
1 160:1 291:1 553:1 841:1 856:1 
1 241:1 291:1 690:1 745:1 856:1 
1 291:1 690:1 745:1 856:1 
1 291:1 451:1 690:1 856:1 
1 291:1 436:1 452:1 578:1 704:1 856:1 
1 291:1 292:1 466:1 704:1 856:1 963:1 
1 54:1 465:1 634:1 892:1 
1 1:1 
1 105:1 292:1 739:1 892:1 
1 324:1 375:1 436:1 465:1 
1 207:1 249:1 292:1 350:1 470:1 687:1 
1 241:1 291:1 704:1 795:1 856:1 938:1 
1 162:1 291:1 316:1 856:1 
1 241:1 291:1 704:1 856:1 
1 134:1 291:1 316:1 441:1 770:1 856:1 
1 110:1 241:1 269:1 292:1 316:1 892:1 931:1 
1 221:1 241:1 247:1 291:1 313:1 340:1 848:1 856:1 
1 162:1 241:1 291:1 316:1 856:1 
1 221:1 241:1 247:1 291:1 856:1 
1 143:1 241:1 291:1 317:1 856:1 938:1 
1 162:1 213:1 291:1 307:1 434:1 856:1 926:1 953:1 
1 73:1 241:1 282:1 291:1 452:1 578:1 687:1 704:1 856:1 
1 291:1 314:1 690:1 856:1 
1 162:1 241:1 291:1 316:1 856:1 911:1 
1 162:1 241:1 291:1 316:1 690:1 745:1 856:1 
1 291:1 437:1 465:1 666:1 741:1 856:1 
1 73:1 241:1 291:1 317:1 856:1 
1 291:1 307:1 495:1 704:1 856:1 916:1 970:1 
1 167:1 207:1 270:1 292:1 436:1 
1 137:1 241:1 291:1 386:1 445:1 745:1 856:1 912:1 
1 291:1 314:1 419:1 856:1 
1 162:1 291:1 316:1 704:1 801:1 856:1 
1 291:1 307:1 320:1 437:1 495:1 856:1 916:1 
1 291:1 478:1 785:1 856:1 
1 73:1 291:1 452:1 578:1 856:1 
1 1:1 291:1 306:1 784:1 856:1 938:1 
1 162:1 291:1 316:1 856:1 
1 162:1 241:1 291:1 316:1 690:1 745:1 856:1 
1 207:1 291:1 666:1 856:1 
1 138:1 162:1 291:1 316:1 687:1 690:1 856:1 931:1 
1 291:1 465:1 856:1 
1 291:1 690:1 856:1 
1 291:1 352:1 690:1 856:1 938:1 
1 162:1 291:1 690:1 856:1 
1 241:1 291:1 690:1 745:1 856:1 
1 241:1 291:1 690:1 856:1 938:1 
1 291:1 436:1 668:1 704:1 852:1 856:1 
1 162:1 291:1 292:1 704:1 856:1 916:1 
1 162:1 241:1 291:1 316:1 856:1 911:1 
1 162:1 241:1 249:1 291:1 316:1 350:1 470:1 768:1 824:1 856:1 916:1 
1 241:1 291:1 350:1 465:1 470:1 768:1 856:1 916:1 
1 178:1 278:1 291:1 568:1 831:1 856:1 
1 291:1 856:1 865:1 
1 187:1 291:1 856:1 901:1 
1 162:1 249:1 291:1 316:1 350:1 470:1 768:1 856:1 916:1 
1 51:1 352:1 916:1 944:1 
1 84:1 374:1 441:1 944:1 
1 465:1 721:1 
1 108:1 451:1 
1 291:1 856:1 
1 84:1 892:1 
1 241:1 452:1 578:1 916:1 944:1 
1 241:1 291:1 856:1 
1 291:1 856:1 
1 241:1 291:1 690:1 745:1 856:1 
1 135:1 291:1 704:1 847:1 856:1 
1 291:1 429:1 587:1 741:1 856:1 962:1 
1 66:1 291:1 352:1 856:1 
1 291:1 856:1 
1 241:1 291:1 704:1 856:1 
1 241:1 291:1 366:1 407:1 690:1 856:1 
1 108:1 291:1 451:1 626:1 856:1 
1 58:1 66:1 241:1 247:1 291:1 292:1 856:1 
1 291:1 626:1 856:1 
1 48:1 291:1 306:1 856:1 962:1 
1 291:1 362:1 770:1 856:1 
1 291:1 345:1 856:1 865:1 944:1 
1 114:1 171:1 291:1 451:1 740:1 852:1 856:1 893:1 
1 241:1 292:1 452:1 578:1 687:1 
1 291:1 451:1 852:1 856:1 892:1 
1 5:1 267:1 291:1 506:1 806:1 808:1 856:1 
1 44:1 83:1 157:1 291:1 704:1 847:1 856:1 
1 206:1 291:1 307:1 452:1 578:1 856:1 
1 291:1 314:1 375:1 452:1 578:1 690:1 741:1 856:1 
1 291:1 292:1 483:1 626:1 856:1 
1 291:1 436:1 452:1 578:1 704:1 856:1 
1 143:1 213:1 291:1 434:1 741:1 856:1 
1 291:1 436:1 452:1 578:1 856:1 931:1 
1 108:1 241:1 292:1 931:1 
1 207:1 213:1 434:1 745:1 943:1 
1 241:1 269:1 452:1 578:1 741:1 931:1 
1 224:1 594:1 699:1 
1 291:1 626:1 856:1 
1 893:1 
1 207:1 291:1 375:1 666:1 829:1 856:1 926:1 962:1 
1 230:1 241:1 291:1 630:1 704:1 856:1 
1 230:1 241:1 291:1 587:1 745:1 856:1 912:1 938:1 
1 291:1 630:1 701:1 737:1 856:1 931:1 
1 213:1 270:1 291:1 434:1 483:1 612:1 666:1 856:1 
1 291:1 630:1 856:1 
1 291:1 441:1 515:1 690:1 856:1 
1 291:1 292:1 452:1 578:1 630:1 690:1 856:1 
1 30:1 292:1 397:1 494:1 687:1 852:1 955:1 
1 291:1 515:1 690:1 856:1 
1 292:1 306:1 892:1 957:1 
1 188:1 193:1 291:1 690:1 807:1 856:1 
1 291:1 630:1 690:1 856:1 
1 291:1 313:1 856:1 
1 135:1 269:1 314:1 478:1 584:1 688:1 719:1 792:1 807:1 842:1 893:1 959:1 
1 241:1 291:1 630:1 856:1 911:1 
1 291:1 632:1 841:1 856:1 
1 291:1 523:1 602:1 630:1 841:1 856:1 
1 192:1 291:1 578:1 690:1 856:1 938:1 
1 30:1 173:1 241:1 267:1 292:1 829:1 931:1 
1 241:1 291:1 690:1 745:1 856:1 
1 30:1 291:1 370:1 690:1 719:1 856:1 
1 291:1 452:1 578:1 856:1 
1 213:1 253:1 267:1 291:1 434:1 741:1 856:1 930:1 
1 59:1 271:1 291:1 292:1 467:1 856:1 
1 178:1 278:1 291:1 568:1 831:1 856:1 
1 291:1 572:1 856:1 
1 291:1 626:1 856:1 
1 291:1 577:1 690:1 856:1 
1 192:1 291:1 578:1 690:1 856:1 
1 241:1 267:1 291:1 411:1 540:1 646:1 647:1 856:1 
1 291:1 436:1 452:1 578:1 704:1 856:1 
1 291:1 317:1 441:1 644:1 856:1 892:1 
1 241:1 291:1 630:1 856:1 911:1 
1 241:1 291:1 630:1 856:1 911:1 
1 241:1 291:1 610:1 627:1 704:1 856:1 
1 291:1 704:1 856:1 938:1 
1 291:1 630:1 856:1 
1 51:1 241:1 291:1 292:1 690:1 856:1 
1 135:1 451:1 584:1 719:1 807:1 893:1 
1 267:1 740:1 785:1 984:1 
1 241:1 270:1 291:1 436:1 452:1 578:1 740:1 856:1 984:1 
1 206:1 241:1 
1 213:1 434:1 
1 84:1 367:1 483:1 892:1 
1 241:1 291:1 452:1 578:1 626:1 770:1 856:1 
1 73:1 291:1 687:1 856:1 
1 112:1 291:1 452:1 578:1 856:1 
1 291:1 452:1 578:1 800:1 801:1 807:1 856:1 930:1 
1 291:1 370:1 436:1 608:1 856:1 
1 239:1 291:1 452:1 804:1 856:1 892:1 
1 134:1 291:1 452:1 578:1 856:1 944:1 
1 291:1 452:1 578:1 686:1 856:1 911:1 
1 47:1 224:1 291:1 744:1 807:1 856:1 
1 47:1 54:1 291:1 744:1 770:1 856:1 938:1 
1 47:1 291:1 292:1 397:1 744:1 768:1 806:1 856:1 
1 177:1 291:1 483:1 856:1 
1 291:1 375:1 856:1 
1 291:1 816:1 848:1 856:1 
1 83:1 241:1 291:1 452:1 483:1 578:1 768:1 856:1 931:1 
1 73:1 291:1 687:1 856:1 953:1 963:1 
1 239:1 291:1 856:1 
1 36:1 284:1 292:1 381:1 576:1 585:1 920:1 953:1 
1 15:1 179:1 291:1 856:1 
1 174:1 291:1 465:1 856:1 966:1 
1 291:1 416:1 452:1 518:1 804:1 856:1 892:1 
1 291:1 690:1 719:1 856:1 
1 249:1 291:1 646:1 647:1 768:1 856:1 888:1 
1 47:1 268:1 286:1 291:1 346:1 483:1 744:1 856:1 962:1 
1 291:1 352:1 452:1 578:1 816:1 848:1 856:1 
1 47:1 271:1 291:1 436:1 465:1 478:1 626:1 744:1 856:1 
1 177:1 291:1 436:1 856:1 921:1 
1 241:1 291:1 452:1 578:1 770:1 816:1 856:1 931:1 
1 134:1 193:1 291:1 381:1 768:1 847:1 856:1 
1 36:1 241:1 292:1 434:1 931:1 
1 291:1 416:1 856:1 892:1 931:1 
1 406:1 451:1 719:1 806:1 807:1 892:1 
1 291:1 856:1 947:1 
1 47:1 744:1 944:1 
1 54:1 187:1 224:1 416:1 
1 7:1 837:1 
1 16:1 54:1 241:1 372:1 436:1 452:1 578:1 767:1 
1 536:1 
1 47:1 744:1 768:1 944:1 
1 124:1 207:1 234:1 291:1 292:1 806:1 841:1 856:1 
1 66:1 268:1 270:1 291:1 745:1 856:1 
1 59:1 78:1 241:1 291:1 352:1 452:1 800:1 856:1 
1 291:1 292:1 833:1 856:1 
1 16:1 241:1 291:1 745:1 856:1 941:1 
1 150:1 291:1 483:1 719:1 807:1 856:1 
1 124:1 234:1 291:1 856:1 911:1 
1 84:1 291:1 856:1 892:1 911:1 
1 10:1 111:1 291:1 441:1 801:1 856:1 931:1 941:1 
1 30:1 265:1 291:1 435:1 806:1 856:1 
1 33:1 291:1 686:1 856:1 888:1 
1 170:1 247:1 268:1 291:1 317:1 452:1 770:1 833:1 856:1 975:1 
1 66:1 241:1 270:1 291:1 690:1 856:1 
1 268:1 291:1 452:1 578:1 608:1 745:1 856:1 
1 291:1 587:1 856:1 
1 53:1 162:1 268:1 291:1 483:1 608:1 856:1 
1 10:1 51:1 73:1 291:1 627:1 800:1 801:1 856:1 975:1 
1 16:1 268:1 291:1 356:1 483:1 770:1 856:1 
1 268:1 291:1 540:1 647:1 690:1 856:1 
1 268:1 291:1 436:1 779:1 856:1 
1 263:1 268:1 291:1 704:1 800:1 801:1 856:1 
1 291:1 687:1 795:1 856:1 965:1 
1 193:1 291:1 608:1 770:1 800:1 801:1 856:1 
1 241:1 291:1 800:1 801:1 856:1 
1 291:1 704:1 745:1 856:1 
1 73:1 291:1 687:1 800:1 801:1 856:1 943:1 944:1 
1 124:1 207:1 234:1 248:1 268:1 291:1 856:1 
1 207:1 268:1 270:1 292:1 436:1 931:1 
1 124:1 207:1 234:1 248:1 268:1 292:1 687:1 
1 291:1 687:1 841:1 856:1 
1 16:1 134:1 291:1 452:1 578:1 856:1 911:1 
1 33:1 207:1 770:1 
1 2:1 177:1 320:1 411:1 540:1 634:1 
1 219:1 291:1 536:1 856:1 961:1 
1 119:1 256:1 373:1 
1 437:1 583:1 
1 944:1 961:1 
1 58:1 207:1 288:1 943:1 
1 172:1 
1 291:1 856:1 
1 241:1 291:1 374:1 416:1 437:1 452:1 856:1 
1 241:1 291:1 745:1 847:1 856:1 
1 291:1 381:1 829:1 837:1 856:1 
1 291:1 626:1 639:1 741:1 745:1 856:1 
1 241:1 291:1 704:1 745:1 747:1 856:1 
1 271:1 291:1 292:1 583:1 690:1 698:1 745:1 856:1 
1 291:1 583:1 687:1 690:1 698:1 856:1 
1 134:1 272:1 291:1 441:1 847:1 856:1 944:1 
1 173:1 292:1 931:1 
1 283:1 291:1 745:1 801:1 856:1 
1 240:1 269:1 291:1 741:1 856:1 941:1 
1 240:1 291:1 416:1 690:1 745:1 856:1 
1 241:1 291:1 704:1 745:1 747:1 856:1 
1 291:1 583:1 698:1 704:1 856:1 
1 241:1 291:1 704:1 745:1 800:1 801:1 856:1 
1 291:1 303:1 416:1 452:1 578:1 639:1 745:1 856:1 931:1 
1 241:1 291:1 704:1 856:1 931:1 
1 143:1 291:1 856:1 
1 241:1 291:1 704:1 745:1 856:1 
1 44:1 291:1 702:1 704:1 856:1 
1 241:1 268:1 291:1 473:1 704:1 856:1 
1 207:1 291:1 317:1 465:1 585:1 676:1 798:1 856:1 
1 175:1 291:1 465:1 805:1 856:1 
1 114:1 171:1 292:1 
1 291:1 452:1 578:1 856:1 931:1 950:1 
1 292:1 303:1 416:1 572:1 892:1 
1 190:1 291:1 292:1 622:1 856:1 
1 85:1 241:1 291:1 856:1 
1 291:1 626:1 856:1 
1 81:1 177:1 291:1 503:1 518:1 576:1 641:1 856:1 944:1 
1 291:1 313:1 441:1 856:1 975:1 
1 291:1 375:1 457:1 856:1 
1 291:1 353:1 429:1 460:1 461:1 465:1 856:1 953:1 
1 241:1 291:1 704:1 856:1 
1 241:1 291:1 449:1 578:1 745:1 856:1 
1 86:1 108:1 291:1 452:1 578:1 856:1 892:1 
1 241:1 291:1 856:1 926:1 931:1 
1 666:1 795:1 931:1 
1 291:1 292:1 347:1 626:1 785:1 856:1 
1 241:1 291:1 856:1 938:1 
1 241:1 291:1 745:1 856:1 
1 241:1 291:1 441:1 452:1 578:1 704:1 848:1 856:1 931:1 944:1 
1 241:1 248:1 291:1 292:1 345:1 452:1 467:1 856:1 938:1 
1 100:1 241:1 291:1 641:1 699:1 856:1 
1 167:1 291:1 837:1 856:1 
1 468:1 847:1 931:1 
1 241:1 291:1 856:1 938:1 
1 291:1 317:1 328:1 398:1 402:1 846:1 856:1 973:1 
1 30:1 296:1 630:1 
1 291:1 320:1 856:1 892:1 908:1 
1 190:1 292:1 320:1 622:1 745:1 808:1 892:1 
1 105:1 291:1 452:1 578:1 699:1 856:1 
1 291:1 436:1 690:1 856:1 878:1 
1 249:1 291:1 469:1 578:1 587:1 738:1 856:1 
1 241:1 291:1 743:1 745:1 853:1 856:1 
1 177:1 291:1 576:1 856:1 931:1 944:1 
1 177:1 291:1 690:1 856:1 
1 177:1 291:1 576:1 856:1 944:1 
1 47:1 291:1 386:1 483:1 739:1 744:1 856:1 
1 292:1 658:1 912:1 
1 241:1 291:1 704:1 745:1 853:1 856:1 
1 71:1 291:1 293:1 641:1 856:1 871:1 
1 177:1 241:1 291:1 292:1 680:1 856:1 944:1 
1 22:1 291:1 292:1 437:1 452:1 578:1 856:1 938:1 
1 267:1 626:1 795:1 931:1 
1 291:1 397:1 647:1 690:1 856:1 
1 291:1 306:1 856:1 938:1 
1 81:1 120:1 291:1 335:1 395:1 641:1 806:1 856:1 
1 135:1 291:1 366:1 703:1 856:1 959:1 
1 306:1 
1 249:1 291:1 856:1 
1 291:1 476:1 699:1 847:1 856:1 931:1 
1 153:1 174:1 848:1 
1 78:1 192:1 313:1 806:1 807:1 
1 291:1 465:1 699:1 748:1 
1 57:1 187:1 291:1 328:1 719:1 846:1 856:1 
1 468:1 892:1 908:1 
1 291:1 690:1 856:1 938:1 
1 207:1 291:1 856:1 938:1 944:1 
1 291:1 452:1 578:1 833:1 856:1 
1 71:1 268:1 291:1 293:1 856:1 931:1 
1 291:1 488:1 577:1 711:1 719:1 745:1 747:1 807:1 856:1 
1 283:1 291:1 687:1 704:1 856:1 938:1 
1 212:1 241:1 291:1 856:1 865:1 
1 181:1 249:1 291:1 542:1 801:1 856:1 901:1 
1 241:1 282:1 291:1 704:1 745:1 856:1 
1 291:1 452:1 578:1 856:1 
1 291:1 688:1 856:1 
1 291:1 312:1 626:1 724:1 856:1 
1 207:1 291:1 856:1 938:1 944:1 
1 291:1 416:1 737:1 797:1 807:1 856:1 
1 71:1 241:1 291:1 293:1 704:1 745:1 856:1 
1 71:1 291:1 293:1 320:1 688:1 856:1 970:1 
1 33:1 397:1 856:1 931:1 
1 291:1 772:1 856:1 888:1 938:1 
1 291:1 292:1 416:1 465:1 704:1 856:1 931:1 
1 291:1 856:1 
1 71:1 241:1 291:1 293:1 441:1 687:1 704:1 856:1 926:1 
1 30:1 291:1 300:1 348:1 469:1 649:1 856:1 
1 8:1 291:1 668:1 806:1 808:1 856:1 
1 291:1 416:1 437:1 465:1 632:1 856:1 
1 291:1 690:1 856:1 
1 103:1 348:1 
1 73:1 241:1 300:1 317:1 348:1 441:1 687:1 938:1 
1 15:1 179:1 241:1 291:1 451:1 452:1 578:1 856:1 
1 187:1 241:1 416:1 
1 181:1 643:1 762:1 944:1 
1 10:1 250:1 283:1 291:1 587:1 682:1 801:1 853:1 856:1 944:1 
1 241:1 291:1 687:1 856:1 
1 291:1 300:1 348:1 352:1 770:1 801:1 856:1 930:1 
1 291:1 300:1 348:1 437:1 583:1 856:1 931:1 
1 241:1 291:1 300:1 348:1 704:1 856:1 
1 291:1 745:1 856:1 
1 291:1 856:1 931:1 938:1 
1 241:1 291:1 300:1 348:1 704:1 745:1 856:1 
1 226:1 291:1 300:1 348:1 690:1 856:1 
1 291:1 300:1 348:1 704:1 856:1 
1 292:1 300:1 348:1 
1 291:1 467:1 856:1 926:1 
1 291:1 300:1 348:1 856:1 911:1 
1 241:1 291:1 347:1 641:1 856:1 
1 241:1 291:1 347:1 856:1 
1 291:1 328:1 770:1 856:1 973:1 
1 291:1 690:1 856:1 
1 250:1 283:1 291:1 587:1 682:1 853:1 856:1 944:1 
1 291:1 856:1 938:1 944:1 
1 136:1 291:1 478:1 551:1 785:1 856:1 924:1 
1 291:1 363:1 372:1 409:1 767:1 856:1 
1 465:1 748:1 892:1 951:1 953:1 
1 114:1 171:1 291:1 395:1 494:1 856:1 955:1 
1 291:1 395:1 437:1 448:1 856:1 892:1 953:1 
1 291:1 347:1 397:1 488:1 711:1 745:1 856:1 
1 241:1 291:1 312:1 704:1 745:1 856:1 
1 73:1 291:1 317:1 856:1 
1 241:1 312:1 578:1 856:1 931:1 
1 291:1 312:1 686:1 856:1 
1 291:1 364:1 602:1 856:1 938:1 
1 241:1 291:1 312:1 745:1 856:1 
1 58:1 291:1 303:1 441:1 856:1 
1 241:1 291:1 373:1 641:1 745:1 856:1 962:1 
1 291:1 688:1 856:1 
1 33:1 291:1 452:1 465:1 556:1 578:1 688:1 856:1 
1 291:1 578:1 690:1 704:1 824:1 856:1 
1 291:1 312:1 704:1 856:1 
1 73:1 291:1 292:1 312:1 856:1 
1 3:1 104:1 178:1 291:1 465:1 856:1 
1 291:1 312:1 856:1 
1 73:1 291:1 317:1 856:1 
1 291:1 292:1 856:1 901:1 
1 977:1 
1 181:1 292:1 319:1 451:1 483:1 893:1 
1 206:1 207:1 292:1 400:1 452:1 578:1 626:1 794:1 888:1 
1 291:1 373:1 641:1 856:1 962:1 
1 73:1 345:1 441:1 515:1 687:1 834:1 953:1 
1 17:1 30:1 292:1 436:1 477:1 
1 272:1 292:1 312:1 437:1 
1 167:1 207:1 291:1 837:1 856:1 
1 73:1 400:1 944:1 
1 78:1 358:1 606:1 846:1 
1 291:1 856:1 938:1 
1 291:1 352:1 373:1 770:1 801:1 856:1 930:1 962:1 
1 292:1 328:1 846:1 
1 73:1 173:1 291:1 307:1 353:1 417:1 460:1 724:1 806:1 856:1 
1 291:1 856:1 
1 16:1 30:1 51:1 237:1 291:1 306:1 467:1 626:1 724:1 807:1 856:1 
1 291:1 856:1 
1 291:1 800:1 801:1 833:1 848:1 856:1 930:1 938:1 944:1 
1 241:1 291:1 373:1 704:1 745:1 856:1 962:1 
1 291:1 292:1 373:1 704:1 856:1 962:1 
1 2:1 247:1 291:1 351:1 416:1 626:1 856:1 
1 247:1 351:1 
1 291:1 441:1 847:1 856:1 
1 62:1 291:1 578:1 856:1 931:1 
1 100:1 291:1 856:1 
1 291:1 646:1 647:1 931:1 
1 291:1 441:1 847:1 856:1 
1 186:1 291:1 318:1 627:1 768:1 856:1 
1 73:1 193:1 397:1 406:1 451:1 745:1 
1 271:1 291:1 856:1 
1 292:1 306:1 952:1 
1 291:1 373:1 452:1 578:1 806:1 833:1 856:1 962:1 
1 241:1 291:1 373:1 406:1 451:1 702:1 704:1 856:1 962:1 
1 241:1 272:1 291:1 373:1 452:1 578:1 704:1 852:1 856:1 962:1 
1 108:1 241:1 292:1 865:1 892:1 
1 73:1 176:1 441:1 946:1 971:1 972:1 
1 105:1 108:1 117:1 241:1 452:1 483:1 578:1 
1 78:1 436:1 713:1 770:1 
1 288:1 542:1 846:1 
1 2:1 320:1 
1 291:1 800:1 801:1 856:1 930:1 
1 241:1 291:1 644:1 704:1 745:1 856:1 960:1 
1 291:1 336:1 465:1 608:1 662:1 847:1 856:1 938:1 
1 134:1 291:1 644:1 856:1 960:1 
1 46:1 65:1 112:1 241:1 291:1 313:1 841:1 856:1 938:1 
1 241:1 291:1 848:1 856:1 
1 291:1 644:1 856:1 960:1 
1 57:1 105:1 292:1 483:1 488:1 711:1 719:1 
1 65:1 291:1 506:1 690:1 856:1 
1 86:1 291:1 437:1 856:1 
1 207:1 276:1 291:1 306:1 483:1 627:1 688:1 856:1 926:1 
1 33:1 291:1 435:1 586:1 745:1 819:1 834:1 856:1 
1 291:1 313:1 856:1 938:1 
1 291:1 417:1 785:1 856:1 931:1 
1 51:1 291:1 313:1 352:1 694:1 856:1 938:1 
1 177:1 292:1 682:1 704:1 
1 277:1 291:1 856:1 938:1 
1 255:1 291:1 572:1 690:1 816:1 817:1 856:1 
1 46:1 65:1 291:1 397:1 856:1 938:1 
1 57:1 241:1 291:1 452:1 578:1 690:1 704:1 856:1 
1 291:1 644:1 704:1 856:1 960:1 
1 143:1 207:1 381:1 467:1 897:1 
1 105:1 283:1 291:1 406:1 451:1 856:1 944:1 
1 3:1 81:1 288:1 291:1 320:1 626:1 770:1 839:1 856:1 944:1 
1 78:1 291:1 317:1 713:1 856:1 941:1 960:1 
1 291:1 328:1 644:1 719:1 807:1 846:1 856:1 960:1 
1 73:1 284:1 292:1 441:1 687:1 719:1 944:1 
1 46:1 65:1 91:1 240:1 291:1 317:1 690:1 856:1 
1 66:1 291:1 452:1 578:1 856:1 938:1 
1 65:1 291:1 704:1 841:1 856:1 
1 65:1 241:1 291:1 568:1 856:1 
1 291:1 452:1 483:1 578:1 856:1 
1 291:1 352:1 436:1 465:1 801:1 856:1 
1 65:1 240:1 241:1 291:1 690:1 856:1 911:1 
1 53:1 178:1 291:1 416:1 437:1 676:1 745:1 856:1 931:1 
1 65:1 291:1 292:1 704:1 856:1 
1 46:1 65:1 240:1 
1 270:1 291:1 352:1 510:1 690:1 693:1 856:1 
1 84:1 291:1 351:1 848:1 856:1 931:1 
1 65:1 291:1 856:1 
1 46:1 65:1 91:1 240:1 291:1 506:1 856:1 938:1 
1 65:1 240:1 291:1 303:1 641:1 856:1 
1 46:1 65:1 240:1 
1 16:1 241:1 291:1 379:1 856:1 
1 291:1 452:1 578:1 806:1 808:1 856:1 931:1 
1 65:1 291:1 704:1 856:1 
1 33:1 291:1 292:1 704:1 856:1 865:1 
1 101:1 291:1 457:1 578:1 670:1 856:1 
1 241:1 291:1 317:1 856:1 865:1 
1 65:1 291:1 856:1 
1 51:1 65:1 241:1 291:1 352:1 452:1 578:1 690:1 856:1 
1 240:1 263:1 268:1 291:1 313:1 745:1 848:1 856:1 931:1 938:1 
1 291:1 317:1 833:1 856:1 
1 291:1 440:1 452:1 578:1 856:1 
1 46:1 65:1 241:1 247:1 291:1 292:1 704:1 770:1 856:1 
1 65:1 291:1 646:1 647:1 856:1 
1 241:1 270:1 291:1 322:1 704:1 856:1 
1 46:1 65:1 291:1 856:1 
1 46:1 65:1 91:1 240:1 291:1 856:1 
1 291:1 451:1 848:1 856:1 
1 46:1 65:1 66:1 291:1 690:1 856:1 
1 268:1 291:1 292:1 550:1 641:1 745:1 856:1 902:1 911:1 
1 112:1 247:1 291:1 436:1 856:1 
1 66:1 175:1 291:1 352:1 856:1 938:1 
1 187:1 190:1 270:1 291:1 856:1 
1 65:1 272:1 291:1 852:1 856:1 
1 33:1 191:1 241:1 292:1 372:1 395:1 507:1 767:1 
1 108:1 248:1 292:1 631:1 852:1 863:1 
1 16:1 292:1 892:1 951:1 
1 241:1 291:1 856:1 
1 1:1 241:1 291:1 395:1 688:1 805:1 828:1 856:1 
1 241:1 291:1 292:1 437:1 448:1 809:1 833:1 856:1 
1 268:1 291:1 352:1 680:1 745:1 856:1 931:1 
1 226:1 268:1 292:1 495:1 745:1 
1 292:1 347:1 662:1 829:1 911:1 
1 249:1 291:1 507:1 587:1 856:1 
1 30:1 268:1 291:1 737:1 769:1 782:1 856:1 892:1 
1 291:1 320:1 352:1 578:1 745:1 770:1 824:1 856:1 931:1 
1 11:1 12:1 291:1 328:1 634:1 846:1 856:1 
1 291:1 550:1 704:1 856:1 902:1 
1 268:1 291:1 577:1 745:1 856:1 
1 268:1 291:1 458:1 741:1 856:1 
1 134:1 291:1 856:1 
1 268:1 291:1 292:1 317:1 745:1 856:1 
1 291:1 679:1 856:1 
1 291:1 649:1 745:1 856:1 
1 268:1 291:1 745:1 856:1 
1 268:1 292:1 
1 268:1 292:1 347:1 911:1 977:1 
1 268:1 291:1 372:1 741:1 805:1 806:1 856:1 
1 73:1 291:1 856:1 892:1 
1 268:1 291:1 399:1 452:1 453:1 578:1 846:1 856:1 
1 286:1 292:1 550:1 872:1 902:1 
1 118:1 291:1 372:1 741:1 767:1 856:1 923:1 946:1 
1 248:1 291:1 441:1 572:1 745:1 853:1 856:1 931:1 
1 241:1 256:1 286:1 291:1 745:1 822:1 856:1 
1 292:1 745:1 833:1 
1 291:1 690:1 856:1 
1 291:1 639:1 768:1 800:1 801:1 856:1 
1 291:1 452:1 578:1 856:1 965:1 
1 196:1 291:1 702:1 704:1 856:1 902:1 
1 138:1 291:1 320:1 352:1 856:1 931:1 953:1 
1 58:1 291:1 483:1 856:1 944:1 
1 313:1 465:1 811:1 
1 196:1 291:1 577:1 800:1 801:1 856:1 902:1 
1 241:1 286:1 291:1 690:1 745:1 856:1 
1 188:1 241:1 292:1 576:1 848:1 922:1 946:1 949:1 
1 291:1 437:1 448:1 626:1 856:1 891:1 
1 73:1 465:1 892:1 
1 167:1 207:1 291:1 372:1 856:1 
1 73:1 465:1 848:1 
1 42:1 167:1 291:1 856:1 
1 270:1 291:1 417:1 704:1 788:1 800:1 801:1 856:1 
1 173:1 291:1 704:1 856:1 938:1 958:1 965:1 
1 241:1 291:1 704:1 856:1 
1 291:1 317:1 577:1 703:1 856:1 
1 291:1 398:1 402:1 469:1 625:1 856:1 
1 248:1 291:1 351:1 416:1 577:1 856:1 
1 73:1 247:1 291:1 745:1 856:1 921:1 
1 33:1 100:1 291:1 418:1 851:1 856:1 
1 406:1 688:1 699:1 
1 41:1 351:1 416:1 
1 97:1 291:1 292:1 382:1 520:1 703:1 856:1 
1 271:1 291:1 292:1 704:1 856:1 
1 173:1 291:1 292:1 704:1 745:1 800:1 801:1 856:1 958:1 965:1 
1 292:1 641:1 785:1 977:1 
1 173:1 291:1 690:1 856:1 958:1 965:1 
1 291:1 347:1 641:1 745:1 856:1 871:1 
1 291:1 381:1 446:1 503:1 856:1 891:1 
1 92:1 291:1 690:1 745:1 853:1 856:1 
1 291:1 518:1 856:1 
1 418:1 682:1 695:1 
1 241:1 256:1 291:1 598:1 626:1 856:1 891:1 
1 291:1 301:1 374:1 498:1 683:1 856:1 
1 291:1 372:1 846:1 856:1 944:1 960:1 
1 291:1 346:1 374:1 476:1 634:1 737:1 856:1 
1 150:1 291:1 406:1 699:1 856:1 
1 81:1 291:1 406:1 741:1 770:1 856:1 
1 291:1 856:1 
1 291:1 577:1 654:1 800:1 801:1 856:1 921:1 
1 291:1 654:1 856:1 921:1 
1 292:1 333:1 469:1 628:1 690:1 
1 292:1 690:1 704:1 
1 226:1 291:1 366:1 690:1 856:1 
1 66:1 291:1 856:1 938:1 
1 272:1 291:1 452:1 578:1 687:1 856:1 931:1 943:1 
1 73:1 272:1 291:1 654:1 687:1 801:1 856:1 921:1 930:1 931:1 
1 63:1 143:1 291:1 856:1 931:1 
1 241:1 291:1 654:1 690:1 745:1 856:1 921:1 
1 33:1 81:1 291:1 406:1 451:1 839:1 856:1 
1 291:1 320:1 452:1 578:1 690:1 770:1 856:1 943:1 
1 58:1 291:1 495:1 608:1 690:1 856:1 944:1 
1 42:1 193:1 292:1 421:1 465:1 778:1 
1 227:1 271:1 291:1 352:1 769:1 856:1 
1 63:1 88:1 355:1 
1 292:1 317:1 614:1 629:1 
1 73:1 104:1 241:1 291:1 452:1 517:1 578:1 687:1 856:1 
1 30:1 291:1 856:1 
1 291:1 317:1 340:1 372:1 406:1 634:1 829:1 830:1 856:1 
1 238:1 247:1 291:1 690:1 856:1 931:1 
1 241:1 291:1 421:1 693:1 856:1 
1 66:1 244:1 291:1 668:1 856:1 
1 291:1 688:1 745:1 856:1 931:1 
1 268:1 291:1 741:1 841:1 856:1 938:1 
1 124:1 172:1 291:1 686:1 745:1 801:1 856:1 
1 123:1 167:1 291:1 780:1 801:1 856:1 931:1 
1 291:1 340:1 406:1 481:1 634:1 829:1 856:1 
1 15:1 161:1 483:1 558:1 690:1 
1 241:1 291:1 292:1 612:1 641:1 856:1 
1 291:1 317:1 848:1 856:1 953:1 
1 241:1 291:1 856:1 
1 238:1 272:1 291:1 704:1 806:1 856:1 931:1 
1 241:1 291:1 292:1 452:1 578:1 768:1 856:1 911:1 
1 291:1 741:1 856:1 
1 291:1 436:1 441:1 452:1 521:1 745:1 856:1 892:1 
1 288:1 291:1 330:1 366:1 554:1 856:1 891:1 
1 291:1 374:1 737:1 748:1 856:1 891:1 
1 73:1 687:1 846:1 
1 172:1 207:1 271:1 291:1 307:1 465:1 767:1 856:1 
1 241:1 291:1 465:1 621:1 690:1 856:1 944:1 
1 241:1 272:1 282:1 291:1 704:1 745:1 856:1 
1 148:1 465:1 469:1 579:1 919:1 937:1 
1 291:1 424:1 495:1 598:1 688:1 856:1 891:1 
1 241:1 268:1 270:1 291:1 439:1 452:1 690:1 856:1 938:1 
1 270:1 292:1 439:1 785:1 
1 79:1 104:1 292:1 576:1 634:1 737:1 953:1 
1 2:1 291:1 313:1 496:1 587:1 856:1 
1 247:1 270:1 291:1 406:1 437:1 439:1 703:1 856:1 
1 239:1 241:1 291:1 641:1 745:1 856:1 871:1 
1 291:1 572:1 776:1 856:1 865:1 
1 270:1 292:1 317:1 439:1 589:1 704:1 
1 193:1 292:1 451:1 824:1 
1 291:1 446:1 856:1 938:1 
1 241:1 247:1 291:1 313:1 856:1 896:1 931:1 944:1 
1 241:1 291:1 292:1 452:1 578:1 690:1 856:1 
1 291:1 441:1 452:1 578:1 585:1 785:1 856:1 
1 291:1 690:1 856:1 938:1 
1 291:1 856:1 
1 241:1 291:1 317:1 452:1 465:1 578:1 856:1 
1 291:1 306:1 307:1 317:1 441:1 585:1 785:1 856:1 
1 291:1 327:1 748:1 856:1 967:1 
1 58:1 291:1 351:1 372:1 427:1 451:1 711:1 856:1 
1 291:1 437:1 452:1 578:1 583:1 856:1 
1 16:1 372:1 406:1 437:1 767:1 
1 291:1 856:1 
1 129:1 291:1 292:1 856:1 924:1 931:1 
1 291:1 352:1 741:1 785:1 856:1 931:1 
1 292:1 397:1 626:1 944:1 
1 129:1 292:1 704:1 
1 129:1 241:1 291:1 704:1 745:1 856:1 
1 291:1 800:1 801:1 856:1 
1 241:1 292:1 704:1 
1 41:1 178:1 291:1 416:1 437:1 741:1 745:1 800:1 801:1 856:1 
1 292:1 516:1 626:1 695:1 
1 141:1 291:1 856:1 
1 81:1 291:1 690:1 839:1 856:1 
1 178:1 291:1 468:1 478:1 856:1 908:1 
1 291:1 468:1 856:1 908:1 
1 81:1 123:1 292:1 307:1 690:1 839:1 
1 247:1 292:1 690:1 936:1 
1 2:1 116:1 241:1 291:1 393:1 452:1 578:1 856:1 
1 240:1 241:1 291:1 452:1 468:1 578:1 856:1 908:1 
1 291:1 856:1 912:1 924:1 
1 129:1 292:1 441:1 585:1 785:1 924:1 
1 292:1 416:1 634:1 688:1 
1 70:1 406:1 719:1 807:1 
1 66:1 291:1 296:1 313:1 437:1 805:1 856:1 
1 291:1 317:1 451:1 704:1 856:1 865:1 
1 48:1 81:1 167:1 267:1 292:1 406:1 416:1 690:1 
1 627:1 846:1 
1 292:1 352:1 452:1 578:1 741:1 
1 46:1 48:1 81:1 292:1 452:1 578:1 
1 48:1 292:1 406:1 451:1 787:1 
1 355:1 356:1 495:1 625:1 732:1 733:1 
1 48:1 66:1 291:1 306:1 856:1 931:1 938:1 
1 48:1 241:1 253:1 292:1 452:1 493:1 578:1 628:1 690:1 704:1 
1 48:1 253:1 291:1 493:1 704:1 856:1 
1 58:1 291:1 406:1 856:1 
1 48:1 167:1 267:1 268:1 292:1 690:1 944:1 
1 292:1 348:1 912:1 982:1 
1 292:1 690:1 
1 48:1 241:1 267:1 291:1 452:1 578:1 690:1 856:1 
1 241:1 292:1 
1 30:1 81:1 291:1 307:1 379:1 406:1 704:1 769:1 842:1 856:1 944:1 
1 291:1 690:1 856:1 
1 48:1 253:1 292:1 452:1 493:1 578:1 690:1 
1 48:1 253:1 291:1 493:1 856:1 
1 291:1 465:1 491:1 669:1 856:1 
1 241:1 292:1 441:1 515:1 634:1 846:1 944:1 
1 73:1 372:1 515:1 687:1 767:1 834:1 944:1 
1 78:1 292:1 418:1 713:1 807:1 
1 48:1 207:1 241:1 292:1 511:1 666:1 
1 79:1 143:1 291:1 856:1 911:1 
1 291:1 848:1 856:1 
1 292:1 628:1 801:1 
1 291:1 441:1 585:1 785:1 848:1 856:1 936:1 938:1 
1 346:1 936:1 943:1 
1 217:1 292:1 737:1 790:1 885:1 892:1 936:1 
1 130:1 291:1 437:1 448:1 747:1 789:1 856:1 912:1 
1 291:1 292:1 632:1 856:1 
1 58:1 291:1 328:1 846:1 856:1 868:1 944:1 
1 8:1 241:1 291:1 690:1 747:1 780:1 789:1 848:1 856:1 
1 190:1 237:1 291:1 452:1 578:1 622:1 856:1 
1 291:1 347:1 641:1 856:1 
1 15:1 108:1 291:1 457:1 842:1 847:1 856:1 
1 241:1 291:1 747:1 789:1 856:1 
1 291:1 747:1 789:1 856:1 
1 167:1 291:1 745:1 856:1 
1 291:1 690:1 856:1 936:1 943:1 
1 291:1 690:1 800:1 801:1 856:1 930:1 936:1 943:1 
1 78:1 241:1 291:1 641:1 719:1 745:1 856:1 928:1 
1 49:1 292:1 690:1 
1 263:1 346:1 441:1 737:1 
1 60:1 688:1 763:1 
1 30:1 60:1 292:1 374:1 379:1 458:1 688:1 
1 737:1 892:1 
1 166:1 291:1 465:1 511:1 702:1 856:1 
1 62:1 292:1 436:1 946:1 
1 291:1 856:1 912:1 936:1 
1 240:1 241:1 291:1 292:1 452:1 494:1 578:1 686:1 800:1 801:1 806:1 856:1 955:1 
1 291:1 452:1 578:1 788:1 856:1 
1 291:1 856:1 
1 226:1 291:1 452:1 495:1 578:1 856:1 944:1 
1 156:1 291:1 436:1 715:1 856:1 931:1 
1 289:1 291:1 509:1 686:1 856:1 936:1 
1 51:1 291:1 352:1 452:1 578:1 646:1 647:1 856:1 911:1 
1 291:1 686:1 856:1 931:1 
1 241:1 291:1 352:1 452:1 578:1 848:1 856:1 966:1 
1 291:1 856:1 912:1 931:1 936:1 
1 291:1 292:1 395:1 856:1 966:1 
1 291:1 574:1 768:1 856:1 
1 291:1 856:1 
1 291:1 687:1 847:1 856:1 941:1 
1 291:1 441:1 452:1 578:1 856:1 931:1 944:1 
1 291:1 772:1 824:1 856:1 
1 291:1 465:1 856:1 931:1 944:1 
1 241:1 291:1 452:1 494:1 578:1 621:1 686:1 806:1 856:1 955:1 
1 241:1 291:1 313:1 429:1 452:1 578:1 856:1 
1 241:1 291:1 856:1 944:1 
1 291:1 686:1 856:1 865:1 912:1 936:1 
1 241:1 291:1 358:1 452:1 578:1 768:1 770:1 856:1 
1 241:1 292:1 366:1 686:1 938:1 
1 291:1 452:1 578:1 686:1 856:1 
1 10:1 291:1 397:1 801:1 856:1 936:1 
1 351:1 
1 291:1 856:1 865:1 911:1 931:1 936:1 
1 291:1 452:1 578:1 856:1 
1 58:1 143:1 291:1 306:1 483:1 574:1 856:1 966:1 
1 291:1 770:1 856:1 980:1 
1 291:1 856:1 931:1 
1 291:1 345:1 352:1 856:1 944:1 
1 238:1 291:1 452:1 465:1 578:1 856:1 944:1 
1 292:1 358:1 452:1 578:1 874:1 
1 101:1 241:1 291:1 452:1 578:1 670:1 856:1 887:1 
1 91:1 268:1 291:1 641:1 702:1 745:1 807:1 846:1 856:1 
1 291:1 429:1 745:1 856:1 931:1 
1 291:1 436:1 856:1 
1 51:1 247:1 291:1 452:1 465:1 578:1 856:1 936:1 
1 291:1 452:1 578:1 856:1 931:1 938:1 
1 291:1 452:1 578:1 856:1 
1 291:1 452:1 578:1 686:1 856:1 
1 30:1 292:1 352:1 452:1 578:1 686:1 801:1 807:1 911:1 936:1 
1 291:1 452:1 578:1 741:1 833:1 856:1 
1 16:1 291:1 494:1 801:1 856:1 930:1 938:1 955:1 
1 241:1 291:1 800:1 801:1 833:1 856:1 930:1 
1 291:1 856:1 865:1 
1 291:1 352:1 452:1 494:1 578:1 801:1 856:1 955:1 
1 291:1 465:1 856:1 878:1 944:1 
1 291:1 292:1 366:1 509:1 686:1 856:1 936:1 
1 291:1 572:1 686:1 800:1 801:1 856:1 911:1 931:1 
1 292:1 686:1 
1 291:1 608:1 800:1 801:1 856:1 
1 254:1 292:1 429:1 530:1 770:1 931:1 953:1 
1 291:1 509:1 577:1 856:1 912:1 931:1 936:1 
1 291:1 686:1 800:1 801:1 856:1 911:1 
1 291:1 494:1 801:1 856:1 955:1 
1 247:1 291:1 856:1 931:1 936:1 
1 291:1 856:1 
1 291:1 320:1 608:1 856:1 865:1 931:1 
1 241:1 291:1 465:1 856:1 931:1 
1 270:1 291:1 292:1 745:1 856:1 944:1 
1 79:1 268:1 291:1 529:1 745:1 856:1 
1 241:1 268:1 291:1 452:1 745:1 856:1 938:1 
1 33:1 291:1 627:1 745:1 817:1 830:1 856:1 888:1 941:1 
1 268:1 291:1 345:1 745:1 856:1 944:1 
1 268:1 292:1 745:1 
1 167:1 291:1 688:1 769:1 856:1 865:1 944:1 
1 292:1 745:1 936:1 
1 73:1 268:1 291:1 745:1 823:1 856:1 
1 268:1 291:1 856:1 
1 193:1 268:1 292:1 704:1 745:1 
1 241:1 268:1 291:1 292:1 704:1 745:1 800:1 801:1 856:1 
1 58:1 73:1 268:1 269:1 292:1 770:1 944:1 968:1 
1 52:1 172:1 291:1 381:1 690:1 722:1 856:1 
1 291:1 352:1 452:1 578:1 688:1 846:1 856:1 
1 291:1 745:1 856:1 975:1 
1 268:1 292:1 529:1 572:1 704:1 801:1 
1 161:1 291:1 690:1 800:1 801:1 856:1 930:1 
1 268:1 292:1 690:1 
1 268:1 291:1 690:1 745:1 852:1 856:1 
1 30:1 268:1 291:1 745:1 807:1 856:1 
1 284:1 289:1 292:1 920:1 944:1 
1 58:1 268:1 291:1 345:1 452:1 741:1 856:1 931:1 938:1 
1 291:1 856:1 922:1 946:1 
1 291:1 457:1 847:1 856:1 
1 291:1 352:1 452:1 495:1 856:1 938:1 
1 241:1 291:1 452:1 856:1 938:1 
1 207:1 268:1 291:1 856:1 896:1 932:1 
1 212:1 239:1 268:1 292:1 306:1 441:1 
1 193:1 268:1 291:1 452:1 578:1 745:1 856:1 
1 268:1 291:1 704:1 745:1 853:1 856:1 
1 33:1 291:1 515:1 856:1 964:1 
1 291:1 345:1 441:1 856:1 931:1 944:1 
1 241:1 291:1 800:1 801:1 856:1 
1 291:1 856:1 931:1 
1 291:1 801:1 856:1 930:1 
1 30:1 292:1 931:1 
1 30:1 494:1 568:1 800:1 801:1 931:1 955:1 
1 178:1 291:1 436:1 481:1 833:1 856:1 
1 291:1 303:1 639:1 690:1 745:1 856:1 
1 291:1 639:1 704:1 824:1 856:1 
1 268:1 291:1 745:1 830:1 856:1 
1 291:1 604:1 801:1 856:1 
1 291:1 446:1 452:1 571:1 578:1 856:1 
1 291:1 628:1 690:1 830:1 856:1 
1 292:1 639:1 687:1 690:1 704:1 848:1 931:1 944:1 
1 247:1 286:1 452:1 578:1 829:1 
1 49:1 291:1 318:1 687:1 856:1 
1 291:1 856:1 926:1 
1 291:1 452:1 578:1 856:1 
1 177:1 291:1 436:1 856:1 
1 291:1 856:1 936:1 
1 78:1 291:1 452:1 578:1 856:1 944:1 
1 151:1 291:1 452:1 578:1 856:1 
1 190:1 441:1 572:1 622:1 847:1 936:1 
1 291:1 816:1 856:1 936:1 
1 101:1 151:1 292:1 355:1 670:1 941:1 
1 10:1 291:1 416:1 801:1 856:1 
1 
1 241:1 247:1 291:1 704:1 848:1 856:1 944:1 
1 73:1 79:1 240:1 241:1 291:1 452:1 578:1 856:1 
1 241:1 292:1 466:1 687:1 690:1 704:1 728:1 
1 238:1 291:1 346:1 856:1 865:1 
1 291:1 856:1 
1 291:1 509:1 686:1 856:1 936:1 
1 116:1 416:1 437:1 631:1 869:1 936:1 957:1 
1 291:1 856:1 936:1 
1 291:1 452:1 578:1 671:1 856:1 
1 241:1 291:1 441:1 745:1 856:1 911:1 
1 291:1 308:1 404:1 768:1 856:1 936:1 
1 66:1 178:1 270:1 291:1 416:1 856:1 
1 291:1 800:1 801:1 856:1 878:1 944:1 
1 291:1 416:1 686:1 856:1 936:1 
1 177:1 308:1 320:1 404:1 926:1 
1 50:1 178:1 291:1 416:1 558:1 565:1 856:1 
1 119:1 800:1 801:1 
1 262:1 291:1 806:1 856:1 
1 291:1 856:1 865:1 931:1 
1 291:1 452:1 578:1 856:1 931:1 
1 108:1 110:1 167:1 291:1 686:1 741:1 856:1 
1 177:1 291:1 392:1 676:1 856:1 938:1 
1 291:1 452:1 515:1 578:1 676:1 741:1 770:1 856:1 944:1 
1 80:1 109:1 241:1 291:1 704:1 745:1 856:1 
1 112:1 291:1 676:1 741:1 856:1 
1 142:1 241:1 291:1 676:1 704:1 745:1 800:1 801:1 856:1 
1 241:1 292:1 621:1 936:1 943:1 
1 291:1 518:1 690:1 856:1 
1 291:1 467:1 676:1 856:1 
1 249:1 352:1 676:1 808:1 
1 271:1 282:1 291:1 452:1 578:1 745:1 800:1 801:1 856:1 
1 53:1 91:1 117:1 273:1 291:1 676:1 780:1 856:1 
1 80:1 109:1 292:1 687:1 690:1 704:1 
1 328:1 481:1 801:1 846:1 
1 191:1 292:1 676:1 741:1 
1 473:1 944:1 
1 291:1 352:1 452:1 578:1 856:1 
1 292:1 352:1 686:1 768:1 
1 291:1 358:1 398:1 686:1 856:1 
1 291:1 741:1 856:1 
1 50:1 191:1 291:1 676:1 741:1 856:1 944:1 
1 291:1 452:1 578:1 671:1 856:1 
1 9:1 47:1 292:1 304:1 468:1 745:1 944:1 
1 292:1 452:1 578:1 676:1 741:1 
1 112:1 142:1 193:1 291:1 576:1 676:1 741:1 856:1 
1 247:1 291:1 452:1 578:1 676:1 687:1 741:1 856:1 
1 241:1 291:1 364:1 379:1 745:1 800:1 801:1 856:1 
1 292:1 457:1 
1 291:1 632:1 856:1 968:1 
1 142:1 291:1 676:1 741:1 856:1 
1 73:1 
1 73:1 291:1 800:1 801:1 856:1 
1 291:1 687:1 741:1 856:1 
1 291:1 676:1 741:1 856:1 
1 291:1 452:1 578:1 671:1 856:1 
1 73:1 108:1 291:1 406:1 741:1 856:1 
1 78:1 406:1 655:1 768:1 931:1 956:1 
1 241:1 291:1 591:1 704:1 745:1 856:1 
1 73:1 292:1 452:1 578:1 704:1 944:1 
1 241:1 291:1 452:1 856:1 931:1 
1 291:1 806:1 808:1 856:1 
1 73:1 291:1 317:1 856:1 
1 291:1 743:1 856:1 
1 73:1 193:1 241:1 291:1 452:1 578:1 856:1 
1 291:1 317:1 856:1 
1 22:1 241:1 271:1 291:1 577:1 637:1 745:1 856:1 943:1 
1 292:1 317:1 436:1 511:1 552:1 690:1 
1 78:1 291:1 690:1 785:1 856:1 
1 255:1 292:1 452:1 578:1 704:1 938:1 
1 241:1 291:1 313:1 452:1 578:1 856:1 944:1 
1 137:1 241:1 291:1 452:1 578:1 856:1 
1 178:1 291:1 856:1 
1 291:1 616:1 784:1 856:1 938:1 
1 137:1 241:1 291:1 452:1 578:1 856:1 
1 247:1 292:1 626:1 
1 241:1 291:1 704:1 848:1 856:1 944:1 
1 291:1 347:1 452:1 578:1 768:1 856:1 
1 283:1 291:1 435:1 778:1 816:1 856:1 
1 292:1 676:1 847:1 
1 292:1 553:1 800:1 801:1 
1 111:1 292:1 452:1 590:1 
1 292:1 641:1 938:1 
1 241:1 291:1 313:1 687:1 856:1 926:1 931:1 
1 73:1 241:1 291:1 690:1 800:1 801:1 856:1 
1 207:1 291:1 856:1 
1 241:1 291:1 704:1 745:1 856:1 
1 241:1 291:1 591:1 690:1 745:1 856:1 
1 73:1 79:1 292:1 452:1 578:1 
1 112:1 193:1 291:1 468:1 847:1 856:1 938:1 
1 173:1 268:1 292:1 703:1 
1 178:1 291:1 345:1 631:1 688:1 768:1 856:1 
1 241:1 291:1 292:1 687:1 690:1 745:1 856:1 
1 292:1 300:1 
1 116:1 291:1 397:1 770:1 856:1 
1 291:1 452:1 578:1 856:1 966:1 
1 291:1 856:1 938:1 
1 291:1 646:1 647:1 856:1 
1 291:1 745:1 768:1 856:1 
1 241:1 269:1 291:1 690:1 848:1 856:1 944:1 
1 291:1 741:1 745:1 856:1 879:1 892:1 931:1 
1 193:1 291:1 856:1 879:1 892:1 
1 292:1 311:1 578:1 
1 190:1 291:1 622:1 856:1 911:1 912:1 
1 10:1 291:1 801:1 856:1 879:1 892:1 
1 241:1 292:1 452:1 578:1 687:1 690:1 704:1 892:1 
1 254:1 263:1 292:1 530:1 571:1 
1 241:1 291:1 703:1 745:1 856:1 
1 291:1 318:1 628:1 690:1 830:1 856:1 
1 222:1 292:1 745:1 
1 291:1 483:1 856:1 
1 33:1 291:1 676:1 688:1 856:1 
1 291:1 292:1 351:1 856:1 
1 291:1 741:1 852:1 856:1 
1 241:1 291:1 452:1 578:1 768:1 856:1 892:1 
1 291:1 856:1 938:1 
1 240:1 291:1 292:1 745:1 856:1 
1 291:1 686:1 833:1 856:1 892:1 944:1 
1 222:1 291:1 441:1 856:1 
1 241:1 292:1 693:1 
1 291:1 436:1 855:1 856:1 
1 292:1 454:1 704:1 947:1 
1 292:1 452:1 578:1 944:1 
1 222:1 291:1 856:1 
1 75:1 292:1 
1 16:1 419:1 904:1 944:1 
1 291:1 366:1 452:1 578:1 801:1 856:1 
1 79:1 291:1 688:1 856:1 
1 30:1 160:1 291:1 568:1 745:1 856:1 
1 51:1 291:1 317:1 352:1 452:1 468:1 556:1 578:1 801:1 848:1 856:1 
1 241:1 282:1 291:1 704:1 745:1 760:1 856:1 
1 291:1 687:1 690:1 811:1 856:1 
1 291:1 691:1 824:1 856:1 
1 110:1 292:1 542:1 
1 251:1 255:1 538:1 737:1 785:1 912:1 
1 292:1 452:1 538:1 690:1 
1 291:1 855:1 856:1 
1 108:1 110:1 451:1 555:1 740:1 943:1 
1 291:1 538:1 686:1 856:1 
1 255:1 291:1 827:1 856:1 
1 35:1 247:1 291:1 304:1 621:1 624:1 741:1 855:1 856:1 
1 190:1 237:1 291:1 292:1 452:1 622:1 856:1 931:1 938:1 
1 291:1 538:1 856:1 
1 190:1 291:1 622:1 724:1 856:1 879:1 
1 190:1 291:1 622:1 747:1 833:1 856:1 
1 291:1 352:1 452:1 856:1 931:1 938:1 
1 79:1 291:1 307:1 317:1 495:1 626:1 856:1 
1 291:1 317:1 508:1 555:1 593:1 856:1 
1 291:1 593:1 856:1 879:1 
1 241:1 291:1 856:1 
1 291:1 704:1 800:1 801:1 856:1 
1 247:1 248:1 263:1 291:1 848:1 856:1 
1 291:1 452:1 578:1 856:1 875:1 
1 452:1 578:1 737:1 741:1 
1 267:1 291:1 842:1 856:1 
1 292:1 441:1 452:1 572:1 578:1 650:1 800:1 801:1 944:1 
1 292:1 452:1 495:1 578:1 
1 137:1 291:1 452:1 578:1 704:1 801:1 856:1 
1 291:1 465:1 674:1 785:1 856:1 
1 11:1 12:1 291:1 392:1 856:1 
1 291:1 452:1 578:1 856:1 
1 291:1 555:1 704:1 745:1 856:1 914:1 
1 291:1 555:1 686:1 856:1 914:1 
1 241:1 291:1 424:1 452:1 578:1 856:1 
1 291:1 856:1 
1 291:1 511:1 856:1 
1 263:1 269:1 291:1 465:1 688:1 787:1 856:1 
1 241:1 291:1 441:1 693:1 848:1 856:1 944:1 
1 291:1 452:1 465:1 626:1 772:1 856:1 
1 291:1 856:1 953:1 
1 241:1 291:1 704:1 856:1 
1 241:1 291:1 452:1 578:1 690:1 856:1 
1 241:1 292:1 452:1 462:1 578:1 728:1 924:1 932:1 977:1 
1 291:1 704:1 801:1 856:1 924:1 930:1 932:1 
1 291:1 320:1 541:1 690:1 856:1 
1 46:1 240:1 292:1 452:1 578:1 704:1 
1 291:1 704:1 856:1 924:1 932:1 
1 352:1 436:1 745:1 769:1 833:1 856:1 
1 268:1 291:1 745:1 800:1 801:1 856:1 871:1 
1 292:1 452:1 578:1 838:1 
1 154:1 292:1 301:1 481:1 938:1 
1 241:1 269:1 291:1 292:1 374:1 690:1 856:1 912:1 
1 46:1 240:1 241:1 292:1 452:1 578:1 852:1 944:1 
1 291:1 301:1 465:1 856:1 
1 291:1 307:1 770:1 856:1 
1 10:1 291:1 690:1 801:1 856:1 
1 117:1 268:1 291:1 292:1 745:1 856:1 871:1 
1 62:1 103:1 134:1 291:1 452:1 578:1 856:1 
1 241:1 291:1 856:1 
1 300:1 572:1 
1 270:1 291:1 483:1 690:1 856:1 
1 292:1 452:1 578:1 
1 66:1 
1 292:1 441:1 462:1 585:1 728:1 785:1 888:1 952:1 
1 92:1 291:1 856:1 
1 291:1 301:1 785:1 856:1 
1 48:1 291:1 330:1 749:1 816:1 856:1 
1 292:1 301:1 495:1 688:1 
1 8:1 247:1 320:1 452:1 578:1 704:1 
1 267:1 291:1 301:1 358:1 452:1 455:1 483:1 578:1 785:1 856:1 
1 268:1 291:1 686:1 745:1 856:1 
1 191:1 249:1 268:1 291:1 446:1 745:1 815:1 856:1 
1 291:1 745:1 856:1 
1 10:1 178:1 292:1 452:1 578:1 768:1 801:1 941:1 
1 81:1 120:1 240:1 268:1 292:1 335:1 839:1 
1 73:1 193:1 291:1 292:1 770:1 856:1 
1 268:1 291:1 292:1 690:1 856:1 870:1 970:1 
1 73:1 291:1 745:1 856:1 
1 240:1 690:1 745:1 
1 291:1 347:1 577:1 785:1 815:1 856:1 
1 30:1 291:1 379:1 494:1 856:1 955:1 
1 292:1 745:1 944:1 
1 10:1 268:1 283:1 291:1 352:1 436:1 452:1 578:1 801:1 856:1 
1 117:1 268:1 292:1 452:1 578:1 687:1 690:1 745:1 
1 291:1 801:1 856:1 
1 54:1 436:1 763:1 892:1 
1 54:1 436:1 892:1 893:1 
1 892:1 
1 291:1 436:1 763:1 856:1 893:1 
-1 193:1 291:1 436:1 646:1 647:1 748:1 856:1 970:1 
-1 47:1 193:1 291:1 340:1 429:1 744:1 806:1 829:1 856:1 
-1 291:1 292:1 704:1 856:1 
-1 51:1 167:1 224:1 292:1 352:1 406:1 956:1 
-1 41:1 105:1 292:1 720:1 807:1 
-1 291:1 841:1 856:1 
-1 292:1 352:1 944:1 
-1 291:1 626:1 856:1 912:1 938:1 
-1 291:1 441:1 847:1 856:1 926:1 
-1 241:1 291:1 856:1 
-1 291:1 577:1 856:1 
-1 11:1 12:1 124:1 234:1 291:1 856:1 
-1 291:1 856:1 
-1 291:1 478:1 626:1 856:1 
-1 291:1 491:1 856:1 911:1 
-0.8328072403550915 73:1 291:1 317:1 370:1 856:1 
-1 240:1 291:1 687:1 704:1 856:1 
-1 30:1 291:1 610:1 719:1 737:1 807:1 856:1 871:1 
-1 291:1 292:1 441:1 491:1 856:1 
-0.1390269109918486 291:1 352:1 687:1 856:1 
-1 291:1 292:1 639:1 856:1 871:1 931:1 
-1 73:1 291:1 856:1 938:1 
-1 291:1 404:1 407:1 417:1 856:1 
-1 142:1 291:1 856:1 
-1 66:1 291:1 436:1 856:1 
-1 291:1 292:1 856:1 931:1 
-1 73:1 291:1 429:1 627:1 856:1 938:1 
-1 291:1 612:1 833:1 856:1 
-1 291:1 856:1 
-0.3771544673424742 291:1 784:1 856:1 
-1 73:1 291:1 320:1 687:1 770:1 856:1 
-1 291:1 687:1 856:1 
-1 291:1 856:1 
-1 285:1 291:1 578:1 856:1 
-1 291:1 292:1 639:1 856:1 871:1 931:1 
-1 291:1 856:1 
-1 256:1 291:1 856:1 
-1 291:1 856:1 
-1 291:1 436:1 452:1 578:1 856:1 
-1 291:1 292:1 704:1 856:1 
-1 292:1 
-1 291:1 438:1 856:1 
-1 2:1 9:1 291:1 304:1 441:1 679:1 856:1 
-1 187:1 291:1 558:1 694:1 702:1 704:1 794:1 856:1 
-1 291:1 452:1 578:1 856:1 926:1 931:1 
-1 291:1 856:1 
-1 291:1 292:1 856:1 
-1 58:1 291:1 856:1 
-1 291:1 856:1 
-1 291:1 628:1 856:1 938:1 
-1 291:1 292:1 438:1 856:1 
-1 291:1 686:1 856:1 936:1 
-1 291:1 704:1 856:1 938:1 
-1 291:1 852:1 856:1 
-1 269:1 291:1 856:1 
-1 248:1 291:1 441:1 572:1 856:1 865:1 
-1 291:1 690:1 856:1 926:1 
-1 167:1 202:1 291:1 342:1 745:1 856:1 
-0.8252597448728753 174:1 291:1 748:1 750:1 856:1 
-1 291:1 292:1 856:1 
-1 241:1 291:1 478:1 649:1 785:1 856:1 
-1 241:1 291:1 478:1 649:1 785:1 856:1 
-1 207:1 220:1 291:1 483:1 856:1 
-1 241:1 291:1 292:1 478:1 649:1 785:1 856:1 
-1 291:1 292:1 438:1 704:1 856:1 
-1 291:1 438:1 856:1 
-1 33:1 268:1 291:1 441:1 687:1 770:1 856:1 941:1 
-1 291:1 856:1 
-1 241:1 291:1 848:1 856:1 944:1 
-1 15:1 73:1 291:1 495:1 576:1 687:1 856:1 
-1 271:1 291:1 436:1 465:1 687:1 745:1 856:1 865:1 
-1 33:1 241:1 263:1 291:1 856:1 
-1 241:1 291:1 292:1 478:1 641:1 785:1 841:1 856:1 
-1 291:1 301:1 352:1 436:1 690:1 799:1 856:1 
-0.3765479187711135 291:1 438:1 856:1 
-1 92:1 291:1 320:1 406:1 451:1 644:1 848:1 856:1 931:1 
-1 140:1 801:1 865:1 
-0.6981272933822547 33:1 112:1 190:1 291:1 622:1 856:1 
-1 247:1 270:1 291:1 317:1 602:1 856:1 
-1 241:1 291:1 690:1 745:1 856:1 
-1 241:1 247:1 291:1 856:1 938:1 
-1 222:1 291:1 404:1 626:1 745:1 856:1 
-1 62:1 269:1 291:1 351:1 465:1 578:1 856:1 931:1 
-1 58:1 190:1 291:1 436:1 622:1 856:1 953:1 
-0.2626072405244821 263:1 291:1 511:1 687:1 856:1 931:1 
-1 52:1 239:1 292:1 438:1 
-0.9086215997389153 51:1 58:1 190:1 291:1 320:1 622:1 856:1 
-1 291:1 478:1 785:1 856:1 
-0.8576614240590448 291:1 679:1 808:1 847:1 856:1 
-1 291:1 856:1 
-1 291:1 687:1 856:1 865:1 921:1 
-1 58:1 291:1 478:1 856:1 
-1 291:1 856:1 
-1 122:1 291:1 317:1 358:1 452:1 578:1 856:1 
-1 291:1 856:1 938:1 943:1 
-1 247:1 291:1 856:1 938:1 
-0.7689958661144221 50:1 291:1 352:1 856:1 944:1 
-1 291:1 292:1 856:1 943:1 
-1 291:1 478:1 785:1 856:1 
-1 285:1 292:1 452:1 
-1 291:1 441:1 584:1 856:1 
-1 241:1 291:1 745:1 856:1 931:1 
-1 291:1 856:1 
-0.3720105523638952 41:1 291:1 856:1 
-1 291:1 441:1 856:1 
-1 240:1 291:1 465:1 478:1 856:1 
-1 44:1 83:1 157:1 241:1 291:1 649:1 847:1 856:1 
-1 44:1 83:1 157:1 241:1 291:1 292:1 649:1 847:1 856:1 
-1 291:1 292:1 856:1 
-1 49:1 241:1 291:1 856:1 
-1 241:1 291:1 478:1 704:1 785:1 856:1 
-1 241:1 291:1 568:1 745:1 770:1 856:1 
-1 267:1 291:1 745:1 760:1 856:1 
-1 44:1 83:1 157:1 291:1 848:1 856:1 
-0.5977426613422245 59:1 104:1 170:1 291:1 374:1 856:1 865:1 
-0.8126948096965476 291:1 393:1 856:1 926:1 941:1 944:1 
-1 291:1 856:1 
-1 241:1 282:1 291:1 745:1 856:1 
-1 8:1 134:1 291:1 856:1 892:1 931:1 
-1 44:1 83:1 157:1 291:1 847:1 856:1 
-1 291:1 478:1 785:1 856:1 931:1 
-0.4223746605362614 51:1 100:1 291:1 576:1 687:1 856:1 
-1 100:1 291:1 687:1 856:1 
-1 291:1 292:1 856:1 
-1 291:1 292:1 608:1 856:1 931:1 
-1 44:1 83:1 157:1 291:1 292:1 847:1 856:1 
-1 291:1 856:1 
-1 291:1 856:1 
-1 241:1 291:1 437:1 448:1 745:1 856:1 931:1 
-1 79:1 291:1 687:1 856:1 
-1 47:1 51:1 291:1 465:1 744:1 829:1 856:1 924:1 
-1 291:1 856:1 
-0.2400131498240571 73:1 104:1 161:1 291:1 687:1 856:1 
-1 291:1 856:1 
-1 16:1 241:1 291:1 364:1 465:1 688:1 770:1 856:1 931:1 
-1 100:1 291:1 292:1 577:1 745:1 800:1 801:1 856:1 
-1 73:1 291:1 856:1 865:1 
-1 39:1 112:1 213:1 291:1 856:1 
-1 73:1 291:1 441:1 856:1 
-1 291:1 576:1 745:1 770:1 848:1 856:1 
-1 33:1 134:1 241:1 271:1 291:1 602:1 856:1 931:1 
-1 291:1 687:1 856:1 
-1 46:1 252:1 283:1 291:1 292:1 398:1 626:1 856:1 
-1 207:1 291:1 495:1 515:1 608:1 856:1 
-1 52:1 241:1 291:1 292:1 704:1 856:1 
-1 8:1 291:1 483:1 704:1 856:1 
-1 291:1 313:1 345:1 441:1 483:1 856:1 944:1 
-1 291:1 506:1 856:1 
-0.3008745505687808 128:1 160:1 291:1 324:1 856:1 
-1 241:1 291:1 556:1 856:1 931:1 938:1 
-1 171:1 207:1 291:1 642:1 856:1 975:1 
-1 162:1 241:1 291:1 292:1 316:1 649:1 856:1 
-1 291:1 856:1 
-1 241:1 291:1 745:1 856:1 931:1 
-1 291:1 466:1 856:1 931:1 963:1 
-1 162:1 241:1 291:1 292:1 316:1 641:1 841:1 856:1 
-1 249:1 291:1 313:1 856:1 944:1 
-1 291:1 856:1 944:1 
-1 291:1 856:1 
-1 291:1 541:1 578:1 642:1 856:1 
-1 33:1 291:1 856:1 938:1 
-1 241:1 267:1 291:1 313:1 856:1 
-1 291:1 856:1 
-1 46:1 51:1 252:1 291:1 292:1 352:1 398:1 626:1 856:1 
-1 162:1 291:1 316:1 856:1 
-1 161:1 162:1 291:1 292:1 316:1 856:1 
-0.1137279127506516 16:1 73:1 125:1 291:1 856:1 
-1 291:1 856:1 
-1 73:1 291:1 358:1 576:1 687:1 856:1 
-1 73:1 125:1 291:1 437:1 856:1 
-1 291:1 452:1 578:1 848:1 856:1 944:1 
-1 291:1 856:1 938:1 
-1 206:1 213:1 291:1 426:1 434:1 437:1 856:1 
-1 291:1 856:1 
-1 49:1 57:1 291:1 375:1 421:1 465:1 483:1 551:1 856:1 964:1 
-1 161:1 162:1 291:1 690:1 745:1 856:1 
-1 291:1 856:1 
-1 241:1 263:1 291:1 374:1 465:1 635:1 688:1 848:1 856:1 931:1 
-1 291:1 353:1 460:1 577:1 833:1 856:1 946:1 
-1 291:1 856:1 
-1 162:1 291:1 316:1 856:1 
-1 291:1 641:1 856:1 
-1 58:1 291:1 856:1 
-1 268:1 291:1 381:1 578:1 856:1 
-1 73:1 241:1 291:1 687:1 856:1 
-1 241:1 291:1 856:1 938:1 
-0.9155095429452228 291:1 306:1 387:1 465:1 644:1 710:1 856:1 
-1 291:1 856:1 
-1 240:1 291:1 848:1 856:1 865:1 
-1 291:1 612:1 856:1 943:1 
-1 291:1 292:1 704:1 856:1 
-1 241:1 291:1 856:1 961:1 
-1 193:1 291:1 351:1 608:1 770:1 800:1 801:1 856:1 944:1 
-1 291:1 478:1 785:1 856:1 931:1 
-1 193:1 291:1 351:1 608:1 770:1 800:1 801:1 856:1 944:1 
-1 240:1 241:1 268:1 291:1 495:1 541:1 806:1 808:1 856:1 
-1 44:1 108:1 157:1 291:1 451:1 666:1 856:1 
-1 291:1 292:1 469:1 770:1 856:1 931:1 
-1 291:1 856:1 
-1 291:1 856:1 
-0.2327983593584304 291:1 632:1 830:1 856:1 926:1 931:1 938:1 
-1 62:1 292:1 578:1 833:1 931:1 
-1 241:1 291:1 856:1 
-1 291:1 437:1 840:1 856:1 944:1 
-1 241:1 291:1 292:1 744:1 833:1 856:1 
-1 241:1 291:1 770:1 856:1 
-0.2567637494465312 291:1 770:1 824:1 856:1 963:1 
-1 291:1 856:1 944:1 
-1 124:1 234:1 291:1 856:1 
-1 291:1 303:1 800:1 801:1 856:1 931:1 
-1 73:1 125:1 291:1 437:1 817:1 830:1 856:1 
-1 143:1 291:1 856:1 
-1 268:1 291:1 668:1 687:1 833:1 856:1 938:1 
-0.9646804481897258 291:1 355:1 465:1 856:1 
-0.7406755153761996 138:1 291:1 358:1 848:1 856:1 896:1 
-1 291:1 856:1 959:1 
-1 16:1 73:1 283:1 291:1 856:1 
-0.6886286388584251 143:1 291:1 573:1 856:1 
-1 241:1 291:1 352:1 515:1 541:1 794:1 856:1 
-1 291:1 856:1 
-1 36:1 291:1 856:1 
-1 241:1 291:1 625:1 770:1 856:1 
-1 291:1 568:1 745:1 747:1 856:1 
-1 73:1 240:1 269:1 291:1 856:1 
-1 237:1 291:1 436:1 770:1 856:1 944:1 
-1 237:1 291:1 292:1 436:1 770:1 856:1 944:1 
-1 35:1 291:1 624:1 856:1 
-1 241:1 291:1 352:1 856:1 938:1 
-1 291:1 856:1 
-1 291:1 856:1 
-1 78:1 270:1 291:1 320:1 788:1 848:1 856:1 
-1 291:1 452:1 541:1 578:1 856:1 931:1 
-1 291:1 856:1 
-1 291:1 666:1 856:1 
-1 291:1 745:1 747:1 856:1 931:1 970:1 
-0.1364272179792448 291:1 417:1 465:1 770:1 841:1 856:1 
-1 291:1 856:1 
-1 73:1 291:1 687:1 848:1 856:1 
-1 291:1 745:1 747:1 856:1 970:1 
-1 207:1 267:1 291:1 465:1 483:1 587:1 806:1 829:1 856:1 965:1 
-1 291:1 584:1 702:1 841:1 856:1 
-1 291:1 856:1 
-0.4494232510159042 33:1 119:1 291:1 307:1 465:1 770:1 856:1 
-1 268:1 291:1 856:1 931:1 
-1 22:1 291:1 393:1 745:1 856:1 
-1 291:1 366:1 856:1 
-1 291:1 452:1 455:1 578:1 856:1 
-1 291:1 333:1 452:1 578:1 795:1 856:1 
-0.1265608820665767 291:1 437:1 465:1 783:1 808:1 856:1 
-1 16:1 193:1 241:1 252:1 268:1 291:1 610:1 856:1 
-1 241:1 291:1 317:1 808:1 856:1 
-1 268:1 291:1 465:1 745:1 856:1 931:1 
-1 291:1 856:1 
-1 66:1 291:1 366:1 416:1 453:1 816:1 856:1 
-1 291:1 416:1 856:1 
-0.3399133810758779 277:1 291:1 352:1 602:1 856:1 938:1 
-1 69:1 100:1 291:1 397:1 856:1 
-0.2947474536700205 291:1 856:1 871:1 911:1 
-1 291:1 452:1 483:1 578:1 770:1 856:1 931:1 
-1 291:1 745:1 784:1 856:1 
-1 291:1 856:1 
-1 291:1 856:1 
-1 291:1 856:1 911:1 
-1 291:1 856:1 
-1 291:1 856:1 
-1 207:1 291:1 856:1 912:1 
-1 33:1 73:1 263:1 271:1 291:1 465:1 687:1 848:1 852:1 856:1 
-1 104:1 241:1 291:1 452:1 578:1 856:1 
-1 291:1 452:1 576:1 578:1 856:1 931:1 
-1 151:1 291:1 646:1 856:1 
-0.2122129062481493 291:1 444:1 572:1 856:1 
-1 268:1 291:1 856:1 931:1 
-1 209:1 291:1 856:1 912:1 
-1 291:1 856:1 
-1 291:1 452:1 578:1 856:1 931:1 
-1 291:1 436:1 680:1 856:1 
-1 241:1 291:1 469:1 494:1 770:1 856:1 955:1 
-1 291:1 397:1 856:1 911:1 
-1 737:1 807:1 848:1 
-1 134:1 268:1 291:1 556:1 856:1 
-1 291:1 856:1 912:1 
-1 147:1 256:1 291:1 452:1 856:1 
-1 135:1 180:1 292:1 465:1 495:1 
-1 58:1 291:1 856:1 
-1 291:1 856:1 965:1 
-1 291:1 352:1 436:1 452:1 856:1 
-1 291:1 856:1 912:1 
-0.3757733029677258 154:1 291:1 856:1 
-1 241:1 429:1 452:1 578:1 878:1 
-1 241:1 291:1 449:1 578:1 787:1 856:1 
-1 173:1 291:1 449:1 578:1 690:1 856:1 
-1 292:1 312:1 352:1 495:1 926:1 
-1 256:1 291:1 292:1 856:1 
-1 291:1 745:1 747:1 770:1 856:1 
-1 241:1 291:1 373:1 704:1 747:1 856:1 
-1 291:1 856:1 
-1 291:1 856:1 
-1 291:1 690:1 856:1 
-1 241:1 291:1 449:1 578:1 690:1 745:1 856:1 
-1 154:1 292:1 
-1 291:1 292:1 680:1 856:1 938:1 
-0.5463871351091013 291:1 856:1 
-1 241:1 291:1 770:1 856:1 931:1 
-1 267:1 291:1 856:1 
-1 291:1 556:1 745:1 856:1 926:1 
-1 291:1 436:1 856:1 
-1 291:1 511:1 688:1 856:1 
-1 291:1 292:1 473:1 585:1 647:1 856:1 
-1 73:1 241:1 291:1 313:1 856:1 
-1 291:1 320:1 856:1 
-1 249:1 291:1 366:1 465:1 586:1 856:1 931:1 
-1 291:1 320:1 856:1 
-1 33:1 249:1 291:1 856:1 
-1 249:1 291:1 495:1 587:1 856:1 
-1 291:1 437:1 856:1 
-1 282:1 291:1 292:1 572:1 816:1 847:1 856:1 
-0.9354210236519035 291:1 317:1 856:1 
-1 241:1 291:1 770:1 856:1 938:1 
-1 291:1 745:1 856:1 
-0.2822839118026265 291:1 437:1 483:1 856:1 941:1 
-0.227211095169326 92:1 238:1 291:1 856:1 
-1 52:1 291:1 856:1 912:1 
-1 291:1 441:1 856:1 
-1 92:1 291:1 306:1 745:1 856:1 944:1 970:1 
-1 71:1 291:1 293:1 437:1 518:1 856:1 
-1 291:1 306:1 856:1 
-1 292:1 437:1 745:1 760:1 912:1 
-1 62:1 291:1 374:1 856:1 
-1 91:1 103:1 241:1 291:1 779:1 833:1 856:1 
-1 291:1 856:1 944:1 
-1 79:1 160:1 241:1 469:1 816:1 856:1 943:1 
-1 71:1 291:1 293:1 856:1 938:1 
-0.2026120556507576 291:1 398:1 437:1 722:1 856:1 941:1 
-0.6860653824176813 151:1 272:1 291:1 313:1 856:1 931:1 
-1 71:1 170:1 241:1 291:1 452:1 515:1 578:1 587:1 856:1 
-1 134:1 291:1 856:1 938:1 
-1 270:1 291:1 317:1 856:1 962:1 
-1 292:1 520:1 
-1 15:1 224:1 291:1 451:1 568:1 848:1 856:1 953:1 
-1 292:1 518:1 
-1 111:1 226:1 291:1 452:1 795:1 856:1 938:1 
-1 193:1 291:1 856:1 912:1 
-0.754395785773316 248:1 291:1 441:1 483:1 574:1 632:1 816:1 856:1 
-1 186:1 291:1 441:1 572:1 856:1 944:1 
-1 291:1 441:1 856:1 944:1 
-1 73:1 134:1 291:1 856:1 
-1 230:1 291:1 452:1 626:1 856:1 
-1 291:1 320:1 587:1 856:1 924:1 
-1 292:1 
-0.2524686549366457 167:1 291:1 483:1 856:1 
-1 291:1 452:1 578:1 587:1 856:1 
-1 116:1 291:1 856:1 
-1 282:1 291:1 300:1 348:1 437:1 704:1 856:1 
-1 167:1 291:1 837:1 856:1 
-1 150:1 291:1 856:1 911:1 
-1 291:1 856:1 911:1 
-1 291:1 452:1 578:1 856:1 
-1 212:1 291:1 572:1 856:1 938:1 
-1 53:1 291:1 856:1 
-1 135:1 267:1 291:1 856:1 870:1 
-1 170:1 291:1 306:1 452:1 578:1 824:1 856:1 931:1 
-1 291:1 856:1 938:1 950:1 
-1 108:1 291:1 353:1 460:1 626:1 806:1 833:1 856:1 
-1 270:1 291:1 856:1 904:1 957:1 
-1 291:1 782:1 856:1 
-1 41:1 86:1 291:1 381:1 807:1 856:1 960:1 
-1 268:1 291:1 313:1 856:1 944:1 
-1 291:1 452:1 704:1 770:1 856:1 
-1 291:1 381:1 807:1 856:1 960:1 
-0.7762326050734646 291:1 353:1 460:1 626:1 806:1 833:1 856:1 
-1 207:1 291:1 690:1 856:1 
-1 291:1 452:1 541:1 543:1 856:1 966:1 
-1 291:1 577:1 646:1 647:1 856:1 
-1 220:1 224:1 252:1 291:1 292:1 452:1 568:1 719:1 856:1 892:1 893:1 975:1 
-0.3687575760705457 73:1 291:1 441:1 770:1 847:1 856:1 
-0.2895722014760495 291:1 577:1 856:1 
-1 291:1 770:1 856:1 871:1 911:1 924:1 944:1 
-1 16:1 291:1 465:1 799:1 856:1 938:1 
-1 135:1 291:1 320:1 745:1 856:1 959:1 
-1 291:1 345:1 847:1 856:1 
-1 291:1 306:1 343:1 495:1 578:1 824:1 856:1 931:1 
-1 11:1 12:1 148:1 291:1 579:1 856:1 918:1 919:1 
-1 291:1 352:1 473:1 578:1 856:1 953:1 
-1 291:1 856:1 911:1 
-0.5777035748524545 291:1 317:1 549:1 856:1 
-1 291:1 373:1 856:1 962:1 
-1 1:1 291:1 856:1 
-1 241:1 291:1 856:1 
-1 291:1 856:1 938:1 
-1 241:1 260:1 291:1 416:1 688:1 842:1 856:1 
-1 52:1 79:1 207:1 263:1 291:1 465:1 856:1 938:1 
-1 291:1 397:1 745:1 856:1 
-1 291:1 745:1 856:1 
-1 291:1 441:1 856:1 
-0.3313776277587401 291:1 307:1 352:1 740:1 856:1 
-1 226:1 291:1 292:1 574:1 856:1 
-1 291:1 687:1 856:1 
-1 292:1 626:1 788:1 847:1 887:1 
-1 292:1 307:1 340:1 943:1 
-1 291:1 452:1 461:1 578:1 635:1 750:1 856:1 931:1 941:1 
-1 252:1 286:1 291:1 292:1 577:1 743:1 856:1 
-1 291:1 769:1 829:1 856:1 
-1 291:1 452:1 578:1 848:1 856:1 926:1 931:1 966:1 
-1 82:1 291:1 646:1 856:1 
-1 291:1 644:1 856:1 960:1 
-1 65:1 292:1 437:1 687:1 
-0.160063520364376 291:1 644:1 856:1 931:1 960:1 
-1 207:1 291:1 375:1 829:1 856:1 931:1 
-1 73:1 291:1 856:1 
-1 134:1 313:1 320:1 
-1 268:1 291:1 292:1 745:1 856:1 953:1 
-1 467:1 943:1 
-1 16:1 286:1 292:1 
-1 241:1 291:1 856:1 
-1 269:1 291:1 292:1 856:1 911:1 
-1 160:1 161:1 291:1 345:1 748:1 785:1 856:1 946:1 
-1 291:1 465:1 644:1 809:1 856:1 
-0.6615483959109693 73:1 226:1 291:1 739:1 856:1 
-1 241:1 291:1 352:1 625:1 770:1 856:1 
-0.2260329223605054 151:1 291:1 313:1 856:1 
-1 66:1 241:1 291:1 577:1 745:1 856:1 
-1 73:1 177:1 291:1 687:1 856:1 921:1 944:1 
-1 65:1 241:1 291:1 856:1 931:1 
-1 241:1 370:1 469:1 856:1 943:1 
-1 73:1 181:1 291:1 622:1 856:1 
-1 65:1 291:1 856:1 
-1 73:1 188:1 291:1 506:1 856:1 944:1 
-1 291:1 572:1 833:1 856:1 965:1 
-0.8565623918752269 291:1 312:1 856:1 931:1 
-1 84:1 275:1 291:1 413:1 626:1 856:1 
-1 292:1 465:1 568:1 942:1 
-1 47:1 241:1 291:1 744:1 806:1 856:1 
-1 65:1 291:1 856:1 931:1 
-1 268:1 291:1 306:1 317:1 364:1 473:1 680:1 856:1 963:1 
-0.1539672071798445 291:1 688:1 816:1 856:1 
-1 167:1 292:1 966:1 
-1 268:1 291:1 452:1 578:1 856:1 931:1 
-1 226:1 291:1 292:1 465:1 704:1 769:1 856:1 911:1 
-1 291:1 292:1 676:1 856:1 
-1 291:1 366:1 856:1 
-1 291:1 856:1 936:1 
-1 104:1 261:1 291:1 452:1 578:1 703:1 856:1 931:1 941:1 
-1 33:1 73:1 268:1 291:1 745:1 856:1 
-1 291:1 292:1 352:1 745:1 856:1 
-1 209:1 268:1 291:1 364:1 745:1 856:1 
-1 79:1 268:1 291:1 680:1 694:1 745:1 856:1 
-1 268:1 291:1 364:1 680:1 745:1 856:1 
-1 241:1 283:1 292:1 340:1 437:1 568:1 
-1 270:1 291:1 378:1 837:1 856:1 
-1 268:1 291:1 452:1 578:1 703:1 745:1 856:1 927:1 931:1 
-1 291:1 608:1 806:1 808:1 856:1 930:1 931:1 
-1 291:1 317:1 856:1 938:1 962:1 
-0.3484720918932094 270:1 291:1 628:1 856:1 
-1 291:1 352:1 416:1 437:1 856:1 
-1 268:1 292:1 452:1 578:1 931:1 
-1 268:1 291:1 364:1 680:1 745:1 856:1 
-1 186:1 291:1 856:1 943:1 
-1 58:1 291:1 666:1 856:1 
-1 111:1 291:1 452:1 856:1 
-0.6323196587668465 291:1 495:1 841:1 856:1 
-1 107:1 268:1 291:1 745:1 856:1 931:1 
-0.4159627279749645 291:1 626:1 710:1 740:1 833:1 856:1 
-1 291:1 437:1 856:1 
-1 177:1 291:1 686:1 704:1 856:1 921:1 
-0.8824698419615303 291:1 577:1 687:1 856:1 970:1 
-1 291:1 292:1 306:1 347:1 465:1 806:1 856:1 
-1 291:1 702:1 745:1 824:1 856:1 
-1 241:1 
-1 292:1 690:1 
-1 241:1 291:1 381:1 687:1 856:1 
-1 190:1 291:1 622:1 745:1 856:1 
-1 291:1 455:1 745:1 856:1 
-1 291:1 639:1 745:1 856:1 
-1 292:1 322:1 745:1 
-1 226:1 291:1 306:1 344:1 352:1 416:1 799:1 856:1 
-0.6063253665016446 23:1 255:1 277:1 419:1 
-1 203:1 247:1 292:1 503:1 569:1 
-1 196:1 291:1 702:1 856:1 902:1 
-1 190:1 291:1 622:1 745:1 856:1 
-1 15:1 179:1 291:1 856:1 
-1 291:1 465:1 856:1 944:1 
-1 190:1 291:1 320:1 451:1 622:1 745:1 856:1 892:1 
-1 177:1 291:1 364:1 745:1 856:1 912:1 
-1 51:1 291:1 292:1 649:1 745:1 856:1 
-1 291:1 856:1 944:1 
-1 847:1 
-1 2:1 291:1 347:1 587:1 806:1 856:1 
-1 248:1 291:1 441:1 572:1 639:1 745:1 853:1 856:1 
-1 241:1 269:1 291:1 441:1 856:1 931:1 
-1 291:1 639:1 745:1 856:1 
-1 177:1 268:1 291:1 824:1 856:1 921:1 
-1 104:1 291:1 687:1 745:1 747:1 856:1 
-1 252:1 291:1 416:1 639:1 745:1 842:1 856:1 865:1 931:1 
-0.7417106663014428 79:1 291:1 639:1 694:1 745:1 856:1 
-1 291:1 364:1 608:1 745:1 824:1 856:1 
-1 291:1 639:1 745:1 856:1 
-1 291:1 372:1 446:1 626:1 856:1 
-1 291:1 345:1 441:1 452:1 578:1 856:1 931:1 944:1 
-1 239:1 291:1 292:1 819:1 856:1 878:1 
-1 291:1 345:1 441:1 856:1 944:1 
-1 268:1 291:1 467:1 688:1 745:1 856:1 983:1 
-0.5746647049142809 247:1 291:1 856:1 917:1 
-1 292:1 465:1 503:1 891:1 
-1 291:1 292:1 379:1 416:1 437:1 483:1 666:1 856:1 878:1 
-1 33:1 291:1 292:1 856:1 
-1 73:1 291:1 352:1 687:1 801:1 856:1 938:1 
-1 173:1 291:1 690:1 704:1 856:1 958:1 965:1 
-1 241:1 291:1 688:1 741:1 745:1 856:1 
-1 2:1 291:1 416:1 856:1 
-1 193:1 241:1 291:1 292:1 856:1 938:1 
-1 167:1 269:1 291:1 644:1 856:1 941:1 944:1 
-1 16:1 291:1 541:1 578:1 856:1 
-1 23:1 291:1 856:1 938:1 
-1 46:1 66:1 
-1 241:1 291:1 719:1 807:1 856:1 
-0.2114334613178021 151:1 291:1 594:1 856:1 
-1 23:1 291:1 856:1 938:1 
-1 2:1 291:1 317:1 785:1 856:1 
-0.3103940468268521 291:1 360:1 552:1 856:1 
-1 291:1 856:1 912:1 
-1 241:1 291:1 320:1 770:1 856:1 865:1 
-1 173:1 291:1 856:1 958:1 965:1 
-1 2:1 291:1 847:1 856:1 
-1 291:1 366:1 856:1 911:1 
-1 292:1 452:1 578:1 
-0.0929657584008996 291:1 577:1 856:1 
-1 291:1 856:1 944:1 
-1 291:1 483:1 494:1 856:1 955:1 
-1 73:1 291:1 687:1 856:1 
-1 291:1 381:1 745:1 856:1 931:1 941:1 
-1 291:1 292:1 375:1 654:1 856:1 921:1 931:1 
-1 135:1 292:1 352:1 483:1 
-1 291:1 340:1 352:1 419:1 452:1 578:1 626:1 856:1 938:1 
-1 291:1 626:1 704:1 856:1 
-1 241:1 252:1 291:1 745:1 856:1 
-1 196:1 291:1 292:1 856:1 902:1 931:1 
-1 291:1 292:1 331:1 654:1 856:1 921:1 931:1 
-1 39:1 292:1 
-1 291:1 704:1 856:1 
-1 241:1 291:1 690:1 856:1 938:1 
-1 255:1 291:1 690:1 804:1 856:1 
-1 103:1 291:1 518:1 856:1 
-1 291:1 292:1 654:1 856:1 921:1 931:1 
-1 79:1 291:1 292:1 856:1 926:1 
-0.1674047247896895 58:1 291:1 358:1 572:1 856:1 917:1 
-1 241:1 291:1 572:1 688:1 856:1 865:1 931:1 
-1 291:1 386:1 419:1 775:1 856:1 
-1 193:1 291:1 406:1 452:1 578:1 788:1 856:1 
-1 292:1 346:1 688:1 
-1 270:1 291:1 518:1 856:1 
-1 291:1 416:1 856:1 
-1 58:1 291:1 856:1 
-1 291:1 856:1 
-1 291:1 292:1 856:1 921:1 931:1 
-1 66:1 270:1 292:1 688:1 944:1 
-1 291:1 745:1 856:1 
-1 188:1 291:1 856:1 944:1 
-1 134:1 193:1 291:1 452:1 578:1 856:1 931:1 
-1 15:1 241:1 291:1 320:1 452:1 541:1 578:1 824:1 856:1 966:1 
-0.5040780880435598 93:1 291:1 469:1 856:1 
-1 291:1 856:1 
-1 65:1 291:1 704:1 827:1 856:1 
-1 270:1 291:1 452:1 856:1 
-1 33:1 81:1 291:1 856:1 
-1 291:1 292:1 654:1 856:1 921:1 931:1 
-1 241:1 291:1 352:1 697:1 745:1 856:1 931:1 944:1 
-1 291:1 856:1 
-1 248:1 291:1 452:1 578:1 856:1 926:1 
-0.8898143815197231 58:1 167:1 276:1 291:1 856:1 
-1 291:1 856:1 
-1 291:1 435:1 856:1 953:1 
-1 291:1 856:1 
-1 291:1 292:1 856:1 931:1 
-1 241:1 248:1 270:1 291:1 439:1 641:1 745:1 856:1 938:1 953:1 
-1 167:1 291:1 292:1 856:1 931:1 
-1 291:1 506:1 604:1 856:1 
-1 292:1 598:1 842:1 891:1 913:1 
-1 73:1 239:1 241:1 291:1 800:1 801:1 856:1 962:1 
-1 30:1 291:1 568:1 856:1 
-1 123:1 143:1 167:1 292:1 780:1 911:1 931:1 
-1 31:1 207:1 241:1 268:1 292:1 769:1 
-1 241:1 291:1 452:1 467:1 578:1 856:1 865:1 
-1 177:1 248:1 291:1 350:1 856:1 921:1 
-1 241:1 291:1 416:1 445:1 452:1 578:1 761:1 856:1 
-1 291:1 292:1 856:1 
-1 291:1 317:1 347:1 856:1 948:1 
-1 104:1 239:1 241:1 291:1 452:1 578:1 856:1 
-1 291:1 541:1 578:1 856:1 
-1 270:1 291:1 292:1 319:1 439:1 856:1 931:1 
-1 291:1 452:1 578:1 848:1 856:1 944:1 
-1 241:1 270:1 291:1 439:1 745:1 856:1 
-1 291:1 833:1 856:1 
-1 291:1 856:1 
-1 291:1 650:1 856:1 
-1 100:1 177:1 291:1 436:1 806:1 856:1 921:1 
-1 291:1 856:1 
-1 82:1 241:1 291:1 352:1 688:1 856:1 938:1 
-1 291:1 317:1 452:1 822:1 856:1 931:1 953:1 
-1 240:1 291:1 292:1 398:1 437:1 856:1 966:1 
-1 291:1 776:1 856:1 
-1 143:1 291:1 452:1 578:1 748:1 811:1 856:1 
-1 291:1 856:1 
-0.08242722273775432 269:1 291:1 340:1 833:1 856:1 
-1 239:1 291:1 317:1 704:1 856:1 
-0.4844251702370379 291:1 856:1 904:1 
-1 256:1 291:1 856:1 944:1 
-1 271:1 291:1 648:1 856:1 936:1 
-1 291:1 693:1 856:1 
-1 249:1 291:1 429:1 770:1 856:1 944:1 
-1 124:1 234:1 292:1 837:1 
-1 291:1 292:1 
-1 241:1 291:1 646:1 647:1 856:1 970:1 
-1 73:1 207:1 291:1 615:1 770:1 856:1 
-1 291:1 292:1 856:1 931:1 
-1 272:1 291:1 457:1 847:1 856:1 
-1 291:1 307:1 543:1 853:1 856:1 953:1 
-1 51:1 291:1 856:1 
-0.7005582918939247 143:1 378:1 462:1 495:1 584:1 688:1 728:1 966:1 977:1 
-1 292:1 457:1 770:1 847:1 970:1 
-1 291:1 856:1 
-1 112:1 134:1 291:1 292:1 572:1 856:1 953:1 959:1 
-1 129:1 291:1 856:1 
-1 241:1 292:1 938:1 
-1 291:1 446:1 574:1 598:1 856:1 911:1 
-1 291:1 856:1 938:1 
-1 291:1 292:1 317:1 340:1 856:1 943:1 
-1 291:1 856:1 
-1 66:1 270:1 
-1 190:1 291:1 622:1 856:1 896:1 944:1 
-1 73:1 100:1 291:1 313:1 345:1 441:1 465:1 483:1 745:1 856:1 941:1 944:1 
-1 291:1 306:1 856:1 
-1 241:1 291:1 856:1 
-1 241:1 291:1 745:1 856:1 
-1 291:1 626:1 856:1 
-1 291:1 741:1 856:1 968:1 
-1 291:1 452:1 697:1 703:1 856:1 938:1 
-1 48:1 241:1 253:1 268:1 291:1 493:1 856:1 938:1 
-1 292:1 806:1 819:1 
-0.4191380604747327 291:1 445:1 856:1 
-1 30:1 259:1 291:1 330:1 568:1 856:1 
-1 291:1 387:1 441:1 452:1 483:1 578:1 856:1 931:1 962:1 
-1 241:1 291:1 352:1 745:1 853:1 856:1 
-1 291:1 347:1 441:1 456:1 585:1 785:1 806:1 856:1 953:1 
-1 47:1 79:1 291:1 744:1 768:1 856:1 
-1 291:1 556:1 690:1 856:1 
-1 291:1 856:1 
-1 33:1 291:1 468:1 495:1 856:1 
-1 47:1 292:1 483:1 702:1 744:1 848:1 
-1 33:1 291:1 468:1 626:1 856:1 
-1 48:1 253:1 291:1 493:1 856:1 
-1 114:1 171:1 291:1 856:1 
-1 291:1 856:1 
-1 239:1 291:1 292:1 441:1 856:1 943:1 
-1 291:1 744:1 856:1 
-1 291:1 352:1 483:1 541:1 578:1 687:1 856:1 931:1 
-1 291:1 856:1 
-1 291:1 345:1 737:1 856:1 943:1 944:1 953:1 
-1 108:1 292:1 465:1 688:1 
-1 291:1 647:1 760:1 856:1 
-1 78:1 291:1 465:1 541:1 578:1 621:1 848:1 856:1 
-1 291:1 856:1 
-1 291:1 817:1 830:1 856:1 
-1 291:1 856:1 
-1 291:1 753:1 800:1 801:1 847:1 856:1 
-1 81:1 143:1 291:1 452:1 578:1 839:1 856:1 865:1 931:1 
-1 48:1 141:1 253:1 292:1 493:1 865:1 
-1 108:1 291:1 697:1 856:1 
-1 291:1 418:1 626:1 695:1 856:1 
-1 241:1 292:1 938:1 
-1 48:1 253:1 291:1 330:1 493:1 704:1 856:1 
-0.7378318238418181 160:1 291:1 317:1 441:1 856:1 
-1 291:1 437:1 583:1 856:1 
-1 162:1 291:1 602:1 806:1 856:1 
-1 241:1 268:1 291:1 703:1 745:1 824:1 856:1 
-1 291:1 856:1 
-1 291:1 313:1 452:1 852:1 856:1 938:1 
-1 217:1 291:1 416:1 790:1 856:1 885:1 892:1 966:1 
-1 167:1 291:1 856:1 
-1 292:1 458:1 747:1 789:1 938:1 
-1 111:1 217:1 291:1 737:1 790:1 856:1 885:1 892:1 936:1 
-1 217:1 292:1 737:1 790:1 885:1 892:1 936:1 
-1 291:1 856:1 
-1 241:1 291:1 577:1 856:1 942:1 
-1 291:1 436:1 797:1 801:1 848:1 856:1 924:1 953:1 
-1 207:1 556:1 686:1 748:1 848:1 931:1 
-1 58:1 737:1 847:1 848:1 
-1 291:1 747:1 789:1 853:1 856:1 936:1 
-1 241:1 291:1 704:1 747:1 789:1 856:1 871:1 938:1 
-1 308:1 404:1 416:1 483:1 737:1 790:1 833:1 885:1 
-1 92:1 291:1 437:1 583:1 856:1 
-1 291:1 352:1 543:1 688:1 745:1 856:1 
-1 124:1 234:1 291:1 317:1 608:1 770:1 837:1 856:1 944:1 
-1 241:1 292:1 452:1 578:1 
-1 104:1 241:1 247:1 291:1 856:1 944:1 
-1 291:1 745:1 829:1 856:1 953:1 
-1 291:1 313:1 745:1 856:1 931:1 944:1 
-1 291:1 375:1 856:1 
-1 240:1 291:1 352:1 856:1 
-1 291:1 856:1 
-1 292:1 398:1 856:1 
-1 291:1 292:1 381:1 856:1 
-1 292:1 308:1 346:1 404:1 416:1 437:1 568:1 688:1 
-1 291:1 856:1 
-1 291:1 703:1 856:1 
-1 207:1 291:1 856:1 
-1 73:1 241:1 291:1 452:1 578:1 687:1 694:1 856:1 
-1 263:1 642:1 686:1 911:1 
-1 291:1 370:1 816:1 856:1 
-1 101:1 291:1 333:1 628:1 670:1 856:1 
-1 291:1 800:1 801:1 856:1 
-1 241:1 291:1 352:1 576:1 856:1 944:1 
-1 16:1 291:1 307:1 856:1 938:1 
-1 10:1 291:1 801:1 856:1 
-1 135:1 247:1 259:1 291:1 690:1 856:1 
-1 291:1 483:1 807:1 856:1 
-1 58:1 291:1 800:1 801:1 856:1 
-1 158:1 291:1 465:1 722:1 847:1 852:1 856:1 
-0.7461455492740741 140:1 247:1 291:1 856:1 
-1 292:1 398:1 688:1 856:1 
-1 247:1 291:1 345:1 585:1 608:1 856:1 
-1 291:1 800:1 801:1 856:1 
-1 73:1 267:1 291:1 465:1 574:1 856:1 941:1 
-1 241:1 291:1 452:1 578:1 856:1 
-0.87255382744292 291:1 381:1 441:1 856:1 
-1 291:1 856:1 936:1 
-1 291:1 452:1 578:1 686:1 768:1 856:1 
-1 291:1 465:1 686:1 856:1 911:1 936:1 
-1 241:1 291:1 856:1 931:1 
-1 46:1 241:1 291:1 317:1 856:1 942:1 944:1 
-1 239:1 283:1 313:1 682:1 686:1 801:1 808:1 
-1 291:1 856:1 
-1 291:1 856:1 
-1 16:1 30:1 289:1 291:1 494:1 807:1 856:1 955:1 
-1 135:1 272:1 291:1 437:1 760:1 856:1 
-1 270:1 291:1 772:1 788:1 856:1 
-1 291:1 856:1 
-1 291:1 292:1 343:1 467:1 856:1 
-1 66:1 270:1 291:1 628:1 856:1 
-1 291:1 856:1 
-1 79:1 268:1 291:1 694:1 856:1 
-1 268:1 291:1 572:1 745:1 770:1 828:1 856:1 
-1 268:1 292:1 495:1 680:1 745:1 770:1 931:1 
-1 291:1 355:1 515:1 824:1 856:1 
-1 291:1 543:1 626:1 745:1 856:1 
-1 291:1 856:1 
-1 291:1 856:1 
-1 291:1 416:1 856:1 
-1 85:1 89:1 253:1 291:1 350:1 856:1 
-1 291:1 576:1 847:1 856:1 
-1 170:1 241:1 291:1 452:1 745:1 856:1 975:1 
-1 241:1 291:1 856:1 
-1 292:1 451:1 842:1 
-1 291:1 429:1 785:1 848:1 856:1 
-1 291:1 704:1 856:1 
-1 79:1 268:1 291:1 694:1 856:1 
-1 291:1 856:1 
-1 291:1 856:1 
-1 173:1 271:1 291:1 375:1 577:1 765:1 807:1 856:1 
-1 240:1 241:1 291:1 452:1 852:1 856:1 938:1 
-1 291:1 452:1 577:1 578:1 856:1 
-1 54:1 241:1 291:1 352:1 856:1 975:1 
-1 247:1 291:1 474:1 785:1 829:1 856:1 
-1 291:1 745:1 852:1 856:1 
-1 46:1 291:1 856:1 
-1 52:1 291:1 543:1 745:1 856:1 
-1 268:1 806:1 856:1 931:1 
-1 291:1 856:1 938:1 
-1 292:1 943:1 
-1 241:1 291:1 856:1 
-1 197:1 268:1 291:1 747:1 856:1 
-1 78:1 291:1 639:1 856:1 
-1 207:1 291:1 745:1 806:1 808:1 856:1 975:1 
-1 291:1 352:1 436:1 856:1 931:1 
-0.7636326714728842 
-1 3:1 282:1 292:1 431:1 451:1 587:1 745:1 770:1 771:1 892:1 
-0.6207324957187865 12:1 291:1 856:1 
-1 291:1 416:1 437:1 456:1 856:1 
-1 291:1 856:1 
-1 291:1 320:1 452:1 822:1 856:1 
-1 291:1 452:1 578:1 856:1 
-1 291:1 397:1 608:1 852:1 856:1 941:1 
-1 2:1 166:1 292:1 566:1 604:1 917:1 
-1 291:1 303:1 509:1 639:1 690:1 745:1 856:1 
-1 73:1 241:1 291:1 515:1 856:1 944:1 
-1 92:1 291:1 416:1 808:1 856:1 
-1 291:1 313:1 346:1 800:1 801:1 856:1 
-1 291:1 856:1 
-1 79:1 241:1 291:1 848:1 856:1 931:1 
-0.7622405930301059 1:1 151:1 291:1 770:1 830:1 856:1 943:1 
-1 291:1 856:1 
-1 209:1 268:1 291:1 856:1 
-1 209:1 291:1 307:1 639:1 745:1 856:1 
-1 268:1 291:1 292:1 680:1 694:1 841:1 856:1 
-1 291:1 639:1 745:1 818:1 856:1 953:1 
-1 291:1 856:1 
-1 143:1 247:1 291:1 856:1 
-1 291:1 856:1 
-1 291:1 465:1 856:1 944:1 
-1 33:1 136:1 291:1 292:1 599:1 856:1 
-1 92:1 291:1 745:1 856:1 
-1 291:1 856:1 
-1 291:1 856:1 
-1 291:1 856:1 
-1 291:1 856:1 
-1 283:1 291:1 452:1 578:1 639:1 856:1 931:1 
-1 271:1 317:1 552:1 690:1 745:1 
-1 291:1 452:1 578:1 639:1 745:1 818:1 856:1 953:1 
-1 268:1 291:1 639:1 745:1 856:1 931:1 
-1 291:1 292:1 452:1 578:1 639:1 848:1 856:1 944:1 
-1 118:1 292:1 788:1 
-1 151:1 283:1 292:1 639:1 745:1 931:1 
-1 291:1 856:1 
-1 291:1 352:1 688:1 800:1 856:1 
-1 291:1 856:1 
-1 22:1 291:1 292:1 452:1 578:1 856:1 931:1 
-1 286:1 291:1 801:1 856:1 
-1 134:1 268:1 291:1 856:1 931:1 
-1 291:1 416:1 437:1 574:1 856:1 
-1 291:1 800:1 801:1 856:1 878:1 944:1 
-1 291:1 556:1 632:1 745:1 800:1 801:1 856:1 944:1 959:1 
-1 291:1 395:1 856:1 
-1 291:1 856:1 965:1 
-1 291:1 856:1 
-1 291:1 743:1 856:1 
-1 291:1 688:1 745:1 778:1 806:1 856:1 926:1 
-1 177:1 291:1 292:1 856:1 
-1 62:1 291:1 352:1 856:1 936:1 
-0.7579918050468656 222:1 276:1 291:1 621:1 856:1 
-1 291:1 856:1 
-1 291:1 452:1 578:1 800:1 856:1 931:1 
-1 241:1 291:1 495:1 710:1 856:1 931:1 962:1 
-1 241:1 291:1 745:1 856:1 901:1 
-1 101:1 291:1 670:1 745:1 856:1 
-1 291:1 687:1 856:1 
-1 291:1 800:1 801:1 856:1 878:1 944:1 
-1 247:1 291:1 856:1 944:1 
-1 291:1 833:1 856:1 
-1 291:1 785:1 856:1 
-1 241:1 291:1 745:1 856:1 911:1 
-1 79:1 291:1 292:1 625:1 856:1 
-1 291:1 292:1 465:1 856:1 
-1 291:1 833:1 856:1 
-1 291:1 856:1 943:1 
-1 268:1 282:1 291:1 856:1 
-1 452:1 578:1 688:1 800:1 801:1 
-1 291:1 856:1 
-1 191:1 291:1 452:1 578:1 856:1 
-1 104:1 291:1 452:1 578:1 856:1 
-1 291:1 741:1 852:1 856:1 
-1 33:1 222:1 262:1 291:1 452:1 578:1 856:1 
-1 292:1 452:1 578:1 690:1 
-1 291:1 345:1 452:1 578:1 626:1 848:1 856:1 944:1 
-1 291:1 292:1 690:1 856:1 
-1 33:1 207:1 291:1 543:1 856:1 
-1 207:1 263:1 291:1 483:1 856:1 
-1 770:1 800:1 801:1 
-0.3870940530062372 441:1 941:1 
-1 241:1 291:1 856:1 
-1 292:1 317:1 340:1 577:1 
-1 291:1 856:1 
-1 291:1 856:1 
-1 291:1 856:1 911:1 922:1 946:1 
-1 291:1 317:1 856:1 
-1 291:1 320:1 352:1 452:1 578:1 852:1 856:1 
-1 291:1 801:1 856:1 
-1 73:1 291:1 856:1 
-1 292:1 469:1 591:1 628:1 
-1 150:1 291:1 397:1 690:1 704:1 818:1 856:1 
-1 291:1 317:1 745:1 856:1 
-1 291:1 856:1 
-1 66:1 289:1 291:1 856:1 
-0.8077898847825781 15:1 291:1 313:1 856:1 903:1 
-1 291:1 313:1 745:1 808:1 856:1 865:1 
-1 292:1 842:1 966:1 
-0.5253520953852959 291:1 346:1 856:1 
-1 89:1 241:1 291:1 292:1 317:1 351:1 745:1 856:1 938:1 
-1 73:1 291:1 608:1 687:1 800:1 801:1 856:1 926:1 
-1 291:1 317:1 856:1 
-1 147:1 167:1 207:1 291:1 292:1 856:1 
-1 108:1 141:1 291:1 451:1 856:1 
-1 291:1 495:1 688:1 785:1 829:1 856:1 
-1 291:1 741:1 856:1 931:1 
-1 292:1 
-1 292:1 938:1 
-1 241:1 291:1 704:1 856:1 
-1 291:1 856:1 
-1 239:1 246:1 247:1 291:1 292:1 856:1 
-1 291:1 856:1 912:1 
-1 291:1 856:1 
-0.2576179140907245 89:1 291:1 510:1 735:1 780:1 856:1 
-1 73:1 291:1 469:1 856:1 938:1 
-0.2101480745352104 22:1 291:1 370:1 373:1 568:1 770:1 856:1 944:1 
-1 104:1 241:1 292:1 693:1 
-1 291:1 856:1 
-1 241:1 291:1 345:1 452:1 856:1 944:1 
-1 291:1 856:1 
-1 292:1 446:1 
-1 237:1 292:1 
-1 57:1 291:1 292:1 431:1 737:1 745:1 763:1 771:1 856:1 926:1 
-1 241:1 248:1 292:1 
-1 134:1 291:1 856:1 944:1 
-1 291:1 780:1 856:1 
-0.07897371497602296 3:1 203:1 291:1 503:1 569:1 856:1 891:1 966:1 
-1 241:1 291:1 553:1 693:1 856:1 
-1 291:1 693:1 856:1 
-1 177:1 291:1 856:1 
-1 22:1 291:1 542:1 856:1 
-1 441:1 941:1 
-1 110:1 291:1 473:1 856:1 
-1 16:1 291:1 856:1 
-1 133:1 241:1 292:1 
-1 291:1 578:1 680:1 856:1 938:1 
-1 268:1 291:1 745:1 856:1 938:1 
-1 291:1 856:1 
-1 58:1 73:1 283:1 291:1 770:1 801:1 842:1 856:1 
-1 291:1 856:1 911:1 
-1 58:1 73:1 291:1 292:1 856:1 
-0.2024214301534426 2:1 54:1 291:1 350:1 576:1 577:1 856:1 941:1 
-1 188:1 291:1 350:1 856:1 
-1 66:1 212:1 241:1 270:1 291:1 452:1 578:1 856:1 931:1 
-1 241:1 291:1 745:1 824:1 856:1 
-1 292:1 352:1 690:1 
-1 190:1 292:1 465:1 931:1 
-1 268:1 291:1 770:1 856:1 931:1 
-1 268:1 291:1 806:1 808:1 856:1 938:1 
-1 291:1 441:1 585:1 856:1 
-0.6197428093495734 263:1 291:1 465:1 787:1 856:1 
-1 286:1 291:1 317:1 453:1 465:1 745:1 856:1 
-1 291:1 856:1 
-1 240:1 291:1 372:1 856:1 911:1 
-1 291:1 292:1 690:1 800:1 801:1 856:1 
-1 292:1 452:1 578:1 687:1 690:1 704:1 
-1 441:1 538:1 800:1 801:1 944:1 
-1 241:1 271:1 291:1 452:1 697:1 856:1 931:1 
-1 241:1 291:1 364:1 452:1 578:1 680:1 770:1 856:1 
-1 190:1 292:1 576:1 622:1 690:1 747:1 911:1 
-1 436:1 892:1 
-1 291:1 856:1 
-1 240:1 291:1 856:1 911:1 
-1 247:1 292:1 555:1 740:1 
-1 190:1 291:1 451:1 622:1 690:1 747:1 856:1 892:1 
-1 190:1 292:1 622:1 747:1 
-1 291:1 856:1 892:1 
-1 73:1 193:1 226:1 292:1 352:1 687:1 912:1 
-1 241:1 291:1 364:1 680:1 745:1 856:1 
-1 292:1 333:1 452:1 578:1 795:1 
-1 291:1 465:1 468:1 483:1 856:1 
-1 291:1 856:1 
-1 54:1 241:1 291:1 352:1 688:1 856:1 938:1 
-1 291:1 318:1 572:1 768:1 856:1 
-1 241:1 291:1 688:1 856:1 938:1 
-1 292:1 847:1 
-1 291:1 518:1 856:1 911:1 
-1 2:1 291:1 448:1 576:1 856:1 944:1 
-1 261:1 291:1 436:1 688:1 740:1 856:1 
-1 100:1 241:1 521:1 806:1 
-1 292:1 441:1 
-0.8492016217848923 2:1 291:1 671:1 856:1 
-1 268:1 291:1 509:1 555:1 690:1 856:1 914:1 
-1 291:1 452:1 578:1 856:1 
-1 291:1 856:1 
-1 241:1 291:1 457:1 465:1 556:1 745:1 856:1 911:1 
-1 241:1 291:1 311:1 452:1 572:1 578:1 848:1 856:1 
-1 206:1 291:1 457:1 856:1 
-1 291:1 856:1 
-1 292:1 352:1 452:1 578:1 691:1 737:1 
-1 291:1 452:1 578:1 856:1 
-1 54:1 73:1 291:1 355:1 800:1 801:1 856:1 
-1 291:1 856:1 
-1 268:1 291:1 687:1 819:1 856:1 
-1 120:1 291:1 335:1 806:1 856:1 
-1 291:1 856:1 
-1 247:1 291:1 856:1 
-1 286:1 291:1 452:1 578:1 856:1 931:1 
-1 100:1 292:1 686:1 936:1 968:1 
-1 509:1 780:1 
-1 30:1 291:1 465:1 494:1 626:1 806:1 807:1 842:1 944:1 955:1 
-1 291:1 301:1 856:1 
-1 292:1 441:1 833:1 848:1 944:1 
-1 291:1 856:1 
-1 291:1 641:1 784:1 856:1 
-1 291:1 351:1 465:1 856:1 911:1 
-1 291:1 381:1 626:1 807:1 856:1 
-1 191:1 239:1 291:1 852:1 856:1 944:1 952:1 
-1 291:1 452:1 807:1 856:1 931:1 
-1 291:1 465:1 675:1 856:1 944:1 
-1 291:1 856:1 
-1 241:1 291:1 352:1 800:1 801:1 856:1 865:1 
-1 292:1 301:1 452:1 507:1 578:1 741:1 
-1 241:1 291:1 704:1 856:1 
-1 79:1 292:1 924:1 
-1 255:1 269:1 292:1 
-0.6323416071371363 291:1 856:1 865:1 
-1 291:1 856:1 
-0.506540340858264 291:1 543:1 856:1 962:1 
-1 292:1 333:1 628:1 938:1 
-1 54:1 291:1 806:1 856:1 
-1 255:1 292:1 398:1 856:1 
-1 291:1 856:1 944:1 
-1 247:1 291:1 465:1 741:1 856:1 938:1 
-0.6853109385550821 317:1 852:1 944:1 975:1 
-1 436:1 923:1 946:1 949:1 
-1 260:1 291:1 628:1 856:1 944:1 957:1 
-1 241:1 291:1 856:1 
-1 135:1 352:1 452:1 578:1 
-1 193:1 268:1 291:1 292:1 745:1 856:1 
-1 171:1 217:1 241:1 291:1 452:1 856:1 931:1 
-1 247:1 263:1 291:1 465:1 583:1 741:1 856:1 924:1 
-1 268:1 291:1 768:1 846:1 856:1 912:1 
-1 411:1 425:1 540:1 
-1 247:1 291:1 578:1 720:1 856:1 
-1 291:1 495:1 745:1 856:1 931:1 
-1 124:1 234:1 291:1 815:1 828:1 856:1 
-1 292:1 823:1 975:1 
-1 292:1 358:1 896:1 
-1 291:1 465:1 503:1 856:1 891:1 911:1 
-0.3198202461260548 313:1 358:1 953:1 
-1 49:1 407:1 621:1 
-1 
-1 141:1 515:1 
-0.5753018075884471 782:1 
-1 687:1 703:1 874:1 
-1 
-1 
-1 
-1 865:1 
-1 768:1 
-1 458:1 572:1 578:1 865:1 926:1 931:1 
-0.6467256650116895 283:1 740:1 
-1 
-1 247:1 356:1 483:1 
-1 
-0.4536999980548642 870:1 
-1 291:1 483:1 745:1 806:1 808:1 975:1 
-1 112:1 795:1 
-1 194:1 351:1 
-1 286:1 441:1 938:1 
-1 
-0.5193822972950868 118:1 269:1 
-1 
-0.2989523605654741 313:1 352:1 457:1 924:1 
-1 
-1 481:1 962:1 
-1 160:1 241:1 578:1 938:1 
-1 110:1 247:1 585:1 975:1 
-1 626:1 724:1 
-1 
-0.4460471097629537 58:1 552:1 804:1 
-1 
-1 111:1 241:1 352:1 938:1 
-1 
-1 578:1 
-1 346:1 
-0.7967939762360706 374:1 761:1 953:1 
-1 
-1 739:1 767:1 
-0.6373884433927115 15:1 351:1 
-0.6632233649038827 92:1 270:1 944:1 
-0.5485663912127454 612:1 
-1 282:1 465:1 580:1 
-1 306:1 
-1 
-1 
-1 291:1 816:1 944:1 
-1 181:1 441:1 
-1 
-1 207:1 
-1 745:1 848:1 
-1 173:1 478:1 
-1 269:1 
-1 
-0.4473007227440998 212:1 626:1 
-1 
-0.3700526778222226 572:1 797:1 
-1 263:1 307:1 576:1 926:1 
-1 
-1 143:1 247:1 291:1 
-1 
-1 
-1 
-1 
-0.2329894172200425 134:1 374:1 473:1 483:1 722:1 865:1 
-0.4774783087523534 317:1 
-1 467:1 
-1 276:1 317:1 374:1 483:1 515:1 
-1 51:1 
-1 647:1 688:1 980:1 
-1 
-0.5177172436683443 464:1 483:1 585:1 614:1 688:1 
-0.8551119132357284 288:1 
-1 268:1 842:1 
-1 
-1 
-1 
-1 291:1 436:1 
-1 946:1 964:1 
-1 
-1 
-1 495:1 847:1 
-1 466:1 
-1 741:1 865:1 
-1 466:1 
-0.7586414023911784 248:1 
-1 307:1 
-1 276:1 330:1 452:1 
-1 
-1 306:1 
-1 62:1 271:1 688:1 745:1 772:1 931:1 
-1 317:1 
-1 108:1 352:1 406:1 970:1 
-1 
-0.4196024026094546 258:1 
-1 247:1 626:1 
-1 247:1 938:1 
-1 578:1 626:1 818:1 
-1 578:1 
-1 267:1 351:1 626:1 
-0.7358541468998332 170:1 317:1 458:1 583:1 
-1 291:1 452:1 578:1 
-1 
-1 
-1 
-1 247:1 688:1 
-1 316:1 842:1 
-0.5216343645134713 270:1 429:1 817:1 
-1 
-1 313:1 826:1 
-1 481:1 
-1 51:1 938:1 
-1 
-1 288:1 307:1 473:1 
-1 
-1 247:1 
-1 187:1 441:1 944:1 
-1 436:1 
-1 740:1 792:1 
-1 578:1 762:1 
-1 
-1 437:1 941:1 
-0.1600530435082049 222:1 687:1 808:1 848:1 
-1 
-1 
-1 
-1 288:1 
-1 37:1 483:1 936:1 
-1 
-1 466:1 
-1 
-0.2078237195635688 161:1 276:1 944:1 
-0.238716278773989 473:1 655:1 688:1 748:1 769:1 833:1 966:1 
-1 944:1 
-1 373:1 783:1 
-1 
-1 320:1 452:1 804:1 
-1 452:1 465:1 578:1 
-1 49:1 92:1 268:1 
-0.3569936496850538 794:1 911:1 
-1 346:1 865:1 
-1 51:1 465:1 515:1 758:1 
-1 
-1 
-1 
-1 135:1 578:1 687:1 809:1 926:1 931:1 
-0.6561894807157456 66:1 286:1 288:1 306:1 848:1 
-1 46:1 
-1 
-1 437:1 848:1 871:1 944:1 
-1 271:1 288:1 944:1 
-1 173:1 816:1 
-1 
-1 346:1 465:1 495:1 585:1 847:1 
-1 796:1 944:1 
-1 436:1 441:1 
-1 288:1 
-1 
-1 
-1 279:1 306:1 469:1 555:1 
-1 317:1 429:1 704:1 966:1 
-1 687:1 785:1 
-0.5184567710779714 253:1 317:1 419:1 688:1 
-1 
-0.2620508455806301 134:1 
-1 
-1 483:1 578:1 
-1 938:1 944:1 
-1 51:1 177:1 261:1 436:1 728:1 
-0.8822273963028089 626:1 
-1 
-0.4579513199210007 352:1 687:1 833:1 847:1 970:1 
