svm_type c_svc
kernel_type rbf
gamma 0.00101626
nr_class 2
total_sv 954
rho 0.937637
label 1 -1
nr_sv 389 565
SV
1 291:1 317:1 577:1 703:1 856:1 
1 291:1 317:1 451:1 704:1 856:1 865:1 
1 48:1 81:1 167:1 267:1 292:1 406:1 416:1 690:1 
1 627:1 846:1 
1 292:1 352:1 452:1 578:1 741:1 
1 46:1 48:1 81:1 292:1 452:1 578:1 
1 48:1 292:1 406:1 451:1 787:1 
1 355:1 356:1 495:1 625:1 732:1 733:1 
1 48:1 66:1 291:1 306:1 856:1 931:1 938:1 
1 48:1 241:1 253:1 292:1 452:1 493:1 578:1 628:1 690:1 704:1 
1 48:1 253:1 291:1 493:1 704:1 856:1 
1 58:1 291:1 406:1 856:1 
1 48:1 167:1 267:1 268:1 292:1 690:1 944:1 
1 292:1 348:1 912:1 982:1 
1 292:1 690:1 
1 48:1 241:1 267:1 291:1 452:1 578:1 690:1 856:1 
1 241:1 292:1 
1 30:1 81:1 291:1 307:1 379:1 406:1 704:1 769:1 842:1 856:1 944:1 
1 291:1 690:1 856:1 
1 48:1 253:1 292:1 452:1 493:1 578:1 690:1 
1 48:1 253:1 291:1 493:1 856:1 
1 291:1 465:1 491:1 669:1 856:1 
1 241:1 292:1 441:1 515:1 634:1 846:1 944:1 
1 73:1 372:1 515:1 687:1 767:1 834:1 944:1 
1 78:1 292:1 418:1 713:1 807:1 
1 48:1 207:1 241:1 292:1 511:1 666:1 
1 79:1 143:1 291:1 856:1 911:1 
1 291:1 848:1 856:1 
1 292:1 628:1 801:1 
1 291:1 441:1 585:1 785:1 848:1 856:1 936:1 938:1 
1 346:1 936:1 943:1 
1 217:1 292:1 737:1 790:1 885:1 892:1 936:1 
1 130:1 291:1 437:1 448:1 747:1 789:1 856:1 912:1 
1 291:1 292:1 632:1 856:1 
1 58:1 291:1 328:1 846:1 856:1 868:1 944:1 
1 8:1 241:1 291:1 690:1 747:1 780:1 789:1 848:1 856:1 
1 190:1 237:1 291:1 452:1 578:1 622:1 856:1 
1 291:1 347:1 641:1 856:1 
1 15:1 108:1 291:1 457:1 842:1 847:1 856:1 
1 241:1 291:1 747:1 789:1 856:1 
1 291:1 747:1 789:1 856:1 
1 167:1 291:1 745:1 856:1 
1 291:1 690:1 856:1 936:1 943:1 
1 291:1 690:1 800:1 801:1 856:1 930:1 936:1 943:1 
1 78:1 241:1 291:1 641:1 719:1 745:1 856:1 928:1 
1 49:1 292:1 690:1 
1 263:1 346:1 441:1 737:1 
1 60:1 688:1 763:1 
1 30:1 60:1 292:1 374:1 379:1 458:1 688:1 
1 737:1 892:1 
1 166:1 291:1 465:1 511:1 702:1 856:1 
1 62:1 292:1 436:1 946:1 
1 291:1 856:1 912:1 936:1 
1 240:1 241:1 291:1 292:1 452:1 494:1 578:1 686:1 800:1 801:1 806:1 856:1 955:1 
1 291:1 452:1 578:1 788:1 856:1 
1 291:1 856:1 
1 226:1 291:1 452:1 495:1 578:1 856:1 944:1 
1 156:1 291:1 436:1 715:1 856:1 931:1 
1 289:1 291:1 509:1 686:1 856:1 936:1 
1 51:1 291:1 352:1 452:1 578:1 646:1 647:1 856:1 911:1 
1 291:1 686:1 856:1 931:1 
1 241:1 291:1 352:1 452:1 578:1 848:1 856:1 966:1 
1 291:1 856:1 912:1 931:1 936:1 
1 291:1 292:1 395:1 856:1 966:1 
1 291:1 574:1 768:1 856:1 
1 291:1 856:1 
1 291:1 687:1 847:1 856:1 941:1 
1 291:1 441:1 452:1 578:1 856:1 931:1 944:1 
1 291:1 772:1 824:1 856:1 
1 291:1 465:1 856:1 931:1 944:1 
1 241:1 291:1 452:1 494:1 578:1 621:1 686:1 806:1 856:1 955:1 
1 241:1 291:1 313:1 429:1 452:1 578:1 856:1 
1 241:1 291:1 856:1 944:1 
1 291:1 686:1 856:1 865:1 912:1 936:1 
1 241:1 291:1 358:1 452:1 578:1 768:1 770:1 856:1 
1 241:1 292:1 366:1 686:1 938:1 
1 291:1 452:1 578:1 686:1 856:1 
1 10:1 291:1 397:1 801:1 856:1 936:1 
1 351:1 
1 291:1 856:1 865:1 911:1 931:1 936:1 
1 291:1 452:1 578:1 856:1 
1 58:1 143:1 291:1 306:1 483:1 574:1 856:1 966:1 
1 291:1 770:1 856:1 980:1 
1 291:1 856:1 931:1 
1 291:1 345:1 352:1 856:1 944:1 
1 238:1 291:1 452:1 465:1 578:1 856:1 944:1 
1 292:1 358:1 452:1 578:1 874:1 
1 101:1 241:1 291:1 452:1 578:1 670:1 856:1 887:1 
1 91:1 268:1 291:1 641:1 702:1 745:1 807:1 846:1 856:1 
1 291:1 429:1 745:1 856:1 931:1 
1 291:1 436:1 856:1 
1 51:1 247:1 291:1 452:1 465:1 578:1 856:1 936:1 
1 291:1 452:1 578:1 856:1 931:1 938:1 
1 291:1 452:1 578:1 856:1 
1 291:1 452:1 578:1 686:1 856:1 
1 30:1 292:1 352:1 452:1 578:1 686:1 801:1 807:1 911:1 936:1 
1 291:1 452:1 578:1 741:1 833:1 856:1 
1 16:1 291:1 494:1 801:1 856:1 930:1 938:1 955:1 
1 241:1 291:1 800:1 801:1 833:1 856:1 930:1 
1 291:1 856:1 865:1 
1 291:1 352:1 452:1 494:1 578:1 801:1 856:1 955:1 
1 291:1 465:1 856:1 878:1 944:1 
1 291:1 292:1 366:1 509:1 686:1 856:1 936:1 
1 291:1 572:1 686:1 800:1 801:1 856:1 911:1 931:1 
1 292:1 686:1 
1 291:1 608:1 800:1 801:1 856:1 
1 254:1 292:1 429:1 530:1 770:1 931:1 953:1 
1 291:1 509:1 577:1 856:1 912:1 931:1 936:1 
1 291:1 686:1 800:1 801:1 856:1 911:1 
1 291:1 494:1 801:1 856:1 955:1 
1 247:1 291:1 856:1 931:1 936:1 
1 291:1 856:1 
1 291:1 320:1 608:1 856:1 865:1 931:1 
1 241:1 291:1 465:1 856:1 931:1 
1 270:1 291:1 292:1 745:1 856:1 944:1 
1 79:1 268:1 291:1 529:1 745:1 856:1 
1 241:1 268:1 291:1 452:1 745:1 856:1 938:1 
1 33:1 291:1 627:1 745:1 817:1 830:1 856:1 888:1 941:1 
1 268:1 291:1 345:1 745:1 856:1 944:1 
1 268:1 292:1 745:1 
1 167:1 291:1 688:1 769:1 856:1 865:1 944:1 
1 292:1 745:1 936:1 
1 73:1 268:1 291:1 745:1 823:1 856:1 
1 268:1 291:1 856:1 
1 193:1 268:1 292:1 704:1 745:1 
1 241:1 268:1 291:1 292:1 704:1 745:1 800:1 801:1 856:1 
1 58:1 73:1 268:1 269:1 292:1 770:1 944:1 968:1 
1 52:1 172:1 291:1 381:1 690:1 722:1 856:1 
1 291:1 352:1 452:1 578:1 688:1 846:1 856:1 
1 291:1 745:1 856:1 975:1 
1 268:1 292:1 529:1 572:1 704:1 801:1 
1 161:1 291:1 690:1 800:1 801:1 856:1 930:1 
1 268:1 292:1 690:1 
1 268:1 291:1 690:1 745:1 852:1 856:1 
1 30:1 268:1 291:1 745:1 807:1 856:1 
1 284:1 289:1 292:1 920:1 944:1 
1 58:1 268:1 291:1 345:1 452:1 741:1 856:1 931:1 938:1 
1 291:1 856:1 922:1 946:1 
1 291:1 457:1 847:1 856:1 
1 291:1 352:1 452:1 495:1 856:1 938:1 
1 241:1 291:1 452:1 856:1 938:1 
1 207:1 268:1 291:1 856:1 896:1 932:1 
1 212:1 239:1 268:1 292:1 306:1 441:1 
1 193:1 268:1 291:1 452:1 578:1 745:1 856:1 
1 268:1 291:1 704:1 745:1 853:1 856:1 
1 33:1 291:1 515:1 856:1 964:1 
1 291:1 345:1 441:1 856:1 931:1 944:1 
1 241:1 291:1 800:1 801:1 856:1 
1 291:1 856:1 931:1 
1 291:1 801:1 856:1 930:1 
1 30:1 292:1 931:1 
1 30:1 494:1 568:1 800:1 801:1 931:1 955:1 
1 178:1 291:1 436:1 481:1 833:1 856:1 
1 291:1 303:1 639:1 690:1 745:1 856:1 
1 291:1 639:1 704:1 824:1 856:1 
1 268:1 291:1 745:1 830:1 856:1 
1 291:1 604:1 801:1 856:1 
1 291:1 446:1 452:1 571:1 578:1 856:1 
1 291:1 628:1 690:1 830:1 856:1 
1 292:1 639:1 687:1 690:1 704:1 848:1 931:1 944:1 
1 247:1 286:1 452:1 578:1 829:1 
1 49:1 291:1 318:1 687:1 856:1 
1 291:1 856:1 926:1 
1 291:1 452:1 578:1 856:1 
1 177:1 291:1 436:1 856:1 
1 291:1 856:1 936:1 
1 78:1 291:1 452:1 578:1 856:1 944:1 
1 151:1 291:1 452:1 578:1 856:1 
1 190:1 441:1 572:1 622:1 847:1 936:1 
1 291:1 816:1 856:1 936:1 
1 101:1 151:1 292:1 355:1 670:1 941:1 
1 10:1 291:1 416:1 801:1 856:1 
1 
1 241:1 247:1 291:1 704:1 848:1 856:1 944:1 
1 73:1 79:1 240:1 241:1 291:1 452:1 578:1 856:1 
1 241:1 292:1 466:1 687:1 690:1 704:1 728:1 
1 238:1 291:1 346:1 856:1 865:1 
1 291:1 856:1 
1 291:1 509:1 686:1 856:1 936:1 
1 116:1 416:1 437:1 631:1 869:1 936:1 957:1 
1 291:1 856:1 936:1 
1 291:1 452:1 578:1 671:1 856:1 
1 241:1 291:1 441:1 745:1 856:1 911:1 
1 291:1 308:1 404:1 768:1 856:1 936:1 
1 66:1 178:1 270:1 291:1 416:1 856:1 
1 291:1 800:1 801:1 856:1 878:1 944:1 
1 291:1 416:1 686:1 856:1 936:1 
1 177:1 308:1 320:1 404:1 926:1 
1 50:1 178:1 291:1 416:1 558:1 565:1 856:1 
1 119:1 800:1 801:1 
1 262:1 291:1 806:1 856:1 
1 291:1 856:1 865:1 931:1 
1 291:1 452:1 578:1 856:1 931:1 
1 108:1 110:1 167:1 291:1 686:1 741:1 856:1 
1 177:1 291:1 392:1 676:1 856:1 938:1 
1 291:1 452:1 515:1 578:1 676:1 741:1 770:1 856:1 944:1 
1 80:1 109:1 241:1 291:1 704:1 745:1 856:1 
1 112:1 291:1 676:1 741:1 856:1 
1 142:1 241:1 291:1 676:1 704:1 745:1 800:1 801:1 856:1 
1 241:1 292:1 621:1 936:1 943:1 
1 291:1 518:1 690:1 856:1 
1 291:1 467:1 676:1 856:1 
1 249:1 352:1 676:1 808:1 
1 271:1 282:1 291:1 452:1 578:1 745:1 800:1 801:1 856:1 
1 53:1 91:1 117:1 273:1 291:1 676:1 780:1 856:1 
1 80:1 109:1 292:1 687:1 690:1 704:1 
1 328:1 481:1 801:1 846:1 
1 191:1 292:1 676:1 741:1 
1 473:1 944:1 
1 291:1 352:1 452:1 578:1 856:1 
1 292:1 352:1 686:1 768:1 
1 291:1 358:1 398:1 686:1 856:1 
1 291:1 741:1 856:1 
1 50:1 191:1 291:1 676:1 741:1 856:1 944:1 
1 291:1 452:1 578:1 671:1 856:1 
1 9:1 47:1 292:1 304:1 468:1 745:1 944:1 
1 292:1 452:1 578:1 676:1 741:1 
1 112:1 142:1 193:1 291:1 576:1 676:1 741:1 856:1 
1 247:1 291:1 452:1 578:1 676:1 687:1 741:1 856:1 
1 241:1 291:1 364:1 379:1 745:1 800:1 801:1 856:1 
1 292:1 457:1 
1 291:1 632:1 856:1 968:1 
1 142:1 291:1 676:1 741:1 856:1 
1 73:1 
1 73:1 291:1 800:1 801:1 856:1 
1 291:1 687:1 741:1 856:1 
1 291:1 676:1 741:1 856:1 
1 291:1 452:1 578:1 671:1 856:1 
1 73:1 108:1 291:1 406:1 741:1 856:1 
1 241:1 291:1 591:1 704:1 745:1 856:1 
1 73:1 292:1 452:1 578:1 704:1 944:1 
1 241:1 291:1 452:1 856:1 931:1 
1 291:1 806:1 808:1 856:1 
1 73:1 291:1 317:1 856:1 
1 291:1 743:1 856:1 
1 73:1 193:1 241:1 291:1 452:1 578:1 856:1 
1 291:1 317:1 856:1 
1 22:1 241:1 271:1 291:1 577:1 637:1 745:1 856:1 943:1 
1 292:1 317:1 436:1 511:1 552:1 690:1 
1 78:1 291:1 690:1 785:1 856:1 
1 255:1 292:1 452:1 578:1 704:1 938:1 
1 241:1 291:1 313:1 452:1 578:1 856:1 944:1 
1 137:1 241:1 291:1 452:1 578:1 856:1 
1 178:1 291:1 856:1 
1 291:1 616:1 784:1 856:1 938:1 
1 137:1 241:1 291:1 452:1 578:1 856:1 
1 247:1 292:1 626:1 
1 241:1 291:1 704:1 848:1 856:1 944:1 
1 291:1 347:1 452:1 578:1 768:1 856:1 
1 283:1 291:1 435:1 778:1 816:1 856:1 
1 292:1 676:1 847:1 
1 292:1 553:1 800:1 801:1 
1 111:1 292:1 452:1 590:1 
1 292:1 641:1 938:1 
1 241:1 291:1 313:1 687:1 856:1 926:1 931:1 
1 73:1 241:1 291:1 690:1 800:1 801:1 856:1 
1 241:1 291:1 704:1 745:1 856:1 
1 241:1 291:1 591:1 690:1 745:1 856:1 
1 73:1 79:1 292:1 452:1 578:1 
1 112:1 193:1 291:1 468:1 847:1 856:1 938:1 
1 173:1 268:1 292:1 703:1 
1 178:1 291:1 345:1 631:1 688:1 768:1 856:1 
1 241:1 291:1 292:1 687:1 690:1 745:1 856:1 
1 292:1 300:1 
1 116:1 291:1 397:1 770:1 856:1 
1 291:1 452:1 578:1 856:1 966:1 
1 291:1 856:1 938:1 
1 291:1 646:1 647:1 856:1 
1 291:1 745:1 768:1 856:1 
1 241:1 269:1 291:1 690:1 848:1 856:1 944:1 
1 291:1 741:1 745:1 856:1 879:1 892:1 931:1 
1 193:1 291:1 856:1 879:1 892:1 
1 292:1 311:1 578:1 
1 190:1 291:1 622:1 856:1 911:1 912:1 
1 10:1 291:1 801:1 856:1 879:1 892:1 
1 241:1 292:1 452:1 578:1 687:1 690:1 704:1 892:1 
1 254:1 263:1 292:1 530:1 571:1 
1 241:1 291:1 703:1 745:1 856:1 
1 291:1 318:1 628:1 690:1 830:1 856:1 
1 222:1 292:1 745:1 
1 291:1 483:1 856:1 
1 33:1 291:1 676:1 688:1 856:1 
1 291:1 292:1 351:1 856:1 
1 291:1 741:1 852:1 856:1 
1 241:1 291:1 452:1 578:1 768:1 856:1 892:1 
1 291:1 856:1 938:1 
1 240:1 291:1 292:1 745:1 856:1 
1 291:1 686:1 833:1 856:1 892:1 944:1 
1 222:1 291:1 441:1 856:1 
1 241:1 292:1 693:1 
1 291:1 436:1 855:1 856:1 
1 292:1 454:1 704:1 947:1 
1 292:1 452:1 578:1 944:1 
1 222:1 291:1 856:1 
1 75:1 292:1 
1 16:1 419:1 904:1 944:1 
1 291:1 366:1 452:1 578:1 801:1 856:1 
1 79:1 291:1 688:1 856:1 
1 30:1 160:1 291:1 568:1 745:1 856:1 
1 51:1 291:1 317:1 352:1 452:1 468:1 556:1 578:1 801:1 848:1 856:1 
1 241:1 282:1 291:1 704:1 745:1 760:1 856:1 
1 291:1 687:1 690:1 811:1 856:1 
1 291:1 691:1 824:1 856:1 
1 110:1 292:1 542:1 
1 251:1 255:1 538:1 737:1 785:1 912:1 
1 292:1 452:1 538:1 690:1 
1 291:1 855:1 856:1 
1 108:1 110:1 451:1 555:1 740:1 943:1 
1 291:1 538:1 686:1 856:1 
1 255:1 291:1 827:1 856:1 
1 35:1 247:1 291:1 304:1 621:1 624:1 741:1 855:1 856:1 
1 190:1 237:1 291:1 292:1 452:1 622:1 856:1 931:1 938:1 
1 291:1 538:1 856:1 
1 190:1 291:1 622:1 724:1 856:1 879:1 
1 190:1 291:1 622:1 747:1 833:1 856:1 
1 291:1 352:1 452:1 856:1 931:1 938:1 
1 79:1 291:1 307:1 317:1 495:1 626:1 856:1 
1 291:1 317:1 508:1 555:1 593:1 856:1 
1 291:1 593:1 856:1 879:1 
1 241:1 291:1 856:1 
1 291:1 704:1 800:1 801:1 856:1 
1 247:1 248:1 263:1 291:1 848:1 856:1 
1 291:1 452:1 578:1 856:1 875:1 
1 452:1 578:1 737:1 741:1 
1 267:1 291:1 842:1 856:1 
1 292:1 441:1 452:1 572:1 578:1 650:1 800:1 801:1 944:1 
1 292:1 452:1 495:1 578:1 
1 137:1 291:1 452:1 578:1 704:1 801:1 856:1 
1 291:1 465:1 674:1 785:1 856:1 
1 11:1 12:1 291:1 392:1 856:1 
1 291:1 452:1 578:1 856:1 
1 291:1 555:1 704:1 745:1 856:1 914:1 
1 291:1 555:1 686:1 856:1 914:1 
1 241:1 291:1 424:1 452:1 578:1 856:1 
1 291:1 856:1 
1 291:1 511:1 856:1 
1 263:1 269:1 291:1 465:1 688:1 787:1 856:1 
1 241:1 291:1 441:1 693:1 848:1 856:1 944:1 
1 291:1 452:1 465:1 626:1 772:1 856:1 
1 291:1 856:1 953:1 
1 241:1 291:1 704:1 856:1 
1 241:1 291:1 452:1 578:1 690:1 856:1 
1 241:1 292:1 452:1 462:1 578:1 728:1 924:1 932:1 977:1 
1 291:1 704:1 801:1 856:1 924:1 930:1 932:1 
1 291:1 320:1 541:1 690:1 856:1 
1 46:1 240:1 292:1 452:1 578:1 704:1 
1 291:1 704:1 856:1 924:1 932:1 
1 352:1 436:1 745:1 769:1 833:1 856:1 
1 268:1 291:1 745:1 800:1 801:1 856:1 871:1 
1 292:1 452:1 578:1 838:1 
1 154:1 292:1 301:1 481:1 938:1 
1 241:1 269:1 291:1 292:1 374:1 690:1 856:1 912:1 
1 46:1 240:1 241:1 292:1 452:1 578:1 852:1 944:1 
1 291:1 301:1 465:1 856:1 
1 291:1 307:1 770:1 856:1 
1 10:1 291:1 690:1 801:1 856:1 
1 117:1 268:1 291:1 292:1 745:1 856:1 871:1 
1 62:1 103:1 134:1 291:1 452:1 578:1 856:1 
1 241:1 291:1 856:1 
1 300:1 572:1 
1 270:1 291:1 483:1 690:1 856:1 
1 292:1 452:1 578:1 
1 66:1 
1 292:1 441:1 462:1 585:1 728:1 785:1 888:1 952:1 
1 92:1 291:1 856:1 
1 291:1 301:1 785:1 856:1 
1 48:1 291:1 330:1 749:1 816:1 856:1 
1 292:1 301:1 495:1 688:1 
1 8:1 247:1 320:1 452:1 578:1 704:1 
1 267:1 291:1 301:1 358:1 452:1 455:1 483:1 578:1 785:1 856:1 
1 268:1 291:1 686:1 745:1 856:1 
1 191:1 249:1 268:1 291:1 446:1 745:1 815:1 856:1 
1 291:1 745:1 856:1 
1 10:1 178:1 292:1 452:1 578:1 768:1 801:1 941:1 
1 81:1 120:1 240:1 268:1 292:1 335:1 839:1 
1 73:1 193:1 291:1 292:1 770:1 856:1 
1 268:1 291:1 292:1 690:1 856:1 870:1 970:1 
1 73:1 291:1 745:1 856:1 
1 240:1 690:1 745:1 
1 291:1 347:1 577:1 785:1 815:1 856:1 
1 30:1 291:1 379:1 494:1 856:1 955:1 
1 292:1 745:1 944:1 
1 10:1 268:1 283:1 291:1 352:1 436:1 452:1 578:1 801:1 856:1 
1 117:1 268:1 292:1 452:1 578:1 687:1 690:1 745:1 
1 291:1 801:1 856:1 
1 54:1 436:1 763:1 892:1 
1 54:1 436:1 892:1 893:1 
1 892:1 
1 291:1 436:1 763:1 856:1 893:1 
-0.06879491437654001 51:1 167:1 224:1 292:1 352:1 406:1 956:1 
-1 292:1 352:1 944:1 
-1 240:1 291:1 687:1 704:1 856:1 
-0.7597682986606392 291:1 292:1 441:1 491:1 856:1 
-1 142:1 291:1 856:1 
-0.4401471749529952 253:1 291:1 800:1 801:1 856:1 930:1 
-0.6693038465917147 406:1 767:1 
-1 291:1 436:1 452:1 578:1 856:1 
-0.5032671735627932 291:1 292:1 704:1 856:1 
-1 292:1 
-0.3712207439589013 2:1 9:1 291:1 304:1 441:1 679:1 856:1 
-1 291:1 628:1 856:1 938:1 
-1 291:1 686:1 856:1 936:1 
-1 58:1 178:1 263:1 291:1 856:1 912:1 
-0.2382261712365117 167:1 202:1 291:1 342:1 745:1 856:1 
-1 178:1 291:1 515:1 856:1 912:1 
-1 291:1 436:1 452:1 578:1 704:1 856:1 
-1 291:1 292:1 690:1 856:1 
-0.6759901820856201 241:1 291:1 441:1 452:1 578:1 687:1 704:1 747:1 852:1 856:1 944:1 
-1 178:1 291:1 292:1 801:1 856:1 865:1 912:1 
-0.2676240265846674 58:1 207:1 291:1 461:1 741:1 856:1 
-0.4174032811360244 291:1 301:1 352:1 436:1 690:1 799:1 856:1 
-1 190:1 291:1 320:1 622:1 676:1 856:1 
-1 140:1 801:1 865:1 
-0.9080622859534545 33:1 112:1 190:1 291:1 622:1 856:1 
-0.5594874723446781 291:1 704:1 856:1 865:1 
-1 91:1 241:1 247:1 291:1 292:1 451:1 856:1 892:1 
-1 241:1 247:1 291:1 292:1 397:1 741:1 856:1 
-0.3168840067032158 222:1 291:1 404:1 626:1 745:1 856:1 
-0.9190665689799548 263:1 291:1 511:1 687:1 856:1 931:1 
-1 54:1 379:1 436:1 467:1 
-0.2930137561444981 416:1 
-1 241:1 352:1 416:1 452:1 558:1 578:1 926:1 
-0.8332096328929406 137:1 192:1 247:1 634:1 944:1 
-0.494226487891066 291:1 292:1 468:1 478:1 690:1 785:1 856:1 
-0.2033324109853089 44:1 83:1 157:1 241:1 291:1 577:1 745:1 800:1 801:1 847:1 856:1 
-0.9040055393281184 122:1 291:1 317:1 358:1 452:1 578:1 856:1 
-1 50:1 291:1 352:1 856:1 944:1 
-0.3520228200011813 291:1 292:1 856:1 943:1 
-1 285:1 292:1 452:1 
-1 291:1 292:1 690:1 856:1 
-0.5861166729309726 52:1 291:1 437:1 448:1 478:1 704:1 785:1 801:1 806:1 807:1 856:1 
-0.2936803602416939 241:1 291:1 690:1 745:1 856:1 
-1 291:1 436:1 452:1 578:1 704:1 856:1 
-0.2852150789022901 291:1 572:1 690:1 856:1 
-1 291:1 438:1 704:1 801:1 856:1 
-1 688:1 785:1 
-1 267:1 291:1 745:1 760:1 856:1 
-0.2413835464417939 241:1 291:1 690:1 856:1 924:1 
-1 291:1 292:1 690:1 856:1 
-0.5142012178088591 190:1 291:1 622:1 722:1 856:1 
-0.1082949991016133 374:1 532:1 
-0.4009598334347192 734:1 838:1 
-1 78:1 346:1 892:1 
-0.2386663053569962 291:1 292:1 451:1 690:1 856:1 
-0.9462146444090695 241:1 292:1 452:1 578:1 687:1 877:1 
-0.4537193644907261 289:1 291:1 452:1 476:1 578:1 688:1 699:1 847:1 856:1 
-0.5084352367154378 52:1 241:1 291:1 292:1 704:1 856:1 
-1 8:1 291:1 483:1 704:1 856:1 
-0.7002202196374512 46:1 241:1 267:1 292:1 452:1 468:1 578:1 908:1 930:1 931:1 965:1 
-1 241:1 291:1 690:1 745:1 856:1 
-1 291:1 690:1 745:1 856:1 
-1 291:1 436:1 452:1 578:1 704:1 856:1 
-0.08949254871542742 291:1 541:1 577:1 604:1 856:1 
-0.7672626147671219 110:1 241:1 269:1 292:1 316:1 892:1 931:1 
-1 73:1 241:1 282:1 291:1 452:1 578:1 687:1 704:1 856:1 
-0.7326112310541717 137:1 241:1 291:1 386:1 445:1 745:1 856:1 912:1 
-0.08247664694836443 162:1 291:1 316:1 704:1 801:1 856:1 
-1 291:1 452:1 578:1 848:1 856:1 944:1 
-1 73:1 291:1 452:1 578:1 856:1 
-1 241:1 291:1 690:1 745:1 856:1 
-0.5109306934480351 161:1 162:1 291:1 690:1 745:1 856:1 
-0.7529909100131279 291:1 511:1 602:1 848:1 856:1 
-0.4326952768511571 268:1 291:1 381:1 578:1 856:1 
-0.470094699301194 84:1 374:1 441:1 944:1 
-1 241:1 452:1 578:1 916:1 944:1 
-1 241:1 291:1 690:1 745:1 856:1 
-1 291:1 292:1 704:1 856:1 
-0.1326119618627091 241:1 291:1 366:1 407:1 690:1 856:1 
-0.8082661584579313 193:1 291:1 351:1 608:1 770:1 800:1 801:1 856:1 944:1 
-1 48:1 291:1 306:1 856:1 962:1 
-0.6449732300634112 240:1 241:1 268:1 291:1 495:1 541:1 806:1 808:1 856:1 
-1 291:1 345:1 856:1 865:1 944:1 
-1 241:1 292:1 452:1 578:1 687:1 
-1 291:1 632:1 830:1 856:1 926:1 931:1 938:1 
-0.8563792416812577 206:1 291:1 307:1 452:1 578:1 856:1 
-1 291:1 314:1 375:1 452:1 578:1 690:1 741:1 856:1 
-1 291:1 436:1 452:1 578:1 704:1 856:1 
-0.7016482397881398 291:1 436:1 452:1 578:1 856:1 931:1 
-1 241:1 269:1 452:1 578:1 741:1 931:1 
-1 893:1 
-0.218297564279872 289:1 291:1 495:1 753:1 856:1 
-0.2080889038764877 268:1 291:1 668:1 687:1 833:1 856:1 938:1 
-1 291:1 292:1 452:1 578:1 630:1 690:1 856:1 
-1 30:1 292:1 397:1 494:1 687:1 852:1 955:1 
-0.6577440679174327 291:1 515:1 690:1 856:1 
-0.3299811514064114 292:1 306:1 892:1 957:1 
-0.2735116471623781 188:1 193:1 291:1 690:1 807:1 856:1 
-0.8941788311686732 30:1 173:1 241:1 267:1 292:1 829:1 931:1 
-1 241:1 291:1 690:1 745:1 856:1 
-0.07037098428997562 30:1 291:1 370:1 690:1 719:1 856:1 
-1 291:1 452:1 578:1 856:1 
-0.3516401208438087 213:1 253:1 267:1 291:1 434:1 741:1 856:1 930:1 
-0.2012305004926538 178:1 278:1 291:1 568:1 831:1 856:1 
-0.1128334188849056 291:1 577:1 690:1 856:1 
-1 291:1 436:1 452:1 578:1 704:1 856:1 
-0.1099568656776529 241:1 291:1 610:1 627:1 704:1 856:1 
-1 51:1 241:1 291:1 292:1 690:1 856:1 
-0.3506498824181193 267:1 740:1 785:1 984:1 
-1 79:1 291:1 429:1 789:1 856:1 931:1 
-1 112:1 291:1 452:1 578:1 856:1 
-1 291:1 452:1 578:1 800:1 801:1 807:1 856:1 930:1 
-1 134:1 291:1 452:1 578:1 856:1 944:1 
-1 291:1 452:1 578:1 686:1 856:1 911:1 
-0.7519913675885912 35:1 291:1 624:1 856:1 
-0.08569809636196885 36:1 284:1 292:1 381:1 576:1 585:1 920:1 953:1 
-0.1916403122525984 291:1 416:1 452:1 518:1 804:1 856:1 892:1 
-0.931487529081787 249:1 291:1 646:1 647:1 768:1 856:1 888:1 
-1 291:1 352:1 452:1 578:1 816:1 848:1 856:1 
-0.2956499156982985 134:1 193:1 291:1 381:1 768:1 847:1 856:1 
-0.6606561304424786 291:1 856:1 947:1 
-0.1559216655499744 16:1 54:1 241:1 372:1 436:1 452:1 578:1 767:1 
-0.5090421416234113 47:1 744:1 768:1 944:1 
-0.2832158119609103 66:1 268:1 270:1 291:1 745:1 856:1 
-1 10:1 111:1 291:1 441:1 801:1 856:1 931:1 941:1 
-0.3695064126310754 30:1 265:1 291:1 435:1 806:1 856:1 
-1 33:1 291:1 686:1 856:1 888:1 
-0.1436089681408327 170:1 247:1 268:1 291:1 317:1 452:1 770:1 833:1 856:1 975:1 
-1 268:1 291:1 452:1 578:1 608:1 745:1 856:1 
-0.5871954888993929 291:1 366:1 856:1 
-1 291:1 452:1 455:1 578:1 856:1 
-1 10:1 51:1 73:1 291:1 627:1 800:1 801:1 856:1 975:1 
-0.4626223032372926 268:1 291:1 540:1 647:1 690:1 856:1 
-1 263:1 268:1 291:1 704:1 800:1 801:1 856:1 
-1 241:1 291:1 800:1 801:1 856:1 
-1 291:1 704:1 745:1 856:1 
-1 73:1 291:1 687:1 800:1 801:1 856:1 943:1 944:1 
-0.3962740406098035 22:1 190:1 237:1 291:1 622:1 856:1 
-0.2544736554651325 119:1 256:1 373:1 
-0.07576868911897421 944:1 961:1 
-0.9562269049389014 291:1 626:1 639:1 741:1 745:1 856:1 
-1 241:1 291:1 704:1 745:1 747:1 856:1 
-0.8027471563682014 291:1 745:1 784:1 856:1 
-1 283:1 291:1 745:1 801:1 856:1 
-1 240:1 269:1 291:1 741:1 856:1 941:1 
-1 240:1 291:1 416:1 690:1 745:1 856:1 
-0.7976311723884371 241:1 291:1 704:1 745:1 747:1 856:1 
-1 241:1 291:1 704:1 745:1 800:1 801:1 856:1 
-1 241:1 291:1 704:1 745:1 856:1 
-0.2989815248818053 44:1 291:1 702:1 704:1 856:1 
-0.2349458656013453 241:1 268:1 291:1 473:1 704:1 856:1 
-1 207:1 291:1 317:1 465:1 585:1 676:1 798:1 856:1 
-0.1982766083397326 291:1 452:1 578:1 856:1 931:1 950:1 
-0.5434482959950608 292:1 303:1 416:1 572:1 892:1 
-0.9192543014503225 190:1 291:1 292:1 622:1 856:1 
-0.05091308557844924 104:1 241:1 291:1 452:1 578:1 856:1 
-0.2021104350437395 291:1 452:1 576:1 578:1 856:1 931:1 
-0.8686454474885171 151:1 291:1 646:1 856:1 
-0.5615510227139197 81:1 177:1 291:1 503:1 518:1 576:1 641:1 856:1 944:1 
-1 291:1 452:1 578:1 856:1 931:1 
-0.7465382076201361 241:1 291:1 469:1 494:1 770:1 856:1 955:1 
-0.8439510887142981 86:1 108:1 291:1 452:1 578:1 856:1 892:1 
-1 291:1 856:1 912:1 
-0.9641426563750513 291:1 292:1 347:1 626:1 785:1 856:1 
-0.1042003216937517 147:1 256:1 291:1 452:1 856:1 
-0.1715456286703677 241:1 291:1 745:1 856:1 
-1 241:1 291:1 441:1 452:1 578:1 704:1 848:1 856:1 931:1 944:1 
-1 291:1 352:1 436:1 452:1 856:1 
-0.8833682437719858 291:1 856:1 912:1 
-1 241:1 429:1 452:1 578:1 878:1 
-0.4163335082283787 241:1 291:1 449:1 578:1 787:1 856:1 
-0.1801261267136952 241:1 248:1 291:1 292:1 345:1 452:1 467:1 856:1 938:1 
-0.7990609512266177 291:1 690:1 856:1 
-1 154:1 292:1 
-0.54017351426625 468:1 847:1 931:1 
-0.7359055791272007 190:1 292:1 320:1 622:1 745:1 808:1 892:1 
-0.5721736786363533 267:1 291:1 856:1 
-1 291:1 511:1 688:1 856:1 
-0.1388707388478567 177:1 291:1 690:1 856:1 
-0.3213717425680994 292:1 658:1 912:1 
-0.06796947083094466 51:1 58:1 247:1 291:1 495:1 552:1 856:1 926:1 
-0.6127971605118325 81:1 120:1 291:1 335:1 395:1 641:1 806:1 856:1 
-0.7853089796126227 282:1 291:1 292:1 572:1 816:1 847:1 856:1 
-0.3861478542673384 92:1 238:1 291:1 856:1 
-1 291:1 452:1 578:1 833:1 856:1 
-0.8509967174936617 181:1 249:1 291:1 542:1 801:1 856:1 901:1 
-0.4790634365946987 241:1 282:1 291:1 704:1 745:1 856:1 
-1 291:1 452:1 578:1 856:1 
-0.3012611269295338 62:1 291:1 374:1 856:1 
-0.3783474078559386 91:1 103:1 241:1 291:1 779:1 833:1 856:1 
-0.1233780791868927 71:1 241:1 291:1 293:1 704:1 745:1 856:1 
-1 291:1 856:1 944:1 
-0.1616465937012213 79:1 160:1 241:1 469:1 816:1 856:1 943:1 
-0.4075879100661208 291:1 431:1 635:1 763:1 771:1 856:1 
-0.4393477261387597 291:1 772:1 856:1 888:1 938:1 
-0.5346527568466036 291:1 608:1 688:1 788:1 855:1 856:1 
-0.04014880174127544 292:1 520:1 
-0.2746646317588914 270:1 291:1 306:1 628:1 856:1 
-1 291:1 690:1 856:1 
-0.2701648703160967 15:1 179:1 241:1 291:1 451:1 452:1 578:1 856:1 
-1 193:1 291:1 856:1 912:1 
-0.4806698306536578 10:1 250:1 283:1 291:1 587:1 682:1 801:1 853:1 856:1 944:1 
-1 291:1 300:1 348:1 352:1 770:1 801:1 856:1 930:1 
-1 292:1 
-0.8259802635587696 291:1 745:1 856:1 
-0.1139517244800095 291:1 452:1 578:1 587:1 856:1 
-1 116:1 291:1 856:1 
-0.563704559159512 292:1 300:1 348:1 
-0.7540223167223308 241:1 291:1 347:1 641:1 856:1 
-0.2620527725291475 167:1 291:1 837:1 856:1 
-1 291:1 690:1 856:1 
-1 291:1 452:1 578:1 856:1 
-0.9319505520095256 114:1 171:1 291:1 395:1 494:1 856:1 955:1 
-0.3566464066200596 212:1 291:1 572:1 856:1 938:1 
-1 291:1 312:1 686:1 856:1 
-1 268:1 291:1 313:1 856:1 944:1 
-1 291:1 452:1 704:1 770:1 856:1 
-0.5067647031296466 73:1 345:1 441:1 515:1 687:1 834:1 953:1 
-0.1556096067774186 17:1 30:1 292:1 436:1 477:1 
-0.2092870322321283 73:1 400:1 944:1 
-1 78:1 358:1 606:1 846:1 
-0.08609918540794588 291:1 452:1 541:1 543:1 856:1 966:1 
-0.08164861864208406 291:1 577:1 646:1 647:1 856:1 
-0.231253140302834 220:1 224:1 252:1 291:1 292:1 452:1 568:1 719:1 856:1 892:1 893:1 975:1 
-1 292:1 328:1 846:1 
-0.1718019622893893 73:1 173:1 291:1 307:1 353:1 417:1 460:1 724:1 806:1 856:1 
-0.03987371656820472 16:1 30:1 51:1 237:1 291:1 306:1 467:1 626:1 724:1 807:1 856:1 
-1 291:1 800:1 801:1 833:1 848:1 856:1 930:1 938:1 944:1 
-0.6380488413218169 186:1 291:1 318:1 627:1 768:1 856:1 
-0.7997456161165615 73:1 193:1 397:1 406:1 451:1 745:1 
-0.3316693480818905 292:1 306:1 952:1 
-0.9756725348650157 108:1 241:1 292:1 865:1 892:1 
-1 105:1 108:1 117:1 241:1 452:1 483:1 578:1 
-0.09626471335341291 288:1 542:1 846:1 
-1 291:1 800:1 801:1 856:1 930:1 
-0.5359936173820562 291:1 745:1 856:1 
-0.5464687592660473 292:1 307:1 340:1 943:1 
-0.07489533468135301 252:1 286:1 291:1 292:1 577:1 743:1 856:1 
-0.09065422844776266 33:1 291:1 435:1 586:1 745:1 819:1 834:1 856:1 
-0.4212398162729969 291:1 769:1 829:1 856:1 
-0.6740771752072148 255:1 291:1 572:1 690:1 816:1 817:1 856:1 
-0.6631895910512248 57:1 241:1 291:1 452:1 578:1 690:1 704:1 856:1 
-0.6447134293445164 78:1 291:1 317:1 713:1 856:1 941:1 960:1 
-0.9443171908630204 73:1 284:1 292:1 441:1 687:1 719:1 944:1 
-0.5372119993753897 46:1 65:1 91:1 240:1 291:1 317:1 690:1 856:1 
-1 66:1 291:1 452:1 578:1 856:1 938:1 
-0.4528972351143574 291:1 452:1 483:1 578:1 856:1 
-1 291:1 352:1 436:1 465:1 801:1 856:1 
-1 53:1 178:1 291:1 416:1 437:1 676:1 745:1 856:1 931:1 
-1 268:1 291:1 292:1 745:1 856:1 953:1 
-1 16:1 241:1 291:1 379:1 856:1 
-1 101:1 291:1 457:1 578:1 670:1 856:1 
-0.5475022977614823 291:1 787:1 818:1 856:1 
-0.1370396142811905 51:1 65:1 241:1 291:1 352:1 452:1 578:1 690:1 856:1 
-0.002374447093952133 240:1 263:1 268:1 291:1 313:1 745:1 848:1 856:1 931:1 938:1 
-0.4941162759888816 291:1 440:1 452:1 578:1 856:1 
-1 66:1 241:1 291:1 577:1 745:1 856:1 
-0.3320767701790708 268:1 291:1 292:1 550:1 641:1 745:1 856:1 902:1 911:1 
-0.1488119472677706 112:1 247:1 291:1 436:1 856:1 
-0.6228635172634149 108:1 248:1 292:1 631:1 852:1 863:1 
-1 167:1 292:1 966:1 
-1 268:1 291:1 452:1 578:1 856:1 931:1 
-1 226:1 268:1 292:1 495:1 745:1 
-0.5396761956369664 226:1 291:1 292:1 465:1 704:1 769:1 856:1 911:1 
-1 291:1 292:1 676:1 856:1 
-1 291:1 366:1 856:1 
-1 291:1 856:1 936:1 
-0.5223788869648341 33:1 73:1 268:1 291:1 745:1 856:1 
-0.7036887118235575 291:1 292:1 352:1 745:1 856:1 
-1 30:1 268:1 291:1 737:1 769:1 782:1 856:1 892:1 
-0.3535985886576239 209:1 268:1 291:1 364:1 745:1 856:1 
-0.07555707601500046 79:1 268:1 291:1 680:1 694:1 745:1 856:1 
-0.8245914580499033 11:1 12:1 291:1 328:1 634:1 846:1 856:1 
-0.9543613719134725 268:1 291:1 452:1 578:1 703:1 745:1 856:1 927:1 931:1 
-1 268:1 291:1 577:1 745:1 856:1 
-1 268:1 291:1 458:1 741:1 856:1 
-1 268:1 292:1 452:1 578:1 931:1 
-0.7251855696969881 58:1 291:1 666:1 856:1 
-1 268:1 291:1 292:1 317:1 745:1 856:1 
-1 268:1 291:1 745:1 856:1 
-1 268:1 292:1 
-0.1029484006490486 268:1 292:1 347:1 911:1 977:1 
-0.723592667006971 268:1 291:1 372:1 741:1 805:1 806:1 856:1 
-0.5527666224039992 73:1 291:1 856:1 892:1 
-0.7268425793941303 268:1 291:1 399:1 452:1 453:1 578:1 846:1 856:1 
-0.276407332993029 118:1 291:1 372:1 741:1 767:1 856:1 923:1 946:1 
-1 177:1 291:1 686:1 704:1 856:1 921:1 
-1 291:1 702:1 745:1 824:1 856:1 
-1 292:1 690:1 
-0.4329692985341862 291:1 574:1 856:1 
-1 292:1 745:1 833:1 
-0.3564833402627576 292:1 322:1 745:1 
-0.09963827134609815 23:1 255:1 277:1 419:1 
-1 291:1 690:1 856:1 
-1 190:1 291:1 622:1 745:1 856:1 
-0.343364996877341 291:1 465:1 856:1 944:1 
-0.08074569854967745 190:1 291:1 320:1 451:1 622:1 745:1 856:1 892:1 
-0.7802079925761355 177:1 291:1 364:1 745:1 856:1 912:1 
-0.09547246505570715 51:1 291:1 292:1 649:1 745:1 856:1 
-1 291:1 856:1 944:1 
-0.275913708292445 847:1 
-0.6521555628839202 291:1 639:1 768:1 800:1 801:1 856:1 
-0.08335568510939532 196:1 291:1 702:1 704:1 856:1 902:1 
-0.3112840245633394 313:1 465:1 811:1 
-1 291:1 345:1 441:1 452:1 578:1 856:1 931:1 944:1 
-0.6929139735507582 291:1 345:1 441:1 856:1 944:1 
-0.1662100044419685 248:1 291:1 351:1 416:1 577:1 856:1 
-1 73:1 291:1 352:1 687:1 801:1 856:1 938:1 
-1 241:1 291:1 688:1 741:1 745:1 856:1 
-0.8742058594261396 193:1 241:1 291:1 292:1 856:1 938:1 
-0.4079419353716387 167:1 269:1 291:1 644:1 856:1 941:1 944:1 
-0.1185064988132129 46:1 66:1 
-0.2155803333727205 191:1 291:1 398:1 625:1 842:1 856:1 
-0.08408675022687814 173:1 291:1 292:1 704:1 745:1 800:1 801:1 856:1 958:1 965:1 
-0.6887987791924798 292:1 641:1 785:1 977:1 
-1 291:1 347:1 641:1 745:1 856:1 871:1 
-0.6331487367095321 291:1 301:1 374:1 498:1 683:1 856:1 
-1 81:1 291:1 406:1 741:1 770:1 856:1 
-0.9242313108810258 291:1 366:1 856:1 911:1 
-1 292:1 452:1 578:1 
-1 291:1 856:1 944:1 
-1 291:1 483:1 494:1 856:1 955:1 
-1 292:1 690:1 704:1 
-0.3130160628612736 103:1 291:1 518:1 856:1 
-0.637177945727302 79:1 291:1 292:1 856:1 926:1 
-0.2454897459241955 58:1 291:1 358:1 572:1 856:1 917:1 
-1 193:1 291:1 406:1 452:1 578:1 788:1 856:1 
-0.9197419685094803 292:1 346:1 688:1 
-0.5778523444368214 66:1 270:1 292:1 688:1 944:1 
-1 291:1 320:1 452:1 578:1 690:1 770:1 856:1 943:1 
-0.2919251033944901 58:1 291:1 495:1 608:1 690:1 856:1 944:1 
-0.3624527470757313 42:1 193:1 292:1 421:1 465:1 778:1 
-1 30:1 291:1 856:1 
-1 238:1 247:1 291:1 690:1 856:1 931:1 
-0.2577109483061661 15:1 241:1 291:1 320:1 452:1 541:1 578:1 824:1 856:1 966:1 
-0.118012069036747 65:1 291:1 704:1 827:1 856:1 
-1 270:1 291:1 452:1 856:1 
-1 268:1 291:1 741:1 841:1 856:1 938:1 
-1 124:1 172:1 291:1 686:1 745:1 801:1 856:1 
-1 123:1 167:1 291:1 780:1 801:1 856:1 931:1 
-0.1974267889643704 248:1 291:1 452:1 578:1 856:1 926:1 
-0.4824207253996748 167:1 291:1 292:1 856:1 931:1 
-0.3042616467564744 291:1 506:1 604:1 856:1 
-1 241:1 291:1 292:1 452:1 578:1 768:1 856:1 911:1 
-1 30:1 291:1 568:1 856:1 
-1 291:1 741:1 856:1 
-0.6380474142325396 291:1 436:1 441:1 452:1 521:1 745:1 856:1 892:1 
-0.9394505390854007 73:1 687:1 846:1 
-0.4085769789021891 31:1 207:1 241:1 268:1 292:1 769:1 
-0.3347333827007579 241:1 291:1 452:1 467:1 578:1 856:1 865:1 
-1 241:1 291:1 465:1 621:1 690:1 856:1 944:1 
-0.1361334716417841 291:1 424:1 495:1 598:1 688:1 856:1 891:1 
-1 241:1 268:1 270:1 291:1 439:1 452:1 690:1 856:1 938:1 
-1 291:1 452:1 578:1 848:1 856:1 944:1 
-0.6531730911057756 291:1 650:1 856:1 
-0.2604088501776295 193:1 292:1 451:1 824:1 
-0.137210223995327 291:1 446:1 856:1 938:1 
-1 241:1 291:1 292:1 452:1 578:1 690:1 856:1 
-1 291:1 441:1 452:1 578:1 585:1 785:1 856:1 
-0.07818635092709796 143:1 291:1 452:1 578:1 748:1 811:1 856:1 
-1 241:1 291:1 317:1 452:1 465:1 578:1 856:1 
-0.1143416584641037 291:1 306:1 307:1 317:1 441:1 585:1 785:1 856:1 
-0.6702575809276968 291:1 856:1 904:1 
-1 271:1 291:1 648:1 856:1 936:1 
-1 291:1 352:1 741:1 785:1 856:1 931:1 
-0.4584903451154139 291:1 509:1 856:1 931:1 
-0.3917466072528803 272:1 291:1 457:1 847:1 856:1 
-0.0701859381136965 129:1 292:1 704:1 
-1 291:1 800:1 801:1 856:1 
-1 241:1 292:1 704:1 
-1 41:1 178:1 291:1 416:1 437:1 741:1 745:1 800:1 801:1 856:1 
-0.7372766815279499 143:1 378:1 462:1 495:1 584:1 688:1 728:1 966:1 977:1 
-0.5983941493582684 292:1 457:1 770:1 847:1 970:1 
-1 241:1 292:1 938:1 
-0.3643352537984252 291:1 446:1 574:1 598:1 856:1 911:1 
-0.3084691862152759 81:1 291:1 690:1 839:1 856:1 
-1 247:1 292:1 690:1 936:1 
-0.06987472229157327 2:1 116:1 241:1 291:1 393:1 452:1 578:1 856:1 
-0.8641452920025214 240:1 241:1 291:1 452:1 468:1 578:1 856:1 908:1 
-0.2520692544072834 129:1 292:1 441:1 585:1 785:1 924:1 
-1 291:1 741:1 856:1 968:1 
-0.5817525304515729 291:1 452:1 697:1 703:1 856:1 938:1 
-1 48:1 241:1 253:1 268:1 291:1 493:1 856:1 938:1 
-0.1993296771504234 47:1 79:1 291:1 744:1 768:1 856:1 
-1 48:1 253:1 291:1 493:1 856:1 
-0.2913662572835042 291:1 345:1 737:1 856:1 943:1 944:1 953:1 
-0.2494494652974627 78:1 291:1 465:1 541:1 578:1 621:1 848:1 856:1 
-1 291:1 817:1 830:1 856:1 
-0.06665578123429523 291:1 753:1 800:1 801:1 847:1 856:1 
-1 81:1 143:1 291:1 452:1 578:1 839:1 856:1 865:1 931:1 
-1 48:1 141:1 253:1 292:1 493:1 865:1 
-0.8044851631166869 241:1 292:1 938:1 
-1 48:1 253:1 291:1 330:1 493:1 704:1 856:1 
-0.2015056673364853 160:1 291:1 317:1 441:1 856:1 
-0.9336194456962759 241:1 268:1 291:1 703:1 745:1 824:1 856:1 
-0.1457796038419523 291:1 358:1 429:1 495:1 856:1 968:1 
-1 167:1 291:1 856:1 
-0.1277298059639715 291:1 381:1 509:1 577:1 856:1 941:1 942:1 
-0.3384058526224846 292:1 458:1 747:1 789:1 938:1 
-1 111:1 217:1 291:1 737:1 790:1 856:1 885:1 892:1 936:1 
-1 217:1 292:1 737:1 790:1 885:1 892:1 936:1 
-0.5276420986370605 291:1 436:1 797:1 801:1 848:1 856:1 924:1 953:1 
-1 207:1 556:1 686:1 748:1 848:1 931:1 
-0.05743206492157119 164:1 175:1 464:1 856:1 931:1 943:1 
-0.2384020958282258 58:1 737:1 847:1 848:1 
-1 291:1 747:1 789:1 853:1 856:1 936:1 
-1 241:1 291:1 704:1 747:1 789:1 856:1 871:1 938:1 
-0.2315735304007393 15:1 291:1 379:1 608:1 856:1 931:1 
-1 241:1 292:1 452:1 578:1 
-0.3873443295655896 292:1 398:1 856:1 
-0.6788557448476229 292:1 308:1 346:1 404:1 416:1 437:1 568:1 688:1 
-0.4043419185664616 73:1 241:1 291:1 452:1 578:1 687:1 694:1 856:1 
-1 263:1 642:1 686:1 911:1 
-1 291:1 800:1 801:1 856:1 
-1 10:1 291:1 801:1 856:1 
-1 58:1 291:1 800:1 801:1 856:1 
-1 291:1 800:1 801:1 856:1 
-0.8668047022772126 73:1 267:1 291:1 465:1 574:1 856:1 941:1 
-1 241:1 291:1 452:1 578:1 856:1 
-1 291:1 856:1 936:1 
-1 291:1 452:1 578:1 686:1 768:1 856:1 
-1 291:1 465:1 686:1 856:1 911:1 936:1 
-0.3448949706071204 46:1 241:1 291:1 317:1 856:1 942:1 944:1 
-1 239:1 283:1 313:1 682:1 686:1 801:1 808:1 
-1 16:1 30:1 289:1 291:1 494:1 807:1 856:1 955:1 
-0.2593819178020633 268:1 292:1 495:1 680:1 745:1 770:1 931:1 
-0.7015003265658737 291:1 355:1 515:1 824:1 856:1 
-0.4906021440806605 292:1 451:1 842:1 
-1 240:1 241:1 291:1 452:1 852:1 856:1 938:1 
-1 291:1 452:1 577:1 578:1 856:1 
-0.1341583036299609 268:1 806:1 856:1 931:1 
-1 292:1 943:1 
-0.4207927830034551 291:1 320:1 452:1 822:1 856:1 
-1 291:1 452:1 578:1 856:1 
-0.8378717537099976 291:1 303:1 509:1 639:1 690:1 745:1 856:1 
-1 73:1 241:1 291:1 515:1 856:1 944:1 
-0.320979294966488 291:1 313:1 346:1 800:1 801:1 856:1 
-0.9032870265480233 1:1 151:1 291:1 770:1 830:1 856:1 943:1 
-0.8198738732863048 271:1 317:1 552:1 690:1 745:1 
-1 291:1 292:1 452:1 578:1 639:1 848:1 856:1 944:1 
-1 22:1 291:1 292:1 452:1 578:1 856:1 931:1 
-1 286:1 291:1 801:1 856:1 
-0.4835487442863385 291:1 800:1 801:1 856:1 878:1 944:1 
-0.6149684892462859 291:1 556:1 632:1 745:1 800:1 801:1 856:1 944:1 959:1 
-1 291:1 301:1 306:1 404:1 856:1 966:1 
-0.5326151573326973 291:1 743:1 856:1 
-1 62:1 291:1 352:1 856:1 936:1 
-0.9372053575908894 222:1 276:1 291:1 621:1 856:1 
-0.9749826804629972 101:1 291:1 670:1 745:1 856:1 
-1 291:1 800:1 801:1 856:1 878:1 944:1 
-0.4439134568738593 247:1 291:1 856:1 944:1 
-1 291:1 785:1 856:1 
-1 291:1 466:1 728:1 856:1 931:1 
-1 79:1 291:1 292:1 625:1 856:1 
-1 291:1 833:1 856:1 
-0.3473812624209855 291:1 856:1 943:1 
-1 452:1 578:1 688:1 800:1 801:1 
-1 191:1 291:1 452:1 578:1 856:1 
-0.6342645205771358 419:1 
-1 33:1 222:1 262:1 291:1 452:1 578:1 856:1 
-1 292:1 452:1 578:1 690:1 
-0.3774421521346802 291:1 345:1 452:1 578:1 626:1 848:1 856:1 944:1 
-1 291:1 292:1 690:1 856:1 
-0.2979523425687678 770:1 800:1 801:1 
-0.4585546853089746 78:1 406:1 655:1 768:1 931:1 956:1 
-0.7862509253271031 291:1 856:1 911:1 922:1 946:1 
-1 291:1 801:1 856:1 
-0.8154789735844032 292:1 469:1 591:1 628:1 
-1 79:1 247:1 291:1 307:1 856:1 931:1 
-0.3672016596267338 89:1 241:1 291:1 292:1 317:1 351:1 745:1 856:1 938:1 
-1 291:1 741:1 856:1 931:1 
-1 292:1 
-1 292:1 938:1 
-0.2738319156742206 241:1 291:1 704:1 856:1 
-0.2646335227343926 143:1 212:1 291:1 358:1 495:1 856:1 931:1 957:1 
-0.4088050604112593 104:1 241:1 292:1 693:1 
-1 241:1 291:1 345:1 452:1 856:1 944:1 
-1 292:1 446:1 
-1 237:1 292:1 
-0.3311064935866886 57:1 291:1 292:1 431:1 737:1 745:1 763:1 771:1 856:1 926:1 
-0.865612828652202 241:1 291:1 553:1 693:1 856:1 
-0.3324980426583268 291:1 693:1 856:1 
-1 110:1 291:1 473:1 856:1 
-0.0009227080082920835 133:1 241:1 292:1 
-1 268:1 291:1 745:1 856:1 938:1 
-0.6895113134158239 58:1 73:1 283:1 291:1 770:1 801:1 842:1 856:1 
-0.2988474966230108 58:1 73:1 291:1 292:1 856:1 
-0.1311003805657594 66:1 212:1 241:1 270:1 291:1 452:1 578:1 856:1 931:1 
-1 292:1 352:1 690:1 
-0.297494201485818 79:1 160:1 291:1 352:1 856:1 
-0.1365259381347734 263:1 291:1 465:1 787:1 856:1 
-0.1541483782061813 190:1 291:1 621:1 622:1 747:1 856:1 911:1 
-1 291:1 292:1 690:1 800:1 801:1 856:1 
-1 292:1 452:1 578:1 687:1 690:1 704:1 
-1 441:1 538:1 800:1 801:1 944:1 
-0.2695664080759306 190:1 292:1 576:1 622:1 690:1 747:1 911:1 
-0.5075722182951972 240:1 291:1 856:1 911:1 
-1 247:1 292:1 555:1 740:1 
-0.03348762001573193 292:1 333:1 452:1 578:1 795:1 
-1 291:1 318:1 572:1 768:1 856:1 
-1 292:1 847:1 
-0.2908239597682818 292:1 441:1 
-1 2:1 291:1 671:1 856:1 
-1 268:1 291:1 509:1 555:1 690:1 856:1 914:1 
-1 291:1 452:1 578:1 856:1 
-1 241:1 291:1 311:1 452:1 572:1 578:1 848:1 856:1 
-1 292:1 352:1 452:1 578:1 691:1 737:1 
-1 291:1 452:1 578:1 856:1 
-1 54:1 73:1 291:1 355:1 800:1 801:1 856:1 
-0.15026455111695 286:1 291:1 452:1 578:1 856:1 931:1 
-1 100:1 292:1 686:1 936:1 968:1 
-1 509:1 780:1 
-1 30:1 291:1 465:1 494:1 626:1 806:1 807:1 842:1 944:1 955:1 
-1 291:1 301:1 856:1 
-1 292:1 441:1 833:1 848:1 944:1 
-0.5411383070482815 191:1 239:1 291:1 852:1 856:1 944:1 952:1 
-0.1521752663312947 291:1 452:1 807:1 856:1 931:1 
-0.1115942421463335 241:1 291:1 352:1 800:1 801:1 856:1 865:1 
-1 292:1 301:1 452:1 507:1 578:1 741:1 
-1 79:1 292:1 924:1 
-1 255:1 269:1 292:1 
-0.6802392431242024 292:1 333:1 628:1 938:1 
-1 255:1 292:1 398:1 856:1 
-1 291:1 856:1 944:1 
-1 247:1 291:1 465:1 741:1 856:1 938:1 
-0.4978523534327108 260:1 291:1 628:1 856:1 944:1 957:1 
-0.4220196148370142 135:1 352:1 452:1 578:1 
-1 193:1 268:1 291:1 292:1 745:1 856:1 
-0.3412199342714349 247:1 263:1 291:1 465:1 583:1 741:1 856:1 924:1 
-1 268:1 291:1 768:1 846:1 856:1 912:1 
-1 291:1 495:1 745:1 856:1 931:1 
-0.1407584989386396 124:1 234:1 291:1 815:1 828:1 856:1 
-0.3143312669629434 292:1 823:1 975:1 
-1 292:1 358:1 896:1 
-0.2633482335226819 49:1 407:1 621:1 
-0.5907172084644544 687:1 703:1 874:1 
-1 768:1 
-0.09078226563243486 247:1 356:1 483:1 
-0.4362345255100057 49:1 134:1 555:1 788:1 
-0.2811205923859577 112:1 795:1 
-0.520213168216087 313:1 352:1 457:1 924:1 
-0.39096327039329 481:1 962:1 
-0.3537428923479044 15:1 351:1 
-0.6945319748544709 870:1 
-0.3239131396381654 79:1 
-0.4668626931626795 647:1 688:1 980:1 
-0.6231824866191872 268:1 842:1 
-0.8082952033103622 946:1 964:1 
-1 495:1 847:1 
-1 741:1 865:1 
-0.6874931564225757 62:1 271:1 688:1 745:1 772:1 931:1 
-0.5279667586502731 108:1 352:1 406:1 970:1 
-1 291:1 452:1 578:1 
-1 481:1 
-0.09064991477040624 187:1 441:1 944:1 
-1 37:1 483:1 936:1 
-1 944:1 
-0.5503952085304233 320:1 452:1 804:1 
-1 452:1 465:1 578:1 
-1 49:1 92:1 268:1 
-1 46:1 
-0.1996212650461823 722:1 
-0.8938865638741996 317:1 429:1 704:1 966:1 
-0.04907976772675243 938:1 944:1 
-0.4525614372998552 51:1 177:1 261:1 436:1 728:1 
