svm_type c_svc
kernel_type rbf
gamma 0.00101626
nr_class 2
total_sv 80
rho 0.993487
label 1 -1
nr_sv 20 60
SV
1 291:1 317:1 577:1 703:1 856:1 
1 268:1 291:1 686:1 745:1 856:1 
1 191:1 249:1 268:1 291:1 446:1 745:1 815:1 856:1 
1 291:1 745:1 856:1 
1 10:1 178:1 292:1 452:1 578:1 768:1 801:1 941:1 
1 81:1 120:1 240:1 268:1 292:1 335:1 839:1 
1 73:1 193:1 291:1 292:1 770:1 856:1 
1 268:1 291:1 292:1 690:1 856:1 870:1 970:1 
1 73:1 291:1 745:1 856:1 
1 240:1 690:1 745:1 
1 291:1 347:1 577:1 785:1 815:1 856:1 
1 30:1 291:1 379:1 494:1 856:1 955:1 
1 292:1 745:1 944:1 
1 10:1 268:1 283:1 291:1 352:1 436:1 452:1 578:1 801:1 856:1 
1 117:1 268:1 292:1 452:1 578:1 687:1 690:1 745:1 
1 291:1 801:1 856:1 
1 54:1 436:1 763:1 892:1 
1 54:1 436:1 892:1 893:1 
1 892:1 
1 291:1 436:1 763:1 856:1 893:1 
-0.04085014551438942 193:1 291:1 436:1 646:1 647:1 748:1 856:1 970:1 
-0.120489828287825 33:1 268:1 291:1 441:1 687:1 770:1 856:1 941:1 
-0.7419368166723767 54:1 379:1 436:1 467:1 
-0.235137016612927 54:1 465:1 634:1 892:1 
-0.1091741186977146 73:1 135:1 240:1 271:1 291:1 364:1 770:1 856:1 959:1 
-1 893:1 
-0.1246786917677929 30:1 292:1 397:1 494:1 687:1 852:1 955:1 
-0.1396360434412354 16:1 54:1 241:1 372:1 436:1 452:1 578:1 767:1 
-0.5777098092288601 283:1 291:1 745:1 801:1 856:1 
-0.2432750764910524 240:1 291:1 416:1 690:1 745:1 856:1 
-0.0924610965289088 81:1 120:1 291:1 335:1 395:1 641:1 806:1 856:1 
-0.04259771063390444 92:1 291:1 306:1 745:1 856:1 944:1 970:1 
-0.04755400861997165 291:1 431:1 635:1 763:1 771:1 856:1 
-0.07969950054979784 10:1 250:1 283:1 291:1 587:1 682:1 801:1 853:1 856:1 944:1 
-0.1186362070952824 17:1 30:1 292:1 436:1 477:1 
-0.06048496084291499 220:1 224:1 252:1 291:1 292:1 452:1 568:1 719:1 856:1 892:1 893:1 975:1 
-0.139452728654818 33:1 73:1 268:1 291:1 745:1 856:1 
-0.0678781882339345 30:1 268:1 291:1 737:1 769:1 782:1 856:1 892:1 
-0.2859544244725329 268:1 291:1 452:1 578:1 703:1 745:1 856:1 927:1 931:1 
-1 268:1 291:1 577:1 745:1 856:1 
-0.524828792238108 268:1 291:1 292:1 317:1 745:1 856:1 
-0.7472811711063793 73:1 291:1 856:1 892:1 
-0.3702546354704322 291:1 577:1 687:1 856:1 970:1 
-0.1912319365605811 291:1 436:1 441:1 452:1 521:1 745:1 856:1 892:1 
-0.2966341739451431 249:1 291:1 429:1 770:1 856:1 944:1 
-0.61999214533449 81:1 291:1 690:1 839:1 856:1 
-0.05638086605442139 81:1 123:1 292:1 307:1 690:1 839:1 
-0.06910187851460843 48:1 167:1 267:1 268:1 292:1 690:1 944:1 
-0.3833016537837194 60:1 688:1 763:1 
-0.1843121543103687 240:1 241:1 291:1 292:1 452:1 494:1 578:1 686:1 800:1 801:1 806:1 856:1 955:1 
-0.2504498565901107 30:1 292:1 352:1 452:1 578:1 686:1 801:1 807:1 911:1 936:1 
-0.5207047904550868 291:1 352:1 452:1 494:1 578:1 801:1 856:1 955:1 
-1 268:1 292:1 745:1 
-0.2574973996512843 73:1 268:1 291:1 745:1 823:1 856:1 
-0.2470021881883008 58:1 73:1 268:1 269:1 292:1 770:1 944:1 968:1 
-0.3044391289504921 268:1 292:1 690:1 
-0.2279225052513805 193:1 268:1 291:1 452:1 578:1 745:1 856:1 
-0.1616719391366305 178:1 291:1 436:1 481:1 833:1 856:1 
-0.2986829089090911 191:1 291:1 452:1 578:1 856:1 
-0.06380520278625083 292:1 352:1 686:1 768:1 
-0.2136348279507813 292:1 317:1 436:1 511:1 552:1 690:1 
-0.09028469612470985 78:1 291:1 690:1 785:1 856:1 
-0.6631530215975264 291:1 347:1 452:1 578:1 768:1 856:1 
-0.1367509911942639 173:1 268:1 292:1 703:1 
-0.409606446576975 292:1 446:1 
-0.2028670066880149 10:1 291:1 801:1 856:1 879:1 892:1 
-0.1128006060914893 57:1 291:1 292:1 431:1 737:1 745:1 763:1 771:1 856:1 926:1 
-0.8763808202983571 240:1 291:1 292:1 745:1 856:1 
-0.05084653016341745 291:1 686:1 833:1 856:1 892:1 944:1 
-0.2412655815146295 2:1 54:1 291:1 350:1 576:1 577:1 856:1 941:1 
-0.136707838463581 292:1 452:1 578:1 687:1 690:1 704:1 
-1 436:1 892:1 
-0.2046509918766071 120:1 291:1 335:1 806:1 856:1 
-1 10:1 291:1 690:1 801:1 856:1 
-0.4303608709599905 117:1 268:1 291:1 292:1 745:1 856:1 871:1 
-0.7219171757760281 193:1 268:1 291:1 292:1 745:1 856:1 
-0.2351169362983645 124:1 234:1 291:1 815:1 828:1 856:1 
-0.2889630988036269 870:1 
-0.7893089822487069 436:1 
-0.1522818777898123 687:1 785:1 
