svm_type c_svc
kernel_type rbf
gamma 0.00101626
nr_class 2
total_sv 263
rho 0.997884
label 1 -1
nr_sv 75 188
SV
1 291:1 317:1 577:1 703:1 856:1 
1 291:1 352:1 452:1 856:1 931:1 938:1 
1 79:1 291:1 307:1 317:1 495:1 626:1 856:1 
1 291:1 317:1 508:1 555:1 593:1 856:1 
1 291:1 593:1 856:1 879:1 
1 241:1 291:1 856:1 
1 291:1 704:1 800:1 801:1 856:1 
1 247:1 248:1 263:1 291:1 848:1 856:1 
1 291:1 452:1 578:1 856:1 875:1 
1 452:1 578:1 737:1 741:1 
1 267:1 291:1 842:1 856:1 
1 292:1 441:1 452:1 572:1 578:1 650:1 800:1 801:1 944:1 
1 292:1 452:1 495:1 578:1 
1 137:1 291:1 452:1 578:1 704:1 801:1 856:1 
1 291:1 465:1 674:1 785:1 856:1 
1 11:1 12:1 291:1 392:1 856:1 
1 291:1 452:1 578:1 856:1 
1 291:1 555:1 704:1 745:1 856:1 914:1 
1 291:1 555:1 686:1 856:1 914:1 
1 241:1 291:1 424:1 452:1 578:1 856:1 
1 291:1 856:1 
1 291:1 511:1 856:1 
1 263:1 269:1 291:1 465:1 688:1 787:1 856:1 
1 241:1 291:1 441:1 693:1 848:1 856:1 944:1 
1 291:1 452:1 465:1 626:1 772:1 856:1 
1 291:1 856:1 953:1 
1 241:1 291:1 704:1 856:1 
1 241:1 291:1 452:1 578:1 690:1 856:1 
1 241:1 292:1 452:1 462:1 578:1 728:1 924:1 932:1 977:1 
1 291:1 704:1 801:1 856:1 924:1 930:1 932:1 
1 291:1 320:1 541:1 690:1 856:1 
1 46:1 240:1 292:1 452:1 578:1 704:1 
1 291:1 704:1 856:1 924:1 932:1 
1 352:1 436:1 745:1 769:1 833:1 856:1 
1 268:1 291:1 745:1 800:1 801:1 856:1 871:1 
1 292:1 452:1 578:1 838:1 
1 154:1 292:1 301:1 481:1 938:1 
1 241:1 269:1 291:1 292:1 374:1 690:1 856:1 912:1 
1 46:1 240:1 241:1 292:1 452:1 578:1 852:1 944:1 
1 291:1 301:1 465:1 856:1 
1 291:1 307:1 770:1 856:1 
1 10:1 291:1 690:1 801:1 856:1 
1 117:1 268:1 291:1 292:1 745:1 856:1 871:1 
1 62:1 103:1 134:1 291:1 452:1 578:1 856:1 
1 241:1 291:1 856:1 
1 300:1 572:1 
1 270:1 291:1 483:1 690:1 856:1 
1 292:1 452:1 578:1 
1 66:1 
1 292:1 441:1 462:1 585:1 728:1 785:1 888:1 952:1 
1 92:1 291:1 856:1 
1 291:1 301:1 785:1 856:1 
1 48:1 291:1 330:1 749:1 816:1 856:1 
1 292:1 301:1 495:1 688:1 
1 8:1 247:1 320:1 452:1 578:1 704:1 
1 267:1 291:1 301:1 358:1 452:1 455:1 483:1 578:1 785:1 856:1 
1 268:1 291:1 686:1 745:1 856:1 
1 191:1 249:1 268:1 291:1 446:1 745:1 815:1 856:1 
1 291:1 745:1 856:1 
1 10:1 178:1 292:1 452:1 578:1 768:1 801:1 941:1 
1 81:1 120:1 240:1 268:1 292:1 335:1 839:1 
1 73:1 193:1 291:1 292:1 770:1 856:1 
1 268:1 291:1 292:1 690:1 856:1 870:1 970:1 
1 73:1 291:1 745:1 856:1 
1 240:1 690:1 745:1 
1 291:1 347:1 577:1 785:1 815:1 856:1 
1 30:1 291:1 379:1 494:1 856:1 955:1 
1 292:1 745:1 944:1 
1 10:1 268:1 283:1 291:1 352:1 436:1 452:1 578:1 801:1 856:1 
1 117:1 268:1 292:1 452:1 578:1 687:1 690:1 745:1 
1 291:1 801:1 856:1 
1 54:1 436:1 763:1 892:1 
1 54:1 436:1 892:1 893:1 
1 892:1 
1 291:1 436:1 763:1 856:1 893:1 
-0.07765698359151101 30:1 291:1 610:1 719:1 737:1 807:1 856:1 871:1 
-0.09263625082823997 291:1 446:1 626:1 737:1 856:1 
-0.2719606439489436 248:1 291:1 441:1 572:1 856:1 865:1 
-0.3271644587182688 263:1 291:1 436:1 465:1 495:1 541:1 576:1 856:1 
-1 291:1 301:1 352:1 436:1 690:1 799:1 856:1 
-0.174792611935756 247:1 270:1 291:1 317:1 602:1 856:1 
-0.4452488261960705 54:1 379:1 436:1 467:1 
-0.106007379633729 122:1 291:1 317:1 358:1 452:1 578:1 856:1 
-0.3475336058757034 291:1 478:1 690:1 704:1 785:1 856:1 
-0.1632542672020297 291:1 572:1 690:1 856:1 
-0.2978322930949092 734:1 838:1 
-0.06894435192468197 46:1 252:1 283:1 291:1 292:1 398:1 626:1 856:1 
-0.801469573126984 8:1 291:1 483:1 704:1 856:1 
-0.1619378448995467 46:1 241:1 267:1 292:1 452:1 468:1 578:1 908:1 930:1 931:1 965:1 
-0.4828211053915855 54:1 465:1 634:1 892:1 
-0.1621793169015611 291:1 541:1 577:1 604:1 856:1 
-0.4422965698010097 291:1 307:1 495:1 704:1 856:1 916:1 970:1 
-0.05313504719813282 137:1 241:1 291:1 386:1 445:1 745:1 856:1 912:1 
-1 893:1 
-1 291:1 436:1 452:1 578:1 704:1 856:1 
-0.09252128251146521 291:1 317:1 441:1 644:1 856:1 892:1 
-1 73:1 240:1 269:1 291:1 856:1 
-0.4613753782598496 134:1 291:1 452:1 578:1 856:1 944:1 
-0.3272392160675993 291:1 816:1 848:1 856:1 
-0.1092444832135903 249:1 291:1 646:1 647:1 768:1 856:1 888:1 
-0.09686821134127974 291:1 352:1 452:1 578:1 816:1 848:1 856:1 
-0.1934459875346682 16:1 54:1 241:1 372:1 436:1 452:1 578:1 767:1 
-0.3437692460201392 10:1 111:1 291:1 441:1 801:1 856:1 931:1 941:1 
-0.07323992966740309 33:1 291:1 686:1 856:1 888:1 
-0.1450755575089773 170:1 247:1 268:1 291:1 317:1 452:1 770:1 833:1 856:1 975:1 
-0.09865051550481052 186:1 291:1 495:1 541:1 856:1 953:1 
-0.8780591019123696 291:1 452:1 455:1 578:1 856:1 
-0.321158791866386 263:1 268:1 291:1 704:1 800:1 801:1 856:1 
-1 291:1 704:1 745:1 856:1 
-0.5343506546335943 283:1 291:1 745:1 801:1 856:1 
-0.5150035656630936 240:1 269:1 291:1 741:1 856:1 941:1 
-0.3611234651364228 240:1 291:1 416:1 690:1 745:1 856:1 
-0.2807216569858401 241:1 291:1 704:1 745:1 800:1 801:1 856:1 
-0.8860956737350442 291:1 292:1 347:1 626:1 785:1 856:1 
-0.5396308980400524 154:1 292:1 
-0.1298726519090011 190:1 292:1 320:1 622:1 745:1 808:1 892:1 
-0.8753897325090142 267:1 291:1 856:1 
-0.04908767277874816 282:1 291:1 292:1 572:1 816:1 847:1 856:1 
-0.6147034647066787 249:1 291:1 856:1 
-0.3275499547368569 62:1 291:1 374:1 856:1 
-0.07261057605746182 71:1 291:1 293:1 320:1 688:1 856:1 970:1 
-0.0716496028756269 79:1 160:1 241:1 469:1 816:1 856:1 943:1 
-0.1409415242810291 291:1 431:1 635:1 763:1 771:1 856:1 
-0.6648622255262043 291:1 772:1 856:1 888:1 938:1 
-0.1415012176291553 73:1 241:1 300:1 317:1 348:1 441:1 687:1 938:1 
-0.1571927397052242 248:1 291:1 441:1 483:1 574:1 632:1 816:1 856:1 
-0.2644816680167676 291:1 320:1 587:1 856:1 924:1 
-0.06662147065815353 291:1 300:1 348:1 352:1 770:1 801:1 856:1 930:1 
-0.3709727854547895 135:1 267:1 291:1 856:1 870:1 
-0.156615218514754 181:1 292:1 319:1 451:1 483:1 893:1 
-0.06756618089196206 220:1 224:1 252:1 291:1 292:1 452:1 568:1 719:1 856:1 892:1 893:1 975:1 
-0.6344944825723953 291:1 770:1 856:1 871:1 911:1 924:1 944:1 
-0.186756058007141 11:1 12:1 148:1 291:1 579:1 856:1 918:1 919:1 
-0.6767257468364972 105:1 108:1 117:1 241:1 452:1 483:1 578:1 
-0.1248454048994479 291:1 800:1 801:1 856:1 930:1 
-0.09088162670149313 255:1 291:1 572:1 690:1 816:1 817:1 856:1 
-0.09915778924957561 3:1 81:1 288:1 291:1 320:1 626:1 770:1 839:1 856:1 944:1 
-0.1894782375823162 46:1 65:1 91:1 240:1 291:1 317:1 690:1 856:1 
-0.1857083784525404 270:1 291:1 352:1 510:1 690:1 693:1 856:1 
-0.2267776833247346 240:1 263:1 268:1 291:1 313:1 745:1 848:1 856:1 931:1 938:1 
-0.1321303599168488 46:1 65:1 241:1 247:1 291:1 292:1 704:1 770:1 856:1 
-0.1637978391255334 66:1 241:1 291:1 577:1 745:1 856:1 
-0.2067252431364787 30:1 268:1 291:1 737:1 769:1 782:1 856:1 892:1 
-0.06417138147051528 268:1 291:1 452:1 578:1 703:1 745:1 856:1 927:1 931:1 
-1 268:1 291:1 577:1 745:1 856:1 
-0.6468561989143622 268:1 291:1 745:1 856:1 
-0.05593342759932395 248:1 291:1 441:1 572:1 745:1 853:1 856:1 931:1 
-0.2116358960514083 248:1 291:1 441:1 572:1 639:1 745:1 853:1 856:1 
-0.539701644752949 46:1 66:1 
-0.1778081608748454 292:1 641:1 785:1 977:1 
-0.1749351053979299 291:1 347:1 641:1 745:1 856:1 871:1 
-0.3489997150364915 2:1 291:1 317:1 785:1 856:1 
-0.2467602382427766 62:1 104:1 283:1 291:1 495:1 856:1 912:1 
-0.5896412049862869 291:1 301:1 374:1 498:1 683:1 856:1 
-1 292:1 452:1 578:1 
-0.2864634633454546 103:1 291:1 518:1 856:1 
-0.08822253785054035 291:1 320:1 452:1 578:1 690:1 770:1 856:1 943:1 
-0.3704388631807857 79:1 291:1 626:1 856:1 
-0.1331563958085039 291:1 317:1 848:1 856:1 953:1 
-0.2117656672150652 291:1 436:1 441:1 452:1 521:1 745:1 856:1 892:1 
-0.130099759198447 291:1 424:1 495:1 598:1 688:1 856:1 891:1 
-0.2433018851595733 270:1 292:1 439:1 785:1 
-0.6237241127373578 291:1 650:1 856:1 
-0.9287059132692473 241:1 291:1 292:1 452:1 578:1 690:1 856:1 
-0.2762746059107103 291:1 441:1 452:1 578:1 585:1 785:1 856:1 
-0.4716408895467886 241:1 291:1 317:1 452:1 465:1 578:1 856:1 
-0.5348430890854909 291:1 306:1 307:1 317:1 441:1 585:1 785:1 856:1 
-0.5137630101639338 143:1 378:1 462:1 495:1 584:1 688:1 728:1 966:1 977:1 
-0.1610311803316222 112:1 134:1 291:1 292:1 572:1 856:1 953:1 959:1 
-0.2257280225435969 66:1 270:1 
-0.2336461631245484 81:1 123:1 292:1 307:1 690:1 839:1 
-0.6294481700278897 291:1 856:1 912:1 924:1 
-0.4353858922369007 129:1 292:1 441:1 585:1 785:1 924:1 
-0.5532725940593564 46:1 48:1 81:1 292:1 452:1 578:1 
-0.1196012741217228 30:1 259:1 291:1 330:1 568:1 856:1 
-0.08468680062565956 48:1 167:1 267:1 268:1 292:1 690:1 944:1 
-0.2236438642469376 48:1 241:1 267:1 291:1 452:1 578:1 690:1 856:1 
-0.09204381705773604 48:1 253:1 291:1 330:1 493:1 704:1 856:1 
-0.4514329558706958 30:1 81:1 291:1 307:1 379:1 406:1 704:1 769:1 842:1 856:1 944:1 
-0.4524353389358986 291:1 436:1 797:1 801:1 848:1 856:1 924:1 953:1 
-0.1113698005269673 241:1 291:1 704:1 747:1 789:1 856:1 871:1 938:1 
-1 241:1 292:1 452:1 578:1 
-0.4905331713002377 60:1 688:1 763:1 
-0.4442771421908811 737:1 892:1 
-0.1354036634296113 166:1 291:1 465:1 511:1 702:1 856:1 
-0.1391696603345454 291:1 800:1 801:1 856:1 
-0.7100245031700771 241:1 291:1 358:1 452:1 578:1 768:1 770:1 856:1 
-0.3992305907845623 291:1 452:1 578:1 686:1 856:1 
-0.1166075936810106 10:1 291:1 397:1 801:1 856:1 936:1 
-1 10:1 291:1 801:1 856:1 
-1 291:1 452:1 578:1 686:1 856:1 
-0.93851346763245 291:1 494:1 801:1 856:1 955:1 
-1 268:1 292:1 745:1 
-0.8718064843286424 241:1 268:1 291:1 292:1 704:1 745:1 800:1 801:1 856:1 
-0.3804458599636429 291:1 465:1 495:1 856:1 924:1 
-0.537248210814387 268:1 292:1 529:1 572:1 704:1 801:1 
-0.4618182221772041 291:1 452:1 577:1 578:1 856:1 
-0.7885956336418456 291:1 352:1 452:1 495:1 856:1 938:1 
-0.8527751694578343 207:1 268:1 291:1 856:1 896:1 932:1 
-0.0674498271889392 247:1 291:1 474:1 785:1 829:1 856:1 
-0.1310198332207482 193:1 268:1 291:1 452:1 578:1 745:1 856:1 
-0.5547511738039295 291:1 801:1 856:1 930:1 
-0.5377971217724099 12:1 291:1 856:1 
-0.08311957894611378 291:1 320:1 452:1 822:1 856:1 
-0.7763627973556071 178:1 291:1 436:1 481:1 833:1 856:1 
-0.1181783921194733 291:1 446:1 452:1 571:1 578:1 856:1 
-0.7179524060517588 92:1 291:1 745:1 856:1 
-0.3952228777609221 73:1 79:1 240:1 241:1 291:1 452:1 578:1 856:1 
-0.4317402200488279 241:1 292:1 466:1 687:1 690:1 704:1 728:1 
-1 291:1 785:1 856:1 
-0.877564161395717 452:1 578:1 688:1 800:1 801:1 
-0.1131257826784761 177:1 291:1 392:1 676:1 856:1 938:1 
-0.5377346382315743 191:1 291:1 452:1 578:1 856:1 
-1 292:1 452:1 578:1 690:1 
-0.08448240194334633 53:1 91:1 117:1 273:1 291:1 676:1 780:1 856:1 
-0.0520707844988882 328:1 481:1 801:1 846:1 
-0.1225823603385605 292:1 352:1 686:1 768:1 
-0.7563326703390114 291:1 320:1 352:1 452:1 578:1 852:1 856:1 
-0.08861057938588318 73:1 292:1 452:1 578:1 704:1 944:1 
-0.1003089618358679 79:1 247:1 291:1 307:1 856:1 931:1 
-0.3930961773953032 292:1 317:1 436:1 511:1 552:1 690:1 
-0.2286501233063116 78:1 291:1 690:1 785:1 856:1 
-0.7576827500279442 137:1 241:1 291:1 452:1 578:1 856:1 
-0.2411471876596157 247:1 292:1 626:1 
-0.3014427924419322 241:1 291:1 704:1 745:1 856:1 
-0.4656577313522833 292:1 300:1 
-0.2715973315367485 241:1 269:1 291:1 690:1 848:1 856:1 944:1 
-0.5768122466973538 292:1 446:1 
-1 10:1 291:1 801:1 856:1 879:1 892:1 
-0.1920574203489831 57:1 291:1 292:1 431:1 737:1 745:1 763:1 771:1 856:1 926:1 
-0.4920193050584897 291:1 693:1 856:1 
-0.6242787004542931 241:1 291:1 703:1 745:1 856:1 
-0.9196999174863296 240:1 291:1 292:1 745:1 856:1 
-0.1452558668179597 291:1 686:1 833:1 856:1 892:1 944:1 
-1 292:1 452:1 578:1 944:1 
-0.1132497307544461 58:1 73:1 283:1 291:1 770:1 801:1 842:1 856:1 
-1 263:1 291:1 465:1 787:1 856:1 
-0.6562160501434757 292:1 452:1 578:1 687:1 690:1 704:1 
-0.1023243873340805 441:1 538:1 800:1 801:1 944:1 
-0.06034873576063306 436:1 892:1 
-0.7619457804567236 247:1 292:1 555:1 740:1 
-1 268:1 291:1 509:1 555:1 690:1 856:1 914:1 
-0.08630626618860417 241:1 291:1 311:1 452:1 572:1 578:1 848:1 856:1 
-0.3047847822036893 54:1 73:1 291:1 355:1 800:1 801:1 856:1 
-0.5049788305435661 120:1 291:1 335:1 806:1 856:1 
-0.104628397591848 247:1 291:1 856:1 
-1 291:1 301:1 856:1 
-0.3185860376932808 191:1 239:1 291:1 852:1 856:1 944:1 952:1 
-0.8455710029537987 292:1 301:1 452:1 507:1 578:1 741:1 
-0.8179889302094691 193:1 268:1 291:1 292:1 745:1 856:1 
-0.4089661835847514 124:1 234:1 291:1 815:1 828:1 856:1 
-0.3128431631995923 49:1 134:1 555:1 788:1 
-0.1240947104973662 100:1 103:1 
-0.2115112102033776 870:1 
-0.05244926232097343 483:1 842:1 941:1 
-0.3301642800892287 276:1 330:1 452:1 
-0.1116103093901862 62:1 271:1 688:1 745:1 772:1 931:1 
-0.05587987938355163 154:1 465:1 626:1 926:1 931:1 941:1 
-0.1610012107812706 320:1 452:1 804:1 
-1 452:1 465:1 578:1 
-0.3453253259836021 437:1 848:1 871:1 944:1 
-0.1977267509203379 301:1 804:1 842:1 966:1 
-0.1231339679696156 51:1 177:1 261:1 436:1 728:1 
