svm_type c_svc
kernel_type rbf
gamma 0.00101626
nr_class 2
total_sv 638
rho 0.95589
label 1 -1
nr_sv 240 398
SV
1 291:1 317:1 577:1 703:1 856:1 
1 30:1 292:1 931:1 
1 30:1 494:1 568:1 800:1 801:1 931:1 955:1 
1 178:1 291:1 436:1 481:1 833:1 856:1 
1 291:1 303:1 639:1 690:1 745:1 856:1 
1 291:1 639:1 704:1 824:1 856:1 
1 268:1 291:1 745:1 830:1 856:1 
1 291:1 604:1 801:1 856:1 
1 291:1 446:1 452:1 571:1 578:1 856:1 
1 291:1 628:1 690:1 830:1 856:1 
1 292:1 639:1 687:1 690:1 704:1 848:1 931:1 944:1 
1 247:1 286:1 452:1 578:1 829:1 
1 49:1 291:1 318:1 687:1 856:1 
1 291:1 856:1 926:1 
1 291:1 452:1 578:1 856:1 
1 177:1 291:1 436:1 856:1 
1 291:1 856:1 936:1 
1 78:1 291:1 452:1 578:1 856:1 944:1 
1 151:1 291:1 452:1 578:1 856:1 
1 190:1 441:1 572:1 622:1 847:1 936:1 
1 291:1 816:1 856:1 936:1 
1 101:1 151:1 292:1 355:1 670:1 941:1 
1 10:1 291:1 416:1 801:1 856:1 
1 
1 241:1 247:1 291:1 704:1 848:1 856:1 944:1 
1 73:1 79:1 240:1 241:1 291:1 452:1 578:1 856:1 
1 241:1 292:1 466:1 687:1 690:1 704:1 728:1 
1 238:1 291:1 346:1 856:1 865:1 
1 291:1 856:1 
1 291:1 509:1 686:1 856:1 936:1 
1 116:1 416:1 437:1 631:1 869:1 936:1 957:1 
1 291:1 856:1 936:1 
1 291:1 452:1 578:1 671:1 856:1 
1 241:1 291:1 441:1 745:1 856:1 911:1 
1 291:1 308:1 404:1 768:1 856:1 936:1 
1 66:1 178:1 270:1 291:1 416:1 856:1 
1 291:1 800:1 801:1 856:1 878:1 944:1 
1 291:1 416:1 686:1 856:1 936:1 
1 177:1 308:1 320:1 404:1 926:1 
1 50:1 178:1 291:1 416:1 558:1 565:1 856:1 
1 119:1 800:1 801:1 
1 262:1 291:1 806:1 856:1 
1 291:1 856:1 865:1 931:1 
1 291:1 452:1 578:1 856:1 931:1 
1 108:1 110:1 167:1 291:1 686:1 741:1 856:1 
1 177:1 291:1 392:1 676:1 856:1 938:1 
1 291:1 452:1 515:1 578:1 676:1 741:1 770:1 856:1 944:1 
1 80:1 109:1 241:1 291:1 704:1 745:1 856:1 
1 112:1 291:1 676:1 741:1 856:1 
1 142:1 241:1 291:1 676:1 704:1 745:1 800:1 801:1 856:1 
1 241:1 292:1 621:1 936:1 943:1 
1 291:1 518:1 690:1 856:1 
1 291:1 467:1 676:1 856:1 
1 249:1 352:1 676:1 808:1 
1 271:1 282:1 291:1 452:1 578:1 745:1 800:1 801:1 856:1 
1 53:1 91:1 117:1 273:1 291:1 676:1 780:1 856:1 
1 80:1 109:1 292:1 687:1 690:1 704:1 
1 328:1 481:1 801:1 846:1 
1 191:1 292:1 676:1 741:1 
1 473:1 944:1 
1 291:1 352:1 452:1 578:1 856:1 
1 292:1 352:1 686:1 768:1 
1 291:1 358:1 398:1 686:1 856:1 
1 291:1 741:1 856:1 
1 50:1 191:1 291:1 676:1 741:1 856:1 944:1 
1 291:1 452:1 578:1 671:1 856:1 
1 9:1 47:1 292:1 304:1 468:1 745:1 944:1 
1 292:1 452:1 578:1 676:1 741:1 
1 112:1 142:1 193:1 291:1 576:1 676:1 741:1 856:1 
1 247:1 291:1 452:1 578:1 676:1 687:1 741:1 856:1 
1 241:1 291:1 364:1 379:1 745:1 800:1 801:1 856:1 
1 292:1 457:1 
1 291:1 632:1 856:1 968:1 
1 142:1 291:1 676:1 741:1 856:1 
1 73:1 
1 73:1 291:1 800:1 801:1 856:1 
1 291:1 687:1 741:1 856:1 
1 291:1 676:1 741:1 856:1 
1 291:1 452:1 578:1 671:1 856:1 
1 73:1 108:1 291:1 406:1 741:1 856:1 
1 241:1 291:1 591:1 704:1 745:1 856:1 
1 73:1 292:1 452:1 578:1 704:1 944:1 
1 241:1 291:1 452:1 856:1 931:1 
1 291:1 806:1 808:1 856:1 
1 73:1 291:1 317:1 856:1 
1 291:1 743:1 856:1 
1 73:1 193:1 241:1 291:1 452:1 578:1 856:1 
1 291:1 317:1 856:1 
1 22:1 241:1 271:1 291:1 577:1 637:1 745:1 856:1 943:1 
1 292:1 317:1 436:1 511:1 552:1 690:1 
1 78:1 291:1 690:1 785:1 856:1 
1 255:1 292:1 452:1 578:1 704:1 938:1 
1 241:1 291:1 313:1 452:1 578:1 856:1 944:1 
1 137:1 241:1 291:1 452:1 578:1 856:1 
1 178:1 291:1 856:1 
1 291:1 616:1 784:1 856:1 938:1 
1 137:1 241:1 291:1 452:1 578:1 856:1 
1 247:1 292:1 626:1 
1 241:1 291:1 704:1 848:1 856:1 944:1 
1 291:1 347:1 452:1 578:1 768:1 856:1 
1 283:1 291:1 435:1 778:1 816:1 856:1 
1 292:1 676:1 847:1 
1 292:1 553:1 800:1 801:1 
1 111:1 292:1 452:1 590:1 
1 292:1 641:1 938:1 
1 241:1 291:1 313:1 687:1 856:1 926:1 931:1 
1 73:1 241:1 291:1 690:1 800:1 801:1 856:1 
1 241:1 291:1 704:1 745:1 856:1 
1 241:1 291:1 591:1 690:1 745:1 856:1 
1 73:1 79:1 292:1 452:1 578:1 
1 112:1 193:1 291:1 468:1 847:1 856:1 938:1 
1 173:1 268:1 292:1 703:1 
1 178:1 291:1 345:1 631:1 688:1 768:1 856:1 
1 241:1 291:1 292:1 687:1 690:1 745:1 856:1 
1 292:1 300:1 
1 116:1 291:1 397:1 770:1 856:1 
1 291:1 452:1 578:1 856:1 966:1 
1 291:1 856:1 938:1 
1 291:1 646:1 647:1 856:1 
1 291:1 745:1 768:1 856:1 
1 241:1 269:1 291:1 690:1 848:1 856:1 944:1 
1 291:1 741:1 745:1 856:1 879:1 892:1 931:1 
1 193:1 291:1 856:1 879:1 892:1 
1 292:1 311:1 578:1 
1 190:1 291:1 622:1 856:1 911:1 912:1 
1 10:1 291:1 801:1 856:1 879:1 892:1 
1 241:1 292:1 452:1 578:1 687:1 690:1 704:1 892:1 
1 254:1 263:1 292:1 530:1 571:1 
1 241:1 291:1 703:1 745:1 856:1 
1 291:1 318:1 628:1 690:1 830:1 856:1 
1 222:1 292:1 745:1 
1 291:1 483:1 856:1 
1 33:1 291:1 676:1 688:1 856:1 
1 291:1 292:1 351:1 856:1 
1 291:1 741:1 852:1 856:1 
1 241:1 291:1 452:1 578:1 768:1 856:1 892:1 
1 291:1 856:1 938:1 
1 240:1 291:1 292:1 745:1 856:1 
1 291:1 686:1 833:1 856:1 892:1 944:1 
1 222:1 291:1 441:1 856:1 
1 241:1 292:1 693:1 
1 291:1 436:1 855:1 856:1 
1 292:1 454:1 704:1 947:1 
1 292:1 452:1 578:1 944:1 
1 222:1 291:1 856:1 
1 75:1 292:1 
1 16:1 419:1 904:1 944:1 
1 291:1 366:1 452:1 578:1 801:1 856:1 
1 79:1 291:1 688:1 856:1 
1 30:1 160:1 291:1 568:1 745:1 856:1 
1 51:1 291:1 317:1 352:1 452:1 468:1 556:1 578:1 801:1 848:1 856:1 
1 241:1 282:1 291:1 704:1 745:1 760:1 856:1 
1 291:1 687:1 690:1 811:1 856:1 
1 291:1 691:1 824:1 856:1 
1 110:1 292:1 542:1 
1 251:1 255:1 538:1 737:1 785:1 912:1 
1 292:1 452:1 538:1 690:1 
1 291:1 855:1 856:1 
1 108:1 110:1 451:1 555:1 740:1 943:1 
1 291:1 538:1 686:1 856:1 
1 255:1 291:1 827:1 856:1 
1 35:1 247:1 291:1 304:1 621:1 624:1 741:1 855:1 856:1 
1 190:1 237:1 291:1 292:1 452:1 622:1 856:1 931:1 938:1 
1 291:1 538:1 856:1 
1 190:1 291:1 622:1 724:1 856:1 879:1 
1 190:1 291:1 622:1 747:1 833:1 856:1 
1 291:1 352:1 452:1 856:1 931:1 938:1 
1 79:1 291:1 307:1 317:1 495:1 626:1 856:1 
1 291:1 317:1 508:1 555:1 593:1 856:1 
1 291:1 593:1 856:1 879:1 
1 241:1 291:1 856:1 
1 291:1 704:1 800:1 801:1 856:1 
1 247:1 248:1 263:1 291:1 848:1 856:1 
1 291:1 452:1 578:1 856:1 875:1 
1 452:1 578:1 737:1 741:1 
1 267:1 291:1 842:1 856:1 
1 292:1 441:1 452:1 572:1 578:1 650:1 800:1 801:1 944:1 
1 292:1 452:1 495:1 578:1 
1 137:1 291:1 452:1 578:1 704:1 801:1 856:1 
1 291:1 465:1 674:1 785:1 856:1 
1 11:1 12:1 291:1 392:1 856:1 
1 291:1 452:1 578:1 856:1 
1 291:1 555:1 704:1 745:1 856:1 914:1 
1 291:1 555:1 686:1 856:1 914:1 
1 241:1 291:1 424:1 452:1 578:1 856:1 
1 291:1 856:1 
1 291:1 511:1 856:1 
1 263:1 269:1 291:1 465:1 688:1 787:1 856:1 
1 241:1 291:1 441:1 693:1 848:1 856:1 944:1 
1 291:1 452:1 465:1 626:1 772:1 856:1 
1 291:1 856:1 953:1 
1 241:1 291:1 704:1 856:1 
1 241:1 291:1 452:1 578:1 690:1 856:1 
1 241:1 292:1 452:1 462:1 578:1 728:1 924:1 932:1 977:1 
1 291:1 704:1 801:1 856:1 924:1 930:1 932:1 
1 291:1 320:1 541:1 690:1 856:1 
1 46:1 240:1 292:1 452:1 578:1 704:1 
1 291:1 704:1 856:1 924:1 932:1 
1 352:1 436:1 745:1 769:1 833:1 856:1 
1 268:1 291:1 745:1 800:1 801:1 856:1 871:1 
1 292:1 452:1 578:1 838:1 
1 154:1 292:1 301:1 481:1 938:1 
1 241:1 269:1 291:1 292:1 374:1 690:1 856:1 912:1 
1 46:1 240:1 241:1 292:1 452:1 578:1 852:1 944:1 
1 291:1 301:1 465:1 856:1 
1 291:1 307:1 770:1 856:1 
1 10:1 291:1 690:1 801:1 856:1 
1 117:1 268:1 291:1 292:1 745:1 856:1 871:1 
1 62:1 103:1 134:1 291:1 452:1 578:1 856:1 
1 241:1 291:1 856:1 
1 300:1 572:1 
1 270:1 291:1 483:1 690:1 856:1 
1 292:1 452:1 578:1 
1 66:1 
1 292:1 441:1 462:1 585:1 728:1 785:1 888:1 952:1 
1 92:1 291:1 856:1 
1 291:1 301:1 785:1 856:1 
1 48:1 291:1 330:1 749:1 816:1 856:1 
1 292:1 301:1 495:1 688:1 
1 8:1 247:1 320:1 452:1 578:1 704:1 
1 267:1 291:1 301:1 358:1 452:1 455:1 483:1 578:1 785:1 856:1 
1 268:1 291:1 686:1 745:1 856:1 
1 191:1 249:1 268:1 291:1 446:1 745:1 815:1 856:1 
1 291:1 745:1 856:1 
1 10:1 178:1 292:1 452:1 578:1 768:1 801:1 941:1 
1 81:1 120:1 240:1 268:1 292:1 335:1 839:1 
1 73:1 193:1 291:1 292:1 770:1 856:1 
1 268:1 291:1 292:1 690:1 856:1 870:1 970:1 
1 73:1 291:1 745:1 856:1 
1 240:1 690:1 745:1 
1 291:1 347:1 577:1 785:1 815:1 856:1 
1 30:1 291:1 379:1 494:1 856:1 955:1 
1 292:1 745:1 944:1 
1 10:1 268:1 283:1 291:1 352:1 436:1 452:1 578:1 801:1 856:1 
1 117:1 268:1 292:1 452:1 578:1 687:1 690:1 745:1 
1 291:1 801:1 856:1 
1 54:1 436:1 763:1 892:1 
1 54:1 436:1 892:1 893:1 
1 892:1 
1 291:1 436:1 763:1 856:1 893:1 
-0.08041041870089677 193:1 291:1 436:1 646:1 647:1 748:1 856:1 970:1 
-1 240:1 291:1 687:1 704:1 856:1 
-1 142:1 291:1 856:1 
-1 291:1 436:1 452:1 578:1 856:1 
-0.440525562300824 2:1 9:1 291:1 304:1 441:1 679:1 856:1 
-1 291:1 686:1 856:1 936:1 
-0.1718452996813404 73:1 141:1 291:1 317:1 495:1 687:1 856:1 926:1 
-0.4362843773698815 58:1 178:1 263:1 291:1 856:1 912:1 
-1 178:1 291:1 515:1 856:1 912:1 
-0.05073355481487815 241:1 291:1 848:1 856:1 944:1 
-1 178:1 291:1 292:1 801:1 856:1 865:1 912:1 
-0.726008260717253 291:1 301:1 352:1 436:1 690:1 799:1 856:1 
-1 190:1 291:1 320:1 622:1 676:1 856:1 
-0.2961240984547328 33:1 112:1 190:1 291:1 622:1 856:1 
-0.1533072122032419 91:1 241:1 247:1 291:1 292:1 451:1 856:1 892:1 
-0.6070062322571527 241:1 247:1 291:1 292:1 397:1 741:1 856:1 
-0.558145227193534 222:1 291:1 404:1 626:1 745:1 856:1 
-0.1396018412099401 263:1 291:1 511:1 687:1 856:1 931:1 
-0.9049366406693545 54:1 379:1 436:1 467:1 
-0.4756294949726289 241:1 352:1 416:1 452:1 558:1 578:1 926:1 
-0.8364494542850098 137:1 192:1 247:1 634:1 944:1 
-0.8677298446928634 291:1 292:1 468:1 478:1 690:1 785:1 856:1 
-0.05820823571803279 44:1 83:1 157:1 241:1 291:1 577:1 745:1 800:1 801:1 847:1 856:1 
-0.1306385662903204 122:1 291:1 317:1 358:1 452:1 578:1 856:1 
-1 50:1 291:1 352:1 856:1 944:1 
-0.3170009957871381 285:1 292:1 452:1 
-0.292684836584047 291:1 438:1 704:1 801:1 856:1 
-0.9164683475876613 267:1 291:1 745:1 760:1 856:1 
-0.3470534970934226 241:1 291:1 690:1 856:1 924:1 
-0.3718401506364233 734:1 838:1 
-0.9000826814361973 78:1 346:1 892:1 
-0.975073634858117 79:1 291:1 687:1 856:1 
-0.05574268157887719 39:1 112:1 213:1 291:1 856:1 
-1 8:1 291:1 483:1 704:1 856:1 
-0.3343068551870355 291:1 436:1 452:1 578:1 704:1 856:1 
-0.4207713004909512 50:1 173:1 291:1 770:1 856:1 
-0.8734982275293596 249:1 291:1 313:1 856:1 944:1 
-0.7179758052900314 291:1 541:1 577:1 604:1 856:1 
-0.6829620229486948 110:1 241:1 269:1 292:1 316:1 892:1 931:1 
-1 73:1 241:1 282:1 291:1 452:1 578:1 687:1 704:1 856:1 
-0.009076577901162383 46:1 291:1 364:1 398:1 626:1 856:1 
-0.5888888194817326 73:1 291:1 358:1 576:1 687:1 856:1 
-0.5334495252983075 137:1 241:1 291:1 386:1 445:1 745:1 856:1 912:1 
-1 73:1 291:1 452:1 578:1 856:1 
-0.2657934853064683 291:1 511:1 602:1 848:1 856:1 
-0.2539489685515535 241:1 452:1 578:1 916:1 944:1 
-1 241:1 291:1 690:1 745:1 856:1 
-0.2301423951149723 73:1 135:1 240:1 271:1 291:1 364:1 770:1 856:1 959:1 
-1 241:1 292:1 452:1 578:1 687:1 
-1 291:1 632:1 830:1 856:1 926:1 931:1 938:1 
-0.4270325410805255 291:1 314:1 375:1 452:1 578:1 690:1 741:1 856:1 
-1 291:1 436:1 452:1 578:1 704:1 856:1 
-0.509960600247497 241:1 269:1 452:1 578:1 741:1 931:1 
-1 893:1 
-0.1008655044000413 291:1 292:1 452:1 578:1 630:1 690:1 856:1 
-0.07186812988305047 30:1 173:1 241:1 267:1 292:1 829:1 931:1 
-1 241:1 291:1 690:1 745:1 856:1 
-1 291:1 452:1 578:1 856:1 
-0.4058000705913545 178:1 278:1 291:1 568:1 831:1 856:1 
-1 291:1 436:1 452:1 578:1 704:1 856:1 
-0.1293952369458896 267:1 740:1 785:1 984:1 
-1 112:1 291:1 452:1 578:1 856:1 
-0.3768539723054788 134:1 291:1 452:1 578:1 856:1 944:1 
-0.428408965442083 190:1 291:1 622:1 856:1 
-0.893857408102812 35:1 291:1 624:1 856:1 
-0.4524792249093574 291:1 816:1 848:1 856:1 
-0.213415147324411 291:1 404:1 541:1 621:1 856:1 
-0.9268186859645881 249:1 291:1 646:1 647:1 768:1 856:1 888:1 
-0.7219620454070481 291:1 352:1 452:1 578:1 816:1 848:1 856:1 
-0.3151092747405404 134:1 193:1 291:1 381:1 768:1 847:1 856:1 
-0.8027516015483708 291:1 856:1 947:1 
-0.151150220770659 16:1 54:1 241:1 372:1 436:1 452:1 578:1 767:1 
-1 10:1 111:1 291:1 441:1 801:1 856:1 931:1 941:1 
-0.1700169699333355 30:1 265:1 291:1 435:1 806:1 856:1 
-1 291:1 452:1 455:1 578:1 856:1 
-0.3054907988602683 10:1 51:1 73:1 291:1 627:1 800:1 801:1 856:1 975:1 
-0.2142958805482557 263:1 268:1 291:1 704:1 800:1 801:1 856:1 
-1 291:1 704:1 745:1 856:1 
-1 73:1 291:1 687:1 800:1 801:1 856:1 943:1 944:1 
-0.08353165241233876 22:1 190:1 237:1 291:1 622:1 856:1 
-0.2305229042297215 119:1 256:1 373:1 
-1 291:1 626:1 639:1 741:1 745:1 856:1 
-1 190:1 291:1 495:1 622:1 856:1 
-0.8085016688353919 291:1 745:1 784:1 856:1 
-0.5935913299492038 283:1 291:1 745:1 801:1 856:1 
-1 240:1 269:1 291:1 741:1 856:1 941:1 
-1 240:1 291:1 416:1 690:1 745:1 856:1 
-1 241:1 291:1 704:1 745:1 747:1 856:1 
-1 241:1 291:1 704:1 745:1 800:1 801:1 856:1 
-1 241:1 291:1 704:1 745:1 856:1 
-1 207:1 291:1 317:1 465:1 585:1 676:1 798:1 856:1 
-0.8173388929963324 292:1 303:1 416:1 572:1 892:1 
-0.543805861571007 86:1 108:1 291:1 452:1 578:1 856:1 892:1 
-0.9374840047581388 291:1 292:1 347:1 626:1 785:1 856:1 
-0.7317654597816888 241:1 291:1 441:1 452:1 578:1 704:1 848:1 856:1 931:1 944:1 
-0.04739037562332327 291:1 352:1 436:1 452:1 856:1 
-0.1062311502453391 241:1 248:1 291:1 292:1 345:1 452:1 467:1 856:1 938:1 
-1 291:1 690:1 856:1 
-0.8923294077519015 154:1 292:1 
-0.8854562167247084 468:1 847:1 931:1 
-1 190:1 292:1 320:1 622:1 745:1 808:1 892:1 
-0.2933321798472655 291:1 556:1 745:1 856:1 926:1 
-1 291:1 511:1 688:1 856:1 
-0.7281953193438382 177:1 291:1 690:1 856:1 
-0.1480339971301456 177:1 291:1 576:1 856:1 944:1 
-0.07288288678015586 177:1 241:1 291:1 292:1 680:1 856:1 944:1 
-0.07474425290393703 282:1 291:1 292:1 572:1 816:1 847:1 856:1 
-0.3242528270412081 468:1 892:1 908:1 
-0.3612741829812949 92:1 238:1 291:1 856:1 
-0.8991344955999587 291:1 452:1 578:1 833:1 856:1 
-0.6594678253033546 283:1 291:1 687:1 704:1 856:1 938:1 
-0.09229752743911256 181:1 249:1 291:1 542:1 801:1 856:1 901:1 
-1 241:1 282:1 291:1 704:1 745:1 856:1 
-1 291:1 452:1 578:1 856:1 
-0.4037926352572582 62:1 291:1 374:1 856:1 
-0.1390312055488863 79:1 160:1 241:1 469:1 816:1 856:1 943:1 
-0.1086671726926357 291:1 431:1 635:1 763:1 771:1 856:1 
-0.1835791827094067 291:1 772:1 856:1 888:1 938:1 
-0.6144971997405775 291:1 608:1 688:1 788:1 855:1 856:1 
-1 291:1 690:1 856:1 
-0.7050602631616407 73:1 241:1 300:1 317:1 348:1 441:1 687:1 938:1 
-0.3826661489524366 10:1 250:1 283:1 291:1 587:1 682:1 801:1 853:1 856:1 944:1 
-1 116:1 291:1 856:1 
-0.2839693627443119 292:1 300:1 348:1 
-0.1299214331394003 291:1 690:1 856:1 
-1 291:1 452:1 578:1 856:1 
-0.1623383409821235 291:1 312:1 686:1 856:1 
-0.8510985832918216 270:1 291:1 856:1 904:1 957:1 
-0.1512494904511653 3:1 104:1 178:1 291:1 465:1 856:1 
-0.3112141126849732 291:1 452:1 704:1 770:1 856:1 
-1 73:1 291:1 317:1 856:1 
-0.1768349570670502 181:1 292:1 319:1 451:1 483:1 893:1 
-0.1678849867784329 17:1 30:1 292:1 436:1 477:1 
-0.06737263783599245 73:1 400:1 944:1 
-0.05594475672401429 78:1 358:1 606:1 846:1 
-0.1497726228629517 220:1 224:1 252:1 291:1 292:1 452:1 568:1 719:1 856:1 892:1 893:1 975:1 
-0.925255747096063 292:1 328:1 846:1 
-0.06510125599384835 73:1 173:1 291:1 307:1 353:1 417:1 460:1 724:1 806:1 856:1 
-0.5816758300303042 291:1 770:1 856:1 871:1 911:1 924:1 944:1 
-0.2126461411227151 11:1 12:1 148:1 291:1 579:1 856:1 918:1 919:1 
-0.3570312900195738 247:1 351:1 
-0.2546340599410288 186:1 291:1 318:1 627:1 768:1 856:1 
-0.2436826335422401 108:1 241:1 292:1 865:1 892:1 
-1 105:1 108:1 117:1 241:1 452:1 483:1 578:1 
-0.3274215309895543 255:1 291:1 572:1 690:1 816:1 817:1 856:1 
-0.06511965130012741 78:1 291:1 317:1 713:1 856:1 941:1 960:1 
-0.766121814730672 46:1 65:1 91:1 240:1 291:1 317:1 690:1 856:1 
-1 73:1 291:1 856:1 
-1 53:1 178:1 291:1 416:1 437:1 676:1 745:1 856:1 931:1 
-0.03349568366546639 160:1 161:1 291:1 345:1 748:1 785:1 856:1 946:1 
-0.1116569042092512 101:1 291:1 457:1 578:1 670:1 856:1 
-0.2412585656124916 291:1 787:1 818:1 856:1 
-0.410296107496697 240:1 263:1 268:1 291:1 313:1 745:1 848:1 856:1 931:1 938:1 
-0.3752087685631325 151:1 291:1 313:1 856:1 
-1 66:1 241:1 291:1 577:1 745:1 856:1 
-0.3636407106553935 73:1 177:1 291:1 687:1 856:1 921:1 944:1 
-1 112:1 247:1 291:1 436:1 856:1 
-0.8479355392998149 108:1 248:1 292:1 631:1 852:1 863:1 
-0.05954234145977097 16:1 292:1 892:1 951:1 
-1 291:1 292:1 676:1 856:1 
-1 291:1 856:1 936:1 
-0.1477011080269829 30:1 268:1 291:1 737:1 769:1 782:1 856:1 892:1 
-0.2427209547258725 268:1 291:1 458:1 741:1 856:1 
-1 73:1 291:1 856:1 892:1 
-1 292:1 690:1 
-0.5024787893299407 292:1 745:1 833:1 
-0.1580094152856367 23:1 255:1 277:1 419:1 
-0.3064549415058281 79:1 92:1 291:1 856:1 
-0.1084241389697072 190:1 291:1 320:1 451:1 622:1 745:1 856:1 892:1 
-0.3759575110257769 177:1 291:1 364:1 745:1 856:1 912:1 
-0.5277036685384329 291:1 639:1 768:1 800:1 801:1 856:1 
-0.3226557632436883 313:1 465:1 811:1 
-0.1402255466409834 248:1 291:1 351:1 416:1 577:1 856:1 
-0.2250594437169252 73:1 291:1 352:1 687:1 801:1 856:1 938:1 
-1 241:1 291:1 688:1 741:1 745:1 856:1 
-0.5066573335408415 193:1 241:1 291:1 292:1 856:1 938:1 
-0.06004781485466441 97:1 291:1 292:1 382:1 520:1 703:1 856:1 
-0.1929745717984103 271:1 291:1 292:1 704:1 856:1 
-0.5674246795786134 46:1 66:1 
-0.09543114030480671 151:1 291:1 856:1 
-0.2741653701986955 191:1 291:1 398:1 625:1 842:1 856:1 
-0.1597159042445077 173:1 291:1 292:1 704:1 745:1 800:1 801:1 856:1 958:1 965:1 
-0.355155566361814 292:1 641:1 785:1 977:1 
-1 291:1 347:1 641:1 745:1 856:1 871:1 
-0.5128309411792117 291:1 301:1 374:1 498:1 683:1 856:1 
-1 292:1 452:1 578:1 
-1 292:1 690:1 704:1 
-1 291:1 704:1 856:1 
-0.801586431716223 103:1 291:1 518:1 856:1 
-0.3736494762258591 79:1 291:1 292:1 856:1 926:1 
-0.2305464316053937 42:1 193:1 292:1 421:1 465:1 778:1 
-0.3759574369950474 268:1 291:1 741:1 841:1 856:1 938:1 
-0.1483936716036925 79:1 291:1 626:1 856:1 
-0.4748863494318533 291:1 435:1 856:1 953:1 
-0.06840455424507537 291:1 340:1 406:1 481:1 634:1 829:1 856:1 
-0.1504263364814072 15:1 161:1 483:1 558:1 690:1 
-1 241:1 291:1 292:1 452:1 578:1 768:1 856:1 911:1 
-1 30:1 291:1 568:1 856:1 
-1 291:1 741:1 856:1 
-0.3971654202802311 291:1 436:1 441:1 452:1 521:1 745:1 856:1 892:1 
-0.4996899701214257 241:1 291:1 465:1 621:1 690:1 856:1 944:1 
-0.167434466298837 291:1 424:1 495:1 598:1 688:1 856:1 891:1 
-0.2806605585944104 270:1 292:1 439:1 785:1 
-1 291:1 452:1 578:1 848:1 856:1 944:1 
-0.6960958333408911 291:1 650:1 856:1 
-0.6872507664190699 193:1 292:1 451:1 824:1 
-1 291:1 446:1 856:1 938:1 
-1 241:1 291:1 292:1 452:1 578:1 690:1 856:1 
-0.1939941333703964 271:1 291:1 648:1 856:1 936:1 
-1 291:1 352:1 741:1 785:1 856:1 931:1 
-1 291:1 800:1 801:1 856:1 
-1 241:1 292:1 704:1 
-0.9483611463566471 41:1 178:1 291:1 416:1 437:1 741:1 745:1 800:1 801:1 856:1 
-0.5454246332452554 143:1 378:1 462:1 495:1 584:1 688:1 728:1 966:1 977:1 
-0.802952209006016 292:1 457:1 770:1 847:1 970:1 
-0.2074998088629388 81:1 291:1 690:1 839:1 856:1 
-0.3053771449286417 66:1 270:1 
-0.2366416345944734 81:1 123:1 292:1 307:1 690:1 839:1 
-1 247:1 292:1 690:1 936:1 
-0.3018368830416697 240:1 241:1 291:1 452:1 468:1 578:1 856:1 908:1 
-0.203697501296538 129:1 292:1 441:1 585:1 785:1 924:1 
-1 291:1 741:1 856:1 968:1 
-0.5167150560077752 291:1 452:1 697:1 703:1 856:1 938:1 
-1 292:1 352:1 452:1 578:1 741:1 
-0.01431251358141683 46:1 48:1 81:1 292:1 452:1 578:1 
-0.4070209678634714 30:1 259:1 291:1 330:1 568:1 856:1 
-0.1542716354915522 48:1 241:1 253:1 292:1 452:1 493:1 578:1 628:1 690:1 704:1 
-0.7238363960254284 47:1 79:1 291:1 744:1 768:1 856:1 
-0.6169979697087153 291:1 556:1 690:1 856:1 
-0.6237831211430298 48:1 167:1 267:1 268:1 292:1 690:1 944:1 
-0.124529296903414 78:1 291:1 465:1 541:1 578:1 621:1 848:1 856:1 
-0.3499153433250903 291:1 817:1 830:1 856:1 
-1 292:1 690:1 
-0.3186300072413248 48:1 241:1 267:1 291:1 452:1 578:1 690:1 856:1 
-0.9413997138466339 30:1 81:1 291:1 307:1 379:1 406:1 704:1 769:1 842:1 856:1 944:1 
-0.5738605694577041 160:1 291:1 317:1 441:1 856:1 
-1 241:1 268:1 291:1 703:1 745:1 824:1 856:1 
-0.2342189035194625 167:1 291:1 856:1 
-1 292:1 628:1 801:1 
-0.1476276221283557 346:1 936:1 943:1 
-0.2853609067716067 291:1 436:1 797:1 801:1 848:1 856:1 924:1 953:1 
-0.07634088995719877 241:1 291:1 704:1 747:1 789:1 856:1 871:1 938:1 
-0.5984983171161556 308:1 404:1 416:1 483:1 737:1 790:1 833:1 885:1 
-1 241:1 292:1 452:1 578:1 
-0.01778409262234437 292:1 308:1 346:1 404:1 416:1 437:1 568:1 688:1 
-1 190:1 237:1 291:1 452:1 578:1 622:1 856:1 
-1 291:1 703:1 856:1 
-0.8751409761323961 291:1 690:1 856:1 936:1 943:1 
-0.1060137759981166 291:1 690:1 800:1 801:1 856:1 930:1 936:1 943:1 
-0.481847992965518 49:1 292:1 690:1 
-0.5369605598929338 60:1 688:1 763:1 
-0.3597489764446415 737:1 892:1 
-0.04821642182500577 62:1 292:1 436:1 946:1 
-0.197245936475468 73:1 241:1 291:1 452:1 578:1 687:1 694:1 856:1 
-1 240:1 241:1 291:1 292:1 452:1 494:1 578:1 686:1 800:1 801:1 806:1 856:1 955:1 
-0.1293746452425422 226:1 291:1 452:1 495:1 578:1 856:1 944:1 
-0.009105408127903447 289:1 291:1 509:1 686:1 856:1 936:1 
-0.04001320281656146 291:1 574:1 768:1 856:1 
-0.4026195558428128 291:1 800:1 801:1 856:1 
-0.2840956456462951 291:1 772:1 824:1 856:1 
-0.3781708519911108 241:1 291:1 452:1 494:1 578:1 621:1 686:1 806:1 856:1 955:1 
-1 241:1 291:1 856:1 944:1 
-0.7792104664291949 241:1 291:1 358:1 452:1 578:1 768:1 770:1 856:1 
-0.7224576366195787 241:1 292:1 366:1 686:1 938:1 
-1 291:1 452:1 578:1 686:1 856:1 
-1 10:1 291:1 397:1 801:1 856:1 936:1 
-1 291:1 452:1 578:1 856:1 
-0.3341699961748638 238:1 291:1 452:1 465:1 578:1 856:1 944:1 
-0.33964210682622 292:1 358:1 452:1 578:1 874:1 
-0.2160631673417183 101:1 241:1 291:1 452:1 578:1 670:1 856:1 887:1 
-0.2846101830932031 16:1 291:1 307:1 856:1 938:1 
-1 10:1 291:1 801:1 856:1 
-1 291:1 452:1 578:1 856:1 
-1 291:1 452:1 578:1 686:1 856:1 
-0.756875399670013 30:1 292:1 352:1 452:1 578:1 686:1 801:1 807:1 911:1 936:1 
-1 291:1 452:1 578:1 741:1 833:1 856:1 
-0.3130504676392823 16:1 291:1 494:1 801:1 856:1 930:1 938:1 955:1 
-0.3622323191074713 291:1 292:1 366:1 509:1 686:1 856:1 936:1 
-1 292:1 686:1 
-0.3568307564329086 254:1 292:1 429:1 530:1 770:1 931:1 953:1 
-0.8607973785503127 241:1 291:1 452:1 578:1 856:1 
-0.4149174970735469 291:1 494:1 801:1 856:1 955:1 
-1 291:1 856:1 936:1 
-1 291:1 452:1 578:1 686:1 768:1 856:1 
-0.373152915198751 46:1 241:1 291:1 317:1 856:1 942:1 944:1 
-0.4218603422893061 270:1 291:1 292:1 745:1 856:1 944:1 
-0.1396643078958499 241:1 268:1 291:1 452:1 745:1 856:1 938:1 
-0.7064171565631541 268:1 292:1 745:1 
-1 292:1 745:1 936:1 
-1 193:1 268:1 292:1 704:1 745:1 
-1 241:1 268:1 291:1 292:1 704:1 745:1 800:1 801:1 856:1 
-0.2860091251557803 268:1 292:1 529:1 572:1 704:1 801:1 
-0.3705873054321679 268:1 292:1 690:1 
-0.6153907306839406 291:1 704:1 856:1 
-1 291:1 452:1 577:1 578:1 856:1 
-0.6030675943680087 291:1 352:1 452:1 495:1 856:1 938:1 
-0.3066830881643935 241:1 291:1 452:1 856:1 938:1 
-0.5689253169517549 207:1 268:1 291:1 856:1 896:1 932:1 
-0.4151733801675264 247:1 291:1 474:1 785:1 829:1 856:1 
-1 193:1 268:1 291:1 452:1 578:1 745:1 856:1 
-0.6664856015895058 241:1 291:1 800:1 801:1 856:1 
-0.8189924335807637 291:1 801:1 856:1 930:1 
-0.6659242759391724 78:1 291:1 639:1 856:1 
-0.4907455204704212 12:1 291:1 856:1 
-0.3030072903597311 291:1 320:1 452:1 822:1 856:1 
-1 291:1 452:1 578:1 856:1 
-0.7305413769572139 1:1 151:1 291:1 770:1 830:1 856:1 943:1 
-0.1668223045470206 92:1 291:1 745:1 856:1 
-1 271:1 317:1 552:1 690:1 745:1 
-0.3710985818953158 291:1 292:1 452:1 578:1 639:1 848:1 856:1 944:1 
-0.4548795762759903 151:1 283:1 292:1 639:1 745:1 931:1 
-1 286:1 291:1 801:1 856:1 
-0.6592224388492218 291:1 301:1 306:1 404:1 856:1 966:1 
-0.7503008974935279 291:1 743:1 856:1 
-0.2538533469829969 222:1 276:1 291:1 621:1 856:1 
-0.5132514881992483 101:1 291:1 670:1 745:1 856:1 
-1 291:1 800:1 801:1 856:1 878:1 944:1 
-1 291:1 785:1 856:1 
-0.9773258467664698 291:1 466:1 728:1 856:1 931:1 
-0.7442625010841601 452:1 578:1 688:1 800:1 801:1 
-1 191:1 291:1 452:1 578:1 856:1 
-0.8737665989117408 291:1 741:1 852:1 856:1 
-0.6567405640523423 419:1 
-1 33:1 222:1 262:1 291:1 452:1 578:1 856:1 
-1 292:1 452:1 578:1 690:1 
-0.6206623874868424 291:1 292:1 690:1 856:1 
-0.7632208666313418 291:1 317:1 856:1 
-1 291:1 801:1 856:1 
-1 73:1 291:1 856:1 
-0.8034221679996062 292:1 469:1 591:1 628:1 
-0.2913816859327926 89:1 241:1 291:1 292:1 317:1 351:1 745:1 856:1 938:1 
-0.3466398342135596 291:1 495:1 688:1 785:1 829:1 856:1 
-0.8528979551513368 291:1 741:1 856:1 931:1 
-0.5181520070344821 292:1 938:1 
-1 241:1 291:1 704:1 856:1 
-0.9591720040038987 241:1 291:1 345:1 452:1 856:1 944:1 
-0.8875248070895818 292:1 446:1 
-0.2560462383186364 57:1 291:1 292:1 431:1 737:1 745:1 763:1 771:1 856:1 926:1 
-0.7249368267585166 291:1 780:1 856:1 
-0.89392634342129 241:1 291:1 553:1 693:1 856:1 
-0.8786849927856757 291:1 693:1 856:1 
-0.3345636782588061 177:1 291:1 856:1 
-0.7410940702756991 22:1 291:1 542:1 856:1 
-1 110:1 291:1 473:1 856:1 
-0.317820928462298 263:1 291:1 465:1 787:1 856:1 
-0.1443725672745841 291:1 292:1 690:1 800:1 801:1 856:1 
-1 292:1 452:1 578:1 687:1 690:1 704:1 
-1 441:1 538:1 800:1 801:1 944:1 
-1 436:1 892:1 
-1 247:1 292:1 555:1 740:1 
-1 291:1 856:1 892:1 
-1 291:1 318:1 572:1 768:1 856:1 
-0.7867369223990712 292:1 847:1 
-1 2:1 291:1 671:1 856:1 
-1 268:1 291:1 509:1 555:1 690:1 856:1 914:1 
-1 291:1 452:1 578:1 856:1 
-0.6475199776215959 241:1 291:1 311:1 452:1 572:1 578:1 848:1 856:1 
-0.702733822800904 292:1 352:1 452:1 578:1 691:1 737:1 
-1 291:1 452:1 578:1 856:1 
-0.9399850524175839 54:1 73:1 291:1 355:1 800:1 801:1 856:1 
-0.6676193615591861 120:1 291:1 335:1 806:1 856:1 
-0.2527062143450459 100:1 292:1 686:1 936:1 968:1 
-1 291:1 301:1 856:1 
-1 292:1 441:1 833:1 848:1 944:1 
-0.6912645459081072 191:1 239:1 291:1 852:1 856:1 944:1 952:1 
-1 292:1 301:1 452:1 507:1 578:1 741:1 
-0.8647238765062917 241:1 291:1 704:1 856:1 
-1 79:1 292:1 924:1 
-1 255:1 269:1 292:1 
-1 255:1 292:1 398:1 856:1 
-1 247:1 291:1 465:1 741:1 856:1 938:1 
-1 193:1 268:1 291:1 292:1 745:1 856:1 
-0.4265712149773873 247:1 263:1 291:1 465:1 583:1 741:1 856:1 924:1 
-0.4468167376638406 124:1 234:1 291:1 815:1 828:1 856:1 
-0.08559642184189886 49:1 407:1 621:1 
-0.1757737060617711 768:1 
-0.4762629969119238 49:1 134:1 555:1 788:1 
-0.2119424415100933 112:1 795:1 
-0.8407806466177169 481:1 962:1 
-0.1447318073835036 110:1 247:1 585:1 975:1 
-0.4638967922880781 626:1 724:1 
-0.5234876282594254 263:1 
-0.0809092330232288 92:1 270:1 944:1 
-0.7534889925808369 870:1 
-0.6549030256811358 291:1 816:1 944:1 
-0.3973888807537851 263:1 307:1 576:1 926:1 
-1 741:1 865:1 
-0.1998630672817994 276:1 330:1 452:1 
-0.2643214812295905 62:1 271:1 688:1 745:1 772:1 931:1 
-0.1276141016399446 364:1 
-1 481:1 
-0.9499967649851878 222:1 687:1 808:1 848:1 
-0.04479706738236669 37:1 483:1 936:1 
-1 944:1 
-0.4094764990706856 320:1 452:1 804:1 
-0.3182077227511666 173:1 816:1 
-1 687:1 785:1 
-0.7609081836165961 51:1 177:1 261:1 436:1 728:1 
