svm_type c_svc
kernel_type rbf
gamma 0.00101626
nr_class 2
total_sv 618
rho 0.958344
label 1 -1
nr_sv 229 389
SV
1 291:1 317:1 577:1 703:1 856:1 
1 49:1 291:1 318:1 687:1 856:1 
1 291:1 856:1 926:1 
1 291:1 452:1 578:1 856:1 
1 177:1 291:1 436:1 856:1 
1 291:1 856:1 936:1 
1 78:1 291:1 452:1 578:1 856:1 944:1 
1 151:1 291:1 452:1 578:1 856:1 
1 190:1 441:1 572:1 622:1 847:1 936:1 
1 291:1 816:1 856:1 936:1 
1 101:1 151:1 292:1 355:1 670:1 941:1 
1 10:1 291:1 416:1 801:1 856:1 
1 
1 241:1 247:1 291:1 704:1 848:1 856:1 944:1 
1 73:1 79:1 240:1 241:1 291:1 452:1 578:1 856:1 
1 241:1 292:1 466:1 687:1 690:1 704:1 728:1 
1 238:1 291:1 346:1 856:1 865:1 
1 291:1 856:1 
1 291:1 509:1 686:1 856:1 936:1 
1 116:1 416:1 437:1 631:1 869:1 936:1 957:1 
1 291:1 856:1 936:1 
1 291:1 452:1 578:1 671:1 856:1 
1 241:1 291:1 441:1 745:1 856:1 911:1 
1 291:1 308:1 404:1 768:1 856:1 936:1 
1 66:1 178:1 270:1 291:1 416:1 856:1 
1 291:1 800:1 801:1 856:1 878:1 944:1 
1 291:1 416:1 686:1 856:1 936:1 
1 177:1 308:1 320:1 404:1 926:1 
1 50:1 178:1 291:1 416:1 558:1 565:1 856:1 
1 119:1 800:1 801:1 
1 262:1 291:1 806:1 856:1 
1 291:1 856:1 865:1 931:1 
1 291:1 452:1 578:1 856:1 931:1 
1 108:1 110:1 167:1 291:1 686:1 741:1 856:1 
1 177:1 291:1 392:1 676:1 856:1 938:1 
1 291:1 452:1 515:1 578:1 676:1 741:1 770:1 856:1 944:1 
1 80:1 109:1 241:1 291:1 704:1 745:1 856:1 
1 112:1 291:1 676:1 741:1 856:1 
1 142:1 241:1 291:1 676:1 704:1 745:1 800:1 801:1 856:1 
1 241:1 292:1 621:1 936:1 943:1 
1 291:1 518:1 690:1 856:1 
1 291:1 467:1 676:1 856:1 
1 249:1 352:1 676:1 808:1 
1 271:1 282:1 291:1 452:1 578:1 745:1 800:1 801:1 856:1 
1 53:1 91:1 117:1 273:1 291:1 676:1 780:1 856:1 
1 80:1 109:1 292:1 687:1 690:1 704:1 
1 328:1 481:1 801:1 846:1 
1 191:1 292:1 676:1 741:1 
1 473:1 944:1 
1 291:1 352:1 452:1 578:1 856:1 
1 292:1 352:1 686:1 768:1 
1 291:1 358:1 398:1 686:1 856:1 
1 291:1 741:1 856:1 
1 50:1 191:1 291:1 676:1 741:1 856:1 944:1 
1 291:1 452:1 578:1 671:1 856:1 
1 9:1 47:1 292:1 304:1 468:1 745:1 944:1 
1 292:1 452:1 578:1 676:1 741:1 
1 112:1 142:1 193:1 291:1 576:1 676:1 741:1 856:1 
1 247:1 291:1 452:1 578:1 676:1 687:1 741:1 856:1 
1 241:1 291:1 364:1 379:1 745:1 800:1 801:1 856:1 
1 292:1 457:1 
1 291:1 632:1 856:1 968:1 
1 142:1 291:1 676:1 741:1 856:1 
1 73:1 
1 73:1 291:1 800:1 801:1 856:1 
1 291:1 687:1 741:1 856:1 
1 291:1 676:1 741:1 856:1 
1 291:1 452:1 578:1 671:1 856:1 
1 73:1 108:1 291:1 406:1 741:1 856:1 
1 241:1 291:1 591:1 704:1 745:1 856:1 
1 73:1 292:1 452:1 578:1 704:1 944:1 
1 241:1 291:1 452:1 856:1 931:1 
1 291:1 806:1 808:1 856:1 
1 73:1 291:1 317:1 856:1 
1 291:1 743:1 856:1 
1 73:1 193:1 241:1 291:1 452:1 578:1 856:1 
1 291:1 317:1 856:1 
1 22:1 241:1 271:1 291:1 577:1 637:1 745:1 856:1 943:1 
1 292:1 317:1 436:1 511:1 552:1 690:1 
1 78:1 291:1 690:1 785:1 856:1 
1 255:1 292:1 452:1 578:1 704:1 938:1 
1 241:1 291:1 313:1 452:1 578:1 856:1 944:1 
1 137:1 241:1 291:1 452:1 578:1 856:1 
1 178:1 291:1 856:1 
1 291:1 616:1 784:1 856:1 938:1 
1 137:1 241:1 291:1 452:1 578:1 856:1 
1 247:1 292:1 626:1 
1 241:1 291:1 704:1 848:1 856:1 944:1 
1 291:1 347:1 452:1 578:1 768:1 856:1 
1 283:1 291:1 435:1 778:1 816:1 856:1 
1 292:1 676:1 847:1 
1 292:1 553:1 800:1 801:1 
1 111:1 292:1 452:1 590:1 
1 292:1 641:1 938:1 
1 241:1 291:1 313:1 687:1 856:1 926:1 931:1 
1 73:1 241:1 291:1 690:1 800:1 801:1 856:1 
1 241:1 291:1 704:1 745:1 856:1 
1 241:1 291:1 591:1 690:1 745:1 856:1 
1 73:1 79:1 292:1 452:1 578:1 
1 112:1 193:1 291:1 468:1 847:1 856:1 938:1 
1 173:1 268:1 292:1 703:1 
1 178:1 291:1 345:1 631:1 688:1 768:1 856:1 
1 241:1 291:1 292:1 687:1 690:1 745:1 856:1 
1 292:1 300:1 
1 116:1 291:1 397:1 770:1 856:1 
1 291:1 452:1 578:1 856:1 966:1 
1 291:1 856:1 938:1 
1 291:1 646:1 647:1 856:1 
1 291:1 745:1 768:1 856:1 
1 241:1 269:1 291:1 690:1 848:1 856:1 944:1 
1 291:1 741:1 745:1 856:1 879:1 892:1 931:1 
1 193:1 291:1 856:1 879:1 892:1 
1 292:1 311:1 578:1 
1 190:1 291:1 622:1 856:1 911:1 912:1 
1 10:1 291:1 801:1 856:1 879:1 892:1 
1 241:1 292:1 452:1 578:1 687:1 690:1 704:1 892:1 
1 254:1 263:1 292:1 530:1 571:1 
1 241:1 291:1 703:1 745:1 856:1 
1 291:1 318:1 628:1 690:1 830:1 856:1 
1 222:1 292:1 745:1 
1 291:1 483:1 856:1 
1 33:1 291:1 676:1 688:1 856:1 
1 291:1 292:1 351:1 856:1 
1 291:1 741:1 852:1 856:1 
1 241:1 291:1 452:1 578:1 768:1 856:1 892:1 
1 291:1 856:1 938:1 
1 240:1 291:1 292:1 745:1 856:1 
1 291:1 686:1 833:1 856:1 892:1 944:1 
1 222:1 291:1 441:1 856:1 
1 241:1 292:1 693:1 
1 291:1 436:1 855:1 856:1 
1 292:1 454:1 704:1 947:1 
1 292:1 452:1 578:1 944:1 
1 222:1 291:1 856:1 
1 75:1 292:1 
1 16:1 419:1 904:1 944:1 
1 291:1 366:1 452:1 578:1 801:1 856:1 
1 79:1 291:1 688:1 856:1 
1 30:1 160:1 291:1 568:1 745:1 856:1 
1 51:1 291:1 317:1 352:1 452:1 468:1 556:1 578:1 801:1 848:1 856:1 
1 241:1 282:1 291:1 704:1 745:1 760:1 856:1 
1 291:1 687:1 690:1 811:1 856:1 
1 291:1 691:1 824:1 856:1 
1 110:1 292:1 542:1 
1 251:1 255:1 538:1 737:1 785:1 912:1 
1 292:1 452:1 538:1 690:1 
1 291:1 855:1 856:1 
1 108:1 110:1 451:1 555:1 740:1 943:1 
1 291:1 538:1 686:1 856:1 
1 255:1 291:1 827:1 856:1 
1 35:1 247:1 291:1 304:1 621:1 624:1 741:1 855:1 856:1 
1 190:1 237:1 291:1 292:1 452:1 622:1 856:1 931:1 938:1 
1 291:1 538:1 856:1 
1 190:1 291:1 622:1 724:1 856:1 879:1 
1 190:1 291:1 622:1 747:1 833:1 856:1 
1 291:1 352:1 452:1 856:1 931:1 938:1 
1 79:1 291:1 307:1 317:1 495:1 626:1 856:1 
1 291:1 317:1 508:1 555:1 593:1 856:1 
1 291:1 593:1 856:1 879:1 
1 241:1 291:1 856:1 
1 291:1 704:1 800:1 801:1 856:1 
1 247:1 248:1 263:1 291:1 848:1 856:1 
1 291:1 452:1 578:1 856:1 875:1 
1 452:1 578:1 737:1 741:1 
1 267:1 291:1 842:1 856:1 
1 292:1 441:1 452:1 572:1 578:1 650:1 800:1 801:1 944:1 
1 292:1 452:1 495:1 578:1 
1 137:1 291:1 452:1 578:1 704:1 801:1 856:1 
1 291:1 465:1 674:1 785:1 856:1 
1 11:1 12:1 291:1 392:1 856:1 
1 291:1 452:1 578:1 856:1 
1 291:1 555:1 704:1 745:1 856:1 914:1 
1 291:1 555:1 686:1 856:1 914:1 
1 241:1 291:1 424:1 452:1 578:1 856:1 
1 291:1 856:1 
1 291:1 511:1 856:1 
1 263:1 269:1 291:1 465:1 688:1 787:1 856:1 
1 241:1 291:1 441:1 693:1 848:1 856:1 944:1 
1 291:1 452:1 465:1 626:1 772:1 856:1 
1 291:1 856:1 953:1 
1 241:1 291:1 704:1 856:1 
1 241:1 291:1 452:1 578:1 690:1 856:1 
1 241:1 292:1 452:1 462:1 578:1 728:1 924:1 932:1 977:1 
1 291:1 704:1 801:1 856:1 924:1 930:1 932:1 
1 291:1 320:1 541:1 690:1 856:1 
1 46:1 240:1 292:1 452:1 578:1 704:1 
1 291:1 704:1 856:1 924:1 932:1 
1 352:1 436:1 745:1 769:1 833:1 856:1 
1 268:1 291:1 745:1 800:1 801:1 856:1 871:1 
1 292:1 452:1 578:1 838:1 
1 154:1 292:1 301:1 481:1 938:1 
1 241:1 269:1 291:1 292:1 374:1 690:1 856:1 912:1 
1 46:1 240:1 241:1 292:1 452:1 578:1 852:1 944:1 
1 291:1 301:1 465:1 856:1 
1 291:1 307:1 770:1 856:1 
1 10:1 291:1 690:1 801:1 856:1 
1 117:1 268:1 291:1 292:1 745:1 856:1 871:1 
1 62:1 103:1 134:1 291:1 452:1 578:1 856:1 
1 241:1 291:1 856:1 
1 300:1 572:1 
1 270:1 291:1 483:1 690:1 856:1 
1 292:1 452:1 578:1 
1 66:1 
1 292:1 441:1 462:1 585:1 728:1 785:1 888:1 952:1 
1 92:1 291:1 856:1 
1 291:1 301:1 785:1 856:1 
1 48:1 291:1 330:1 749:1 816:1 856:1 
1 292:1 301:1 495:1 688:1 
1 8:1 247:1 320:1 452:1 578:1 704:1 
1 267:1 291:1 301:1 358:1 452:1 455:1 483:1 578:1 785:1 856:1 
1 268:1 291:1 686:1 745:1 856:1 
1 191:1 249:1 268:1 291:1 446:1 745:1 815:1 856:1 
1 291:1 745:1 856:1 
1 10:1 178:1 292:1 452:1 578:1 768:1 801:1 941:1 
1 81:1 120:1 240:1 268:1 292:1 335:1 839:1 
1 73:1 193:1 291:1 292:1 770:1 856:1 
1 268:1 291:1 292:1 690:1 856:1 870:1 970:1 
1 73:1 291:1 745:1 856:1 
1 240:1 690:1 745:1 
1 291:1 347:1 577:1 785:1 815:1 856:1 
1 30:1 291:1 379:1 494:1 856:1 955:1 
1 292:1 745:1 944:1 
1 10:1 268:1 283:1 291:1 352:1 436:1 452:1 578:1 801:1 856:1 
1 117:1 268:1 292:1 452:1 578:1 687:1 690:1 745:1 
1 291:1 801:1 856:1 
1 54:1 436:1 763:1 892:1 
1 54:1 436:1 892:1 893:1 
1 892:1 
1 291:1 436:1 763:1 856:1 893:1 
-0.1571440184360635 193:1 291:1 436:1 646:1 647:1 748:1 856:1 970:1 
-0.8160375015470444 240:1 291:1 687:1 704:1 856:1 
-1 142:1 291:1 856:1 
-1 291:1 436:1 452:1 578:1 856:1 
-1 292:1 
-0.4544468770758522 2:1 9:1 291:1 304:1 441:1 679:1 856:1 
-1 291:1 686:1 856:1 936:1 
-0.1567464509709829 73:1 141:1 291:1 317:1 495:1 687:1 856:1 926:1 
-0.8075778930741999 178:1 291:1 515:1 856:1 912:1 
-0.2157007581410766 241:1 291:1 441:1 452:1 578:1 687:1 704:1 747:1 852:1 856:1 944:1 
-0.6204104128384501 241:1 291:1 848:1 856:1 944:1 
-1 178:1 291:1 292:1 801:1 856:1 865:1 912:1 
-0.5823167574499976 291:1 301:1 352:1 436:1 690:1 799:1 856:1 
-1 190:1 291:1 320:1 622:1 676:1 856:1 
-0.5921377858742303 33:1 112:1 190:1 291:1 622:1 856:1 
-0.573195396839539 241:1 247:1 291:1 292:1 397:1 741:1 856:1 
-0.74763608392175 222:1 291:1 404:1 626:1 745:1 856:1 
-0.1051578813384533 263:1 291:1 511:1 687:1 856:1 931:1 
-0.4934961909229058 54:1 379:1 436:1 467:1 
-0.4492283460183114 416:1 
-0.6303842292518232 241:1 352:1 416:1 452:1 558:1 578:1 926:1 
-0.7206198998938567 137:1 192:1 247:1 634:1 944:1 
-1 291:1 292:1 468:1 478:1 690:1 785:1 856:1 
-0.1515167187705954 44:1 83:1 157:1 241:1 291:1 577:1 745:1 800:1 801:1 847:1 856:1 
-1 50:1 291:1 352:1 856:1 944:1 
-0.2834792265573558 285:1 292:1 452:1 
-0.3044466289671595 291:1 438:1 704:1 801:1 856:1 
-0.8777128555999772 267:1 291:1 745:1 760:1 856:1 
-0.2034337606188087 241:1 291:1 690:1 856:1 924:1 
-0.3494753073960933 734:1 838:1 
-0.9579252519732557 78:1 346:1 892:1 
-0.5041336418475445 79:1 291:1 687:1 856:1 
-0.8304620088724713 8:1 291:1 483:1 704:1 856:1 
-0.1032535704138213 291:1 292:1 466:1 704:1 856:1 963:1 
-0.4371317955338664 50:1 173:1 291:1 770:1 856:1 
-0.8128837939651778 249:1 291:1 313:1 856:1 944:1 
-0.1249380028239361 291:1 541:1 577:1 604:1 856:1 
-0.6658714632476042 110:1 241:1 269:1 292:1 316:1 892:1 931:1 
-1 73:1 241:1 282:1 291:1 452:1 578:1 687:1 704:1 856:1 
-0.08814775257912463 46:1 291:1 364:1 398:1 626:1 856:1 
-0.0955711106476361 291:1 307:1 495:1 704:1 856:1 916:1 970:1 
-0.5623178618979779 73:1 291:1 358:1 576:1 687:1 856:1 
-0.6455533926018159 137:1 241:1 291:1 386:1 445:1 745:1 856:1 912:1 
-1 291:1 452:1 578:1 848:1 856:1 944:1 
-1 291:1 856:1 938:1 
-1 73:1 291:1 452:1 578:1 856:1 
-0.2868240087224286 291:1 511:1 602:1 848:1 856:1 
-0.08627781201859194 84:1 374:1 441:1 944:1 
-0.4629729410718512 108:1 451:1 
-0.1220502372506684 241:1 452:1 578:1 916:1 944:1 
-1 241:1 291:1 690:1 745:1 856:1 
-0.1690623281471015 73:1 135:1 240:1 271:1 291:1 364:1 770:1 856:1 959:1 
-0.2511888544621473 193:1 291:1 351:1 608:1 770:1 800:1 801:1 856:1 944:1 
-1 241:1 292:1 452:1 578:1 687:1 
-0.3121945038224586 291:1 314:1 375:1 452:1 578:1 690:1 741:1 856:1 
-0.1490040438999374 291:1 436:1 452:1 578:1 704:1 856:1 
-1 241:1 269:1 452:1 578:1 741:1 931:1 
-1 893:1 
-1 241:1 291:1 690:1 745:1 856:1 
-1 291:1 452:1 578:1 856:1 
-0.1095645773146058 213:1 253:1 267:1 291:1 434:1 741:1 856:1 930:1 
-0.2030464661254431 178:1 278:1 291:1 568:1 831:1 856:1 
-0.2636311698751849 291:1 577:1 690:1 856:1 
-1 291:1 436:1 452:1 578:1 704:1 856:1 
-0.2750809687532114 291:1 317:1 441:1 644:1 856:1 892:1 
-0.09227687807616237 267:1 740:1 785:1 984:1 
-1 112:1 291:1 452:1 578:1 856:1 
-0.006530956832126733 134:1 291:1 452:1 578:1 856:1 944:1 
-0.3204223147141632 177:1 291:1 483:1 856:1 
-0.8122380173675511 35:1 291:1 624:1 856:1 
-0.08846914772517793 291:1 404:1 541:1 621:1 856:1 
-0.2075252853308389 291:1 416:1 452:1 518:1 804:1 856:1 892:1 
-0.8991031615198933 249:1 291:1 646:1 647:1 768:1 856:1 888:1 
-0.355961929552185 291:1 352:1 452:1 578:1 816:1 848:1 856:1 
-0.4591164486445448 134:1 193:1 291:1 381:1 768:1 847:1 856:1 
-0.7149000075089911 291:1 856:1 947:1 
-0.180382217342432 16:1 54:1 241:1 372:1 436:1 452:1 578:1 767:1 
-1 10:1 111:1 291:1 441:1 801:1 856:1 931:1 941:1 
-1 291:1 452:1 455:1 578:1 856:1 
-0.3983950036574666 10:1 51:1 73:1 291:1 627:1 800:1 801:1 856:1 975:1 
-0.4184329771822975 263:1 268:1 291:1 704:1 800:1 801:1 856:1 
-1 291:1 704:1 745:1 856:1 
-1 73:1 291:1 687:1 800:1 801:1 856:1 943:1 944:1 
-0.08494913269044535 66:1 291:1 366:1 416:1 453:1 816:1 856:1 
-0.2042708008181675 119:1 256:1 373:1 
-0.3377364845466142 291:1 626:1 639:1 741:1 745:1 856:1 
-1 190:1 291:1 495:1 622:1 856:1 
-0.8484832812294045 291:1 745:1 784:1 856:1 
-1 283:1 291:1 745:1 801:1 856:1 
-1 240:1 269:1 291:1 741:1 856:1 941:1 
-1 240:1 291:1 416:1 690:1 745:1 856:1 
-0.2288783534426266 241:1 291:1 704:1 745:1 747:1 856:1 
-1 241:1 291:1 704:1 745:1 800:1 801:1 856:1 
-1 241:1 291:1 704:1 745:1 856:1 
-1 207:1 291:1 317:1 465:1 585:1 676:1 798:1 856:1 
-0.09432733159229419 292:1 303:1 416:1 572:1 892:1 
-0.4796351623202424 86:1 108:1 291:1 452:1 578:1 856:1 892:1 
-1 291:1 292:1 347:1 626:1 785:1 856:1 
-0.4627678386292382 241:1 248:1 291:1 292:1 345:1 452:1 467:1 856:1 938:1 
-1 154:1 292:1 
-0.3058350860575441 468:1 847:1 931:1 
-1 190:1 292:1 320:1 622:1 745:1 808:1 892:1 
-0.0187726409297416 291:1 556:1 745:1 856:1 926:1 
-1 291:1 511:1 688:1 856:1 
-0.00356265779384568 291:1 320:1 856:1 
-0.2300658544308664 282:1 291:1 292:1 572:1 816:1 847:1 856:1 
-0.51065029223336 92:1 238:1 291:1 856:1 
-0.6745936565631072 283:1 291:1 687:1 704:1 856:1 938:1 
-0.1632791905959851 181:1 249:1 291:1 542:1 801:1 856:1 901:1 
-0.8905511951619945 241:1 282:1 291:1 704:1 745:1 856:1 
-1 291:1 452:1 578:1 856:1 
-0.2289920823563886 62:1 291:1 374:1 856:1 
-0.3113809482503769 79:1 160:1 241:1 469:1 816:1 856:1 943:1 
-0.2943167770310141 291:1 772:1 856:1 888:1 938:1 
-0.5206327722005699 291:1 608:1 688:1 788:1 855:1 856:1 
-0.5311952778487105 73:1 241:1 300:1 317:1 348:1 441:1 687:1 938:1 
-0.08259133889425406 248:1 291:1 441:1 483:1 574:1 632:1 816:1 856:1 
-0.3561984647220173 10:1 250:1 283:1 291:1 587:1 682:1 801:1 853:1 856:1 944:1 
-0.6148112462240711 292:1 
-1 116:1 291:1 856:1 
-0.4816888827839094 292:1 300:1 348:1 
-1 291:1 690:1 856:1 
-1 291:1 452:1 578:1 856:1 
-0.8122704264694036 73:1 291:1 317:1 856:1 
-0.1602230276485775 291:1 312:1 686:1 856:1 
-0.8519628351172451 270:1 291:1 856:1 904:1 957:1 
-0.5828399916679929 291:1 452:1 704:1 770:1 856:1 
-1 73:1 291:1 317:1 856:1 
-0.1120337875608024 181:1 292:1 319:1 451:1 483:1 893:1 
-0.0771074109078498 78:1 358:1 606:1 846:1 
-0.09049680566663923 291:1 856:1 938:1 
-0.1934632257688936 220:1 224:1 252:1 291:1 292:1 452:1 568:1 719:1 856:1 892:1 893:1 975:1 
-0.9182383494756555 292:1 328:1 846:1 
-0.1417479767935672 73:1 173:1 291:1 307:1 353:1 417:1 460:1 724:1 806:1 856:1 
-0.0777175685775255 73:1 291:1 441:1 770:1 847:1 856:1 
-0.4731929854731404 291:1 770:1 856:1 871:1 911:1 924:1 944:1 
-0.192182657627719 11:1 12:1 148:1 291:1 579:1 856:1 918:1 919:1 
-0.1699801226176644 186:1 291:1 318:1 627:1 768:1 856:1 
-0.2292355887664013 108:1 241:1 292:1 865:1 892:1 
-1 105:1 108:1 117:1 241:1 452:1 483:1 578:1 
-0.2900008552208341 291:1 441:1 856:1 
-0.6757708875853994 255:1 291:1 572:1 690:1 816:1 817:1 856:1 
-0.1022067415331792 73:1 284:1 292:1 441:1 687:1 719:1 944:1 
-0.8454477795626065 46:1 65:1 91:1 240:1 291:1 317:1 690:1 856:1 
-1 73:1 291:1 856:1 
-1 53:1 178:1 291:1 416:1 437:1 676:1 745:1 856:1 931:1 
-0.566164659542663 16:1 241:1 291:1 379:1 856:1 
-0.03539656480884582 160:1 161:1 291:1 345:1 748:1 785:1 856:1 946:1 
-0.5283488047489431 101:1 291:1 457:1 578:1 670:1 856:1 
-0.1590467135048724 291:1 787:1 818:1 856:1 
-1 151:1 291:1 313:1 856:1 
-1 66:1 241:1 291:1 577:1 745:1 856:1 
-1 112:1 247:1 291:1 436:1 856:1 
-0.5897196123086081 108:1 248:1 292:1 631:1 852:1 863:1 
-0.1187558875319373 16:1 292:1 892:1 951:1 
-1 291:1 292:1 676:1 856:1 
-1 291:1 856:1 936:1 
-0.3068951585635486 268:1 291:1 458:1 741:1 856:1 
-1 73:1 291:1 856:1 892:1 
-0.4975265508138342 177:1 291:1 686:1 704:1 856:1 921:1 
-0.1961554529003741 291:1 577:1 687:1 856:1 970:1 
-1 292:1 690:1 
-0.6077348343386828 292:1 745:1 833:1 
-0.2681439715723419 23:1 255:1 277:1 419:1 
-0.5410445390146539 291:1 690:1 856:1 
-0.1541906715589942 79:1 92:1 291:1 856:1 
-0.3326520315244472 190:1 291:1 320:1 451:1 622:1 745:1 856:1 892:1 
-0.4633461521849941 177:1 291:1 364:1 745:1 856:1 912:1 
-0.249227670307128 847:1 
-0.1979820112365616 313:1 465:1 811:1 
-0.08620676519303917 248:1 291:1 351:1 416:1 577:1 856:1 
-0.09124046621833107 73:1 291:1 352:1 687:1 801:1 856:1 938:1 
-1 241:1 291:1 688:1 741:1 745:1 856:1 
-0.7142161197135284 193:1 241:1 291:1 292:1 856:1 938:1 
-0.0817616505243445 97:1 291:1 292:1 382:1 520:1 703:1 856:1 
-0.4136360372501411 271:1 291:1 292:1 704:1 856:1 
-0.2688345323280801 46:1 66:1 
-0.3376908873627666 151:1 291:1 856:1 
-0.2915739981399519 191:1 291:1 398:1 625:1 842:1 856:1 
-0.1713126484550973 173:1 291:1 292:1 704:1 745:1 800:1 801:1 856:1 958:1 965:1 
-0.4711370093893521 292:1 641:1 785:1 977:1 
-0.8948421186615466 291:1 347:1 641:1 745:1 856:1 871:1 
-0.5910269346711542 291:1 301:1 374:1 498:1 683:1 856:1 
-1 292:1 452:1 578:1 
-0.8458093284410059 291:1 577:1 856:1 
-1 292:1 690:1 704:1 
-0.8300198773823355 103:1 291:1 518:1 856:1 
-0.4840696350475594 79:1 291:1 292:1 856:1 926:1 
-0.05766414008123548 291:1 320:1 452:1 578:1 690:1 770:1 856:1 943:1 
-0.1934623237434553 42:1 193:1 292:1 421:1 465:1 778:1 
-0.3641812542462453 268:1 291:1 741:1 841:1 856:1 938:1 
-0.08380428738900442 124:1 172:1 291:1 686:1 745:1 801:1 856:1 
-0.6282408505961036 79:1 291:1 626:1 856:1 
-0.6400614169839255 291:1 435:1 856:1 953:1 
-0.1008968384801066 15:1 161:1 483:1 558:1 690:1 
-1 241:1 291:1 292:1 452:1 578:1 768:1 856:1 911:1 
-1 291:1 741:1 856:1 
-0.6066727665491568 291:1 436:1 441:1 452:1 521:1 745:1 856:1 892:1 
-0.2033227291852297 291:1 424:1 495:1 598:1 688:1 856:1 891:1 
-0.3729617414104043 270:1 292:1 439:1 785:1 
-1 291:1 452:1 578:1 848:1 856:1 944:1 
-0.7384360164423068 291:1 650:1 856:1 
-1 241:1 291:1 292:1 452:1 578:1 690:1 856:1 
-0.1664536180863731 271:1 291:1 648:1 856:1 936:1 
-1 291:1 352:1 741:1 785:1 856:1 931:1 
-1 241:1 292:1 704:1 
-0.5965674521233931 41:1 178:1 291:1 416:1 437:1 741:1 745:1 800:1 801:1 856:1 
-0.5739663773720334 143:1 378:1 462:1 495:1 584:1 688:1 728:1 966:1 977:1 
-0.3706449002081434 292:1 457:1 770:1 847:1 970:1 
-0.1141201619180371 81:1 291:1 690:1 839:1 856:1 
-0.617762368547851 66:1 270:1 
-0.2499090820487704 81:1 123:1 292:1 307:1 690:1 839:1 
-1 247:1 292:1 690:1 936:1 
-1 240:1 241:1 291:1 452:1 468:1 578:1 856:1 908:1 
-0.3357792387382688 129:1 292:1 441:1 585:1 785:1 924:1 
-1 291:1 741:1 856:1 968:1 
-0.6198937808189716 291:1 452:1 697:1 703:1 856:1 938:1 
-0.2114531094699679 291:1 856:1 926:1 
-1 292:1 352:1 452:1 578:1 741:1 
-0.1036449430824904 46:1 48:1 81:1 292:1 452:1 578:1 
-0.2286745472299953 30:1 259:1 291:1 330:1 568:1 856:1 
-0.1689735424901904 48:1 292:1 406:1 451:1 787:1 
-0.6774724558269999 47:1 79:1 291:1 744:1 768:1 856:1 
-0.3809438551716683 291:1 556:1 690:1 856:1 
-0.6656938059446946 48:1 167:1 267:1 268:1 292:1 690:1 944:1 
-0.7226398558735659 78:1 291:1 465:1 541:1 578:1 621:1 848:1 856:1 
-1 292:1 690:1 
-0.2058541406218618 48:1 241:1 267:1 291:1 452:1 578:1 690:1 856:1 
-0.8870513609075006 30:1 81:1 291:1 307:1 379:1 406:1 704:1 769:1 842:1 856:1 944:1 
-0.5533162161383547 160:1 291:1 317:1 441:1 856:1 
-0.9014707983067162 241:1 268:1 291:1 703:1 745:1 824:1 856:1 
-0.1602170311429365 167:1 291:1 856:1 
-0.9228925890921502 292:1 628:1 801:1 
-0.2256289448602124 291:1 441:1 585:1 785:1 848:1 856:1 936:1 938:1 
-0.17521036504489 291:1 436:1 797:1 801:1 848:1 856:1 924:1 953:1 
-0.2943625191264619 241:1 291:1 704:1 747:1 789:1 856:1 871:1 938:1 
-0.5032343756201126 308:1 404:1 416:1 483:1 737:1 790:1 833:1 885:1 
-1 241:1 292:1 452:1 578:1 
-0.2853385321918818 291:1 292:1 632:1 856:1 
-0.2488995759624115 292:1 308:1 346:1 404:1 416:1 437:1 568:1 688:1 
-0.07149672923936971 8:1 241:1 291:1 690:1 747:1 780:1 789:1 848:1 856:1 
-1 190:1 237:1 291:1 452:1 578:1 622:1 856:1 
-1 291:1 703:1 856:1 
-0.2651959138875003 291:1 690:1 856:1 936:1 943:1 
-0.2485669346205334 291:1 690:1 800:1 801:1 856:1 930:1 936:1 943:1 
-0.5163872378138348 60:1 688:1 763:1 
-0.5479520767814833 737:1 892:1 
-0.2022646195295833 291:1 856:1 912:1 936:1 
-0.1397588732982077 73:1 241:1 291:1 452:1 578:1 687:1 694:1 856:1 
-0.8631176302689952 240:1 241:1 291:1 292:1 452:1 494:1 578:1 686:1 800:1 801:1 806:1 856:1 955:1 
-0.09682104035791472 226:1 291:1 452:1 495:1 578:1 856:1 944:1 
-0.07107601610807601 291:1 574:1 768:1 856:1 
-0.2666006172063508 291:1 772:1 824:1 856:1 
-0.3448006599350031 241:1 291:1 452:1 494:1 578:1 621:1 686:1 806:1 856:1 955:1 
-1 241:1 291:1 856:1 944:1 
-1 241:1 291:1 358:1 452:1 578:1 768:1 770:1 856:1 
-0.5828849303643924 241:1 292:1 366:1 686:1 938:1 
-0.8875658086599589 291:1 452:1 578:1 686:1 856:1 
-1 10:1 291:1 397:1 801:1 856:1 936:1 
-1 291:1 452:1 578:1 856:1 
-0.3215851242333396 238:1 291:1 452:1 465:1 578:1 856:1 944:1 
-0.2635424594779692 292:1 358:1 452:1 578:1 874:1 
-0.0951950591022398 101:1 241:1 291:1 452:1 578:1 670:1 856:1 887:1 
-1 10:1 291:1 801:1 856:1 
-1 291:1 452:1 578:1 856:1 
-1 291:1 452:1 578:1 686:1 856:1 
-0.7422237511941852 30:1 292:1 352:1 452:1 578:1 686:1 801:1 807:1 911:1 936:1 
-1 291:1 452:1 578:1 741:1 833:1 856:1 
-0.3920415848239589 291:1 292:1 366:1 509:1 686:1 856:1 936:1 
-1 292:1 686:1 
-0.3320493911052009 254:1 292:1 429:1 530:1 770:1 931:1 953:1 
-0.3017362253099963 241:1 291:1 452:1 578:1 856:1 
-1 291:1 856:1 936:1 
-1 291:1 452:1 578:1 686:1 768:1 856:1 
-0.2314827754503363 46:1 241:1 291:1 317:1 856:1 942:1 944:1 
-0.1242539784563719 270:1 291:1 292:1 745:1 856:1 944:1 
-0.1502377588217228 241:1 268:1 291:1 452:1 745:1 856:1 938:1 
-0.005394401942807436 268:1 292:1 745:1 
-1 292:1 745:1 936:1 
-1 193:1 268:1 292:1 704:1 745:1 
-1 241:1 268:1 291:1 292:1 704:1 745:1 800:1 801:1 856:1 
-0.3670248700292633 268:1 292:1 529:1 572:1 704:1 801:1 
-0.01499371171013764 268:1 292:1 690:1 
-1 291:1 704:1 856:1 
-0.1240522744775677 58:1 268:1 291:1 345:1 452:1 741:1 856:1 931:1 938:1 
-0.808513657897076 291:1 352:1 452:1 495:1 856:1 938:1 
-0.6044806028149197 241:1 291:1 452:1 856:1 938:1 
-0.4958663581524555 207:1 268:1 291:1 856:1 896:1 932:1 
-1 193:1 268:1 291:1 452:1 578:1 745:1 856:1 
-0.1310964339675303 46:1 291:1 856:1 
-0.6890352903335781 241:1 291:1 800:1 801:1 856:1 
-0.6470425921509232 292:1 943:1 
-0.8967476678134434 291:1 801:1 856:1 930:1 
-0.5734275062340348 12:1 291:1 856:1 
-0.1877619826324489 291:1 320:1 452:1 822:1 856:1 
-1 291:1 452:1 578:1 856:1 
-0.2970692481222909 73:1 241:1 291:1 515:1 856:1 944:1 
-0.3743096902093212 1:1 151:1 291:1 770:1 830:1 856:1 943:1 
-1 178:1 291:1 436:1 481:1 833:1 856:1 
-0.2876294370602835 268:1 291:1 745:1 830:1 856:1 
-0.859374766925843 291:1 446:1 452:1 571:1 578:1 856:1 
-0.2652973281396376 92:1 291:1 745:1 856:1 
-1 271:1 317:1 552:1 690:1 745:1 
-0.1483255025130303 286:1 291:1 801:1 856:1 
-0.4910784184738279 291:1 556:1 632:1 745:1 800:1 801:1 856:1 944:1 959:1 
-0.6530682857555006 291:1 301:1 306:1 404:1 856:1 966:1 
-0.7314075653669537 291:1 743:1 856:1 
-0.1783458544377881 291:1 688:1 745:1 778:1 806:1 856:1 926:1 
-0.3712674970992965 62:1 291:1 352:1 856:1 936:1 
-0.1553737180667695 222:1 276:1 291:1 621:1 856:1 
-0.2612360829101545 101:1 291:1 670:1 745:1 856:1 
-1 291:1 800:1 801:1 856:1 878:1 944:1 
-0.1595269034549189 247:1 291:1 856:1 944:1 
-1 291:1 785:1 856:1 
-0.8435765991305015 291:1 466:1 728:1 856:1 931:1 
-1 452:1 578:1 688:1 800:1 801:1 
-1 191:1 291:1 452:1 578:1 856:1 
-1 291:1 741:1 852:1 856:1 
-0.5015264934683693 419:1 
-0.7921628908396187 33:1 222:1 262:1 291:1 452:1 578:1 856:1 
-1 292:1 452:1 578:1 690:1 
-1 291:1 292:1 690:1 856:1 
-0.193987003580024 292:1 317:1 340:1 577:1 
-1 291:1 801:1 856:1 
-0.3272914623814569 73:1 291:1 856:1 
-0.54299845834705 292:1 469:1 591:1 628:1 
-0.280516243890858 89:1 241:1 291:1 292:1 317:1 351:1 745:1 856:1 938:1 
-1 291:1 741:1 856:1 931:1 
-1 292:1 938:1 
-1 241:1 291:1 704:1 856:1 
-0.1647680133088258 104:1 241:1 292:1 693:1 
-0.3863751634811976 241:1 291:1 345:1 452:1 856:1 944:1 
-0.3961092056528177 57:1 291:1 292:1 431:1 737:1 745:1 763:1 771:1 856:1 926:1 
-0.6320046833934098 291:1 780:1 856:1 
-1 241:1 291:1 553:1 693:1 856:1 
-0.5246171568168979 291:1 693:1 856:1 
-0.8409532864951276 177:1 291:1 856:1 
-0.7641422689008405 22:1 291:1 542:1 856:1 
-1 110:1 291:1 473:1 856:1 
-0.002202317429937872 58:1 73:1 283:1 291:1 770:1 801:1 842:1 856:1 
-0.325722393111806 263:1 291:1 465:1 787:1 856:1 
-1 292:1 452:1 578:1 687:1 690:1 704:1 
-1 441:1 538:1 800:1 801:1 944:1 
-1 436:1 892:1 
-1 247:1 292:1 555:1 740:1 
-0.06196032114087805 190:1 291:1 451:1 622:1 690:1 747:1 856:1 892:1 
-1 291:1 856:1 892:1 
-1 291:1 318:1 572:1 768:1 856:1 
-1 292:1 847:1 
-1 2:1 291:1 671:1 856:1 
-1 268:1 291:1 509:1 555:1 690:1 856:1 914:1 
-1 291:1 452:1 578:1 856:1 
-0.657258027176009 241:1 291:1 311:1 452:1 572:1 578:1 848:1 856:1 
-0.6627249183189776 292:1 352:1 452:1 578:1 691:1 737:1 
-1 291:1 452:1 578:1 856:1 
-1 54:1 73:1 291:1 355:1 800:1 801:1 856:1 
-0.7068955290308446 120:1 291:1 335:1 806:1 856:1 
-0.1639930579291501 100:1 292:1 686:1 936:1 968:1 
-1 291:1 301:1 856:1 
-0.7240647027526594 191:1 239:1 291:1 852:1 856:1 944:1 952:1 
-1 292:1 301:1 452:1 507:1 578:1 741:1 
-0.8652999988535245 241:1 291:1 704:1 856:1 
-1 79:1 292:1 924:1 
-0.5448661605825977 255:1 269:1 292:1 
-1 255:1 292:1 398:1 856:1 
-1 291:1 856:1 944:1 
-1 247:1 291:1 465:1 741:1 856:1 938:1 
-1 193:1 268:1 291:1 292:1 745:1 856:1 
-0.5972948459930795 247:1 263:1 291:1 465:1 583:1 741:1 856:1 924:1 
-0.4265724937659652 124:1 234:1 291:1 815:1 828:1 856:1 
-0.3173245046543683 49:1 407:1 621:1 
-0.4213947375359539 768:1 
-0.6017925554607301 49:1 134:1 555:1 788:1 
-0.3167850584248282 626:1 724:1 
-0.8868422089875481 263:1 
-0.617173475456258 870:1 
-0.6381679828863941 291:1 816:1 944:1 
-0.4852656110357288 263:1 307:1 576:1 926:1 
-1 741:1 865:1 
-0.3520113774820926 276:1 330:1 452:1 
-0.07355779891808664 62:1 271:1 688:1 745:1 772:1 931:1 
-0.725438769777197 481:1 
-0.9568660182272154 222:1 687:1 808:1 848:1 
-1 944:1 
-0.2280838799808897 320:1 452:1 804:1 
-0.2853042966152415 173:1 816:1 
-1 687:1 785:1 
-0.3406198066268752 926:1 
-0.7209915148919932 51:1 177:1 261:1 436:1 728:1 
