svm_type c_svc
kernel_type rbf
gamma 0.00101626
nr_class 2
total_sv 184
rho 0.996982
label 1 -1
nr_sv 49 135
SV
1 291:1 317:1 577:1 703:1 856:1 
1 241:1 291:1 452:1 578:1 690:1 856:1 
1 241:1 292:1 452:1 462:1 578:1 728:1 924:1 932:1 977:1 
1 291:1 704:1 801:1 856:1 924:1 930:1 932:1 
1 291:1 320:1 541:1 690:1 856:1 
1 46:1 240:1 292:1 452:1 578:1 704:1 
1 291:1 704:1 856:1 924:1 932:1 
1 352:1 436:1 745:1 769:1 833:1 856:1 
1 268:1 291:1 745:1 800:1 801:1 856:1 871:1 
1 292:1 452:1 578:1 838:1 
1 154:1 292:1 301:1 481:1 938:1 
1 241:1 269:1 291:1 292:1 374:1 690:1 856:1 912:1 
1 46:1 240:1 241:1 292:1 452:1 578:1 852:1 944:1 
1 291:1 301:1 465:1 856:1 
1 291:1 307:1 770:1 856:1 
1 10:1 291:1 690:1 801:1 856:1 
1 117:1 268:1 291:1 292:1 745:1 856:1 871:1 
1 62:1 103:1 134:1 291:1 452:1 578:1 856:1 
1 241:1 291:1 856:1 
1 300:1 572:1 
1 270:1 291:1 483:1 690:1 856:1 
1 292:1 452:1 578:1 
1 66:1 
1 292:1 441:1 462:1 585:1 728:1 785:1 888:1 952:1 
1 92:1 291:1 856:1 
1 291:1 301:1 785:1 856:1 
1 48:1 291:1 330:1 749:1 816:1 856:1 
1 292:1 301:1 495:1 688:1 
1 8:1 247:1 320:1 452:1 578:1 704:1 
1 267:1 291:1 301:1 358:1 452:1 455:1 483:1 578:1 785:1 856:1 
1 268:1 291:1 686:1 745:1 856:1 
1 191:1 249:1 268:1 291:1 446:1 745:1 815:1 856:1 
1 291:1 745:1 856:1 
1 10:1 178:1 292:1 452:1 578:1 768:1 801:1 941:1 
1 81:1 120:1 240:1 268:1 292:1 335:1 839:1 
1 73:1 193:1 291:1 292:1 770:1 856:1 
1 268:1 291:1 292:1 690:1 856:1 870:1 970:1 
1 73:1 291:1 745:1 856:1 
1 240:1 690:1 745:1 
1 291:1 347:1 577:1 785:1 815:1 856:1 
1 30:1 291:1 379:1 494:1 856:1 955:1 
1 292:1 745:1 944:1 
1 10:1 268:1 283:1 291:1 352:1 436:1 452:1 578:1 801:1 856:1 
1 117:1 268:1 292:1 452:1 578:1 687:1 690:1 745:1 
1 291:1 801:1 856:1 
1 54:1 436:1 763:1 892:1 
1 54:1 436:1 892:1 893:1 
1 892:1 
1 291:1 436:1 763:1 856:1 893:1 
-0.04326465942488785 263:1 291:1 436:1 465:1 495:1 541:1 576:1 856:1 
-1 291:1 301:1 352:1 436:1 690:1 799:1 856:1 
-0.5508234194918927 54:1 379:1 436:1 467:1 
-0.3460377899699881 291:1 478:1 690:1 704:1 785:1 856:1 
-0.4513596187664653 688:1 785:1 
-0.187268693076029 241:1 291:1 690:1 856:1 924:1 
-0.2133306423956936 734:1 838:1 
-0.2550066334829837 100:1 291:1 292:1 577:1 745:1 800:1 801:1 856:1 
-0.6322809930782325 8:1 291:1 483:1 704:1 856:1 
-0.08873576046750253 46:1 241:1 267:1 292:1 452:1 468:1 578:1 908:1 930:1 931:1 965:1 
-0.3960798203724158 54:1 465:1 634:1 892:1 
-0.08786961821783623 291:1 541:1 577:1 604:1 856:1 
-0.08232289901077149 291:1 307:1 495:1 704:1 856:1 916:1 970:1 
-1 893:1 
-0.1408084572453836 192:1 291:1 578:1 690:1 856:1 938:1 
-0.2474799459838438 267:1 740:1 785:1 984:1 
-1 73:1 240:1 269:1 291:1 856:1 
-0.4364279078003307 134:1 291:1 452:1 578:1 856:1 944:1 
-0.3347079437661017 249:1 291:1 646:1 647:1 768:1 856:1 888:1 
-0.1463648170785188 16:1 54:1 241:1 372:1 436:1 452:1 578:1 767:1 
-0.6921265060919626 66:1 268:1 270:1 291:1 745:1 856:1 
-0.2077620726301139 10:1 111:1 291:1 441:1 801:1 856:1 931:1 941:1 
-0.2481439756094815 291:1 745:1 747:1 856:1 970:1 
-0.140857509302419 33:1 291:1 686:1 856:1 888:1 
-0.09169641680918277 170:1 247:1 268:1 291:1 317:1 452:1 770:1 833:1 856:1 975:1 
-0.128106536815362 268:1 291:1 452:1 578:1 608:1 745:1 856:1 
-0.4906810244378889 291:1 452:1 455:1 578:1 856:1 
-0.5543493656950352 283:1 291:1 745:1 801:1 856:1 
-0.4470466528777517 240:1 291:1 416:1 690:1 745:1 856:1 
-0.4448105027167286 291:1 292:1 347:1 626:1 785:1 856:1 
-0.3885390194836645 154:1 292:1 
-0.1402559375379024 190:1 292:1 320:1 622:1 745:1 808:1 892:1 
-0.1021673573089702 282:1 291:1 292:1 572:1 816:1 847:1 856:1 
-0.06956163611139717 291:1 431:1 635:1 763:1 771:1 856:1 
-0.1905078253156406 103:1 348:1 
-0.07957655760553733 10:1 250:1 283:1 291:1 587:1 682:1 801:1 853:1 856:1 944:1 
-0.3025782076990143 291:1 320:1 587:1 856:1 924:1 
-0.05454656915925143 291:1 300:1 348:1 352:1 770:1 801:1 856:1 930:1 
-0.2309455592145085 181:1 292:1 319:1 451:1 483:1 893:1 
-0.071748294470715 17:1 30:1 292:1 436:1 477:1 
-0.04307849488691977 220:1 224:1 252:1 291:1 292:1 452:1 568:1 719:1 856:1 892:1 893:1 975:1 
-0.7807977848411971 291:1 770:1 856:1 871:1 911:1 924:1 944:1 
-0.6763461871345483 105:1 108:1 117:1 241:1 452:1 483:1 578:1 
-0.1859050254741806 255:1 291:1 572:1 690:1 816:1 817:1 856:1 
-0.4240565845930413 46:1 65:1 91:1 240:1 291:1 317:1 690:1 856:1 
-0.1539038881118417 291:1 352:1 436:1 465:1 801:1 856:1 
-0.07818827339030777 134:1 313:1 320:1 
-0.2161639285987549 66:1 241:1 291:1 577:1 745:1 856:1 
-0.2146123325676403 30:1 268:1 291:1 737:1 769:1 782:1 856:1 892:1 
-0.2184039249428736 268:1 291:1 452:1 578:1 703:1 745:1 856:1 927:1 931:1 
-1 268:1 291:1 577:1 745:1 856:1 
-1 268:1 291:1 745:1 856:1 
-0.2160242847365395 73:1 247:1 291:1 745:1 856:1 921:1 
-0.3100142125986509 292:1 641:1 785:1 977:1 
-0.3463068496166444 291:1 347:1 641:1 745:1 856:1 871:1 
-0.2285917579353111 62:1 104:1 283:1 291:1 495:1 856:1 912:1 
-0.6349638367307575 291:1 301:1 374:1 498:1 683:1 856:1 
-1 292:1 452:1 578:1 
-0.3412274193605701 291:1 320:1 452:1 578:1 690:1 770:1 856:1 943:1 
-0.0418017500634057 154:1 291:1 856:1 
-0.3177846337874549 291:1 541:1 578:1 856:1 
-0.2192022151588029 241:1 268:1 270:1 291:1 439:1 452:1 690:1 856:1 938:1 
-0.06740176234013366 270:1 292:1 439:1 785:1 
-1 241:1 291:1 292:1 452:1 578:1 690:1 856:1 
-0.1738040334430846 291:1 441:1 452:1 578:1 585:1 785:1 856:1 
-0.2048893871498559 291:1 306:1 307:1 317:1 441:1 585:1 785:1 856:1 
-0.4300065980564532 143:1 378:1 462:1 495:1 584:1 688:1 728:1 966:1 977:1 
-0.08735556565773454 292:1 457:1 770:1 847:1 970:1 
-0.2647842720857228 81:1 123:1 292:1 307:1 690:1 839:1 
-0.417171491887354 291:1 856:1 912:1 924:1 
-0.6072928877955125 129:1 292:1 441:1 585:1 785:1 924:1 
-0.06769167254524376 291:1 452:1 697:1 703:1 856:1 938:1 
-0.8601209498653121 46:1 48:1 81:1 292:1 452:1 578:1 
-0.1674990755417607 30:1 259:1 291:1 330:1 568:1 856:1 
-0.1550401582752506 48:1 167:1 267:1 268:1 292:1 690:1 944:1 
-0.1983596533971329 30:1 81:1 291:1 307:1 379:1 406:1 704:1 769:1 842:1 856:1 944:1 
-0.1020749064556301 241:1 268:1 291:1 703:1 745:1 824:1 856:1 
-0.1645512568444834 291:1 436:1 797:1 801:1 848:1 856:1 924:1 953:1 
-0.04109149179826918 241:1 291:1 704:1 747:1 789:1 856:1 871:1 938:1 
-0.5140125515526675 241:1 292:1 452:1 578:1 
-0.3830711405790789 60:1 688:1 763:1 
-0.3309121072425923 62:1 292:1 436:1 946:1 
-0.5132242470880095 240:1 241:1 291:1 292:1 452:1 494:1 578:1 686:1 800:1 801:1 806:1 856:1 955:1 
-0.5617526121962495 241:1 291:1 358:1 452:1 578:1 768:1 770:1 856:1 
-0.1538895478920862 10:1 291:1 397:1 801:1 856:1 936:1 
-0.144058864510497 292:1 358:1 452:1 578:1 874:1 
-1 10:1 291:1 801:1 856:1 
-0.1087024674198101 291:1 352:1 452:1 494:1 578:1 801:1 856:1 955:1 
-0.2856806114703459 73:1 267:1 291:1 465:1 574:1 856:1 941:1 
-0.2752180565028911 291:1 494:1 801:1 856:1 955:1 
-0.05404532224516508 241:1 268:1 291:1 452:1 745:1 856:1 938:1 
-1 268:1 292:1 745:1 
-1 193:1 268:1 292:1 704:1 745:1 
-0.1244472586776125 241:1 268:1 291:1 292:1 704:1 745:1 800:1 801:1 856:1 
-0.3804716791883248 268:1 292:1 529:1 572:1 704:1 801:1 
-0.3758830388770846 268:1 292:1 690:1 
-0.8447286194420301 207:1 268:1 291:1 856:1 896:1 932:1 
-0.0948642910945157 247:1 291:1 474:1 785:1 829:1 856:1 
-0.6023209481877719 291:1 801:1 856:1 930:1 
-0.8385210217069337 178:1 291:1 436:1 481:1 833:1 856:1 
-0.2365333620633751 291:1 446:1 452:1 571:1 578:1 856:1 
-0.7845578648974723 92:1 291:1 745:1 856:1 
-0.05029570708077909 247:1 286:1 452:1 578:1 829:1 
-0.09898158005565136 73:1 79:1 240:1 241:1 291:1 452:1 578:1 856:1 
-0.382425314855874 241:1 292:1 466:1 687:1 690:1 704:1 728:1 
-0.0702378272548471 191:1 291:1 452:1 578:1 856:1 
-1 292:1 452:1 578:1 690:1 
-0.7021115596981086 291:1 320:1 352:1 452:1 578:1 852:1 856:1 
-0.1086800707745761 292:1 317:1 436:1 511:1 552:1 690:1 
-0.3035910851943373 78:1 291:1 690:1 785:1 856:1 
-0.1366106615072318 173:1 268:1 292:1 703:1 
-0.5839279021303672 292:1 300:1 
-0.2635644977721457 292:1 446:1 
-0.7838360714012451 10:1 291:1 801:1 856:1 879:1 892:1 
-0.1393372261506642 241:1 292:1 452:1 578:1 687:1 690:1 704:1 892:1 
-0.15003213649782 57:1 291:1 292:1 431:1 737:1 745:1 763:1 771:1 856:1 926:1 
-1 240:1 291:1 292:1 745:1 856:1 
-0.1558481887081508 2:1 54:1 291:1 350:1 576:1 577:1 856:1 941:1 
-0.6885524516448639 292:1 452:1 578:1 687:1 690:1 704:1 
-1 436:1 892:1 
-0.2397208400546153 54:1 73:1 291:1 355:1 800:1 801:1 856:1 
-0.228625255572972 292:1 452:1 495:1 578:1 
-0.2084912599110936 120:1 291:1 335:1 806:1 856:1 
-1 291:1 301:1 856:1 
-0.3637520429950727 191:1 239:1 291:1 852:1 856:1 944:1 952:1 
-0.6922032482286554 292:1 301:1 452:1 507:1 578:1 741:1 
-0.0032925905559891 193:1 268:1 291:1 292:1 745:1 856:1 
-0.3139779818638937 124:1 234:1 291:1 815:1 828:1 856:1 
-0.3408619126787021 870:1 
-0.08916810492753588 134:1 374:1 473:1 483:1 722:1 865:1 
-0.1206368814320035 276:1 330:1 452:1 
-0.2034209997221088 247:1 938:1 
-0.3081090725746679 455:1 816:1 
-0.06623963135894001 301:1 804:1 842:1 966:1 
-0.2238865903727926 51:1 177:1 261:1 436:1 728:1 
