svm_type c_svc
kernel_type rbf
gamma 0.00101626
nr_class 2
total_sv 408
rho 0.987898
label 1 -1
nr_sv 134 274
SV
1 291:1 317:1 577:1 703:1 856:1 
1 73:1 241:1 291:1 690:1 800:1 801:1 856:1 
1 241:1 291:1 704:1 745:1 856:1 
1 241:1 291:1 591:1 690:1 745:1 856:1 
1 73:1 79:1 292:1 452:1 578:1 
1 112:1 193:1 291:1 468:1 847:1 856:1 938:1 
1 173:1 268:1 292:1 703:1 
1 178:1 291:1 345:1 631:1 688:1 768:1 856:1 
1 241:1 291:1 292:1 687:1 690:1 745:1 856:1 
1 292:1 300:1 
1 116:1 291:1 397:1 770:1 856:1 
1 291:1 452:1 578:1 856:1 966:1 
1 291:1 856:1 938:1 
1 291:1 646:1 647:1 856:1 
1 291:1 745:1 768:1 856:1 
1 241:1 269:1 291:1 690:1 848:1 856:1 944:1 
1 291:1 741:1 745:1 856:1 879:1 892:1 931:1 
1 193:1 291:1 856:1 879:1 892:1 
1 292:1 311:1 578:1 
1 190:1 291:1 622:1 856:1 911:1 912:1 
1 10:1 291:1 801:1 856:1 879:1 892:1 
1 241:1 292:1 452:1 578:1 687:1 690:1 704:1 892:1 
1 254:1 263:1 292:1 530:1 571:1 
1 241:1 291:1 703:1 745:1 856:1 
1 291:1 318:1 628:1 690:1 830:1 856:1 
1 222:1 292:1 745:1 
1 291:1 483:1 856:1 
1 291:1 292:1 351:1 856:1 
1 291:1 741:1 852:1 856:1 
1 241:1 291:1 452:1 578:1 768:1 856:1 892:1 
1 291:1 856:1 938:1 
1 240:1 291:1 292:1 745:1 856:1 
1 291:1 686:1 833:1 856:1 892:1 944:1 
1 222:1 291:1 441:1 856:1 
1 241:1 292:1 693:1 
1 291:1 436:1 855:1 856:1 
1 292:1 454:1 704:1 947:1 
1 292:1 452:1 578:1 944:1 
1 222:1 291:1 856:1 
1 75:1 292:1 
1 16:1 419:1 904:1 944:1 
1 291:1 366:1 452:1 578:1 801:1 856:1 
1 79:1 291:1 688:1 856:1 
1 30:1 160:1 291:1 568:1 745:1 856:1 
1 51:1 291:1 317:1 352:1 452:1 468:1 556:1 578:1 801:1 848:1 856:1 
1 241:1 282:1 291:1 704:1 745:1 760:1 856:1 
1 291:1 687:1 690:1 811:1 856:1 
1 291:1 691:1 824:1 856:1 
1 110:1 292:1 542:1 
1 251:1 255:1 538:1 737:1 785:1 912:1 
1 292:1 452:1 538:1 690:1 
1 291:1 855:1 856:1 
1 108:1 110:1 451:1 555:1 740:1 943:1 
1 291:1 538:1 686:1 856:1 
1 255:1 291:1 827:1 856:1 
1 35:1 247:1 291:1 304:1 621:1 624:1 741:1 855:1 856:1 
1 190:1 237:1 291:1 292:1 452:1 622:1 856:1 931:1 938:1 
1 291:1 538:1 856:1 
1 190:1 291:1 622:1 724:1 856:1 879:1 
1 190:1 291:1 622:1 747:1 833:1 856:1 
1 291:1 352:1 452:1 856:1 931:1 938:1 
1 79:1 291:1 307:1 317:1 495:1 626:1 856:1 
1 291:1 317:1 508:1 555:1 593:1 856:1 
1 291:1 593:1 856:1 879:1 
1 241:1 291:1 856:1 
1 291:1 704:1 800:1 801:1 856:1 
1 247:1 248:1 263:1 291:1 848:1 856:1 
1 291:1 452:1 578:1 856:1 875:1 
1 452:1 578:1 737:1 741:1 
1 267:1 291:1 842:1 856:1 
1 292:1 441:1 452:1 572:1 578:1 650:1 800:1 801:1 944:1 
1 292:1 452:1 495:1 578:1 
1 137:1 291:1 452:1 578:1 704:1 801:1 856:1 
1 291:1 465:1 674:1 785:1 856:1 
1 11:1 12:1 291:1 392:1 856:1 
1 291:1 452:1 578:1 856:1 
1 291:1 555:1 704:1 745:1 856:1 914:1 
1 291:1 555:1 686:1 856:1 914:1 
1 241:1 291:1 424:1 452:1 578:1 856:1 
1 291:1 856:1 
1 291:1 511:1 856:1 
1 263:1 269:1 291:1 465:1 688:1 787:1 856:1 
1 241:1 291:1 441:1 693:1 848:1 856:1 944:1 
1 291:1 452:1 465:1 626:1 772:1 856:1 
1 291:1 856:1 953:1 
1 241:1 291:1 704:1 856:1 
1 241:1 291:1 452:1 578:1 690:1 856:1 
1 241:1 292:1 452:1 462:1 578:1 728:1 924:1 932:1 977:1 
1 291:1 704:1 801:1 856:1 924:1 930:1 932:1 
1 291:1 320:1 541:1 690:1 856:1 
1 46:1 240:1 292:1 452:1 578:1 704:1 
1 291:1 704:1 856:1 924:1 932:1 
1 352:1 436:1 745:1 769:1 833:1 856:1 
1 268:1 291:1 745:1 800:1 801:1 856:1 871:1 
1 292:1 452:1 578:1 838:1 
1 154:1 292:1 301:1 481:1 938:1 
1 241:1 269:1 291:1 292:1 374:1 690:1 856:1 912:1 
1 46:1 240:1 241:1 292:1 452:1 578:1 852:1 944:1 
1 291:1 301:1 465:1 856:1 
1 291:1 307:1 770:1 856:1 
1 10:1 291:1 690:1 801:1 856:1 
1 117:1 268:1 291:1 292:1 745:1 856:1 871:1 
1 62:1 103:1 134:1 291:1 452:1 578:1 856:1 
1 241:1 291:1 856:1 
1 300:1 572:1 
1 270:1 291:1 483:1 690:1 856:1 
1 292:1 452:1 578:1 
1 66:1 
1 292:1 441:1 462:1 585:1 728:1 785:1 888:1 952:1 
1 92:1 291:1 856:1 
1 291:1 301:1 785:1 856:1 
1 48:1 291:1 330:1 749:1 816:1 856:1 
1 292:1 301:1 495:1 688:1 
1 8:1 247:1 320:1 452:1 578:1 704:1 
1 267:1 291:1 301:1 358:1 452:1 455:1 483:1 578:1 785:1 856:1 
1 268:1 291:1 686:1 745:1 856:1 
1 191:1 249:1 268:1 291:1 446:1 745:1 815:1 856:1 
1 291:1 745:1 856:1 
1 10:1 178:1 292:1 452:1 578:1 768:1 801:1 941:1 
1 81:1 120:1 240:1 268:1 292:1 335:1 839:1 
1 73:1 193:1 291:1 292:1 770:1 856:1 
1 268:1 291:1 292:1 690:1 856:1 870:1 970:1 
1 73:1 291:1 745:1 856:1 
1 240:1 690:1 745:1 
1 291:1 347:1 577:1 785:1 815:1 856:1 
1 30:1 291:1 379:1 494:1 856:1 955:1 
1 292:1 745:1 944:1 
1 10:1 268:1 283:1 291:1 352:1 436:1 452:1 578:1 801:1 856:1 
1 117:1 268:1 292:1 452:1 578:1 687:1 690:1 745:1 
1 291:1 801:1 856:1 
1 54:1 436:1 763:1 892:1 
1 54:1 436:1 892:1 893:1 
1 892:1 
1 291:1 436:1 763:1 856:1 893:1 
-0.284922988367018 291:1 626:1 856:1 912:1 938:1 
-0.152108135646765 240:1 291:1 687:1 704:1 856:1 
-0.1283184568819629 291:1 292:1 639:1 856:1 871:1 931:1 
-0.4049362387965038 58:1 178:1 263:1 291:1 856:1 912:1 
-1 291:1 317:1 495:1 856:1 
-0.3467358731169329 241:1 291:1 848:1 856:1 944:1 
-0.6285543921028294 178:1 291:1 292:1 801:1 856:1 865:1 912:1 
-0.2691243553397624 263:1 291:1 436:1 465:1 495:1 541:1 576:1 856:1 
-0.8499883011592274 291:1 301:1 352:1 436:1 690:1 799:1 856:1 
-0.2712399653872315 241:1 247:1 291:1 292:1 397:1 741:1 856:1 
-0.8563923465734831 222:1 291:1 404:1 626:1 745:1 856:1 
-0.04720761259117475 54:1 379:1 436:1 467:1 
-0.7102158831876855 291:1 292:1 468:1 478:1 690:1 785:1 856:1 
-0.04738864368706795 44:1 83:1 157:1 241:1 291:1 577:1 745:1 800:1 801:1 847:1 856:1 
-0.1913183564489727 122:1 291:1 317:1 358:1 452:1 578:1 856:1 
-0.1328201994329493 1:1 30:1 241:1 291:1 292:1 856:1 892:1 
-0.1392465117595021 291:1 438:1 704:1 801:1 856:1 
-1 267:1 291:1 745:1 760:1 856:1 
-0.1960424041116497 8:1 134:1 291:1 856:1 892:1 931:1 
-1 291:1 292:1 690:1 856:1 
-0.2828204527279116 734:1 838:1 
-1 51:1 291:1 436:1 856:1 892:1 
-0.1376462800461193 100:1 291:1 292:1 577:1 745:1 800:1 801:1 856:1 
-0.6346815823393772 8:1 291:1 483:1 704:1 856:1 
-0.576160489974734 54:1 465:1 634:1 892:1 
-0.1188110210817244 291:1 541:1 577:1 604:1 856:1 
-0.6520015706528056 110:1 241:1 269:1 292:1 316:1 892:1 931:1 
-0.04560048871152499 137:1 241:1 291:1 386:1 445:1 745:1 856:1 912:1 
-1 241:1 291:1 690:1 745:1 856:1 
-0.4763236714980016 241:1 292:1 452:1 578:1 687:1 
-1 893:1 
-0.7017095363303737 241:1 291:1 690:1 745:1 856:1 
-0.06892935479642215 291:1 317:1 441:1 644:1 856:1 892:1 
-0.7627813589030387 73:1 240:1 269:1 291:1 856:1 
-0.4226458311862673 112:1 291:1 452:1 578:1 856:1 
-0.5690811838351377 134:1 291:1 452:1 578:1 856:1 944:1 
-0.1652662246625172 190:1 291:1 622:1 856:1 
-0.7848125529966191 35:1 291:1 624:1 856:1 
-0.7907480454597895 249:1 291:1 646:1 647:1 768:1 856:1 888:1 
-0.4034770129047711 291:1 352:1 452:1 578:1 816:1 848:1 856:1 
-0.7555070745624884 291:1 856:1 947:1 
-0.1953471354868696 16:1 54:1 241:1 372:1 436:1 452:1 578:1 767:1 
-0.3387737707789449 10:1 111:1 291:1 441:1 801:1 856:1 931:1 941:1 
-0.01518200268653863 170:1 247:1 268:1 291:1 317:1 452:1 770:1 833:1 856:1 975:1 
-0.2872508381044351 291:1 452:1 455:1 578:1 856:1 
-0.1082987082723411 10:1 51:1 73:1 291:1 627:1 800:1 801:1 856:1 975:1 
-0.13627464290012 263:1 268:1 291:1 704:1 800:1 801:1 856:1 
-0.6609876283533309 291:1 704:1 745:1 856:1 
-1 283:1 291:1 745:1 801:1 856:1 
-0.8761641366996998 240:1 269:1 291:1 741:1 856:1 941:1 
-1 190:1 291:1 292:1 622:1 856:1 
-0.3735935820296314 291:1 292:1 347:1 626:1 785:1 856:1 
-0.3882641545558694 291:1 495:1 770:1 856:1 912:1 
-0.3849322448595972 291:1 352:1 436:1 452:1 856:1 
-0.1601513613361486 173:1 291:1 449:1 578:1 690:1 856:1 
-0.3514999739482367 241:1 248:1 291:1 292:1 345:1 452:1 467:1 856:1 938:1 
-0.9113068048402282 154:1 292:1 
-0.4577268069898012 190:1 292:1 320:1 622:1 745:1 808:1 892:1 
-0.713581229615491 267:1 291:1 856:1 
-0.7293940389306708 291:1 511:1 688:1 856:1 
-0.1462668316547694 135:1 291:1 366:1 703:1 856:1 959:1 
-0.2146387963925761 181:1 249:1 291:1 542:1 801:1 856:1 901:1 
-0.8728822907373338 241:1 282:1 291:1 704:1 745:1 856:1 
-0.4699916668350921 62:1 291:1 374:1 856:1 
-0.1623571112171101 91:1 103:1 241:1 291:1 779:1 833:1 856:1 
-0.3331061756985095 79:1 160:1 241:1 469:1 816:1 856:1 943:1 
-0.1626553100953687 291:1 431:1 635:1 763:1 771:1 856:1 
-0.2745442510951212 291:1 772:1 856:1 888:1 938:1 
-0.8250967920247734 291:1 608:1 688:1 788:1 855:1 856:1 
-1 193:1 291:1 856:1 912:1 
-0.08153467091071824 248:1 291:1 441:1 483:1 574:1 632:1 816:1 856:1 
-0.1954056353691195 10:1 250:1 283:1 291:1 587:1 682:1 801:1 853:1 856:1 944:1 
-0.7308756446602376 116:1 291:1 856:1 
-0.9449715879950644 292:1 300:1 348:1 
-0.2099884232333742 291:1 690:1 856:1 
-0.0168364816840014 291:1 312:1 686:1 856:1 
-0.08492541589311142 181:1 292:1 319:1 451:1 483:1 893:1 
-0.1551783656443087 291:1 577:1 646:1 647:1 856:1 
-0.1501415651146752 220:1 224:1 252:1 291:1 292:1 452:1 568:1 719:1 856:1 892:1 893:1 975:1 
-0.05059182280949839 73:1 173:1 291:1 307:1 353:1 417:1 460:1 724:1 806:1 856:1 
-1 291:1 770:1 856:1 871:1 911:1 924:1 944:1 
-0.2169846944204993 11:1 12:1 148:1 291:1 579:1 856:1 918:1 919:1 
-0.2574645714050319 247:1 351:1 
-0.6561377488314485 105:1 108:1 117:1 241:1 452:1 483:1 578:1 
-1 291:1 745:1 856:1 
-0.08885749235778556 3:1 81:1 288:1 291:1 320:1 626:1 770:1 839:1 856:1 944:1 
-1 291:1 452:1 483:1 578:1 856:1 
-0.1629914048186371 270:1 291:1 352:1 510:1 690:1 693:1 856:1 
-0.2036327371095782 46:1 65:1 240:1 
-0.09709061104922731 160:1 161:1 291:1 345:1 748:1 785:1 856:1 946:1 
-0.1649589836533076 240:1 263:1 268:1 291:1 313:1 745:1 848:1 856:1 931:1 938:1 
-0.4716921517439018 112:1 247:1 291:1 436:1 856:1 
-0.2846106841523254 108:1 248:1 292:1 631:1 852:1 863:1 
-0.1116142601692733 16:1 292:1 892:1 951:1 
-0.3645505427975446 291:1 292:1 352:1 745:1 856:1 
-0.2684314362396253 30:1 268:1 291:1 737:1 769:1 782:1 856:1 892:1 
-0.1510882767021673 268:1 291:1 452:1 578:1 703:1 745:1 856:1 927:1 931:1 
-1 268:1 291:1 577:1 745:1 856:1 
-0.2980349881921504 268:1 292:1 452:1 578:1 931:1 
-0.0867548281325729 268:1 291:1 292:1 317:1 745:1 856:1 
-0.5488733869453492 73:1 291:1 856:1 892:1 
-0.6227423763456243 291:1 455:1 745:1 856:1 
-1 292:1 745:1 833:1 
-0.09193829973904448 23:1 255:1 277:1 419:1 
-0.5165389687697542 190:1 291:1 320:1 451:1 622:1 745:1 856:1 892:1 
-0.2112712428029567 313:1 465:1 811:1 
-0.06976226156624045 97:1 291:1 292:1 382:1 520:1 703:1 856:1 
-0.4019801629665822 46:1 66:1 
-0.2659658829734461 173:1 291:1 292:1 704:1 745:1 800:1 801:1 856:1 958:1 965:1 
-0.256361655760885 292:1 641:1 785:1 977:1 
-0.2733380137265109 2:1 291:1 317:1 785:1 856:1 
-0.4730450209801919 291:1 301:1 374:1 498:1 683:1 856:1 
-1 292:1 452:1 578:1 
-0.3396703201288237 291:1 577:1 856:1 
-0.3101278661714708 291:1 483:1 494:1 856:1 955:1 
-1 292:1 690:1 704:1 
-0.1978757342306537 103:1 291:1 518:1 856:1 
-0.1633633925726642 66:1 270:1 292:1 688:1 944:1 
-0.5392692386645842 291:1 320:1 452:1 578:1 690:1 770:1 856:1 943:1 
-0.1842815432434861 291:1 745:1 856:1 
-0.1234000336225667 15:1 241:1 291:1 320:1 452:1 541:1 578:1 824:1 856:1 966:1 
-0.2500409467717205 65:1 291:1 704:1 827:1 856:1 
-0.05141324127649706 124:1 172:1 291:1 686:1 745:1 801:1 856:1 
-0.7020874026007473 30:1 291:1 568:1 856:1 
-0.5411795092404594 291:1 436:1 441:1 452:1 521:1 745:1 856:1 892:1 
-0.2681759463322283 291:1 424:1 495:1 598:1 688:1 856:1 891:1 
-0.1383321982763986 270:1 292:1 439:1 785:1 
-0.6591190307932211 291:1 650:1 856:1 
-1 241:1 291:1 292:1 452:1 578:1 690:1 856:1 
-0.6819643654842182 291:1 441:1 452:1 578:1 585:1 785:1 856:1 
-0.2121054363659798 291:1 306:1 307:1 317:1 441:1 585:1 785:1 856:1 
-0.7411162465750034 291:1 856:1 904:1 
-0.4126186548847169 291:1 693:1 856:1 
-0.165542890016902 291:1 352:1 741:1 785:1 856:1 931:1 
-0.6174879477118176 143:1 378:1 462:1 495:1 584:1 688:1 728:1 966:1 977:1 
-0.1175104913369418 292:1 457:1 770:1 847:1 970:1 
-0.199203587456735 81:1 291:1 690:1 839:1 856:1 
-0.2677512041268689 66:1 270:1 
-0.1675773213060051 81:1 123:1 292:1 307:1 690:1 839:1 
-0.4279120025746299 240:1 241:1 291:1 452:1 468:1 578:1 856:1 908:1 
-0.3279325847576293 129:1 292:1 441:1 585:1 785:1 924:1 
-0.4209575812183366 291:1 452:1 697:1 703:1 856:1 938:1 
-0.4604918234734253 46:1 48:1 81:1 292:1 452:1 578:1 
-0.1938721570973455 30:1 259:1 291:1 330:1 568:1 856:1 
-0.903417923970867 291:1 556:1 690:1 856:1 
-0.1532004697184583 291:1 345:1 737:1 856:1 943:1 944:1 953:1 
-0.143607653426517 78:1 291:1 465:1 541:1 578:1 621:1 848:1 856:1 
-0.6764440364199034 292:1 690:1 
-0.1725856924471158 48:1 241:1 267:1 291:1 452:1 578:1 690:1 856:1 
-0.2453250805225992 48:1 253:1 291:1 330:1 493:1 704:1 856:1 
-0.5145115121199137 30:1 81:1 291:1 307:1 379:1 406:1 704:1 769:1 842:1 856:1 944:1 
-0.3820595039124051 160:1 291:1 317:1 441:1 856:1 
-0.8374467586977304 241:1 268:1 291:1 703:1 745:1 824:1 856:1 
-0.2686036240256165 292:1 628:1 801:1 
-0.2895737046889519 291:1 436:1 797:1 801:1 848:1 856:1 924:1 953:1 
-0.2151874470033809 241:1 291:1 704:1 747:1 789:1 856:1 871:1 938:1 
-1 241:1 292:1 452:1 578:1 
-1 190:1 237:1 291:1 452:1 578:1 622:1 856:1 
-1 291:1 703:1 856:1 
-0.5989568140611919 60:1 688:1 763:1 
-0.7084618097890037 737:1 892:1 
-0.2592817829306628 240:1 241:1 291:1 292:1 452:1 494:1 578:1 686:1 800:1 801:1 806:1 856:1 955:1 
-0.4881258015196659 291:1 800:1 801:1 856:1 
-0.141154279434314 291:1 772:1 824:1 856:1 
-0.2830066941805635 241:1 291:1 358:1 452:1 578:1 768:1 770:1 856:1 
-0.664963115005069 241:1 292:1 366:1 686:1 938:1 
-0.7519619372037176 10:1 291:1 397:1 801:1 856:1 936:1 
-0.114369135600437 292:1 358:1 452:1 578:1 874:1 
-0.585421101173752 16:1 291:1 307:1 856:1 938:1 
-1 10:1 291:1 801:1 856:1 
-0.79078431488728 291:1 452:1 578:1 686:1 856:1 
-0.1238358633003001 16:1 291:1 494:1 801:1 856:1 930:1 938:1 955:1 
-0.1475432189422139 291:1 352:1 452:1 494:1 578:1 801:1 856:1 955:1 
-0.3239274190523032 292:1 686:1 
-0.5324468836660129 254:1 292:1 429:1 530:1 770:1 931:1 953:1 
-0.1173765804880808 291:1 686:1 800:1 801:1 856:1 911:1 
-0.1182511155487537 291:1 494:1 801:1 856:1 955:1 
-1 291:1 452:1 578:1 686:1 768:1 856:1 
-0.1183647730428205 46:1 241:1 291:1 317:1 856:1 942:1 944:1 
-0.1920007215524085 270:1 291:1 292:1 745:1 856:1 944:1 
-1 268:1 292:1 745:1 
-0.2635320852821267 193:1 268:1 292:1 704:1 745:1 
-1 241:1 268:1 291:1 292:1 704:1 745:1 800:1 801:1 856:1 
-0.2497156606835897 268:1 292:1 529:1 572:1 704:1 801:1 
-0.8079453447792465 240:1 241:1 291:1 452:1 852:1 856:1 938:1 
-0.8422419444339848 207:1 268:1 291:1 856:1 896:1 932:1 
-0.6868666312762386 193:1 268:1 291:1 452:1 578:1 745:1 856:1 
-0.5010223986792303 46:1 291:1 856:1 
-1 291:1 801:1 856:1 930:1 
-0.5005284015852047 12:1 291:1 856:1 
-0.07534597326763454 291:1 320:1 452:1 822:1 856:1 
-1 291:1 452:1 578:1 856:1 
-0.8068044264546691 178:1 291:1 436:1 481:1 833:1 856:1 
-0.2490310524183175 263:1 291:1 345:1 465:1 848:1 856:1 
-0.9219005609765398 291:1 446:1 452:1 571:1 578:1 856:1 
-0.8398486386638514 291:1 628:1 690:1 830:1 856:1 
-1 92:1 291:1 745:1 856:1 
-0.8831419629495687 10:1 291:1 416:1 801:1 856:1 
-0.6898721338285292 222:1 276:1 291:1 621:1 856:1 
-1 73:1 79:1 240:1 241:1 291:1 452:1 578:1 856:1 
-0.6010185404023703 241:1 292:1 466:1 687:1 690:1 704:1 728:1 
-1 291:1 785:1 856:1 
-0.07852143124081434 79:1 291:1 292:1 625:1 856:1 
-0.382557717800226 108:1 110:1 167:1 291:1 686:1 741:1 856:1 
-0.2169036677179129 177:1 291:1 392:1 676:1 856:1 938:1 
-0.3466001544595307 191:1 291:1 452:1 578:1 856:1 
-0.4795713229925207 291:1 741:1 852:1 856:1 
-0.5708747454096483 419:1 
-0.4413696235019902 33:1 222:1 262:1 291:1 452:1 578:1 856:1 
-1 292:1 452:1 578:1 690:1 
-0.08510080116047022 53:1 91:1 117:1 273:1 291:1 676:1 780:1 856:1 
-0.06288241084551148 328:1 481:1 801:1 846:1 
-1 291:1 292:1 690:1 856:1 
-0.1993221165055639 291:1 358:1 398:1 686:1 856:1 
-0.4340477817788123 9:1 47:1 292:1 304:1 468:1 745:1 944:1 
-0.08434267832597771 241:1 291:1 364:1 379:1 745:1 800:1 801:1 856:1 
-1 291:1 801:1 856:1 
-0.8070515366907589 241:1 291:1 591:1 704:1 745:1 856:1 
-1 73:1 292:1 452:1 578:1 704:1 944:1 
-0.2808631864078909 79:1 247:1 291:1 307:1 856:1 931:1 
-0.1139042280415145 292:1 317:1 436:1 511:1 552:1 690:1 
-1 255:1 292:1 452:1 578:1 704:1 938:1 
-0.7776950609768597 137:1 241:1 291:1 452:1 578:1 856:1 
-1 241:1 291:1 704:1 848:1 856:1 944:1 
-0.7293983109274331 291:1 347:1 452:1 578:1 768:1 856:1 
-0.3879003550832241 89:1 241:1 291:1 292:1 317:1 351:1 745:1 856:1 938:1 
-1 291:1 317:1 856:1 
-0.3606031285148772 291:1 495:1 688:1 785:1 829:1 856:1 
-0.1614420785425579 104:1 241:1 292:1 693:1 
-0.1501058215263882 241:1 291:1 345:1 452:1 856:1 944:1 
-0.1745400687103776 57:1 291:1 292:1 431:1 737:1 745:1 763:1 771:1 856:1 926:1 
-1 291:1 693:1 856:1 
-0.2639065945138891 22:1 291:1 542:1 856:1 
-0.2926194857121261 110:1 291:1 473:1 856:1 
-1 263:1 291:1 465:1 787:1 856:1 
-0.0778418168374003 291:1 292:1 690:1 800:1 801:1 856:1 
-1 292:1 452:1 578:1 687:1 690:1 704:1 
-1 441:1 538:1 800:1 801:1 944:1 
-1 436:1 892:1 
-1 247:1 292:1 555:1 740:1 
-0.7913280256006694 190:1 291:1 451:1 622:1 690:1 747:1 856:1 892:1 
-1 291:1 856:1 892:1 
-0.1281740065647195 291:1 465:1 468:1 483:1 856:1 
-0.1900515923792938 54:1 241:1 291:1 352:1 688:1 856:1 938:1 
-1 291:1 318:1 572:1 768:1 856:1 
-1 268:1 291:1 509:1 555:1 690:1 856:1 914:1 
-0.7280841111906686 241:1 291:1 311:1 452:1 572:1 578:1 848:1 856:1 
-0.7179920441825796 292:1 352:1 452:1 578:1 691:1 737:1 
-0.4706542988636119 54:1 73:1 291:1 355:1 800:1 801:1 856:1 
-0.436839721844305 120:1 291:1 335:1 806:1 856:1 
-1 291:1 301:1 856:1 
-0.3003802985072812 292:1 441:1 833:1 848:1 944:1 
-0.4994086966407305 191:1 239:1 291:1 852:1 856:1 944:1 952:1 
-1 292:1 301:1 452:1 507:1 578:1 741:1 
-1 79:1 292:1 924:1 
-0.735680679396481 255:1 269:1 292:1 
-0.3128812558623162 247:1 291:1 465:1 741:1 856:1 938:1 
-1 193:1 268:1 291:1 292:1 745:1 856:1 
-0.2574633307402005 247:1 263:1 291:1 465:1 583:1 741:1 856:1 924:1 
-0.4247483372542764 124:1 234:1 291:1 815:1 828:1 856:1 
-0.1801427245090176 49:1 134:1 555:1 788:1 
-0.4467603797641286 626:1 724:1 
-0.0644424122607241 100:1 103:1 
-0.3540868600544697 263:1 
-0.6292047720239851 870:1 
-0.2689410404299323 62:1 271:1 688:1 745:1 772:1 931:1 
-0.1070707712975003 222:1 687:1 808:1 848:1 
-0.7971773805561417 452:1 465:1 578:1 
-0.1802303426511375 437:1 848:1 871:1 944:1 
-0.1572497024778447 173:1 816:1 
-0.5125456088488164 301:1 804:1 842:1 966:1 
-0.2172823881539456 279:1 306:1 469:1 555:1 
-1 687:1 785:1 
-0.6748248903310359 352:1 687:1 833:1 847:1 970:1 
