svm_type c_svc
kernel_type rbf
gamma 0.00101626
nr_class 2
total_sv 467
rho 0.984207
label 1 -1
nr_sv 158 309
SV
1 291:1 317:1 577:1 703:1 856:1 
1 241:1 291:1 591:1 704:1 745:1 856:1 
1 73:1 292:1 452:1 578:1 704:1 944:1 
1 241:1 291:1 452:1 856:1 931:1 
1 291:1 806:1 808:1 856:1 
1 73:1 291:1 317:1 856:1 
1 291:1 743:1 856:1 
1 73:1 193:1 241:1 291:1 452:1 578:1 856:1 
1 291:1 317:1 856:1 
1 22:1 241:1 271:1 291:1 577:1 637:1 745:1 856:1 943:1 
1 292:1 317:1 436:1 511:1 552:1 690:1 
1 78:1 291:1 690:1 785:1 856:1 
1 255:1 292:1 452:1 578:1 704:1 938:1 
1 241:1 291:1 313:1 452:1 578:1 856:1 944:1 
1 137:1 241:1 291:1 452:1 578:1 856:1 
1 178:1 291:1 856:1 
1 291:1 616:1 784:1 856:1 938:1 
1 137:1 241:1 291:1 452:1 578:1 856:1 
1 241:1 291:1 704:1 848:1 856:1 944:1 
1 291:1 347:1 452:1 578:1 768:1 856:1 
1 283:1 291:1 435:1 778:1 816:1 856:1 
1 292:1 553:1 800:1 801:1 
1 111:1 292:1 452:1 590:1 
1 292:1 641:1 938:1 
1 241:1 291:1 313:1 687:1 856:1 926:1 931:1 
1 73:1 241:1 291:1 690:1 800:1 801:1 856:1 
1 241:1 291:1 704:1 745:1 856:1 
1 241:1 291:1 591:1 690:1 745:1 856:1 
1 73:1 79:1 292:1 452:1 578:1 
1 112:1 193:1 291:1 468:1 847:1 856:1 938:1 
1 173:1 268:1 292:1 703:1 
1 178:1 291:1 345:1 631:1 688:1 768:1 856:1 
1 241:1 291:1 292:1 687:1 690:1 745:1 856:1 
1 292:1 300:1 
1 116:1 291:1 397:1 770:1 856:1 
1 291:1 452:1 578:1 856:1 966:1 
1 291:1 856:1 938:1 
1 291:1 646:1 647:1 856:1 
1 291:1 745:1 768:1 856:1 
1 241:1 269:1 291:1 690:1 848:1 856:1 944:1 
1 291:1 741:1 745:1 856:1 879:1 892:1 931:1 
1 193:1 291:1 856:1 879:1 892:1 
1 292:1 311:1 578:1 
1 190:1 291:1 622:1 856:1 911:1 912:1 
1 10:1 291:1 801:1 856:1 879:1 892:1 
1 241:1 292:1 452:1 578:1 687:1 690:1 704:1 892:1 
1 254:1 263:1 292:1 530:1 571:1 
1 241:1 291:1 703:1 745:1 856:1 
1 291:1 318:1 628:1 690:1 830:1 856:1 
1 222:1 292:1 745:1 
1 291:1 483:1 856:1 
1 291:1 292:1 351:1 856:1 
1 291:1 741:1 852:1 856:1 
1 241:1 291:1 452:1 578:1 768:1 856:1 892:1 
1 291:1 856:1 938:1 
1 240:1 291:1 292:1 745:1 856:1 
1 291:1 686:1 833:1 856:1 892:1 944:1 
1 222:1 291:1 441:1 856:1 
1 241:1 292:1 693:1 
1 291:1 436:1 855:1 856:1 
1 292:1 454:1 704:1 947:1 
1 292:1 452:1 578:1 944:1 
1 222:1 291:1 856:1 
1 75:1 292:1 
1 16:1 419:1 904:1 944:1 
1 291:1 366:1 452:1 578:1 801:1 856:1 
1 79:1 291:1 688:1 856:1 
1 30:1 160:1 291:1 568:1 745:1 856:1 
1 51:1 291:1 317:1 352:1 452:1 468:1 556:1 578:1 801:1 848:1 856:1 
1 241:1 282:1 291:1 704:1 745:1 760:1 856:1 
1 291:1 687:1 690:1 811:1 856:1 
1 291:1 691:1 824:1 856:1 
1 110:1 292:1 542:1 
1 251:1 255:1 538:1 737:1 785:1 912:1 
1 292:1 452:1 538:1 690:1 
1 291:1 855:1 856:1 
1 108:1 110:1 451:1 555:1 740:1 943:1 
1 291:1 538:1 686:1 856:1 
1 255:1 291:1 827:1 856:1 
1 35:1 247:1 291:1 304:1 621:1 624:1 741:1 855:1 856:1 
1 190:1 237:1 291:1 292:1 452:1 622:1 856:1 931:1 938:1 
1 291:1 538:1 856:1 
1 190:1 291:1 622:1 724:1 856:1 879:1 
1 190:1 291:1 622:1 747:1 833:1 856:1 
1 291:1 352:1 452:1 856:1 931:1 938:1 
1 79:1 291:1 307:1 317:1 495:1 626:1 856:1 
1 291:1 317:1 508:1 555:1 593:1 856:1 
1 291:1 593:1 856:1 879:1 
1 241:1 291:1 856:1 
1 291:1 704:1 800:1 801:1 856:1 
1 247:1 248:1 263:1 291:1 848:1 856:1 
1 291:1 452:1 578:1 856:1 875:1 
1 452:1 578:1 737:1 741:1 
1 267:1 291:1 842:1 856:1 
1 292:1 441:1 452:1 572:1 578:1 650:1 800:1 801:1 944:1 
1 292:1 452:1 495:1 578:1 
1 137:1 291:1 452:1 578:1 704:1 801:1 856:1 
1 291:1 465:1 674:1 785:1 856:1 
1 11:1 12:1 291:1 392:1 856:1 
1 291:1 452:1 578:1 856:1 
1 291:1 555:1 704:1 745:1 856:1 914:1 
1 291:1 555:1 686:1 856:1 914:1 
1 241:1 291:1 424:1 452:1 578:1 856:1 
1 291:1 856:1 
1 291:1 511:1 856:1 
1 263:1 269:1 291:1 465:1 688:1 787:1 856:1 
1 241:1 291:1 441:1 693:1 848:1 856:1 944:1 
1 291:1 452:1 465:1 626:1 772:1 856:1 
1 291:1 856:1 953:1 
1 241:1 291:1 704:1 856:1 
1 241:1 291:1 452:1 578:1 690:1 856:1 
1 241:1 292:1 452:1 462:1 578:1 728:1 924:1 932:1 977:1 
1 291:1 704:1 801:1 856:1 924:1 930:1 932:1 
1 291:1 320:1 541:1 690:1 856:1 
1 46:1 240:1 292:1 452:1 578:1 704:1 
1 291:1 704:1 856:1 924:1 932:1 
1 352:1 436:1 745:1 769:1 833:1 856:1 
1 268:1 291:1 745:1 800:1 801:1 856:1 871:1 
1 292:1 452:1 578:1 838:1 
1 154:1 292:1 301:1 481:1 938:1 
1 241:1 269:1 291:1 292:1 374:1 690:1 856:1 912:1 
1 46:1 240:1 241:1 292:1 452:1 578:1 852:1 944:1 
1 291:1 301:1 465:1 856:1 
1 291:1 307:1 770:1 856:1 
1 10:1 291:1 690:1 801:1 856:1 
1 117:1 268:1 291:1 292:1 745:1 856:1 871:1 
1 62:1 103:1 134:1 291:1 452:1 578:1 856:1 
1 241:1 291:1 856:1 
1 300:1 572:1 
1 270:1 291:1 483:1 690:1 856:1 
1 292:1 452:1 578:1 
1 66:1 
1 292:1 441:1 462:1 585:1 728:1 785:1 888:1 952:1 
1 92:1 291:1 856:1 
1 291:1 301:1 785:1 856:1 
1 48:1 291:1 330:1 749:1 816:1 856:1 
1 292:1 301:1 495:1 688:1 
1 8:1 247:1 320:1 452:1 578:1 704:1 
1 267:1 291:1 301:1 358:1 452:1 455:1 483:1 578:1 785:1 856:1 
1 268:1 291:1 686:1 745:1 856:1 
1 191:1 249:1 268:1 291:1 446:1 745:1 815:1 856:1 
1 291:1 745:1 856:1 
1 10:1 178:1 292:1 452:1 578:1 768:1 801:1 941:1 
1 81:1 120:1 240:1 268:1 292:1 335:1 839:1 
1 73:1 193:1 291:1 292:1 770:1 856:1 
1 268:1 291:1 292:1 690:1 856:1 870:1 970:1 
1 73:1 291:1 745:1 856:1 
1 240:1 690:1 745:1 
1 291:1 347:1 577:1 785:1 815:1 856:1 
1 30:1 291:1 379:1 494:1 856:1 955:1 
1 292:1 745:1 944:1 
1 10:1 268:1 283:1 291:1 352:1 436:1 452:1 578:1 801:1 856:1 
1 117:1 268:1 292:1 452:1 578:1 687:1 690:1 745:1 
1 291:1 801:1 856:1 
1 54:1 436:1 763:1 892:1 
1 54:1 436:1 892:1 893:1 
1 892:1 
1 291:1 436:1 763:1 856:1 893:1 
-0.1136454309605521 193:1 291:1 436:1 646:1 647:1 748:1 856:1 970:1 
-0.7442286011566503 291:1 784:1 856:1 
-0.1831684171726605 58:1 178:1 263:1 291:1 856:1 912:1 
-0.2198162529918453 178:1 291:1 515:1 856:1 912:1 
-0.1957569859180762 241:1 291:1 441:1 452:1 578:1 687:1 704:1 747:1 852:1 856:1 944:1 
-0.8834609323062704 241:1 291:1 848:1 856:1 944:1 
-0.8823287478452354 178:1 291:1 292:1 801:1 856:1 865:1 912:1 
-0.1733740489376832 263:1 291:1 436:1 465:1 495:1 541:1 576:1 856:1 
-0.8429721259050756 291:1 301:1 352:1 436:1 690:1 799:1 856:1 
-0.06899632005018791 241:1 247:1 291:1 292:1 397:1 741:1 856:1 
-0.4288613239581124 222:1 291:1 404:1 626:1 745:1 856:1 
-0.06383582852148759 62:1 269:1 291:1 351:1 465:1 578:1 856:1 931:1 
-0.2121362826609713 263:1 291:1 511:1 687:1 856:1 931:1 
-0.4232239047665609 54:1 379:1 436:1 467:1 
-0.6126045581233904 137:1 192:1 247:1 634:1 944:1 
-0.8391362204705552 291:1 292:1 468:1 478:1 690:1 785:1 856:1 
-0.1000087606482856 44:1 83:1 157:1 241:1 291:1 577:1 745:1 800:1 801:1 847:1 856:1 
-0.1968561963112778 122:1 291:1 317:1 358:1 452:1 578:1 856:1 
-0.240557256844532 291:1 856:1 938:1 943:1 
-0.2709740140404537 1:1 30:1 241:1 291:1 292:1 856:1 892:1 
-0.2360911616094573 285:1 292:1 452:1 
-0.1006574484918088 291:1 438:1 704:1 801:1 856:1 
-0.7951829930903768 267:1 291:1 745:1 760:1 856:1 
-0.3040923534938526 734:1 838:1 
-0.244329436642927 78:1 346:1 892:1 
-0.08246083288885228 51:1 291:1 436:1 856:1 892:1 
-0.9734554300585024 8:1 291:1 483:1 704:1 856:1 
-0.0714464811862922 46:1 241:1 267:1 292:1 452:1 468:1 578:1 908:1 930:1 931:1 965:1 
-0.09346291641977561 291:1 313:1 345:1 441:1 483:1 856:1 944:1 
-0.153801230929046 54:1 465:1 634:1 892:1 
-0.7602602884125003 110:1 241:1 269:1 292:1 316:1 892:1 931:1 
-0.2107572451928224 291:1 307:1 495:1 704:1 856:1 916:1 970:1 
-0.7643787758856037 137:1 241:1 291:1 386:1 445:1 745:1 856:1 912:1 
-0.8554097932641511 73:1 291:1 452:1 578:1 856:1 
-0.2635229866146324 291:1 511:1 602:1 848:1 856:1 
-0.01024103339455074 241:1 452:1 578:1 916:1 944:1 
-1 241:1 291:1 690:1 745:1 856:1 
-0.6988591534375148 241:1 292:1 452:1 578:1 687:1 
-0.7764748090195188 291:1 436:1 452:1 578:1 704:1 856:1 
-1 893:1 
-0.4036564855773203 16:1 73:1 283:1 291:1 856:1 
-0.1737535447778492 30:1 173:1 241:1 267:1 292:1 829:1 931:1 
-1 241:1 291:1 690:1 745:1 856:1 
-0.1484458903658702 178:1 278:1 291:1 568:1 831:1 856:1 
-0.3740415617252598 291:1 577:1 690:1 856:1 
-1 291:1 436:1 452:1 578:1 704:1 856:1 
-0.0532416727783428 291:1 317:1 441:1 644:1 856:1 892:1 
-1 291:1 704:1 856:1 938:1 
-0.7290259859595463 51:1 241:1 291:1 292:1 690:1 856:1 
-0.1656196184285514 267:1 740:1 785:1 984:1 
-0.09960852172879919 84:1 367:1 483:1 892:1 
-1 73:1 240:1 269:1 291:1 856:1 
-0.8845168223178325 112:1 291:1 452:1 578:1 856:1 
-0.3585234774897323 134:1 291:1 452:1 578:1 856:1 944:1 
-0.2151464443647275 190:1 291:1 622:1 856:1 
-0.5703047328622195 237:1 291:1 292:1 436:1 770:1 856:1 944:1 
-0.8124392194150821 35:1 291:1 624:1 856:1 
-0.8936953768330201 249:1 291:1 646:1 647:1 768:1 856:1 888:1 
-0.4381560472795529 291:1 352:1 452:1 578:1 816:1 848:1 856:1 
-0.4211088085195156 134:1 193:1 291:1 381:1 768:1 847:1 856:1 
-0.2355116155340012 291:1 452:1 541:1 578:1 856:1 931:1 
-0.7897324886981809 291:1 856:1 947:1 
-0.2723964593519984 16:1 54:1 241:1 372:1 436:1 452:1 578:1 767:1 
-0.8798932519808863 10:1 111:1 291:1 441:1 801:1 856:1 931:1 941:1 
-1 291:1 452:1 455:1 578:1 856:1 
-0.1372344081016121 10:1 51:1 73:1 291:1 627:1 800:1 801:1 856:1 975:1 
-1 291:1 704:1 745:1 856:1 
-0.2664792161259984 73:1 291:1 687:1 800:1 801:1 856:1 943:1 944:1 
-0.3832583353720244 22:1 190:1 237:1 291:1 622:1 856:1 
-0.8266035757095537 190:1 291:1 495:1 622:1 856:1 
-0.02378652943217563 291:1 745:1 784:1 856:1 
-1 283:1 291:1 745:1 801:1 856:1 
-0.1113951474888483 240:1 269:1 291:1 741:1 856:1 941:1 
-0.4571211647376476 241:1 291:1 704:1 745:1 747:1 856:1 
-0.05843732684311157 241:1 291:1 704:1 745:1 800:1 801:1 856:1 
-1 241:1 291:1 704:1 745:1 856:1 
-1 190:1 291:1 292:1 622:1 856:1 
-1 291:1 292:1 347:1 626:1 785:1 856:1 
-0.02510677605315136 241:1 248:1 291:1 292:1 345:1 452:1 467:1 856:1 938:1 
-0.8390236138046859 154:1 292:1 
-0.08699779756586259 468:1 847:1 931:1 
-0.6519638885711152 190:1 292:1 320:1 622:1 745:1 808:1 892:1 
-0.2524118645664334 267:1 291:1 856:1 
-1 291:1 511:1 688:1 856:1 
-0.08034758431858417 282:1 291:1 292:1 572:1 816:1 847:1 856:1 
-0.04506888866156492 181:1 249:1 291:1 542:1 801:1 856:1 901:1 
-1 241:1 282:1 291:1 704:1 745:1 856:1 
-0.07428509412762596 291:1 312:1 626:1 724:1 856:1 
-0.3741032256304408 62:1 291:1 374:1 856:1 
-0.191861145736557 91:1 103:1 241:1 291:1 779:1 833:1 856:1 
-0.3355240057422438 79:1 160:1 241:1 469:1 816:1 856:1 943:1 
-0.08775882833989494 291:1 431:1 635:1 763:1 771:1 856:1 
-0.3405119131911389 291:1 772:1 856:1 888:1 938:1 
-0.7845387474107733 291:1 608:1 688:1 788:1 855:1 856:1 
-0.2537481973477866 10:1 250:1 283:1 291:1 587:1 682:1 801:1 853:1 856:1 944:1 
-0.6124905069370651 116:1 291:1 856:1 
-0.9161761352975004 292:1 300:1 348:1 
-0.7296495814459395 291:1 690:1 856:1 
-0.2684105523267054 135:1 267:1 291:1 856:1 870:1 
-1 73:1 291:1 317:1 856:1 
-0.2765151632264055 181:1 292:1 319:1 451:1 483:1 893:1 
-0.09272150425598892 291:1 452:1 541:1 543:1 856:1 966:1 
-0.1568172963554619 220:1 224:1 252:1 291:1 292:1 452:1 568:1 719:1 856:1 892:1 893:1 975:1 
-0.1402124048598165 73:1 173:1 291:1 307:1 353:1 417:1 460:1 724:1 806:1 856:1 
-0.4082627993438177 291:1 770:1 856:1 871:1 911:1 924:1 944:1 
-0.1588278660528248 11:1 12:1 148:1 291:1 579:1 856:1 918:1 919:1 
-0.04528544646074678 291:1 856:1 938:1 
-0.8414922556080819 105:1 108:1 117:1 241:1 452:1 483:1 578:1 
-0.09852275638813869 292:1 307:1 340:1 943:1 
-0.4481345107147172 255:1 291:1 572:1 690:1 816:1 817:1 856:1 
-0.1249127014923861 160:1 161:1 291:1 345:1 748:1 785:1 856:1 946:1 
-0.9194857279204957 240:1 263:1 268:1 291:1 313:1 745:1 848:1 856:1 931:1 938:1 
-0.008532230733644397 46:1 65:1 241:1 247:1 291:1 292:1 704:1 770:1 856:1 
-1 66:1 241:1 291:1 577:1 745:1 856:1 
-0.2417518449271199 108:1 248:1 292:1 631:1 852:1 863:1 
-0.2028630335165962 16:1 292:1 892:1 951:1 
-0.2155554383673792 30:1 268:1 291:1 737:1 769:1 782:1 856:1 892:1 
-0.7188493565777524 268:1 292:1 452:1 578:1 931:1 
-1 268:1 291:1 292:1 317:1 745:1 856:1 
-0.2217997550244853 111:1 291:1 452:1 856:1 
-1 73:1 291:1 856:1 892:1 
-0.4372508538226102 291:1 577:1 687:1 856:1 970:1 
-0.9255530516420358 292:1 745:1 833:1 
-0.2969771463891447 23:1 255:1 277:1 419:1 
-0.5800051838319419 190:1 291:1 320:1 451:1 622:1 745:1 856:1 892:1 
-0.6763896234819105 313:1 465:1 811:1 
-0.386518997218076 73:1 465:1 892:1 
-0.2875502960974167 193:1 241:1 291:1 292:1 856:1 938:1 
-0.07444694835796412 97:1 291:1 292:1 382:1 520:1 703:1 856:1 
-0.1819643261937809 173:1 291:1 292:1 704:1 745:1 800:1 801:1 856:1 958:1 965:1 
-0.3593819116341061 292:1 641:1 785:1 977:1 
-0.8241635803061349 291:1 347:1 641:1 745:1 856:1 871:1 
-0.2908270174352006 2:1 291:1 317:1 785:1 856:1 
-0.5469033206361891 291:1 301:1 374:1 498:1 683:1 856:1 
-1 292:1 452:1 578:1 
-0.615551576640718 291:1 577:1 856:1 
-0.2890217615559071 291:1 419:1 856:1 
-1 292:1 690:1 704:1 
-0.199721304394617 255:1 291:1 690:1 804:1 856:1 
-0.2310419660100257 103:1 291:1 518:1 856:1 
-0.1046211160564309 79:1 291:1 292:1 856:1 926:1 
-0.7638465361779584 291:1 320:1 452:1 578:1 690:1 770:1 856:1 943:1 
-0.2917744352092602 42:1 193:1 292:1 421:1 465:1 778:1 
-0.05923330612642781 15:1 241:1 291:1 320:1 452:1 541:1 578:1 824:1 856:1 966:1 
-0.3755015331459119 65:1 291:1 704:1 827:1 856:1 
-0.2878019028367476 79:1 291:1 626:1 856:1 
-0.5977199123796308 248:1 291:1 452:1 578:1 856:1 926:1 
-0.3805178139864761 291:1 435:1 856:1 953:1 
-0.9296769839825874 241:1 291:1 292:1 452:1 578:1 768:1 856:1 911:1 
-0.4075128786248272 30:1 291:1 568:1 856:1 
-0.5092690886201626 291:1 436:1 441:1 452:1 521:1 745:1 856:1 892:1 
-0.1669012875308288 241:1 291:1 465:1 621:1 690:1 856:1 944:1 
-0.176087943339847 291:1 424:1 495:1 598:1 688:1 856:1 891:1 
-0.4994399351497147 270:1 292:1 439:1 785:1 
-0.581557750820493 291:1 650:1 856:1 
-1 241:1 291:1 292:1 452:1 578:1 690:1 856:1 
-0.2948816396324667 291:1 441:1 452:1 578:1 585:1 785:1 856:1 
-0.4458042235655678 291:1 306:1 307:1 317:1 441:1 585:1 785:1 856:1 
-0.7414466640297424 291:1 856:1 904:1 
-0.1015619857830667 291:1 352:1 741:1 785:1 856:1 931:1 
-0.557053349846214 143:1 378:1 462:1 495:1 584:1 688:1 728:1 966:1 977:1 
-0.06929254359561531 292:1 457:1 770:1 847:1 970:1 
-0.1420188281525432 209:1 291:1 435:1 819:1 856:1 
-0.1657898309491996 81:1 291:1 690:1 839:1 856:1 
-0.2558000838737194 81:1 123:1 292:1 307:1 690:1 839:1 
-0.1230820965792028 73:1 100:1 291:1 313:1 345:1 441:1 465:1 483:1 745:1 856:1 941:1 944:1 
-0.2495297007292704 240:1 241:1 291:1 452:1 468:1 578:1 856:1 908:1 
-0.8960549991381178 291:1 856:1 912:1 924:1 
-0.3892343103997434 129:1 292:1 441:1 585:1 785:1 924:1 
-0.4965912649546605 291:1 452:1 697:1 703:1 856:1 938:1 
-1 292:1 352:1 452:1 578:1 741:1 
-0.655760167197737 46:1 48:1 81:1 292:1 452:1 578:1 
-0.1733964242904463 291:1 541:1 552:1 856:1 
-0.2805975749728435 30:1 259:1 291:1 330:1 568:1 856:1 
-0.6849900118066631 291:1 556:1 690:1 856:1 
-0.08312626773616595 291:1 345:1 737:1 856:1 943:1 944:1 953:1 
-1 292:1 690:1 
-0.1148698995384472 48:1 241:1 267:1 291:1 452:1 578:1 690:1 856:1 
-0.2157617413025776 48:1 253:1 291:1 330:1 493:1 704:1 856:1 
-0.4459709641850556 30:1 81:1 291:1 307:1 379:1 406:1 704:1 769:1 842:1 856:1 944:1 
-0.05587729059888158 160:1 291:1 317:1 441:1 856:1 
-0.9600954195768627 241:1 268:1 291:1 703:1 745:1 824:1 856:1 
-0.0982760797456376 291:1 313:1 452:1 852:1 856:1 938:1 
-0.1108564971544028 291:1 436:1 797:1 801:1 848:1 856:1 924:1 953:1 
-0.1606024119528498 241:1 291:1 704:1 747:1 789:1 856:1 871:1 938:1 
-1 241:1 292:1 452:1 578:1 
-1 291:1 703:1 856:1 
-0.5022558880358062 60:1 688:1 763:1 
-1 737:1 892:1 
-0.05876847717333689 166:1 291:1 465:1 511:1 702:1 856:1 
-0.5151633352373948 240:1 241:1 291:1 292:1 452:1 494:1 578:1 686:1 800:1 801:1 806:1 856:1 955:1 
-1 291:1 800:1 801:1 856:1 
-0.5805459781832414 241:1 291:1 856:1 944:1 
-0.5806280975092419 241:1 291:1 358:1 452:1 578:1 768:1 770:1 856:1 
-0.9393918734181559 241:1 292:1 366:1 686:1 938:1 
-0.7767874921104798 10:1 291:1 397:1 801:1 856:1 936:1 
-0.1349038937549027 292:1 358:1 452:1 578:1 874:1 
-0.1863879488901115 16:1 291:1 307:1 856:1 938:1 
-1 10:1 291:1 801:1 856:1 
-1 291:1 452:1 578:1 856:1 
-0.5780024987513872 291:1 452:1 578:1 686:1 856:1 
-0.8425543141988573 291:1 452:1 578:1 741:1 833:1 856:1 
-0.239339255865654 291:1 800:1 801:1 856:1 
-0.5173013805591069 292:1 686:1 
-0.5103855425167798 254:1 292:1 429:1 530:1 770:1 931:1 953:1 
-0.5288038844793858 241:1 291:1 452:1 578:1 856:1 
-0.5873902487603586 291:1 494:1 801:1 856:1 955:1 
-1 291:1 452:1 578:1 686:1 768:1 856:1 
-0.425556106588856 46:1 241:1 291:1 317:1 856:1 942:1 944:1 
-0.4227062152763745 270:1 291:1 292:1 745:1 856:1 944:1 
-1 193:1 268:1 292:1 704:1 745:1 
-0.2125381126556857 241:1 268:1 291:1 292:1 704:1 745:1 800:1 801:1 856:1 
-0.2069394468546917 268:1 292:1 529:1 572:1 704:1 801:1 
-0.2077773770584104 268:1 292:1 690:1 
-1 291:1 704:1 856:1 
-1 240:1 241:1 291:1 452:1 852:1 856:1 938:1 
-0.2624334818499661 291:1 452:1 577:1 578:1 856:1 
-1 291:1 352:1 452:1 495:1 856:1 938:1 
-0.3692289690870251 241:1 291:1 452:1 856:1 938:1 
-0.8808512768108501 207:1 268:1 291:1 856:1 896:1 932:1 
-0.6975921066983112 193:1 268:1 291:1 452:1 578:1 745:1 856:1 
-0.2878794521344857 46:1 291:1 856:1 
-1 291:1 801:1 856:1 930:1 
-0.5661851517429854 12:1 291:1 856:1 
-1 291:1 452:1 578:1 856:1 
-1 178:1 291:1 436:1 481:1 833:1 856:1 
-0.8566952989187125 291:1 446:1 452:1 571:1 578:1 856:1 
-0.6297711180413185 291:1 628:1 690:1 830:1 856:1 
-0.0786632008573267 292:1 639:1 687:1 690:1 704:1 848:1 931:1 944:1 
-0.8541125310709103 92:1 291:1 745:1 856:1 
-0.7234848367735945 271:1 317:1 552:1 690:1 745:1 
-1 291:1 452:1 578:1 856:1 
-0.1331773270989407 291:1 556:1 632:1 745:1 800:1 801:1 856:1 944:1 959:1 
-0.7302985151300456 78:1 291:1 452:1 578:1 856:1 944:1 
-0.719445037262755 291:1 743:1 856:1 
-0.5066266550663296 10:1 291:1 416:1 801:1 856:1 
-1 241:1 247:1 291:1 704:1 848:1 856:1 944:1 
-0.7493994330091479 222:1 276:1 291:1 621:1 856:1 
-1 73:1 79:1 240:1 241:1 291:1 452:1 578:1 856:1 
-0.633564668825233 241:1 292:1 466:1 687:1 690:1 704:1 728:1 
-0.3895953652723688 291:1 483:1 856:1 
-1 291:1 785:1 856:1 
-0.3565533048809977 108:1 110:1 167:1 291:1 686:1 741:1 856:1 
-0.8571648899154013 452:1 578:1 688:1 800:1 801:1 
-0.1715751110476449 177:1 291:1 392:1 676:1 856:1 938:1 
-0.5172915812836841 191:1 291:1 452:1 578:1 856:1 
-0.01113692383246344 291:1 741:1 852:1 856:1 
-0.3892963476163123 33:1 222:1 262:1 291:1 452:1 578:1 856:1 
-1 292:1 452:1 578:1 690:1 
-0.05807672896040271 53:1 91:1 117:1 273:1 291:1 676:1 780:1 856:1 
-1 291:1 292:1 690:1 856:1 
-0.4338884217359708 9:1 47:1 292:1 304:1 468:1 745:1 944:1 
-0.05828760167965682 292:1 452:1 578:1 676:1 741:1 
-1 291:1 317:1 856:1 
-1 291:1 801:1 856:1 
-0.5829037589855949 292:1 469:1 591:1 628:1 
-0.049876985742181 150:1 291:1 397:1 690:1 704:1 818:1 856:1 
-0.5708033074512695 89:1 241:1 291:1 292:1 317:1 351:1 745:1 856:1 938:1 
-1 291:1 317:1 856:1 
-1 292:1 938:1 
-0.1881347810452031 104:1 241:1 292:1 693:1 
-0.5012067319800975 241:1 291:1 345:1 452:1 856:1 944:1 
-0.2479114319189032 57:1 291:1 292:1 431:1 737:1 745:1 763:1 771:1 856:1 926:1 
-0.9924192149217772 241:1 291:1 553:1 693:1 856:1 
-0.4899802440540387 291:1 693:1 856:1 
-0.6192895314708715 22:1 291:1 542:1 856:1 
-0.2359570829079744 110:1 291:1 473:1 856:1 
-0.1229403276522213 58:1 73:1 283:1 291:1 770:1 801:1 842:1 856:1 
-0.1580942829163893 79:1 160:1 291:1 352:1 856:1 
-0.8186079698125084 263:1 291:1 465:1 787:1 856:1 
-1 292:1 452:1 578:1 687:1 690:1 704:1 
-1 441:1 538:1 800:1 801:1 944:1 
-1 436:1 892:1 
-1 247:1 292:1 555:1 740:1 
-0.2455334989232748 190:1 291:1 451:1 622:1 690:1 747:1 856:1 892:1 
-1 291:1 856:1 892:1 
-0.04506241227426214 291:1 465:1 468:1 483:1 856:1 
-0.8259074369843412 291:1 318:1 572:1 768:1 856:1 
-1 268:1 291:1 509:1 555:1 690:1 856:1 914:1 
-0.2420842833803906 291:1 452:1 578:1 856:1 
-0.5750402929961748 241:1 291:1 311:1 452:1 572:1 578:1 848:1 856:1 
-0.6060310570811468 292:1 352:1 452:1 578:1 691:1 737:1 
-0.4716203117688374 54:1 73:1 291:1 355:1 800:1 801:1 856:1 
-0.6133681334412321 120:1 291:1 335:1 806:1 856:1 
-1 291:1 301:1 856:1 
-0.4865084281745632 191:1 239:1 291:1 852:1 856:1 944:1 952:1 
-1 292:1 301:1 452:1 507:1 578:1 741:1 
-0.5061766224636605 241:1 291:1 704:1 856:1 
-0.860736675482025 79:1 292:1 924:1 
-1 255:1 269:1 292:1 
-0.3943251260915507 255:1 292:1 398:1 856:1 
-1 193:1 268:1 291:1 292:1 745:1 856:1 
-0.2422394314510072 247:1 263:1 291:1 465:1 583:1 741:1 856:1 924:1 
-0.3820088973635833 124:1 234:1 291:1 815:1 828:1 856:1 
-0.05103401978430383 252:1 255:1 453:1 
-0.2301886987136324 49:1 134:1 555:1 788:1 
-0.2807610153587592 626:1 724:1 
-0.2576701107240139 263:1 
-0.3711500403081133 870:1 
-0.3191270922510961 62:1 271:1 688:1 745:1 772:1 931:1 
-0.5984596022211671 222:1 687:1 808:1 848:1 
-0.3274331132615506 944:1 
-0.8280386813818569 452:1 465:1 578:1 
-0.1583008791317976 46:1 
-0.2035904704292433 437:1 848:1 871:1 944:1 
-0.431177971876723 173:1 816:1 
-0.4222607169485535 301:1 804:1 842:1 966:1 
-1 687:1 785:1 
-0.1221023151480272 51:1 177:1 261:1 436:1 728:1 
