svm_type c_svc
kernel_type rbf
gamma 0.00105485
nr_class 2
total_sv 1022
rho -1.16722
label 1 -1
nr_sv 546 476
SV
1 243:1 281:1 783:1 784:1 839:1 
1 396:1 750:1 
1 72:1 123:1 335:1 789:1 791:1 
1 281:1 839:1 910:1 917:1 
0.1401000204835357 281:1 436:1 609:1 720:1 839:1 
1 281:1 282:1 428:1 483:1 687:1 839:1 922:1 
0.5629487266296347 231:1 281:1 427:1 455:1 839:1 
0.8388717765276844 281:1 839:1 848:1 937:1 
1 281:1 839:1 848:1 
1 281:1 303:1 660:1 839:1 
1 253:1 281:1 426:1 455:1 485:1 531:1 566:1 839:1 
1 281:1 687:1 839:1 848:1 
1 272:1 281:1 455:1 816:1 839:1 920:1 
1 937:1 
1 181:1 
1 406:1 
1 24:1 427:1 753:1 
1 
0.6364366107198342 186:1 231:1 436:1 442:1 455:1 909:1 
1 231:1 281:1 455:1 671:1 839:1 909:1 
0.6828570473184563 282:1 463:1 468:1 670:1 768:1 933:1 
1 128:1 281:1 297:1 839:1 
1 281:1 427:1 839:1 
1 281:1 609:1 839:1 
1 38:1 77:1 151:1 281:1 632:1 830:1 839:1 
0.8871228181656929 46:1 80:1 161:1 231:1 282:1 671:1 910:1 
0.6640723299287187 129:1 281:1 673:1 839:1 933:1 
1 218:1 458:1 671:1 753:1 
0.5673577598386781 671:1 768:1 
1 7:1 181:1 505:1 833:1 
0.4121824130884476 38:1 151:1 281:1 406:1 441:1 627:1 839:1 
0.3075430025609324 230:1 231:1 281:1 839:1 
1 281:1 456:1 632:1 839:1 937:1 
1 281:1 839:1 894:1 
1 27:1 281:1 839:1 917:1 
1 364:1 522:1 
1 327:1 875:1 
1 80:1 455:1 875:1 920:1 
1 717:1 821:1 
0.07044296496019613 99:1 875:1 
1 23:1 282:1 704:1 909:1 
1 281:1 282:1 459:1 839:1 
1 281:1 428:1 839:1 910:1 
1 281:1 839:1 
1 267:1 281:1 330:1 427:1 839:1 
1 246:1 281:1 282:1 839:1 
1 53:1 282:1 457:1 830:1 910:1 
1 154:1 281:1 543:1 824:1 839:1 
1 
0.1130698929256552 314:1 365:1 426:1 455:1 
1 156:1 281:1 306:1 839:1 
1 128:1 281:1 306:1 431:1 753:1 839:1 
0.5077075101717153 215:1 231:1 237:1 281:1 839:1 
0.2494102267779028 156:1 207:1 281:1 297:1 424:1 839:1 909:1 
0.1830598162300314 67:1 231:1 281:1 307:1 839:1 
1 281:1 297:1 485:1 687:1 839:1 899:1 944:1 
1 281:1 304:1 409:1 839:1 
1 281:1 468:1 768:1 839:1 
0.7984458232798382 281:1 296:1 767:1 839:1 917:1 
1 156:1 281:1 306:1 839:1 
0.6150342846184915 201:1 281:1 649:1 839:1 
1 281:1 455:1 839:1 
0.1612502709984611 231:1 281:1 340:1 455:1 460:1 751:1 839:1 899:1 
0.3094168630278851 172:1 268:1 281:1 558:1 814:1 839:1 
1 281:1 839:1 848:1 
1 181:1 281:1 839:1 884:1 
1 45:1 342:1 899:1 923:1 
0.5155153678617347 78:1 364:1 431:1 923:1 
1 455:1 704:1 
0.6435745409579132 102:1 441:1 
1 281:1 839:1 
1 231:1 281:1 839:1 
1 281:1 839:1 
0.7160532947839349 129:1 281:1 687:1 830:1 839:1 
0.8185352107932419 281:1 419:1 574:1 724:1 839:1 936:1 
1 60:1 281:1 342:1 839:1 
1 281:1 839:1 
1 281:1 609:1 839:1 
1 42:1 281:1 296:1 839:1 936:1 
1 281:1 352:1 753:1 839:1 
1 281:1 335:1 839:1 848:1 923:1 
1 257:1 281:1 496:1 789:1 791:1 839:1 
1 281:1 282:1 473:1 609:1 839:1 
0.232851530043319 102:1 231:1 282:1 910:1 
1 218:1 581:1 682:1 
1 281:1 609:1 839:1 
1 876:1 
0.2110671019629202 201:1 281:1 365:1 649:1 812:1 839:1 909:1 936:1 
0.7775164488693258 281:1 613:1 684:1 720:1 839:1 910:1 
1 207:1 260:1 281:1 424:1 473:1 599:1 649:1 839:1 
1 281:1 613:1 839:1 
1 281:1 303:1 839:1 
1 129:1 259:1 304:1 468:1 671:1 702:1 775:1 790:1 825:1 876:1 933:1 
1 281:1 615:1 824:1 839:1 
1 281:1 513:1 589:1 613:1 824:1 839:1 
1 172:1 268:1 281:1 558:1 814:1 839:1 
1 281:1 562:1 839:1 
1 281:1 609:1 839:1 
0.4273969306257495 281:1 567:1 673:1 839:1 
0.2508357854937548 281:1 307:1 431:1 627:1 839:1 875:1 
1 281:1 613:1 839:1 
0.7316267496289321 257:1 723:1 768:1 
1 200:1 231:1 
1 207:1 424:1 
1 78:1 357:1 473:1 875:1 
1 67:1 281:1 670:1 839:1 
0.8509006500818183 106:1 281:1 442:1 568:1 839:1 
1 281:1 360:1 426:1 595:1 839:1 
1 229:1 281:1 442:1 787:1 839:1 875:1 
1 41:1 48:1 281:1 727:1 753:1 839:1 917:1 
0.04442613853028488 41:1 281:1 282:1 387:1 727:1 751:1 789:1 839:1 
1 171:1 281:1 473:1 839:1 
1 281:1 365:1 839:1 
1 281:1 799:1 831:1 839:1 
1 229:1 281:1 839:1 
1 30:1 274:1 282:1 371:1 566:1 903:1 
1 9:1 173:1 281:1 839:1 
1 168:1 281:1 455:1 839:1 940:1 
0.1941231209863382 41:1 258:1 276:1 281:1 336:1 473:1 727:1 839:1 936:1 
0.6140063690640882 171:1 281:1 426:1 839:1 904:1 
0.003123813284984893 128:1 187:1 281:1 371:1 751:1 830:1 839:1 
1 281:1 406:1 839:1 875:1 910:1 
1 281:1 839:1 926:1 
1 41:1 727:1 923:1 
0.20318087965079 48:1 181:1 218:1 406:1 
1 1:1 820:1 
1 526:1 
0.9312597166262797 118:1 201:1 281:1 282:1 789:1 824:1 839:1 
1 281:1 282:1 816:1 839:1 
1 10:1 231:1 281:1 728:1 839:1 920:1 
1 144:1 281:1 473:1 702:1 790:1 839:1 
1 118:1 281:1 839:1 894:1 
1 4:1 105:1 281:1 431:1 784:1 839:1 910:1 920:1 
1 24:1 255:1 281:1 425:1 789:1 839:1 
0.7728820620210743 164:1 237:1 258:1 281:1 307:1 442:1 753:1 816:1 839:1 
1 281:1 574:1 839:1 
1 47:1 156:1 258:1 281:1 473:1 595:1 839:1 
1 10:1 258:1 281:1 346:1 473:1 753:1 839:1 
1 281:1 670:1 778:1 839:1 939:1 
1 187:1 281:1 595:1 753:1 783:1 784:1 839:1 
1 281:1 670:1 824:1 839:1 
1 10:1 128:1 281:1 442:1 568:1 839:1 894:1 
1 27:1 201:1 753:1 
0.88960501065435 213:1 281:1 526:1 839:1 935:1 
1 113:1 246:1 363:1 
1 427:1 
1 923:1 935:1 
1 52:1 201:1 278:1 922:1 
1 166:1 
1 281:1 839:1 
1 281:1 371:1 812:1 820:1 839:1 
1 281:1 609:1 622:1 724:1 728:1 839:1 
1 167:1 282:1 910:1 
1 230:1 259:1 281:1 724:1 839:1 920:1 
1 281:1 681:1 687:1 839:1 
1 281:1 293:1 406:1 442:1 568:1 622:1 728:1 839:1 910:1 
1 231:1 281:1 687:1 839:1 910:1 
1 137:1 281:1 839:1 
1 38:1 281:1 685:1 687:1 839:1 
1 169:1 281:1 455:1 788:1 839:1 
0.3055785821202638 108:1 165:1 282:1 
1 281:1 442:1 568:1 839:1 910:1 929:1 
1 184:1 281:1 282:1 605:1 839:1 
1 79:1 231:1 281:1 839:1 
1 281:1 609:1 839:1 
1 281:1 303:1 431:1 839:1 
1 281:1 365:1 447:1 839:1 
1 281:1 343:1 419:1 450:1 451:1 455:1 839:1 
1 231:1 281:1 839:1 909:1 910:1 
1 649:1 778:1 910:1 
0.9070363584217928 231:1 281:1 839:1 917:1 
1 231:1 281:1 728:1 839:1 
1 161:1 281:1 820:1 839:1 
1 458:1 830:1 910:1 
0.7183087377372458 281:1 307:1 318:1 388:1 392:1 829:1 839:1 
0.6974835316376011 184:1 282:1 310:1 605:1 728:1 791:1 875:1 
1 171:1 281:1 566:1 839:1 910:1 923:1 
1 171:1 281:1 566:1 839:1 923:1 
1 41:1 281:1 376:1 473:1 722:1 727:1 839:1 
0.07703957720771423 282:1 641:1 895:1 
0.9253621243374776 65:1 281:1 283:1 624:1 839:1 854:1 
1 171:1 231:1 281:1 282:1 663:1 839:1 923:1 
1 257:1 609:1 778:1 910:1 
1 281:1 296:1 839:1 917:1 
0.938097885412797 75:1 114:1 281:1 325:1 385:1 624:1 789:1 839:1 
1 129:1 281:1 356:1 686:1 839:1 933:1 
1 296:1 
1 239:1 281:1 839:1 
0.7689257107877863 281:1 466:1 682:1 830:1 839:1 910:1 
1 147:1 168:1 831:1 
1 72:1 186:1 303:1 789:1 790:1 
1 281:1 455:1 682:1 731:1 
1 65:1 258:1 281:1 283:1 839:1 910:1 
0.2724434499511413 273:1 281:1 670:1 687:1 839:1 917:1 
0.09967082946666572 206:1 231:1 281:1 839:1 848:1 
1 281:1 671:1 839:1 
0.1914120971989514 281:1 406:1 720:1 780:1 790:1 839:1 
1 27:1 387:1 839:1 910:1 
1 281:1 755:1 839:1 871:1 917:1 
1 281:1 282:1 406:1 455:1 687:1 839:1 910:1 
1 281:1 839:1 
1 2:1 281:1 651:1 789:1 791:1 839:1 
1 97:1 338:1 
1 175:1 626:1 745:1 923:1 
1 231:1 281:1 670:1 839:1 
1 281:1 728:1 839:1 
1 281:1 839:1 910:1 917:1 
1 281:1 457:1 839:1 909:1 
1 281:1 290:1 338:1 839:1 894:1 
1 281:1 318:1 753:1 839:1 
0.6632867300725019 240:1 273:1 281:1 574:1 665:1 836:1 839:1 923:1 
1 281:1 839:1 917:1 923:1 
0.9214194125257998 130:1 281:1 468:1 541:1 768:1 839:1 907:1 
0.7711181924796471 281:1 353:1 362:1 399:1 750:1 839:1 
0.3467840568979462 455:1 731:1 875:1 930:1 
1 108:1 165:1 281:1 385:1 484:1 839:1 
1 67:1 281:1 307:1 839:1 
1 281:1 354:1 589:1 839:1 917:1 
1 52:1 281:1 293:1 431:1 839:1 
1 281:1 671:1 839:1 
1 27:1 281:1 442:1 455:1 546:1 568:1 671:1 839:1 
0.7425463834520915 281:1 302:1 687:1 839:1 
1 98:1 172:1 281:1 455:1 839:1 
1 281:1 302:1 839:1 
1 67:1 281:1 307:1 839:1 
1 281:1 282:1 839:1 884:1 
1 945:1 
0.2846156783923035 175:1 282:1 309:1 441:1 473:1 876:1 
0.1414898282065462 161:1 201:1 281:1 820:1 839:1 
1 67:1 390:1 923:1 
0.07113081858966476 72:1 348:1 593:1 829:1 
1 281:1 839:1 917:1 
1 281:1 342:1 363:1 753:1 784:1 839:1 936:1 
0.3960530655562741 67:1 167:1 281:1 297:1 343:1 407:1 450:1 707:1 789:1 839:1 
1 281:1 839:1 
1 281:1 839:1 
1 237:1 341:1 
1 281:1 431:1 830:1 839:1 
1 56:1 281:1 568:1 839:1 910:1 
1 94:1 281:1 839:1 
1 281:1 629:1 630:1 910:1 
1 281:1 431:1 830:1 839:1 
1 261:1 281:1 839:1 
1 282:1 296:1 929:1 
0.509473233137438 281:1 363:1 442:1 568:1 789:1 816:1 839:1 936:1 
1 67:1 170:1 431:1 925:1 
0.0916628853999359 278:1 532:1 829:1 
1 310:1 
1 128:1 281:1 627:1 839:1 934:1 
1 231:1 281:1 831:1 839:1 
1 281:1 627:1 839:1 934:1 
0.9263699709099862 51:1 99:1 282:1 473:1 478:1 694:1 702:1 
1 80:1 281:1 427:1 839:1 
1 201:1 266:1 281:1 296:1 473:1 610:1 671:1 839:1 909:1 
0.9017797194167465 27:1 281:1 425:1 573:1 728:1 802:1 817:1 839:1 
1 281:1 303:1 839:1 917:1 
1 281:1 407:1 768:1 839:1 910:1 
1 45:1 281:1 303:1 342:1 677:1 839:1 917:1 
1 267:1 281:1 839:1 917:1 
0.2364793352619426 245:1 281:1 562:1 673:1 799:1 800:1 839:1 
1 137:1 201:1 371:1 457:1 880:1 
1 72:1 281:1 307:1 696:1 839:1 920:1 934:1 
1 281:1 442:1 473:1 568:1 839:1 
1 260:1 281:1 342:1 500:1 673:1 676:1 839:1 
0.686992714330816 78:1 281:1 341:1 831:1 839:1 910:1 
1 59:1 281:1 839:1 
0.4411814097225726 40:1 59:1 85:1 230:1 281:1 496:1 839:1 917:1 
1 10:1 231:1 281:1 369:1 839:1 
1 281:1 442:1 568:1 789:1 791:1 839:1 910:1 
0.820306917152686 231:1 281:1 307:1 839:1 848:1 
1 59:1 281:1 839:1 
1 281:1 307:1 816:1 839:1 
1 40:1 59:1 281:1 839:1 
1 281:1 441:1 831:1 839:1 
0.3017585045024418 106:1 237:1 281:1 426:1 839:1 
1 60:1 169:1 281:1 342:1 839:1 917:1 
1 181:1 184:1 260:1 281:1 839:1 
0.4874361091177777 59:1 262:1 281:1 835:1 839:1 
0.2443994893750956 102:1 238:1 282:1 614:1 835:1 846:1 
1 231:1 281:1 839:1 
0.5015653518023098 231:1 281:1 282:1 427:1 438:1 792:1 816:1 839:1 
1 258:1 281:1 342:1 663:1 728:1 839:1 910:1 
1 220:1 258:1 282:1 485:1 728:1 
0.7070935654201312 282:1 337:1 645:1 812:1 894:1 
0.7877591990072601 239:1 281:1 497:1 574:1 839:1 
1 281:1 310:1 342:1 568:1 728:1 753:1 807:1 839:1 910:1 
1 258:1 281:1 567:1 728:1 839:1 
1 128:1 281:1 839:1 
1 281:1 662:1 839:1 
1 281:1 632:1 728:1 839:1 
1 258:1 281:1 728:1 839:1 
1 258:1 282:1 
1 276:1 282:1 540:1 855:1 885:1 
1 238:1 281:1 431:1 562:1 728:1 836:1 839:1 910:1 
1 282:1 728:1 816:1 
1 281:1 622:1 751:1 783:1 784:1 839:1 
1 132:1 281:1 310:1 342:1 839:1 910:1 
1 52:1 281:1 473:1 839:1 923:1 
1 303:1 455:1 794:1 
0.9555738614697151 182:1 231:1 282:1 566:1 831:1 905:1 925:1 928:1 
0.4027804209389413 161:1 201:1 281:1 362:1 839:1 
1 67:1 455:1 831:1 
1 36:1 161:1 281:1 839:1 
0.4314241220678418 260:1 281:1 407:1 687:1 771:1 783:1 784:1 839:1 
1 281:1 307:1 567:1 686:1 839:1 
1 281:1 388:1 392:1 459:1 608:1 839:1 
1 238:1 281:1 341:1 406:1 567:1 839:1 
1 67:1 237:1 281:1 728:1 839:1 904:1 
1 27:1 94:1 281:1 408:1 834:1 839:1 
1 35:1 341:1 406:1 
0.5961681391658639 91:1 281:1 282:1 372:1 510:1 686:1 839:1 
1 281:1 371:1 436:1 493:1 839:1 874:1 
0.1441007536408534 86:1 281:1 673:1 728:1 836:1 839:1 
1 281:1 508:1 839:1 
1 408:1 665:1 678:1 
0.7613968680547585 281:1 291:1 364:1 488:1 666:1 839:1 
1 281:1 839:1 
1 281:1 567:1 637:1 783:1 784:1 839:1 904:1 
1 281:1 637:1 839:1 904:1 
0.2155183682221866 220:1 281:1 356:1 673:1 839:1 
1 60:1 281:1 839:1 917:1 
1 262:1 281:1 442:1 568:1 670:1 839:1 910:1 922:1 
0.2280662229413071 67:1 262:1 281:1 637:1 670:1 784:1 839:1 904:1 910:1 
1 57:1 137:1 281:1 839:1 910:1 
1 52:1 281:1 485:1 595:1 673:1 839:1 923:1 
0.4301628472620563 36:1 187:1 282:1 411:1 455:1 761:1 
1 221:1 261:1 281:1 342:1 752:1 839:1 
0.8999482458121303 57:1 82:1 345:1 
1 282:1 307:1 601:1 612:1 
1 24:1 281:1 839:1 
1 231:1 281:1 411:1 676:1 839:1 
0.5247223575002258 60:1 234:1 281:1 651:1 839:1 
1 281:1 671:1 728:1 839:1 910:1 
1 117:1 161:1 281:1 763:1 784:1 839:1 910:1 
0.5276887308208777 281:1 330:1 396:1 471:1 617:1 812:1 839:1 
1 9:1 155:1 473:1 548:1 673:1 
1 281:1 307:1 831:1 839:1 
1 231:1 281:1 839:1 
1 228:1 262:1 281:1 687:1 789:1 839:1 910:1 
1 281:1 724:1 839:1 
0.2561202043139968 278:1 281:1 320:1 356:1 544:1 839:1 874:1 
1 67:1 670:1 829:1 
1 142:1 455:1 459:1 569:1 902:1 916:1 
1 281:1 414:1 485:1 585:1 671:1 839:1 874:1 
0.9025012214159454 260:1 282:1 429:1 768:1 
1 73:1 98:1 282:1 566:1 617:1 720:1 
0.491790530512184 281:1 303:1 486:1 574:1 839:1 
1 281:1 562:1 759:1 839:1 848:1 
0.1491818326484407 260:1 282:1 307:1 429:1 576:1 687:1 
0.5081308912945605 187:1 282:1 441:1 807:1 
1 281:1 436:1 839:1 917:1 
0.7900052127341929 231:1 237:1 281:1 303:1 839:1 879:1 910:1 923:1 
1 281:1 839:1 
1 281:1 317:1 731:1 839:1 941:1 
1 281:1 839:1 
1 123:1 281:1 282:1 839:1 907:1 910:1 
1 281:1 342:1 724:1 768:1 839:1 910:1 
0.08826508295247158 282:1 387:1 609:1 923:1 
0.3601156936162248 282:1 506:1 609:1 678:1 
1 135:1 281:1 839:1 
1 281:1 458:1 839:1 891:1 
1 281:1 839:1 895:1 907:1 
1 610:1 829:1 
1 345:1 346:1 485:1 608:1 715:1 716:1 
0.5892041450718559 42:1 243:1 281:1 483:1 687:1 839:1 
1 52:1 281:1 396:1 839:1 
0.8941906492994354 231:1 282:1 
1 42:1 243:1 281:1 483:1 839:1 
1 281:1 455:1 481:1 652:1 839:1 
1 73:1 137:1 281:1 839:1 894:1 
1 281:1 831:1 839:1 
0.8510611151719268 336:1 915:1 922:1 
0.2224634696196726 211:1 282:1 720:1 773:1 868:1 875:1 915:1 
0.4149049160457077 124:1 281:1 427:1 438:1 730:1 772:1 839:1 895:1 
1 281:1 282:1 615:1 839:1 
0.2692451436385251 52:1 281:1 318:1 829:1 839:1 851:1 923:1 
0.8792915904633212 281:1 337:1 624:1 839:1 
0.7502580607393252 9:1 102:1 281:1 447:1 825:1 830:1 839:1 
1 231:1 281:1 730:1 772:1 839:1 
1 281:1 730:1 772:1 839:1 
1 161:1 281:1 728:1 839:1 
0.8888445343251928 253:1 336:1 431:1 720:1 
1 54:1 671:1 746:1 
1 160:1 281:1 455:1 501:1 685:1 839:1 
1 281:1 442:1 568:1 771:1 839:1 
1 281:1 839:1 
1 220:1 281:1 442:1 485:1 568:1 839:1 923:1 
1 150:1 281:1 426:1 698:1 839:1 910:1 
0.7699313433148336 279:1 281:1 499:1 669:1 839:1 915:1 
0.9356747479312479 45:1 281:1 342:1 442:1 568:1 629:1 630:1 839:1 894:1 
1 281:1 669:1 839:1 910:1 
1 281:1 839:1 895:1 910:1 915:1 
1 281:1 282:1 385:1 839:1 940:1 
1 281:1 564:1 751:1 839:1 
1 281:1 839:1 
1 281:1 670:1 830:1 839:1 920:1 
1 281:1 431:1 442:1 568:1 839:1 910:1 923:1 
1 281:1 755:1 807:1 839:1 
1 281:1 455:1 839:1 910:1 923:1 
1 231:1 281:1 839:1 923:1 
1 341:1 
1 281:1 839:1 848:1 894:1 910:1 915:1 
1 52:1 137:1 281:1 296:1 473:1 564:1 839:1 940:1 
1 281:1 753:1 839:1 946:1 
1 281:1 839:1 910:1 
1 281:1 335:1 342:1 839:1 923:1 
1 281:1 419:1 728:1 839:1 910:1 
1 281:1 426:1 839:1 
1 281:1 839:1 848:1 
1 281:1 455:1 839:1 861:1 923:1 
0.2945401111729207 281:1 562:1 669:1 783:1 784:1 839:1 894:1 910:1 
0.7180157555477407 281:1 595:1 783:1 784:1 839:1 
1 244:1 282:1 419:1 520:1 753:1 910:1 
1 281:1 499:1 567:1 839:1 895:1 910:1 915:1 
0.9909155310252066 281:1 484:1 784:1 839:1 
1 237:1 281:1 839:1 910:1 915:1 
1 281:1 839:1 
1 281:1 310:1 595:1 839:1 848:1 910:1 
1 231:1 281:1 455:1 839:1 910:1 
1 260:1 281:1 282:1 728:1 839:1 923:1 
1 73:1 258:1 281:1 519:1 728:1 839:1 
0.2103109002756374 27:1 281:1 610:1 728:1 800:1 813:1 839:1 871:1 920:1 
1 258:1 281:1 839:1 
1 52:1 67:1 258:1 259:1 282:1 753:1 923:1 942:1 
1 46:1 166:1 281:1 371:1 673:1 705:1 839:1 
1 281:1 728:1 839:1 
0.2610236352921944 274:1 279:1 282:1 903:1 923:1 
1 281:1 839:1 905:1 925:1 
1 281:1 342:1 442:1 485:1 839:1 917:1 
0.6057775316133617 201:1 258:1 281:1 839:1 879:1 911:1 
1 206:1 229:1 258:1 282:1 296:1 431:1 
1 27:1 281:1 505:1 839:1 938:1 
1 281:1 335:1 431:1 839:1 910:1 923:1 
1 281:1 839:1 910:1 
0.2048348231821973 281:1 784:1 839:1 
1 24:1 282:1 910:1 
0.4779790402319356 281:1 293:1 622:1 673:1 728:1 839:1 
1 281:1 622:1 687:1 807:1 839:1 
1 258:1 281:1 728:1 813:1 839:1 
1 281:1 591:1 784:1 839:1 
0.1837156334776242 281:1 611:1 673:1 813:1 839:1 
1 43:1 281:1 308:1 670:1 839:1 
1 281:1 839:1 909:1 
1 281:1 839:1 915:1 
1 145:1 281:1 442:1 568:1 839:1 
1 95:1 145:1 282:1 345:1 653:1 920:1 
1 
1 281:1 839:1 
1 281:1 839:1 915:1 
0.6779298375094842 231:1 281:1 431:1 728:1 839:1 894:1 
1 171:1 298:1 310:1 394:1 909:1 
0.05685679359721179 44:1 172:1 281:1 406:1 548:1 555:1 839:1 
1 252:1 281:1 789:1 839:1 
1 281:1 839:1 848:1 910:1 
1 281:1 442:1 568:1 839:1 910:1 
0.6655667109524578 281:1 508:1 673:1 839:1 
1 281:1 457:1 659:1 839:1 
1 239:1 342:1 659:1 791:1 
0.3062021098364597 47:1 85:1 111:1 263:1 281:1 659:1 763:1 839:1 
1 463:1 923:1 
1 281:1 342:1 442:1 568:1 839:1 
0.6706781530247266 282:1 342:1 669:1 751:1 
1 281:1 348:1 388:1 669:1 839:1 
1 281:1 724:1 839:1 
0.04785731173821745 44:1 185:1 281:1 659:1 724:1 839:1 923:1 
0.698723782528772 231:1 281:1 354:1 369:1 728:1 783:1 784:1 839:1 
1 282:1 447:1 
1 281:1 615:1 839:1 942:1 
1 67:1 
0.3127594741631334 281:1 670:1 724:1 839:1 
0.2894349094326786 281:1 442:1 568:1 654:1 839:1 
0.06555415076065933 72:1 396:1 638:1 751:1 910:1 
1 231:1 281:1 442:1 839:1 910:1 
1 281:1 789:1 791:1 839:1 
1 67:1 281:1 307:1 839:1 
1 281:1 726:1 839:1 
1 281:1 307:1 839:1 
0.8739278637206386 16:1 231:1 261:1 281:1 567:1 620:1 728:1 839:1 922:1 
1 172:1 281:1 839:1 
0.8572691412381144 281:1 603:1 767:1 839:1 917:1 
1 273:1 281:1 425:1 761:1 799:1 839:1 
0.6673760552446394 105:1 282:1 442:1 577:1 
1 231:1 281:1 303:1 670:1 839:1 909:1 910:1 
1 201:1 281:1 839:1 
0.6944214178797362 282:1 290:1 
1 110:1 281:1 387:1 753:1 839:1 
1 281:1 442:1 568:1 839:1 940:1 
1 281:1 839:1 917:1 
1 281:1 629:1 630:1 839:1 
1 281:1 728:1 751:1 839:1 
0.2600943505028804 282:1 301:1 568:1 
1 184:1 281:1 605:1 839:1 894:1 895:1 
0.08986964054976401 244:1 253:1 282:1 520:1 561:1 
0.7262636884220919 216:1 282:1 728:1 
1 281:1 473:1 839:1 
0.09855072541512418 281:1 282:1 341:1 839:1 
1 281:1 724:1 835:1 839:1 
1 281:1 839:1 917:1 
1 216:1 281:1 431:1 839:1 
1 216:1 281:1 839:1 
1 69:1 282:1 
1 10:1 409:1 887:1 923:1 
1 73:1 281:1 671:1 839:1 
0.2007584358803326 24:1 154:1 281:1 558:1 728:1 839:1 
1 281:1 674:1 807:1 839:1 
1 104:1 282:1 532:1 
1 281:1 838:1 839:1 
0.804128021118081 281:1 528:1 669:1 839:1 
1 245:1 281:1 810:1 839:1 
1 281:1 528:1 839:1 
0.661900717706766 184:1 281:1 605:1 707:1 839:1 862:1 
1 184:1 281:1 605:1 730:1 816:1 839:1 
1 281:1 342:1 442:1 839:1 910:1 917:1 
1 73:1 281:1 297:1 307:1 485:1 609:1 839:1 
1 281:1 307:1 498:1 545:1 580:1 839:1 
1 281:1 580:1 839:1 862:1 
1 231:1 281:1 839:1 
1 237:1 238:1 253:1 281:1 831:1 839:1 
1 257:1 281:1 825:1 839:1 
0.09749877858405469 282:1 442:1 485:1 568:1 
1 281:1 455:1 657:1 768:1 839:1 
1 5:1 6:1 281:1 382:1 839:1 
0.3251180997188038 281:1 545:1 669:1 839:1 897:1 
1 281:1 839:1 
1 281:1 501:1 839:1 
1 253:1 259:1 281:1 455:1 671:1 770:1 839:1 
1 281:1 839:1 
1 281:1 310:1 531:1 673:1 839:1 
1 342:1 426:1 728:1 752:1 816:1 839:1 
0.7312042191072454 148:1 282:1 291:1 471:1 917:1 
1 281:1 291:1 455:1 839:1 
1 281:1 297:1 753:1 839:1 
0.3154050550207803 56:1 97:1 128:1 281:1 442:1 568:1 839:1 
1 231:1 281:1 839:1 
1 290:1 562:1 
1 260:1 281:1 473:1 673:1 839:1 
1 60:1 
1 86:1 281:1 839:1 
1 42:1 281:1 320:1 732:1 799:1 839:1 
1 282:1 291:1 485:1 671:1 
1 281:1 728:1 839:1 
1 67:1 187:1 281:1 282:1 753:1 839:1 
1 67:1 281:1 728:1 839:1 
0.2313403919462085 281:1 337:1 567:1 768:1 798:1 839:1 
0.07759354439432238 282:1 728:1 923:1 
1 875:1 
-1 27:1 281:1 839:1 
-1 281:1 455:1 671:1 839:1 
-1 281:1 282:1 687:1 839:1 
-1 132:1 281:1 533:1 839:1 
-1 281:1 839:1 
-1 231:1 281:1 839:1 
-1 281:1 481:1 839:1 894:1 
-1 281:1 282:1 431:1 481:1 839:1 
-1 67:1 281:1 839:1 917:1 
-1 281:1 599:1 816:1 839:1 
-1 281:1 282:1 622:1 839:1 854:1 910:1 
-1 281:1 282:1 687:1 839:1 
-1 281:1 428:1 839:1 
-1 259:1 281:1 839:1 
-1 281:1 282:1 839:1 
-1 231:1 281:1 468:1 632:1 768:1 839:1 
-1 281:1 282:1 428:1 687:1 839:1 
-1 281:1 307:1 485:1 839:1 
-1 27:1 258:1 281:1 431:1 670:1 753:1 839:1 920:1 
-1 9:1 67:1 281:1 485:1 566:1 670:1 839:1 
-1 135:1 220:1 281:1 455:1 839:1 910:1 
-1 231:1 281:1 673:1 728:1 839:1 
-1 216:1 281:1 394:1 609:1 728:1 839:1 
-1 281:1 839:1 910:1 
-1 46:1 229:1 282:1 428:1 
-1 281:1 468:1 768:1 839:1 
-1 281:1 670:1 839:1 848:1 904:1 
-1 116:1 281:1 307:1 348:1 442:1 568:1 839:1 
-1 281:1 839:1 917:1 922:1 
-1 237:1 281:1 839:1 917:1 
-1 281:1 282:1 839:1 922:1 
-1 281:1 468:1 768:1 839:1 
-1 275:1 282:1 442:1 
-1 281:1 839:1 
-1 281:1 371:1 839:1 
-1 43:1 231:1 281:1 839:1 
-1 231:1 281:1 558:1 728:1 753:1 839:1 
-1 38:1 151:1 281:1 839:1 910:1 
-1 2:1 128:1 281:1 839:1 875:1 910:1 
-1 38:1 77:1 151:1 281:1 830:1 839:1 
-1 281:1 839:1 848:1 
-1 281:1 459:1 839:1 
-1 86:1 106:1 281:1 671:1 839:1 910:1 
-1 281:1 839:1 
-1 281:1 342:1 455:1 789:1 839:1 923:1 
-1 231:1 281:1 427:1 438:1 728:1 839:1 910:1 
-1 281:1 307:1 455:1 839:1 909:1 
-1 73:1 281:1 670:1 839:1 
-1 67:1 98:1 155:1 281:1 670:1 839:1 
-1 27:1 281:1 771:1 839:1 
-1 281:1 342:1 431:1 671:1 839:1 910:1 923:1 
-1 10:1 231:1 281:1 354:1 455:1 671:1 753:1 839:1 910:1 
-1 67:1 281:1 431:1 839:1 
-1 281:1 670:1 839:1 
-1 2:1 281:1 473:1 687:1 839:1 
-1 231:1 281:1 546:1 839:1 910:1 917:1 
-1 181:1 281:1 677:1 777:1 839:1 
-1 40:1 45:1 242:1 281:1 282:1 342:1 388:1 609:1 839:1 
-1 236:1 281:1 531:1 839:1 
-1 155:1 156:1 281:1 282:1 306:1 839:1 
-1 43:1 51:1 281:1 365:1 411:1 455:1 473:1 541:1 839:1 938:1 
-1 145:1 281:1 589:1 705:1 816:1 839:1 
-1 281:1 839:1 
-1 52:1 281:1 839:1 
-1 281:1 296:1 377:1 455:1 627:1 693:1 839:1 
-1 52:1 281:1 419:1 839:1 
-1 281:1 282:1 687:1 839:1 
-1 253:1 281:1 455:1 670:1 753:1 839:1 910:1 
-1 281:1 468:1 768:1 839:1 910:1 
-1 187:1 281:1 341:1 595:1 753:1 783:1 784:1 839:1 923:1 
-1 281:1 282:1 459:1 753:1 839:1 910:1 
-1 281:1 566:1 670:1 753:1 839:1 
-1 281:1 839:1 
-1 231:1 281:1 282:1 727:1 816:1 839:1 
-1 281:1 618:1 839:1 910:1 
-1 279:1 281:1 485:1 736:1 839:1 
-1 137:1 281:1 839:1 
-1 281:1 345:1 455:1 839:1 
-1 281:1 510:1 609:1 831:1 839:1 
-1 10:1 67:1 273:1 281:1 839:1 
-1 129:1 281:1 839:1 933:1 
-1 46:1 52:1 281:1 670:1 743:1 839:1 910:1 
-1 281:1 307:1 473:1 831:1 839:1 
-1 254:1 281:1 303:1 564:1 839:1 
-1 281:1 354:1 839:1 
-1 281:1 394:1 531:1 839:1 
-1 281:1 839:1 
-1 281:1 442:1 531:1 568:1 839:1 910:1 
-1 281:1 649:1 839:1 
-1 281:1 839:1 
-1 281:1 427:1 455:1 766:1 791:1 839:1 
-1 231:1 281:1 307:1 791:1 839:1 
-1 16:1 184:1 281:1 605:1 839:1 
-1 267:1 281:1 342:1 589:1 839:1 917:1 
-1 145:1 281:1 589:1 839:1 920:1 
-1 281:1 562:1 733:1 839:1 
-1 281:1 307:1 310:1 730:1 791:1 839:1 848:1 
-1 145:1 281:1 839:1 
-1 281:1 753:1 792:1 824:1 839:1 
-1 281:1 340:1 342:1 839:1 923:1 
-1 281:1 744:1 839:1 
-1 281:1 622:1 839:1 
-1 281:1 442:1 566:1 568:1 839:1 910:1 
-1 258:1 281:1 839:1 910:1 
-1 141:1 281:1 839:1 
-1 281:1 419:1 807:1 839:1 
-1 184:1 281:1 605:1 839:1 
-1 67:1 281:1 753:1 824:1 839:1 
-1 281:1 419:1 807:1 839:1 
-1 231:1 281:1 459:1 484:1 753:1 839:1 
-1 33:1 281:1 839:1 
-1 129:1 174:1 282:1 455:1 485:1 
-1 281:1 839:1 939:1 
-1 281:1 839:1 
-1 281:1 671:1 839:1 910:1 
-1 281:1 282:1 663:1 839:1 917:1 
-1 257:1 281:1 839:1 
-1 281:1 839:1 910:1 
-1 281:1 546:1 728:1 839:1 909:1 
-1 
-1 281:1 823:1 839:1 910:1 917:1 
-1 281:1 839:1 
-1 281:1 310:1 839:1 
-1 281:1 307:1 839:1 
-1 231:1 281:1 753:1 839:1 917:1 
-1 46:1 281:1 839:1 895:1 
-1 86:1 281:1 296:1 728:1 839:1 923:1 944:1 
-1 65:1 281:1 283:1 427:1 508:1 839:1 
-1 56:1 281:1 364:1 839:1 
-1 85:1 97:1 231:1 281:1 762:1 816:1 839:1 
-1 281:1 839:1 
-1 260:1 281:1 296:1 611:1 839:1 
-1 238:1 281:1 431:1 473:1 564:1 615:1 799:1 839:1 
-1 224:1 281:1 442:1 609:1 839:1 
-1 281:1 310:1 574:1 839:1 907:1 
-1 282:1 
-1 281:1 442:1 568:1 574:1 839:1 
-1 110:1 281:1 839:1 
-1 98:1 281:1 566:1 839:1 910:1 
-1 281:1 839:1 
-1 281:1 839:1 900:1 922:1 
-1 281:1 839:1 894:1 
-1 281:1 442:1 568:1 839:1 
-1 281:1 839:1 848:1 910:1 
-1 261:1 281:1 303:1 342:1 839:1 910:1 923:1 
-1 129:1 257:1 281:1 839:1 853:1 
-1 281:1 562:1 789:1 816:1 839:1 
-1 281:1 839:1 
-1 281:1 839:1 
-1 242:1 281:1 307:1 839:1 910:1 
-1 60:1 281:1 839:1 909:1 944:1 
-1 35:1 80:1 281:1 371:1 790:1 839:1 934:1 
-1 258:1 281:1 303:1 839:1 923:1 
-1 281:1 473:1 839:1 
-1 281:1 442:1 687:1 753:1 839:1 
-1 281:1 562:1 789:1 816:1 839:1 
-1 281:1 371:1 790:1 839:1 934:1 
-1 154:1 281:1 839:1 
-1 229:1 281:1 839:1 
-1 281:1 567:1 629:1 630:1 839:1 
-1 214:1 218:1 242:1 281:1 282:1 442:1 558:1 702:1 839:1 875:1 876:1 
-1 67:1 281:1 431:1 753:1 830:1 839:1 
-1 281:1 567:1 839:1 
-1 281:1 335:1 830:1 839:1 
-1 281:1 589:1 789:1 839:1 910:1 
-1 67:1 281:1 564:1 839:1 
-1 281:1 342:1 463:1 568:1 839:1 
-1 281:1 839:1 
-1 281:1 387:1 728:1 839:1 
-1 76:1 281:1 839:1 
-1 281:1 297:1 342:1 723:1 839:1 
-1 281:1 801:1 839:1 923:1 
-1 281:1 442:1 451:1 568:1 618:1 733:1 839:1 910:1 920:1 
-1 242:1 281:1 499:1 839:1 
-1 281:1 752:1 812:1 839:1 
-1 76:1 281:1 629:1 839:1 
-1 242:1 281:1 839:1 
-1 129:1 242:1 281:1 839:1 
-1 231:1 281:1 839:1 
-1 52:1 254:1 281:1 825:1 839:1 
-1 67:1 281:1 342:1 753:1 839:1 
-1 67:1 182:1 281:1 496:1 839:1 923:1 
-1 282:1 455:1 558:1 921:1 
-1 27:1 281:1 839:1 
-1 161:1 282:1 940:1 
-1 203:1 258:1 281:1 354:1 728:1 839:1 
-1 73:1 258:1 281:1 663:1 677:1 728:1 839:1 
-1 258:1 281:1 354:1 663:1 728:1 839:1 
-1 281:1 473:1 839:1 
-1 260:1 281:1 368:1 820:1 839:1 
-1 281:1 753:1 839:1 
-1 281:1 595:1 789:1 791:1 839:1 910:1 
-1 281:1 431:1 455:1 825:1 839:1 879:1 923:1 
-1 258:1 281:1 354:1 663:1 728:1 839:1 
-1 105:1 281:1 442:1 839:1 
-1 73:1 171:1 258:1 281:1 567:1 622:1 663:1 677:1 839:1 904:1 
-1 281:1 622:1 663:1 677:1 728:1 839:1 
-1 281:1 685:1 728:1 807:1 839:1 
-1 231:1 
-1 282:1 673:1 
-1 73:1 281:1 608:1 677:1 839:1 923:1 
-1 237:1 281:1 333:1 342:1 839:1 848:1 
-1 220:1 281:1 296:1 334:1 342:1 406:1 782:1 839:1 
-1 281:1 831:1 839:1 910:1 936:1 
-1 281:1 445:1 839:1 
-1 171:1 281:1 663:1 839:1 904:1 
-1 45:1 281:1 282:1 632:1 728:1 839:1 
-1 242:1 281:1 406:1 622:1 728:1 825:1 839:1 848:1 910:1 
-1 281:1 354:1 595:1 728:1 807:1 839:1 
-1 229:1 281:1 282:1 802:1 839:1 861:1 
-1 237:1 281:1 839:1 900:1 
-1 76:1 281:1 839:1 
-1 27:1 281:1 282:1 839:1 
-1 67:1 281:1 342:1 670:1 784:1 839:1 917:1 
-1 281:1 406:1 839:1 
-1 187:1 231:1 281:1 282:1 839:1 917:1 
-1 161:1 259:1 281:1 627:1 839:1 920:1 923:1 
-1 10:1 281:1 531:1 568:1 839:1 
-1 281:1 388:1 496:1 839:1 910:1 
-1 40:1 60:1 
-1 185:1 281:1 388:1 608:1 825:1 839:1 
-1 145:1 281:1 581:1 839:1 
-1 145:1 281:1 771:1 839:1 
-1 281:1 297:1 342:1 533:1 671:1 839:1 909:1 
-1 281:1 839:1 
-1 281:1 356:1 839:1 894:1 
-1 281:1 801:1 839:1 
-1 282:1 442:1 568:1 
-1 281:1 567:1 839:1 
-1 281:1 473:1 484:1 839:1 
-1 281:1 371:1 728:1 839:1 910:1 920:1 
-1 281:1 409:1 839:1 
-1 281:1 282:1 321:1 637:1 839:1 904:1 910:1 
-1 281:1 687:1 839:1 
-1 281:1 282:1 637:1 839:1 904:1 910:1 
-1 231:1 281:1 562:1 671:1 839:1 848:1 910:1 
-1 260:1 281:1 508:1 839:1 
-1 148:1 281:1 839:1 
-1 87:1 281:1 419:1 473:1 839:1 
-1 206:1 281:1 771:1 839:1 
-1 281:1 791:1 839:1 910:1 
-1 182:1 281:1 839:1 923:1 
-1 260:1 281:1 442:1 839:1 
-1 73:1 281:1 609:1 839:1 
-1 281:1 455:1 485:1 589:1 839:1 
-1 52:1 161:1 266:1 281:1 839:1 
-1 281:1 839:1 910:1 
-1 281:1 609:1 839:1 910:1 
-1 281:1 496:1 591:1 839:1 
-1 281:1 839:1 894:1 910:1 917:1 
-1 117:1 137:1 161:1 282:1 763:1 894:1 910:1 
-1 25:1 201:1 231:1 258:1 282:1 752:1 
-1 231:1 281:1 442:1 457:1 568:1 839:1 848:1 
-1 281:1 371:1 791:1 839:1 
-1 281:1 531:1 568:1 839:1 
-1 260:1 281:1 282:1 309:1 429:1 839:1 910:1 
-1 281:1 773:1 789:1 839:1 868:1 
-1 242:1 839:1 
-1 171:1 281:1 789:1 839:1 904:1 
-1 281:1 759:1 839:1 
-1 281:1 839:1 
-1 281:1 408:1 473:1 589:1 678:1 789:1 839:1 
-1 281:1 676:1 839:1 
-1 281:1 839:1 910:1 
-1 281:1 499:1 839:1 910:1 
-1 45:1 243:1 281:1 473:1 496:1 567:1 839:1 
-1 135:1 281:1 839:1 
-1 137:1 368:1 452:1 485:1 671:1 711:1 940:1 945:1 
-1 246:1 253:1 281:1 455:1 831:1 839:1 
-1 106:1 128:1 281:1 282:1 562:1 839:1 933:1 
-1 203:1 281:1 425:1 802:1 839:1 
-1 231:1 282:1 917:1 
-1 281:1 436:1 564:1 585:1 839:1 894:1 
-1 281:1 839:1 917:1 
-1 281:1 342:1 485:1 789:1 791:1 839:1 
-1 259:1 281:1 330:1 816:1 839:1 
-1 67:1 94:1 281:1 303:1 335:1 431:1 455:1 473:1 728:1 839:1 920:1 923:1 
-1 281:1 296:1 839:1 
-1 231:1 281:1 728:1 839:1 
-1 281:1 724:1 839:1 942:1 
-1 281:1 442:1 680:1 686:1 839:1 917:1 
-1 281:1 377:1 431:1 442:1 473:1 568:1 839:1 910:1 936:1 
-1 41:1 73:1 281:1 727:1 751:1 839:1 
-1 281:1 546:1 673:1 839:1 
-1 281:1 839:1 
-1 42:1 243:1 281:1 483:1 839:1 
-1 281:1 839:1 
-1 229:1 281:1 282:1 431:1 839:1 922:1 
-1 72:1 281:1 455:1 531:1 568:1 831:1 839:1 
-1 281:1 800:1 813:1 839:1 
-1 231:1 282:1 917:1 
-1 42:1 243:1 281:1 320:1 483:1 687:1 839:1 
-1 281:1 802:1 839:1 
-1 281:1 303:1 442:1 835:1 839:1 917:1 
-1 250:1 281:1 296:1 457:1 485:1 839:1 870:1 
-1 211:1 281:1 406:1 773:1 839:1 868:1 875:1 940:1 
-1 161:1 281:1 839:1 
-1 282:1 448:1 730:1 772:1 917:1 
-1 105:1 211:1 281:1 720:1 773:1 839:1 868:1 875:1 915:1 
-1 909:1 
-1 201:1 546:1 669:1 731:1 831:1 910:1 
-1 158:1 169:1 454:1 839:1 910:1 922:1 
-1 281:1 730:1 772:1 836:1 839:1 915:1 
-1 342:1 473:1 920:1 
-1 281:1 792:1 839:1 
-1 118:1 281:1 307:1 595:1 753:1 820:1 839:1 923:1 
-1 249:1 281:1 342:1 789:1 791:1 839:1 
-1 98:1 231:1 237:1 281:1 839:1 923:1 
-1 281:1 303:1 728:1 839:1 910:1 923:1 
-1 282:1 388:1 839:1 
-1 281:1 371:1 839:1 
-1 201:1 281:1 839:1 
-1 281:1 839:1 910:1 
-1 281:1 360:1 799:1 839:1 
-1 281:1 783:1 784:1 839:1 
-1 10:1 281:1 297:1 839:1 917:1 
-1 281:1 783:1 784:1 839:1 
-1 485:1 942:1 
-1 281:1 839:1 915:1 
-1 281:1 839:1 
-1 129:1 262:1 281:1 427:1 743:1 839:1 
-1 260:1 281:1 755:1 771:1 839:1 
-1 281:1 282:1 333:1 457:1 839:1 
-1 281:1 839:1 
-1 281:1 839:1 
-1 281:1 406:1 839:1 
-1 281:1 566:1 830:1 839:1 
-1 281:1 839:1 
-1 48:1 231:1 281:1 342:1 839:1 
-1 258:1 789:1 839:1 910:1 
-1 281:1 839:1 917:1 
-1 201:1 281:1 728:1 789:1 791:1 839:1 
-1 281:1 387:1 595:1 835:1 839:1 920:1 
-1 281:1 293:1 499:1 622:1 673:1 728:1 839:1 
-1 86:1 281:1 406:1 791:1 839:1 
-1 73:1 231:1 281:1 831:1 839:1 910:1 
-1 203:1 281:1 297:1 622:1 728:1 839:1 
-1 258:1 281:1 282:1 663:1 677:1 824:1 839:1 
-1 281:1 622:1 728:1 801:1 839:1 
-1 281:1 839:1 
-1 281:1 839:1 
-1 281:1 342:1 671:1 783:1 839:1 
-1 281:1 839:1 
-1 16:1 281:1 282:1 442:1 568:1 839:1 910:1 
-1 276:1 281:1 784:1 839:1 
-1 128:1 258:1 281:1 839:1 910:1 
-1 281:1 783:1 784:1 839:1 861:1 923:1 
-1 281:1 385:1 839:1 
-1 281:1 671:1 728:1 761:1 789:1 839:1 909:1 
-1 216:1 266:1 281:1 839:1 
-1 281:1 816:1 839:1 
-1 281:1 839:1 922:1 
-1 281:1 839:1 910:1 
-1 753:1 783:1 784:1 
-1 231:1 281:1 839:1 
-1 282:1 307:1 330:1 567:1 
-1 281:1 839:1 894:1 905:1 925:1 
-1 281:1 791:1 839:1 
-1 98:1 281:1 839:1 
-1 94:1 281:1 455:1 566:1 839:1 
-1 266:1 281:1 463:1 839:1 879:1 
-1 281:1 485:1 671:1 768:1 812:1 839:1 
-1 281:1 473:1 753:1 839:1 
-1 281:1 724:1 839:1 910:1 
-1 282:1 
-1 184:1 281:1 605:1 839:1 910:1 
-1 281:1 839:1 
-1 231:1 281:1 335:1 442:1 839:1 923:1 
-1 282:1 436:1 
-1 128:1 281:1 839:1 923:1 
-1 281:1 662:1 807:1 839:1 
-1 231:1 281:1 543:1 676:1 839:1 
-1 281:1 342:1 443:1 839:1 
-1 104:1 281:1 463:1 839:1 
-1 10:1 281:1 839:1 
-1 281:1 568:1 663:1 839:1 917:1 
-1 281:1 839:1 894:1 
-1 231:1 281:1 728:1 807:1 839:1 
-1 184:1 281:1 605:1 730:1 758:1 839:1 894:1 
-1 281:1 791:1 839:1 910:1 
-1 282:1 830:1 
-1 281:1 438:1 566:1 839:1 923:1 
-1 282:1 431:1 
-1 281:1 654:1 839:1 
-1 281:1 839:1 
-1 231:1 281:1 447:1 455:1 546:1 728:1 839:1 894:1 
-1 281:1 789:1 839:1 
-1 44:1 137:1 281:1 791:1 839:1 910:1 
-1 281:1 455:1 595:1 839:1 
-1 281:1 839:1 
-1 94:1 282:1 669:1 915:1 942:1 
-1 281:1 485:1 839:1 
-1 281:1 342:1 839:1 
-1 185:1 229:1 281:1 835:1 839:1 923:1 929:1 
-1 282:1 291:1 442:1 497:1 568:1 724:1 
-1 245:1 259:1 282:1 
-1 253:1 281:1 825:1 839:1 910:1 
-1 354:1 
-1 426:1 906:1 925:1 928:1 
-1 258:1 281:1 751:1 829:1 839:1 895:1 
-1 52:1 909:1 
-1 128:1 940:1 
-1 
-1 237:1 346:1 473:1 
-1 
-1 43:1 254:1 473:1 825:1 920:1 
-1 281:1 473:1 728:1 789:1 791:1 
-1 188:1 341:1 
-1 117:1 279:1 407:1 455:1 485:1 771:1 
-1 
-1 
-1 471:1 936:1 
-1 307:1 459:1 671:1 770:1 909:1 
-1 86:1 
-1 
-1 266:1 276:1 340:1 722:1 765:1 802:1 
-1 253:1 266:1 473:1 485:1 505:1 765:1 
-1 272:1 455:1 570:1 
-1 853:1 
-1 
-1 
-1 201:1 
-1 728:1 831:1 
-1 167:1 468:1 
-1 
-1 
-1 281:1 455:1 791:1 909:1 910:1 
-1 
-1 753:1 848:1 
-1 307:1 
-1 
-1 925:1 938:1 
-1 307:1 910:1 
-1 273:1 
-1 281:1 
-1 542:1 567:1 
-1 456:1 
-1 238:1 
-1 296:1 
-1 281:1 
-1 248:1 
-1 
-1 260:1 419:1 800:1 
-1 52:1 80:1 753:1 
-1 303:1 809:1 
-1 148:1 455:1 609:1 909:1 910:1 920:1 
-1 455:1 
-1 354:1 
-1 56:1 105:1 
-1 281:1 609:1 
-1 181:1 431:1 923:1 
-1 568:1 745:1 
-1 909:1 
-1 
-1 455:1 
-1 342:1 680:1 
-1 
-1 
-1 273:1 703:1 
-1 363:1 766:1 
-1 566:1 
-1 266:1 454:1 601:1 671:1 909:1 
-1 45:1 455:1 505:1 741:1 
-1 
-1 52:1 
-1 
-1 779:1 923:1 
-1 426:1 431:1 
-1 220:1 
-1 291:1 787:1 825:1 940:1 
-1 705:1 
-1 307:1 419:1 687:1 940:1 
-1 128:1 
-1 
-1 917:1 923:1 
-1 431:1 457:1 473:1 
