svm_type c_svc
kernel_type rbf
gamma 0.00101626
nr_class 2
total_sv 893
rho 0.944797
label 1 -1
nr_sv 364 529
SV
1 291:1 317:1 577:1 703:1 856:1 
1 79:1 143:1 291:1 856:1 911:1 
1 291:1 848:1 856:1 
1 292:1 628:1 801:1 
1 291:1 441:1 585:1 785:1 848:1 856:1 936:1 938:1 
1 346:1 936:1 943:1 
1 217:1 292:1 737:1 790:1 885:1 892:1 936:1 
1 130:1 291:1 437:1 448:1 747:1 789:1 856:1 912:1 
1 291:1 292:1 632:1 856:1 
1 58:1 291:1 328:1 846:1 856:1 868:1 944:1 
1 8:1 241:1 291:1 690:1 747:1 780:1 789:1 848:1 856:1 
1 190:1 237:1 291:1 452:1 578:1 622:1 856:1 
1 291:1 347:1 641:1 856:1 
1 15:1 108:1 291:1 457:1 842:1 847:1 856:1 
1 241:1 291:1 747:1 789:1 856:1 
1 291:1 747:1 789:1 856:1 
1 167:1 291:1 745:1 856:1 
1 291:1 690:1 856:1 936:1 943:1 
1 291:1 690:1 800:1 801:1 856:1 930:1 936:1 943:1 
1 78:1 241:1 291:1 641:1 719:1 745:1 856:1 928:1 
1 49:1 292:1 690:1 
1 263:1 346:1 441:1 737:1 
1 60:1 688:1 763:1 
1 30:1 60:1 292:1 374:1 379:1 458:1 688:1 
1 737:1 892:1 
1 166:1 291:1 465:1 511:1 702:1 856:1 
1 62:1 292:1 436:1 946:1 
1 291:1 856:1 912:1 936:1 
1 240:1 241:1 291:1 292:1 452:1 494:1 578:1 686:1 800:1 801:1 806:1 856:1 955:1 
1 291:1 452:1 578:1 788:1 856:1 
1 291:1 856:1 
1 226:1 291:1 452:1 495:1 578:1 856:1 944:1 
1 156:1 291:1 436:1 715:1 856:1 931:1 
1 289:1 291:1 509:1 686:1 856:1 936:1 
1 51:1 291:1 352:1 452:1 578:1 646:1 647:1 856:1 911:1 
1 291:1 686:1 856:1 931:1 
1 241:1 291:1 352:1 452:1 578:1 848:1 856:1 966:1 
1 291:1 856:1 912:1 931:1 936:1 
1 291:1 292:1 395:1 856:1 966:1 
1 291:1 574:1 768:1 856:1 
1 291:1 856:1 
1 291:1 687:1 847:1 856:1 941:1 
1 291:1 441:1 452:1 578:1 856:1 931:1 944:1 
1 291:1 772:1 824:1 856:1 
1 291:1 465:1 856:1 931:1 944:1 
1 241:1 291:1 452:1 494:1 578:1 621:1 686:1 806:1 856:1 955:1 
1 241:1 291:1 313:1 429:1 452:1 578:1 856:1 
1 241:1 291:1 856:1 944:1 
1 291:1 686:1 856:1 865:1 912:1 936:1 
1 241:1 291:1 358:1 452:1 578:1 768:1 770:1 856:1 
1 241:1 292:1 366:1 686:1 938:1 
1 291:1 452:1 578:1 686:1 856:1 
1 10:1 291:1 397:1 801:1 856:1 936:1 
1 351:1 
1 291:1 856:1 865:1 911:1 931:1 936:1 
1 291:1 452:1 578:1 856:1 
1 58:1 143:1 291:1 306:1 483:1 574:1 856:1 966:1 
1 291:1 770:1 856:1 980:1 
1 291:1 856:1 931:1 
1 291:1 345:1 352:1 856:1 944:1 
1 238:1 291:1 452:1 465:1 578:1 856:1 944:1 
1 292:1 358:1 452:1 578:1 874:1 
1 101:1 241:1 291:1 452:1 578:1 670:1 856:1 887:1 
1 91:1 268:1 291:1 641:1 702:1 745:1 807:1 846:1 856:1 
1 291:1 429:1 745:1 856:1 931:1 
1 291:1 436:1 856:1 
1 51:1 247:1 291:1 452:1 465:1 578:1 856:1 936:1 
1 291:1 452:1 578:1 856:1 931:1 938:1 
1 291:1 452:1 578:1 856:1 
1 291:1 452:1 578:1 686:1 856:1 
1 30:1 292:1 352:1 452:1 578:1 686:1 801:1 807:1 911:1 936:1 
1 291:1 452:1 578:1 741:1 833:1 856:1 
1 16:1 291:1 494:1 801:1 856:1 930:1 938:1 955:1 
1 241:1 291:1 800:1 801:1 833:1 856:1 930:1 
1 291:1 856:1 865:1 
1 291:1 352:1 452:1 494:1 578:1 801:1 856:1 955:1 
1 291:1 465:1 856:1 878:1 944:1 
1 291:1 292:1 366:1 509:1 686:1 856:1 936:1 
1 291:1 572:1 686:1 800:1 801:1 856:1 911:1 931:1 
1 292:1 686:1 
1 291:1 608:1 800:1 801:1 856:1 
1 254:1 292:1 429:1 530:1 770:1 931:1 953:1 
1 291:1 509:1 577:1 856:1 912:1 931:1 936:1 
1 291:1 686:1 800:1 801:1 856:1 911:1 
1 291:1 494:1 801:1 856:1 955:1 
1 247:1 291:1 856:1 931:1 936:1 
1 291:1 856:1 
1 291:1 320:1 608:1 856:1 865:1 931:1 
1 241:1 291:1 465:1 856:1 931:1 
1 270:1 291:1 292:1 745:1 856:1 944:1 
1 79:1 268:1 291:1 529:1 745:1 856:1 
1 241:1 268:1 291:1 452:1 745:1 856:1 938:1 
1 33:1 291:1 627:1 745:1 817:1 830:1 856:1 888:1 941:1 
1 268:1 291:1 345:1 745:1 856:1 944:1 
1 268:1 292:1 745:1 
1 167:1 291:1 688:1 769:1 856:1 865:1 944:1 
1 292:1 745:1 936:1 
1 73:1 268:1 291:1 745:1 823:1 856:1 
1 268:1 291:1 856:1 
1 193:1 268:1 292:1 704:1 745:1 
1 241:1 268:1 291:1 292:1 704:1 745:1 800:1 801:1 856:1 
1 58:1 73:1 268:1 269:1 292:1 770:1 944:1 968:1 
1 52:1 172:1 291:1 381:1 690:1 722:1 856:1 
1 291:1 352:1 452:1 578:1 688:1 846:1 856:1 
1 291:1 745:1 856:1 975:1 
1 268:1 292:1 529:1 572:1 704:1 801:1 
1 161:1 291:1 690:1 800:1 801:1 856:1 930:1 
1 268:1 292:1 690:1 
1 268:1 291:1 690:1 745:1 852:1 856:1 
1 30:1 268:1 291:1 745:1 807:1 856:1 
1 284:1 289:1 292:1 920:1 944:1 
1 58:1 268:1 291:1 345:1 452:1 741:1 856:1 931:1 938:1 
1 291:1 856:1 922:1 946:1 
1 291:1 457:1 847:1 856:1 
1 291:1 352:1 452:1 495:1 856:1 938:1 
1 241:1 291:1 452:1 856:1 938:1 
1 207:1 268:1 291:1 856:1 896:1 932:1 
1 212:1 239:1 268:1 292:1 306:1 441:1 
1 193:1 268:1 291:1 452:1 578:1 745:1 856:1 
1 268:1 291:1 704:1 745:1 853:1 856:1 
1 33:1 291:1 515:1 856:1 964:1 
1 291:1 345:1 441:1 856:1 931:1 944:1 
1 241:1 291:1 800:1 801:1 856:1 
1 291:1 856:1 931:1 
1 291:1 801:1 856:1 930:1 
1 30:1 292:1 931:1 
1 30:1 494:1 568:1 800:1 801:1 931:1 955:1 
1 178:1 291:1 436:1 481:1 833:1 856:1 
1 291:1 303:1 639:1 690:1 745:1 856:1 
1 291:1 639:1 704:1 824:1 856:1 
1 268:1 291:1 745:1 830:1 856:1 
1 291:1 604:1 801:1 856:1 
1 291:1 446:1 452:1 571:1 578:1 856:1 
1 291:1 628:1 690:1 830:1 856:1 
1 292:1 639:1 687:1 690:1 704:1 848:1 931:1 944:1 
1 247:1 286:1 452:1 578:1 829:1 
1 49:1 291:1 318:1 687:1 856:1 
1 291:1 856:1 926:1 
1 291:1 452:1 578:1 856:1 
1 177:1 291:1 436:1 856:1 
1 291:1 856:1 936:1 
1 78:1 291:1 452:1 578:1 856:1 944:1 
1 151:1 291:1 452:1 578:1 856:1 
1 190:1 441:1 572:1 622:1 847:1 936:1 
1 291:1 816:1 856:1 936:1 
1 101:1 151:1 292:1 355:1 670:1 941:1 
1 10:1 291:1 416:1 801:1 856:1 
1 
1 241:1 247:1 291:1 704:1 848:1 856:1 944:1 
1 73:1 79:1 240:1 241:1 291:1 452:1 578:1 856:1 
1 241:1 292:1 466:1 687:1 690:1 704:1 728:1 
1 238:1 291:1 346:1 856:1 865:1 
1 291:1 856:1 
1 291:1 509:1 686:1 856:1 936:1 
1 116:1 416:1 437:1 631:1 869:1 936:1 957:1 
1 291:1 856:1 936:1 
1 291:1 452:1 578:1 671:1 856:1 
1 241:1 291:1 441:1 745:1 856:1 911:1 
1 291:1 308:1 404:1 768:1 856:1 936:1 
1 66:1 178:1 270:1 291:1 416:1 856:1 
1 291:1 800:1 801:1 856:1 878:1 944:1 
1 291:1 416:1 686:1 856:1 936:1 
1 177:1 308:1 320:1 404:1 926:1 
1 50:1 178:1 291:1 416:1 558:1 565:1 856:1 
1 119:1 800:1 801:1 
1 262:1 291:1 806:1 856:1 
1 291:1 856:1 865:1 931:1 
1 291:1 452:1 578:1 856:1 931:1 
1 108:1 110:1 167:1 291:1 686:1 741:1 856:1 
1 177:1 291:1 392:1 676:1 856:1 938:1 
1 291:1 452:1 515:1 578:1 676:1 741:1 770:1 856:1 944:1 
1 80:1 109:1 241:1 291:1 704:1 745:1 856:1 
1 112:1 291:1 676:1 741:1 856:1 
1 142:1 241:1 291:1 676:1 704:1 745:1 800:1 801:1 856:1 
1 241:1 292:1 621:1 936:1 943:1 
1 291:1 518:1 690:1 856:1 
1 291:1 467:1 676:1 856:1 
1 249:1 352:1 676:1 808:1 
1 271:1 282:1 291:1 452:1 578:1 745:1 800:1 801:1 856:1 
1 53:1 91:1 117:1 273:1 291:1 676:1 780:1 856:1 
1 80:1 109:1 292:1 687:1 690:1 704:1 
1 328:1 481:1 801:1 846:1 
1 191:1 292:1 676:1 741:1 
1 473:1 944:1 
1 291:1 352:1 452:1 578:1 856:1 
1 292:1 352:1 686:1 768:1 
1 291:1 358:1 398:1 686:1 856:1 
1 291:1 741:1 856:1 
1 50:1 191:1 291:1 676:1 741:1 856:1 944:1 
1 291:1 452:1 578:1 671:1 856:1 
1 9:1 47:1 292:1 304:1 468:1 745:1 944:1 
1 292:1 452:1 578:1 676:1 741:1 
1 112:1 142:1 193:1 291:1 576:1 676:1 741:1 856:1 
1 247:1 291:1 452:1 578:1 676:1 687:1 741:1 856:1 
1 241:1 291:1 364:1 379:1 745:1 800:1 801:1 856:1 
1 292:1 457:1 
1 291:1 632:1 856:1 968:1 
1 142:1 291:1 676:1 741:1 856:1 
1 73:1 
1 73:1 291:1 800:1 801:1 856:1 
1 291:1 687:1 741:1 856:1 
1 291:1 676:1 741:1 856:1 
1 291:1 452:1 578:1 671:1 856:1 
1 73:1 108:1 291:1 406:1 741:1 856:1 
1 241:1 291:1 591:1 704:1 745:1 856:1 
1 73:1 292:1 452:1 578:1 704:1 944:1 
1 241:1 291:1 452:1 856:1 931:1 
1 291:1 806:1 808:1 856:1 
1 73:1 291:1 317:1 856:1 
1 291:1 743:1 856:1 
1 73:1 193:1 241:1 291:1 452:1 578:1 856:1 
1 291:1 317:1 856:1 
1 22:1 241:1 271:1 291:1 577:1 637:1 745:1 856:1 943:1 
1 292:1 317:1 436:1 511:1 552:1 690:1 
1 78:1 291:1 690:1 785:1 856:1 
1 255:1 292:1 452:1 578:1 704:1 938:1 
1 241:1 291:1 313:1 452:1 578:1 856:1 944:1 
1 137:1 241:1 291:1 452:1 578:1 856:1 
1 178:1 291:1 856:1 
1 291:1 616:1 784:1 856:1 938:1 
1 137:1 241:1 291:1 452:1 578:1 856:1 
1 247:1 292:1 626:1 
1 241:1 291:1 704:1 848:1 856:1 944:1 
1 291:1 347:1 452:1 578:1 768:1 856:1 
1 283:1 291:1 435:1 778:1 816:1 856:1 
1 292:1 676:1 847:1 
1 292:1 553:1 800:1 801:1 
1 111:1 292:1 452:1 590:1 
1 292:1 641:1 938:1 
1 241:1 291:1 313:1 687:1 856:1 926:1 931:1 
1 73:1 241:1 291:1 690:1 800:1 801:1 856:1 
1 241:1 291:1 704:1 745:1 856:1 
1 241:1 291:1 591:1 690:1 745:1 856:1 
1 73:1 79:1 292:1 452:1 578:1 
1 112:1 193:1 291:1 468:1 847:1 856:1 938:1 
1 173:1 268:1 292:1 703:1 
1 178:1 291:1 345:1 631:1 688:1 768:1 856:1 
1 241:1 291:1 292:1 687:1 690:1 745:1 856:1 
1 292:1 300:1 
1 116:1 291:1 397:1 770:1 856:1 
1 291:1 452:1 578:1 856:1 966:1 
1 291:1 856:1 938:1 
1 291:1 646:1 647:1 856:1 
1 291:1 745:1 768:1 856:1 
1 241:1 269:1 291:1 690:1 848:1 856:1 944:1 
1 291:1 741:1 745:1 856:1 879:1 892:1 931:1 
1 193:1 291:1 856:1 879:1 892:1 
1 292:1 311:1 578:1 
1 190:1 291:1 622:1 856:1 911:1 912:1 
1 10:1 291:1 801:1 856:1 879:1 892:1 
1 241:1 292:1 452:1 578:1 687:1 690:1 704:1 892:1 
1 254:1 263:1 292:1 530:1 571:1 
1 241:1 291:1 703:1 745:1 856:1 
1 291:1 318:1 628:1 690:1 830:1 856:1 
1 222:1 292:1 745:1 
1 291:1 483:1 856:1 
1 33:1 291:1 676:1 688:1 856:1 
1 291:1 292:1 351:1 856:1 
1 291:1 741:1 852:1 856:1 
1 241:1 291:1 452:1 578:1 768:1 856:1 892:1 
1 291:1 856:1 938:1 
1 240:1 291:1 292:1 745:1 856:1 
1 291:1 686:1 833:1 856:1 892:1 944:1 
1 222:1 291:1 441:1 856:1 
1 241:1 292:1 693:1 
1 291:1 436:1 855:1 856:1 
1 292:1 454:1 704:1 947:1 
1 292:1 452:1 578:1 944:1 
1 222:1 291:1 856:1 
1 75:1 292:1 
1 16:1 419:1 904:1 944:1 
1 291:1 366:1 452:1 578:1 801:1 856:1 
1 79:1 291:1 688:1 856:1 
1 30:1 160:1 291:1 568:1 745:1 856:1 
1 51:1 291:1 317:1 352:1 452:1 468:1 556:1 578:1 801:1 848:1 856:1 
1 241:1 282:1 291:1 704:1 745:1 760:1 856:1 
1 291:1 687:1 690:1 811:1 856:1 
1 291:1 691:1 824:1 856:1 
1 110:1 292:1 542:1 
1 251:1 255:1 538:1 737:1 785:1 912:1 
1 292:1 452:1 538:1 690:1 
1 291:1 855:1 856:1 
1 108:1 110:1 451:1 555:1 740:1 943:1 
1 291:1 538:1 686:1 856:1 
1 255:1 291:1 827:1 856:1 
1 35:1 247:1 291:1 304:1 621:1 624:1 741:1 855:1 856:1 
1 190:1 237:1 291:1 292:1 452:1 622:1 856:1 931:1 938:1 
1 291:1 538:1 856:1 
1 190:1 291:1 622:1 724:1 856:1 879:1 
1 190:1 291:1 622:1 747:1 833:1 856:1 
1 291:1 352:1 452:1 856:1 931:1 938:1 
1 79:1 291:1 307:1 317:1 495:1 626:1 856:1 
1 291:1 317:1 508:1 555:1 593:1 856:1 
1 291:1 593:1 856:1 879:1 
1 241:1 291:1 856:1 
1 291:1 704:1 800:1 801:1 856:1 
1 247:1 248:1 263:1 291:1 848:1 856:1 
1 291:1 452:1 578:1 856:1 875:1 
1 452:1 578:1 737:1 741:1 
1 267:1 291:1 842:1 856:1 
1 292:1 441:1 452:1 572:1 578:1 650:1 800:1 801:1 944:1 
1 292:1 452:1 495:1 578:1 
1 137:1 291:1 452:1 578:1 704:1 801:1 856:1 
1 291:1 465:1 674:1 785:1 856:1 
1 11:1 12:1 291:1 392:1 856:1 
1 291:1 452:1 578:1 856:1 
1 291:1 555:1 704:1 745:1 856:1 914:1 
1 291:1 555:1 686:1 856:1 914:1 
1 241:1 291:1 424:1 452:1 578:1 856:1 
1 291:1 856:1 
1 291:1 511:1 856:1 
1 263:1 269:1 291:1 465:1 688:1 787:1 856:1 
1 241:1 291:1 441:1 693:1 848:1 856:1 944:1 
1 291:1 452:1 465:1 626:1 772:1 856:1 
1 291:1 856:1 953:1 
1 241:1 291:1 704:1 856:1 
1 241:1 291:1 452:1 578:1 690:1 856:1 
1 241:1 292:1 452:1 462:1 578:1 728:1 924:1 932:1 977:1 
1 291:1 704:1 801:1 856:1 924:1 930:1 932:1 
1 291:1 320:1 541:1 690:1 856:1 
1 46:1 240:1 292:1 452:1 578:1 704:1 
1 291:1 704:1 856:1 924:1 932:1 
1 352:1 436:1 745:1 769:1 833:1 856:1 
1 268:1 291:1 745:1 800:1 801:1 856:1 871:1 
1 292:1 452:1 578:1 838:1 
1 154:1 292:1 301:1 481:1 938:1 
1 241:1 269:1 291:1 292:1 374:1 690:1 856:1 912:1 
1 46:1 240:1 241:1 292:1 452:1 578:1 852:1 944:1 
1 291:1 301:1 465:1 856:1 
1 291:1 307:1 770:1 856:1 
1 10:1 291:1 690:1 801:1 856:1 
1 117:1 268:1 291:1 292:1 745:1 856:1 871:1 
1 62:1 103:1 134:1 291:1 452:1 578:1 856:1 
1 241:1 291:1 856:1 
1 300:1 572:1 
1 270:1 291:1 483:1 690:1 856:1 
1 292:1 452:1 578:1 
1 66:1 
1 292:1 441:1 462:1 585:1 728:1 785:1 888:1 952:1 
1 92:1 291:1 856:1 
1 291:1 301:1 785:1 856:1 
1 48:1 291:1 330:1 749:1 816:1 856:1 
1 292:1 301:1 495:1 688:1 
1 8:1 247:1 320:1 452:1 578:1 704:1 
1 267:1 291:1 301:1 358:1 452:1 455:1 483:1 578:1 785:1 856:1 
1 268:1 291:1 686:1 745:1 856:1 
1 191:1 249:1 268:1 291:1 446:1 745:1 815:1 856:1 
1 291:1 745:1 856:1 
1 10:1 178:1 292:1 452:1 578:1 768:1 801:1 941:1 
1 81:1 120:1 240:1 268:1 292:1 335:1 839:1 
1 73:1 193:1 291:1 292:1 770:1 856:1 
1 268:1 291:1 292:1 690:1 856:1 870:1 970:1 
1 73:1 291:1 745:1 856:1 
1 240:1 690:1 745:1 
1 291:1 347:1 577:1 785:1 815:1 856:1 
1 30:1 291:1 379:1 494:1 856:1 955:1 
1 292:1 745:1 944:1 
1 10:1 268:1 283:1 291:1 352:1 436:1 452:1 578:1 801:1 856:1 
1 117:1 268:1 292:1 452:1 578:1 687:1 690:1 745:1 
1 291:1 801:1 856:1 
1 54:1 436:1 763:1 892:1 
1 54:1 436:1 892:1 893:1 
1 892:1 
1 291:1 436:1 763:1 856:1 893:1 
-0.005956754159445632 292:1 352:1 944:1 
-0.7254626057506216 240:1 291:1 687:1 704:1 856:1 
-1 142:1 291:1 856:1 
-0.7501220941387423 253:1 291:1 800:1 801:1 856:1 930:1 
-1 291:1 436:1 452:1 578:1 856:1 
-1 292:1 
-0.4260102160630551 2:1 9:1 291:1 304:1 441:1 679:1 856:1 
-0.11766515404353 187:1 291:1 558:1 694:1 702:1 704:1 794:1 856:1 
-1 291:1 628:1 856:1 938:1 
-1 291:1 686:1 856:1 936:1 
-1 58:1 178:1 263:1 291:1 856:1 912:1 
-1 178:1 291:1 515:1 856:1 912:1 
-1 291:1 436:1 452:1 578:1 704:1 856:1 
-0.6522490285738064 241:1 291:1 441:1 452:1 578:1 687:1 704:1 747:1 852:1 856:1 944:1 
-1 178:1 291:1 292:1 801:1 856:1 865:1 912:1 
-0.4008912123758503 291:1 301:1 352:1 436:1 690:1 799:1 856:1 
-1 190:1 291:1 320:1 622:1 676:1 856:1 
-1 140:1 801:1 865:1 
-0.4079388729008787 33:1 112:1 190:1 291:1 622:1 856:1 
-0.7671476734291091 91:1 241:1 247:1 291:1 292:1 451:1 856:1 892:1 
-1 241:1 247:1 291:1 292:1 397:1 741:1 856:1 
-0.5929390694535535 222:1 291:1 404:1 626:1 745:1 856:1 
-0.4645089945692224 263:1 291:1 511:1 687:1 856:1 931:1 
-0.6282499255643647 54:1 379:1 436:1 467:1 
-0.8177561387886221 241:1 352:1 416:1 452:1 558:1 578:1 926:1 
-0.6206344958481189 137:1 192:1 247:1 634:1 944:1 
-0.1045337993796805 51:1 58:1 190:1 291:1 320:1 622:1 856:1 
-0.337925836866347 291:1 292:1 468:1 478:1 690:1 785:1 856:1 
-0.1523561706644707 44:1 83:1 157:1 241:1 291:1 577:1 745:1 800:1 801:1 847:1 856:1 
-0.7554023939434041 122:1 291:1 317:1 358:1 452:1 578:1 856:1 
-1 50:1 291:1 352:1 856:1 944:1 
-0.3384608602297523 291:1 292:1 856:1 943:1 
-0.6618028931763005 285:1 292:1 452:1 
-1 291:1 292:1 690:1 856:1 
-0.494826466596706 52:1 291:1 437:1 448:1 478:1 704:1 785:1 801:1 806:1 807:1 856:1 
-1 291:1 436:1 452:1 578:1 704:1 856:1 
-0.7488831875061205 291:1 292:1 856:1 
-1 291:1 438:1 704:1 801:1 856:1 
-1 688:1 785:1 
-0.3966183968379108 267:1 291:1 745:1 760:1 856:1 
-1 291:1 292:1 690:1 856:1 
-0.759424257067536 190:1 291:1 622:1 722:1 856:1 
-0.3579788867097874 734:1 838:1 
-1 78:1 346:1 892:1 
-1 79:1 291:1 687:1 856:1 
-0.5007295859683194 241:1 292:1 452:1 578:1 687:1 877:1 
-0.3785216350818088 289:1 291:1 452:1 476:1 578:1 688:1 699:1 847:1 856:1 
-0.05708784449410056 52:1 241:1 291:1 292:1 704:1 856:1 
-1 8:1 291:1 483:1 704:1 856:1 
-0.3711048863517505 46:1 241:1 267:1 292:1 452:1 468:1 578:1 908:1 930:1 931:1 965:1 
-1 291:1 690:1 745:1 856:1 
-1 291:1 436:1 452:1 578:1 704:1 856:1 
-0.4758869941761526 50:1 173:1 291:1 770:1 856:1 
-0.3520632893865773 291:1 541:1 577:1 604:1 856:1 
-0.7198973461220151 110:1 241:1 269:1 292:1 316:1 892:1 931:1 
-1 73:1 241:1 282:1 291:1 452:1 578:1 687:1 704:1 856:1 
-0.7988700105873463 137:1 241:1 291:1 386:1 445:1 745:1 856:1 912:1 
-0.2611454844836282 162:1 291:1 316:1 704:1 801:1 856:1 
-1 291:1 452:1 578:1 848:1 856:1 944:1 
-1 73:1 291:1 452:1 578:1 856:1 
-1 291:1 690:1 856:1 
-0.03700839321106555 151:1 291:1 602:1 722:1 833:1 856:1 
-0.2444969188307888 161:1 162:1 291:1 690:1 745:1 856:1 
-0.5440756931360172 291:1 511:1 602:1 848:1 856:1 
-0.3346714125886108 84:1 374:1 441:1 944:1 
-0.7807882594593607 241:1 452:1 578:1 916:1 944:1 
-1 241:1 291:1 690:1 745:1 856:1 
-0.9375307271240441 193:1 291:1 351:1 608:1 770:1 800:1 801:1 856:1 944:1 
-0.4212314520810454 240:1 241:1 268:1 291:1 495:1 541:1 806:1 808:1 856:1 
-1 291:1 345:1 856:1 865:1 944:1 
-1 241:1 292:1 452:1 578:1 687:1 
-1 291:1 632:1 830:1 856:1 926:1 931:1 938:1 
-0.3832735184203133 206:1 291:1 307:1 452:1 578:1 856:1 
-0.7431119531999688 291:1 314:1 375:1 452:1 578:1 690:1 741:1 856:1 
-1 291:1 436:1 452:1 578:1 704:1 856:1 
-0.3958139359484594 143:1 213:1 291:1 434:1 741:1 856:1 
-0.5912276740740187 291:1 436:1 452:1 578:1 856:1 931:1 
-0.09321857211438397 108:1 241:1 292:1 931:1 
-1 241:1 269:1 452:1 578:1 741:1 931:1 
-1 893:1 
-0.1826880166716582 289:1 291:1 495:1 753:1 856:1 
-0.2590274577957823 268:1 291:1 668:1 687:1 833:1 856:1 938:1 
-0.5165679144034492 291:1 292:1 452:1 578:1 630:1 690:1 856:1 
-1 30:1 292:1 397:1 494:1 687:1 852:1 955:1 
-0.5217330343920559 291:1 515:1 690:1 856:1 
-0.1295207708527748 30:1 173:1 241:1 267:1 292:1 829:1 931:1 
-1 241:1 291:1 690:1 745:1 856:1 
-1 291:1 452:1 578:1 856:1 
-0.2410302310692214 178:1 278:1 291:1 568:1 831:1 856:1 
-1 291:1 436:1 452:1 578:1 704:1 856:1 
-1 51:1 241:1 291:1 292:1 690:1 856:1 
-1 79:1 291:1 429:1 789:1 856:1 931:1 
-0.3226623011651734 52:1 58:1 291:1 687:1 760:1 856:1 931:1 
-0.8383771213276201 73:1 240:1 269:1 291:1 856:1 
-1 112:1 291:1 452:1 578:1 856:1 
-1 291:1 452:1 578:1 800:1 801:1 807:1 856:1 930:1 
-0.6161386592460231 134:1 291:1 452:1 578:1 856:1 944:1 
-1 291:1 452:1 578:1 686:1 856:1 911:1 
-0.9108981058172645 35:1 291:1 624:1 856:1 
-0.4184679894953116 291:1 416:1 452:1 518:1 804:1 856:1 892:1 
-0.9531578970411272 249:1 291:1 646:1 647:1 768:1 856:1 888:1 
-1 291:1 352:1 452:1 578:1 816:1 848:1 856:1 
-0.4490017649388645 241:1 291:1 452:1 578:1 770:1 816:1 856:1 931:1 
-0.7224280068781113 134:1 193:1 291:1 381:1 768:1 847:1 856:1 
-0.7352461035080653 291:1 856:1 947:1 
-0.7039640070844729 47:1 744:1 768:1 944:1 
-0.1338843551559206 66:1 268:1 270:1 291:1 745:1 856:1 
-0.3835811738127168 291:1 292:1 833:1 856:1 
-1 10:1 111:1 291:1 441:1 801:1 856:1 931:1 941:1 
-0.1601108375701719 30:1 265:1 291:1 435:1 806:1 856:1 
-1 33:1 291:1 686:1 856:1 888:1 
-1 268:1 291:1 452:1 578:1 608:1 745:1 856:1 
-0.5233833745913983 291:1 366:1 856:1 
-1 291:1 452:1 455:1 578:1 856:1 
-1 10:1 51:1 73:1 291:1 627:1 800:1 801:1 856:1 975:1 
-0.1931586313133592 268:1 291:1 540:1 647:1 690:1 856:1 
-0.1335670152735076 16:1 193:1 241:1 252:1 268:1 291:1 610:1 856:1 
-1 263:1 268:1 291:1 704:1 800:1 801:1 856:1 
-1 241:1 291:1 800:1 801:1 856:1 
-1 291:1 704:1 745:1 856:1 
-1 73:1 291:1 687:1 800:1 801:1 856:1 943:1 944:1 
-0.1439479705911702 268:1 291:1 465:1 745:1 856:1 931:1 
-0.8070396726766147 22:1 190:1 237:1 291:1 622:1 856:1 
-0.1293025857035813 119:1 256:1 373:1 
-0.5771574160699221 291:1 626:1 639:1 741:1 745:1 856:1 
-1 241:1 291:1 704:1 745:1 747:1 856:1 
-0.1072725512872556 291:1 745:1 784:1 856:1 
-1 283:1 291:1 745:1 801:1 856:1 
-0.58115911260597 291:1 345:1 856:1 931:1 944:1 
-1 240:1 269:1 291:1 741:1 856:1 941:1 
-1 240:1 291:1 416:1 690:1 745:1 856:1 
-0.8578307149412732 241:1 291:1 704:1 745:1 747:1 856:1 
-1 241:1 291:1 704:1 745:1 800:1 801:1 856:1 
-1 241:1 291:1 704:1 745:1 856:1 
-0.2382209394843853 44:1 291:1 702:1 704:1 856:1 
-0.2563215726833761 241:1 268:1 291:1 473:1 704:1 856:1 
-1 207:1 291:1 317:1 465:1 585:1 676:1 798:1 856:1 
-0.106254275830179 291:1 452:1 578:1 856:1 931:1 950:1 
-0.2064303576846852 292:1 303:1 416:1 572:1 892:1 
-0.9010773490912848 190:1 291:1 292:1 622:1 856:1 
-0.5190399540248715 291:1 452:1 576:1 578:1 856:1 931:1 
-0.7477884867879788 151:1 291:1 646:1 856:1 
-1 291:1 452:1 578:1 856:1 931:1 
-0.8936448092812374 241:1 291:1 469:1 494:1 770:1 856:1 955:1 
-0.8716326972131549 86:1 108:1 291:1 452:1 578:1 856:1 892:1 
-0.3715914619978957 291:1 856:1 912:1 
-0.7476072714282733 291:1 292:1 347:1 626:1 785:1 856:1 
-0.1612472001138111 147:1 256:1 291:1 452:1 856:1 
-1 241:1 291:1 745:1 856:1 
-1 241:1 291:1 441:1 452:1 578:1 704:1 848:1 856:1 931:1 944:1 
-1 291:1 352:1 436:1 452:1 856:1 
-1 241:1 429:1 452:1 578:1 878:1 
-0.2107949258300786 241:1 291:1 449:1 578:1 787:1 856:1 
-0.1405382782613272 241:1 248:1 291:1 292:1 345:1 452:1 467:1 856:1 938:1 
-1 291:1 690:1 856:1 
-1 154:1 292:1 
-0.9548992582100492 468:1 847:1 931:1 
-0.08137405512370416 291:1 317:1 328:1 398:1 402:1 846:1 856:1 973:1 
-0.7623443114500229 190:1 292:1 320:1 622:1 745:1 808:1 892:1 
-1 291:1 511:1 688:1 856:1 
-0.6393291993379275 177:1 291:1 576:1 856:1 944:1 
-0.1049048631225787 51:1 58:1 247:1 291:1 495:1 552:1 856:1 926:1 
-0.6244683370290116 282:1 291:1 292:1 572:1 816:1 847:1 856:1 
-1 291:1 745:1 856:1 
-0.1263084039019887 92:1 238:1 291:1 856:1 
-1 291:1 452:1 578:1 833:1 856:1 
-0.8113315444776972 181:1 249:1 291:1 542:1 801:1 856:1 901:1 
-0.1125675813391786 241:1 282:1 291:1 704:1 745:1 856:1 
-1 291:1 452:1 578:1 856:1 
-0.4084635876269725 62:1 291:1 374:1 856:1 
-0.4037805103870191 91:1 103:1 241:1 291:1 779:1 833:1 856:1 
-0.186892974496404 291:1 431:1 635:1 763:1 771:1 856:1 
-0.5157961803535702 291:1 772:1 856:1 888:1 938:1 
-0.9625098586913435 291:1 608:1 688:1 788:1 855:1 856:1 
-0.2286172353482991 270:1 291:1 306:1 628:1 856:1 
-1 291:1 690:1 856:1 
-0.1421692850587268 15:1 179:1 241:1 291:1 451:1 452:1 578:1 856:1 
-1 193:1 291:1 856:1 912:1 
-0.2174828437057156 291:1 441:1 856:1 944:1 
-0.527867378389994 10:1 250:1 283:1 291:1 587:1 682:1 801:1 853:1 856:1 944:1 
-0.2018406160024286 230:1 291:1 452:1 626:1 856:1 
-1 291:1 300:1 348:1 352:1 770:1 801:1 856:1 930:1 
-1 292:1 
-1 291:1 745:1 856:1 
-1 116:1 291:1 856:1 
-1 241:1 291:1 347:1 641:1 856:1 
-0.517226252540343 291:1 690:1 856:1 
-1 291:1 452:1 578:1 856:1 
-1 114:1 171:1 291:1 395:1 494:1 856:1 955:1 
-0.636710778752021 212:1 291:1 572:1 856:1 938:1 
-1 291:1 312:1 686:1 856:1 
-0.1751670326769565 170:1 291:1 306:1 452:1 578:1 824:1 856:1 931:1 
-0.4904660974381901 270:1 291:1 856:1 904:1 957:1 
-1 268:1 291:1 313:1 856:1 944:1 
-1 291:1 452:1 704:1 770:1 856:1 
-0.9157723674442788 73:1 291:1 317:1 856:1 
-0.1970893973977958 73:1 400:1 944:1 
-0.9517772864628971 78:1 358:1 606:1 846:1 
-0.09981543142381823 291:1 452:1 541:1 543:1 856:1 966:1 
-0.247669888220075 291:1 577:1 646:1 647:1 856:1 
-0.2552833302647555 220:1 224:1 252:1 291:1 292:1 452:1 568:1 719:1 856:1 892:1 893:1 975:1 
-0.1968129207117429 291:1 352:1 373:1 770:1 801:1 856:1 930:1 962:1 
-1 292:1 328:1 846:1 
-0.1724456480985442 73:1 173:1 291:1 307:1 353:1 417:1 460:1 724:1 806:1 856:1 
-1 291:1 800:1 801:1 833:1 848:1 856:1 930:1 938:1 944:1 
-0.1406814263451382 11:1 12:1 148:1 291:1 579:1 856:1 918:1 919:1 
-0.6448145836214627 73:1 291:1 574:1 856:1 
-0.3770182095713774 186:1 291:1 318:1 627:1 768:1 856:1 
-0.5773602587073594 292:1 306:1 952:1 
-1 108:1 241:1 292:1 865:1 892:1 
-1 105:1 108:1 117:1 241:1 452:1 483:1 578:1 
-1 291:1 800:1 801:1 856:1 930:1 
-1 291:1 745:1 856:1 
-0.222810246047849 292:1 307:1 340:1 943:1 
-0.0800228715406152 291:1 452:1 461:1 578:1 635:1 750:1 856:1 931:1 941:1 
-0.1549466020776088 291:1 769:1 829:1 856:1 
-0.2048712776997184 291:1 452:1 578:1 848:1 856:1 926:1 931:1 966:1 
-0.795280146596312 255:1 291:1 572:1 690:1 816:1 817:1 856:1 
-0.3367374905972266 78:1 291:1 317:1 713:1 856:1 941:1 960:1 
-0.9559620868356181 73:1 284:1 292:1 441:1 687:1 719:1 944:1 
-0.3728406641208498 46:1 65:1 91:1 240:1 291:1 317:1 690:1 856:1 
-1 66:1 291:1 452:1 578:1 856:1 938:1 
-0.4901642239012967 291:1 452:1 483:1 578:1 856:1 
-1 291:1 352:1 436:1 465:1 801:1 856:1 
-1 53:1 178:1 291:1 416:1 437:1 676:1 745:1 856:1 931:1 
-1 268:1 291:1 292:1 745:1 856:1 953:1 
-0.1632042138259062 46:1 65:1 91:1 240:1 291:1 506:1 856:1 938:1 
-1 16:1 241:1 291:1 379:1 856:1 
-0.1869814225986459 160:1 161:1 291:1 345:1 748:1 785:1 856:1 946:1 
-1 101:1 291:1 457:1 578:1 670:1 856:1 
-0.2171909195100903 291:1 787:1 818:1 856:1 
-0.4665055634449883 240:1 263:1 268:1 291:1 313:1 745:1 848:1 856:1 931:1 938:1 
-0.3962633053663033 291:1 440:1 452:1 578:1 856:1 
-0.6418325441643481 66:1 241:1 291:1 577:1 745:1 856:1 
-0.3795668094793047 268:1 291:1 292:1 550:1 641:1 745:1 856:1 902:1 911:1 
-0.8519171079328225 112:1 247:1 291:1 436:1 856:1 
-0.645379883956722 108:1 248:1 292:1 631:1 852:1 863:1 
-0.6191893805931122 167:1 292:1 966:1 
-1 268:1 291:1 452:1 578:1 856:1 931:1 
-1 226:1 268:1 292:1 495:1 745:1 
-1 291:1 292:1 676:1 856:1 
-1 291:1 366:1 856:1 
-1 291:1 856:1 936:1 
-1 33:1 73:1 268:1 291:1 745:1 856:1 
-0.09055948384337399 292:1 347:1 662:1 829:1 911:1 
-0.5301969111024145 291:1 292:1 352:1 745:1 856:1 
-0.9221443796869412 30:1 268:1 291:1 737:1 769:1 782:1 856:1 892:1 
-0.2953960331534691 209:1 268:1 291:1 364:1 745:1 856:1 
-0.3457104560778741 79:1 268:1 291:1 680:1 694:1 745:1 856:1 
-0.4139483824862928 11:1 12:1 291:1 328:1 634:1 846:1 856:1 
-0.8497597696261456 268:1 291:1 452:1 578:1 703:1 745:1 856:1 927:1 931:1 
-1 268:1 291:1 577:1 745:1 856:1 
-1 268:1 291:1 458:1 741:1 856:1 
-1 268:1 292:1 452:1 578:1 931:1 
-1 268:1 291:1 292:1 317:1 745:1 856:1 
-1 268:1 291:1 745:1 856:1 
-1 268:1 292:1 
-0.1294756657571498 107:1 268:1 291:1 745:1 856:1 931:1 
-0.4298119929998305 268:1 291:1 372:1 741:1 805:1 806:1 856:1 
-0.3033158793253193 73:1 291:1 856:1 892:1 
-0.3925997004881542 268:1 291:1 399:1 452:1 453:1 578:1 846:1 856:1 
-0.1010930647549602 118:1 291:1 372:1 741:1 767:1 856:1 923:1 946:1 
-1 177:1 291:1 686:1 704:1 856:1 921:1 
-1 291:1 702:1 745:1 824:1 856:1 
-1 292:1 690:1 
-0.7936727363475231 291:1 574:1 856:1 
-1 292:1 745:1 833:1 
-0.2025348748598746 292:1 322:1 745:1 
-0.1890933166789977 23:1 255:1 277:1 419:1 
-0.2973475522654512 79:1 92:1 291:1 856:1 
-1 190:1 291:1 622:1 745:1 856:1 
-0.4392510299827828 291:1 465:1 856:1 944:1 
-0.7482689804880425 177:1 291:1 364:1 745:1 856:1 912:1 
-0.2241376585447014 51:1 291:1 292:1 649:1 745:1 856:1 
-0.8232238431336654 291:1 639:1 768:1 800:1 801:1 856:1 
-0.3350623493254989 313:1 465:1 811:1 
-1 291:1 345:1 441:1 452:1 578:1 856:1 931:1 944:1 
-0.5393868690267091 291:1 345:1 441:1 856:1 944:1 
-1 73:1 291:1 352:1 687:1 801:1 856:1 938:1 
-1 241:1 291:1 688:1 741:1 745:1 856:1 
-1 193:1 241:1 291:1 292:1 856:1 938:1 
-0.2413783089118127 191:1 291:1 398:1 625:1 842:1 856:1 
-0.2173730331848264 173:1 291:1 292:1 704:1 745:1 800:1 801:1 856:1 958:1 965:1 
-0.6764958516854523 292:1 641:1 785:1 977:1 
-1 291:1 347:1 641:1 745:1 856:1 871:1 
-0.5997072739133238 291:1 301:1 374:1 498:1 683:1 856:1 
-0.9776742982293324 291:1 366:1 856:1 911:1 
-1 292:1 452:1 578:1 
-1 291:1 856:1 944:1 
-1 291:1 483:1 494:1 856:1 955:1 
-0.5923508439590324 291:1 419:1 856:1 
-1 292:1 690:1 704:1 
-0.3611241306195156 291:1 704:1 856:1 
-0.4976291836743317 103:1 291:1 518:1 856:1 
-0.1598007127155008 79:1 291:1 292:1 856:1 926:1 
-0.5349118366065272 58:1 291:1 358:1 572:1 856:1 917:1 
-0.4760502275567534 193:1 291:1 406:1 452:1 578:1 788:1 856:1 
-0.08762572499680307 73:1 272:1 291:1 654:1 687:1 801:1 856:1 921:1 930:1 931:1 
-0.7601130186294112 292:1 346:1 688:1 
-1 291:1 320:1 452:1 578:1 690:1 770:1 856:1 943:1 
-0.403419880458805 42:1 193:1 292:1 421:1 465:1 778:1 
-0.7865110789677575 30:1 291:1 856:1 
-1 238:1 247:1 291:1 690:1 856:1 931:1 
-1 291:1 745:1 856:1 
-0.5339367611064628 15:1 241:1 291:1 320:1 452:1 541:1 578:1 824:1 856:1 966:1 
-0.2074874414246692 65:1 291:1 704:1 827:1 856:1 
-1 270:1 291:1 452:1 856:1 
-1 268:1 291:1 741:1 841:1 856:1 938:1 
-1 124:1 172:1 291:1 686:1 745:1 801:1 856:1 
-1 123:1 167:1 291:1 780:1 801:1 856:1 931:1 
-0.3878110911773957 248:1 291:1 452:1 578:1 856:1 926:1 
-0.4028669084730607 291:1 435:1 856:1 953:1 
-0.1233764618933072 291:1 506:1 604:1 856:1 
-1 241:1 291:1 292:1 452:1 578:1 768:1 856:1 911:1 
-0.7818457414067176 30:1 291:1 568:1 856:1 
-1 291:1 741:1 856:1 
-0.7133907448147607 291:1 436:1 441:1 452:1 521:1 745:1 856:1 892:1 
-0.2055433441161323 288:1 291:1 330:1 366:1 554:1 856:1 891:1 
-0.7472808697958488 241:1 291:1 452:1 467:1 578:1 856:1 865:1 
-1 241:1 291:1 465:1 621:1 690:1 856:1 944:1 
-0.01974664295776165 291:1 424:1 495:1 598:1 688:1 856:1 891:1 
-0.9442886050395511 241:1 268:1 270:1 291:1 439:1 452:1 690:1 856:1 938:1 
-1 291:1 452:1 578:1 848:1 856:1 944:1 
-0.6413825233356881 291:1 650:1 856:1 
-0.3636365640782958 193:1 292:1 451:1 824:1 
-0.5703660248291302 291:1 446:1 856:1 938:1 
-1 241:1 291:1 292:1 452:1 578:1 690:1 856:1 
-1 291:1 441:1 452:1 578:1 585:1 785:1 856:1 
-1 241:1 291:1 317:1 452:1 465:1 578:1 856:1 
-0.225860733844085 291:1 856:1 904:1 
-1 271:1 291:1 648:1 856:1 936:1 
-1 291:1 352:1 741:1 785:1 856:1 931:1 
-0.3063868079654136 272:1 291:1 457:1 847:1 856:1 
-0.1025940411077272 291:1 856:1 966:1 
-1 291:1 800:1 801:1 856:1 
-1 241:1 292:1 704:1 
-1 41:1 178:1 291:1 416:1 437:1 741:1 745:1 800:1 801:1 856:1 
-0.7502556576956902 143:1 378:1 462:1 495:1 584:1 688:1 728:1 966:1 977:1 
-1 292:1 457:1 770:1 847:1 970:1 
-0.3002750929125664 291:1 446:1 574:1 598:1 856:1 911:1 
-0.08888044689614007 190:1 291:1 622:1 856:1 896:1 944:1 
-1 247:1 292:1 690:1 936:1 
-0.8061206950667594 240:1 241:1 291:1 452:1 468:1 578:1 856:1 908:1 
-0.4514990093383354 291:1 856:1 912:1 924:1 
-0.3542766408643869 129:1 292:1 441:1 585:1 785:1 924:1 
-1 241:1 291:1 745:1 856:1 
-1 291:1 741:1 856:1 968:1 
-0.4434475843791141 291:1 452:1 697:1 703:1 856:1 938:1 
-1 292:1 352:1 452:1 578:1 741:1 
-0.1278329612776727 46:1 48:1 81:1 292:1 452:1 578:1 
-0.2784645791191577 30:1 259:1 291:1 330:1 568:1 856:1 
-0.7790501292261593 48:1 167:1 267:1 268:1 292:1 690:1 944:1 
-0.382486811917912 291:1 345:1 737:1 856:1 943:1 944:1 953:1 
-0.02280494493903207 291:1 647:1 760:1 856:1 
-1 291:1 817:1 830:1 856:1 
-1 292:1 690:1 
-0.5522050111699135 48:1 241:1 267:1 291:1 452:1 578:1 690:1 856:1 
-0.7449975074339236 81:1 143:1 291:1 452:1 578:1 839:1 856:1 865:1 931:1 
-1 241:1 292:1 
-1 241:1 292:1 938:1 
-0.7061370280389487 30:1 81:1 291:1 307:1 379:1 406:1 704:1 769:1 842:1 856:1 944:1 
-1 241:1 268:1 291:1 703:1 745:1 824:1 856:1 
-0.2374873424798415 291:1 358:1 429:1 495:1 856:1 968:1 
-0.46019587976395 167:1 291:1 856:1 
-0.2620924849867839 291:1 381:1 509:1 577:1 856:1 941:1 942:1 
-0.4013617481512409 292:1 458:1 747:1 789:1 938:1 
-1 111:1 217:1 291:1 737:1 790:1 856:1 885:1 892:1 936:1 
-1 217:1 292:1 737:1 790:1 885:1 892:1 936:1 
-0.5429844477465444 291:1 436:1 797:1 801:1 848:1 856:1 924:1 953:1 
-1 207:1 556:1 686:1 748:1 848:1 931:1 
-1 291:1 747:1 789:1 853:1 856:1 936:1 
-1 241:1 291:1 704:1 747:1 789:1 856:1 871:1 938:1 
-1 241:1 292:1 452:1 578:1 
-0.5578494318721218 292:1 308:1 346:1 404:1 416:1 437:1 568:1 688:1 
-0.3804998412707804 135:1 291:1 823:1 856:1 
-1 263:1 642:1 686:1 911:1 
-1 291:1 800:1 801:1 856:1 
-0.9096582985183366 291:1 856:1 941:1 
-1 10:1 291:1 801:1 856:1 
-1 58:1 291:1 800:1 801:1 856:1 
-1 291:1 800:1 801:1 856:1 
-1 241:1 291:1 452:1 578:1 856:1 
-1 291:1 856:1 936:1 
-1 291:1 452:1 578:1 686:1 768:1 856:1 
-1 291:1 465:1 686:1 856:1 911:1 936:1 
-0.1407666508576298 46:1 241:1 291:1 317:1 856:1 942:1 944:1 
-1 239:1 283:1 313:1 682:1 686:1 801:1 808:1 
-1 16:1 30:1 289:1 291:1 494:1 807:1 856:1 955:1 
-0.2512695457848541 291:1 429:1 785:1 848:1 856:1 
-0.6308283802325196 240:1 241:1 291:1 452:1 852:1 856:1 938:1 
-1 291:1 452:1 577:1 578:1 856:1 
-0.1609849723894548 247:1 291:1 474:1 785:1 829:1 856:1 
-0.2641775806162769 291:1 352:1 374:1 856:1 941:1 
-0.4988115652297008 46:1 291:1 856:1 
-0.7443250759727336 268:1 806:1 856:1 931:1 
-1 292:1 943:1 
-0.2627529919723958 12:1 291:1 856:1 
-0.5004402555562522 291:1 320:1 452:1 822:1 856:1 
-1 291:1 452:1 578:1 856:1 
-1 291:1 303:1 509:1 639:1 690:1 745:1 856:1 
-0.4912734628039243 73:1 241:1 291:1 515:1 856:1 944:1 
-0.277416228631818 291:1 313:1 346:1 800:1 801:1 856:1 
-0.9151240595914738 1:1 151:1 291:1 770:1 830:1 856:1 943:1 
-0.4996541892690051 271:1 317:1 552:1 690:1 745:1 
-1 291:1 292:1 452:1 578:1 639:1 848:1 856:1 944:1 
-0.481945485949542 22:1 291:1 292:1 452:1 578:1 856:1 931:1 
-1 286:1 291:1 801:1 856:1 
-0.3365880126219056 291:1 800:1 801:1 856:1 878:1 944:1 
-0.5334154882159488 291:1 556:1 632:1 745:1 800:1 801:1 856:1 944:1 959:1 
-1 291:1 301:1 306:1 404:1 856:1 966:1 
-0.7553333808088001 291:1 743:1 856:1 
-1 62:1 291:1 352:1 856:1 936:1 
-0.7563447595221886 222:1 276:1 291:1 621:1 856:1 
-0.8962642056252454 101:1 291:1 670:1 745:1 856:1 
-1 291:1 800:1 801:1 856:1 878:1 944:1 
-0.6687114655654539 247:1 291:1 856:1 944:1 
-0.7623634149831116 291:1 833:1 856:1 
-1 291:1 785:1 856:1 
-1 291:1 466:1 728:1 856:1 931:1 
-0.6681692372276727 241:1 291:1 745:1 856:1 911:1 
-1 291:1 856:1 943:1 
-0.5226838877883913 268:1 282:1 291:1 856:1 
-1 452:1 578:1 688:1 800:1 801:1 
-1 191:1 291:1 452:1 578:1 856:1 
-0.3958487799467308 291:1 741:1 852:1 856:1 
-1 33:1 222:1 262:1 291:1 452:1 578:1 856:1 
-1 292:1 452:1 578:1 690:1 
-0.155834603441184 291:1 345:1 452:1 578:1 626:1 848:1 856:1 944:1 
-1 291:1 292:1 690:1 856:1 
-0.09471339725128482 770:1 800:1 801:1 
-0.1036019575187572 78:1 406:1 655:1 768:1 931:1 956:1 
-0.8222554167726426 291:1 856:1 911:1 922:1 946:1 
-1 291:1 801:1 856:1 
-0.662739669178509 292:1 469:1 591:1 628:1 
-0.4524218712968059 79:1 247:1 291:1 307:1 856:1 931:1 
-0.2537581181631523 291:1 346:1 856:1 
-0.354943660706915 89:1 241:1 291:1 292:1 317:1 351:1 745:1 856:1 938:1 
-0.4227611876532718 291:1 495:1 688:1 785:1 829:1 856:1 
-1 291:1 741:1 856:1 931:1 
-1 292:1 
-1 292:1 938:1 
-1 241:1 291:1 704:1 856:1 
-0.1082134619728724 143:1 212:1 291:1 358:1 495:1 856:1 931:1 957:1 
-0.2956551390291809 104:1 241:1 292:1 693:1 
-1 241:1 291:1 345:1 452:1 856:1 944:1 
-0.9200451697365368 292:1 446:1 
-0.9625853573666799 237:1 292:1 
-0.6151902663613841 57:1 291:1 292:1 431:1 737:1 745:1 763:1 771:1 856:1 926:1 
-0.9844174083062832 241:1 291:1 553:1 693:1 856:1 
-0.5001902981119253 291:1 693:1 856:1 
-1 110:1 291:1 473:1 856:1 
-1 268:1 291:1 745:1 856:1 938:1 
-0.4139089795928239 58:1 73:1 283:1 291:1 770:1 801:1 842:1 856:1 
-0.442477647079127 58:1 73:1 291:1 292:1 856:1 
-0.3916877838663867 238:1 291:1 352:1 465:1 856:1 911:1 
-0.3352346162939284 66:1 212:1 241:1 270:1 291:1 452:1 578:1 856:1 931:1 
-0.399012695049583 292:1 352:1 690:1 
-0.6477038170477486 79:1 160:1 291:1 352:1 856:1 
-0.1404003254374552 190:1 291:1 621:1 622:1 747:1 856:1 911:1 
-1 291:1 292:1 690:1 800:1 801:1 856:1 
-1 292:1 452:1 578:1 687:1 690:1 704:1 
-1 441:1 538:1 800:1 801:1 944:1 
-0.2063272636524769 240:1 291:1 856:1 911:1 
-1 247:1 292:1 555:1 740:1 
-0.9001845685761818 291:1 856:1 892:1 
-0.4447891182618642 73:1 193:1 226:1 292:1 352:1 687:1 912:1 
-1 291:1 318:1 572:1 768:1 856:1 
-1 292:1 847:1 
-0.7023202333554338 292:1 441:1 
-1 2:1 291:1 671:1 856:1 
-1 268:1 291:1 509:1 555:1 690:1 856:1 914:1 
-1 291:1 452:1 578:1 856:1 
-1 241:1 291:1 311:1 452:1 572:1 578:1 848:1 856:1 
-1 292:1 352:1 452:1 578:1 691:1 737:1 
-1 291:1 452:1 578:1 856:1 
-1 54:1 73:1 291:1 355:1 800:1 801:1 856:1 
-0.7633753769678133 120:1 291:1 335:1 806:1 856:1 
-0.1926197299307534 286:1 291:1 452:1 578:1 856:1 931:1 
-1 100:1 292:1 686:1 936:1 968:1 
-1 509:1 780:1 
-1 30:1 291:1 465:1 494:1 626:1 806:1 807:1 842:1 944:1 955:1 
-1 291:1 301:1 856:1 
-1 292:1 441:1 833:1 848:1 944:1 
-0.7776670549044882 291:1 641:1 784:1 856:1 
-0.4431429286328686 191:1 239:1 291:1 852:1 856:1 944:1 952:1 
-1 292:1 301:1 452:1 507:1 578:1 741:1 
-0.04659281108401164 241:1 291:1 704:1 856:1 
-1 79:1 292:1 924:1 
-0.6158354386400753 255:1 269:1 292:1 
-0.3502985544495391 291:1 856:1 865:1 
-0.2705864547906299 291:1 509:1 621:1 856:1 975:1 
-0.3957178666705485 292:1 333:1 628:1 938:1 
-1 255:1 292:1 398:1 856:1 
-1 291:1 856:1 944:1 
-1 247:1 291:1 465:1 741:1 856:1 938:1 
-0.3355877704915953 260:1 291:1 628:1 856:1 944:1 957:1 
-1 193:1 268:1 291:1 292:1 745:1 856:1 
-0.3908713140322387 247:1 263:1 291:1 465:1 583:1 741:1 856:1 924:1 
-1 268:1 291:1 768:1 846:1 856:1 912:1 
-0.8560520294088297 291:1 495:1 745:1 856:1 931:1 
-0.2134889210322425 124:1 234:1 291:1 815:1 828:1 856:1 
-1 292:1 358:1 896:1 
-0.4666286598704933 49:1 407:1 621:1 
-0.684826829419897 687:1 703:1 874:1 
-1 768:1 
-0.3683974915524969 49:1 134:1 555:1 788:1 
-0.1965284729433085 112:1 795:1 
-0.1200945514202161 313:1 352:1 457:1 924:1 
-0.7844122787495911 481:1 962:1 
-0.142465518867784 626:1 724:1 
-0.4382844070151088 15:1 351:1 
-0.5861026607806061 870:1 
-0.7077041804138807 79:1 
-0.5815562121853891 647:1 688:1 980:1 
-0.7909078018803389 946:1 964:1 
-0.195600977051301 552:1 577:1 
-0.8034715270566916 495:1 847:1 
-1 741:1 865:1 
-0.1721356144605098 276:1 330:1 452:1 
-0.7397969919908393 62:1 271:1 688:1 745:1 772:1 931:1 
-0.4797440111378262 291:1 452:1 578:1 
-1 481:1 
-1 37:1 483:1 936:1 
-1 944:1 
-0.1279117842067989 320:1 452:1 804:1 
-1 452:1 465:1 578:1 
-0.8823959753691525 49:1 92:1 268:1 
-0.5082100161351406 317:1 429:1 704:1 966:1 
-0.5125784232300804 51:1 177:1 261:1 436:1 728:1 
