svm_type c_svc
kernel_type rbf
gamma 0.00101626
nr_class 2
total_sv 368
rho 0.987489
label 1 -1
nr_sv 119 249
SV
1 291:1 317:1 577:1 703:1 856:1 
1 291:1 741:1 745:1 856:1 879:1 892:1 931:1 
1 193:1 291:1 856:1 879:1 892:1 
1 292:1 311:1 578:1 
1 190:1 291:1 622:1 856:1 911:1 912:1 
1 10:1 291:1 801:1 856:1 879:1 892:1 
1 241:1 292:1 452:1 578:1 687:1 690:1 704:1 892:1 
1 254:1 263:1 292:1 530:1 571:1 
1 241:1 291:1 703:1 745:1 856:1 
1 291:1 318:1 628:1 690:1 830:1 856:1 
1 222:1 292:1 745:1 
1 291:1 483:1 856:1 
1 291:1 292:1 351:1 856:1 
1 291:1 741:1 852:1 856:1 
1 241:1 291:1 452:1 578:1 768:1 856:1 892:1 
1 291:1 856:1 938:1 
1 240:1 291:1 292:1 745:1 856:1 
1 291:1 686:1 833:1 856:1 892:1 944:1 
1 222:1 291:1 441:1 856:1 
1 241:1 292:1 693:1 
1 291:1 436:1 855:1 856:1 
1 292:1 454:1 704:1 947:1 
1 292:1 452:1 578:1 944:1 
1 222:1 291:1 856:1 
1 75:1 292:1 
1 16:1 419:1 904:1 944:1 
1 291:1 366:1 452:1 578:1 801:1 856:1 
1 79:1 291:1 688:1 856:1 
1 30:1 160:1 291:1 568:1 745:1 856:1 
1 51:1 291:1 317:1 352:1 452:1 468:1 556:1 578:1 801:1 848:1 856:1 
1 241:1 282:1 291:1 704:1 745:1 760:1 856:1 
1 291:1 687:1 690:1 811:1 856:1 
1 291:1 691:1 824:1 856:1 
1 110:1 292:1 542:1 
1 251:1 255:1 538:1 737:1 785:1 912:1 
1 292:1 452:1 538:1 690:1 
1 291:1 855:1 856:1 
1 108:1 110:1 451:1 555:1 740:1 943:1 
1 291:1 538:1 686:1 856:1 
1 255:1 291:1 827:1 856:1 
1 35:1 247:1 291:1 304:1 621:1 624:1 741:1 855:1 856:1 
1 190:1 237:1 291:1 292:1 452:1 622:1 856:1 931:1 938:1 
1 291:1 538:1 856:1 
1 190:1 291:1 622:1 724:1 856:1 879:1 
1 190:1 291:1 622:1 747:1 833:1 856:1 
1 291:1 352:1 452:1 856:1 931:1 938:1 
1 79:1 291:1 307:1 317:1 495:1 626:1 856:1 
1 291:1 317:1 508:1 555:1 593:1 856:1 
1 291:1 593:1 856:1 879:1 
1 241:1 291:1 856:1 
1 291:1 704:1 800:1 801:1 856:1 
1 247:1 248:1 263:1 291:1 848:1 856:1 
1 291:1 452:1 578:1 856:1 875:1 
1 452:1 578:1 737:1 741:1 
1 267:1 291:1 842:1 856:1 
1 292:1 441:1 452:1 572:1 578:1 650:1 800:1 801:1 944:1 
1 292:1 452:1 495:1 578:1 
1 137:1 291:1 452:1 578:1 704:1 801:1 856:1 
1 291:1 465:1 674:1 785:1 856:1 
1 11:1 12:1 291:1 392:1 856:1 
1 291:1 452:1 578:1 856:1 
1 291:1 555:1 704:1 745:1 856:1 914:1 
1 291:1 555:1 686:1 856:1 914:1 
1 241:1 291:1 424:1 452:1 578:1 856:1 
1 291:1 856:1 
1 291:1 511:1 856:1 
1 263:1 269:1 291:1 465:1 688:1 787:1 856:1 
1 241:1 291:1 441:1 693:1 848:1 856:1 944:1 
1 291:1 452:1 465:1 626:1 772:1 856:1 
1 291:1 856:1 953:1 
1 241:1 291:1 704:1 856:1 
1 241:1 291:1 452:1 578:1 690:1 856:1 
1 241:1 292:1 452:1 462:1 578:1 728:1 924:1 932:1 977:1 
1 291:1 704:1 801:1 856:1 924:1 930:1 932:1 
1 291:1 320:1 541:1 690:1 856:1 
1 46:1 240:1 292:1 452:1 578:1 704:1 
1 291:1 704:1 856:1 924:1 932:1 
1 352:1 436:1 745:1 769:1 833:1 856:1 
1 268:1 291:1 745:1 800:1 801:1 856:1 871:1 
1 292:1 452:1 578:1 838:1 
1 154:1 292:1 301:1 481:1 938:1 
1 241:1 269:1 291:1 292:1 374:1 690:1 856:1 912:1 
1 46:1 240:1 241:1 292:1 452:1 578:1 852:1 944:1 
1 291:1 301:1 465:1 856:1 
1 291:1 307:1 770:1 856:1 
1 10:1 291:1 690:1 801:1 856:1 
1 117:1 268:1 291:1 292:1 745:1 856:1 871:1 
1 62:1 103:1 134:1 291:1 452:1 578:1 856:1 
1 241:1 291:1 856:1 
1 300:1 572:1 
1 270:1 291:1 483:1 690:1 856:1 
1 292:1 452:1 578:1 
1 66:1 
1 292:1 441:1 462:1 585:1 728:1 785:1 888:1 952:1 
1 92:1 291:1 856:1 
1 291:1 301:1 785:1 856:1 
1 48:1 291:1 330:1 749:1 816:1 856:1 
1 292:1 301:1 495:1 688:1 
1 8:1 247:1 320:1 452:1 578:1 704:1 
1 267:1 291:1 301:1 358:1 452:1 455:1 483:1 578:1 785:1 856:1 
1 268:1 291:1 686:1 745:1 856:1 
1 191:1 249:1 268:1 291:1 446:1 745:1 815:1 856:1 
1 291:1 745:1 856:1 
1 10:1 178:1 292:1 452:1 578:1 768:1 801:1 941:1 
1 81:1 120:1 240:1 268:1 292:1 335:1 839:1 
1 73:1 193:1 291:1 292:1 770:1 856:1 
1 268:1 291:1 292:1 690:1 856:1 870:1 970:1 
1 73:1 291:1 745:1 856:1 
1 240:1 690:1 745:1 
1 291:1 347:1 577:1 785:1 815:1 856:1 
1 30:1 291:1 379:1 494:1 856:1 955:1 
1 292:1 745:1 944:1 
1 10:1 268:1 283:1 291:1 352:1 436:1 452:1 578:1 801:1 856:1 
1 117:1 268:1 292:1 452:1 578:1 687:1 690:1 745:1 
1 291:1 801:1 856:1 
1 54:1 436:1 763:1 892:1 
1 54:1 436:1 892:1 893:1 
1 892:1 
1 291:1 436:1 763:1 856:1 893:1 
-0.5026527472128204 240:1 291:1 687:1 704:1 856:1 
-0.3330143211014464 241:1 291:1 848:1 856:1 944:1 
-0.5032585111051695 178:1 291:1 292:1 801:1 856:1 865:1 912:1 
-0.3019344379239393 263:1 291:1 436:1 465:1 495:1 541:1 576:1 856:1 
-0.8460852740485731 291:1 301:1 352:1 436:1 690:1 799:1 856:1 
-0.8301682504743797 222:1 291:1 404:1 626:1 745:1 856:1 
-0.1598477855312868 62:1 269:1 291:1 351:1 465:1 578:1 856:1 931:1 
-0.1624085491000369 54:1 379:1 436:1 467:1 
-0.106385610501093 291:1 292:1 468:1 478:1 690:1 785:1 856:1 
-0.1547563639562082 122:1 291:1 317:1 358:1 452:1 578:1 856:1 
-0.2490713715485352 1:1 30:1 241:1 291:1 292:1 856:1 892:1 
-0.1930772538456686 291:1 292:1 478:1 493:1 704:1 785:1 856:1 943:1 
-0.6987031446668756 267:1 291:1 745:1 760:1 856:1 
-0.2581440118009263 734:1 838:1 
-0.03977242449415574 51:1 291:1 436:1 856:1 892:1 
-0.1904396175839499 100:1 291:1 292:1 577:1 745:1 800:1 801:1 856:1 
-0.7676103514409841 8:1 291:1 483:1 704:1 856:1 
-0.7495257516186691 54:1 465:1 634:1 892:1 
-0.619353478349196 110:1 241:1 269:1 292:1 316:1 892:1 931:1 
-0.2053506079835044 291:1 307:1 495:1 704:1 856:1 916:1 970:1 
-0.2138499996811665 137:1 241:1 291:1 386:1 445:1 745:1 856:1 912:1 
-0.1078936167049035 114:1 171:1 291:1 451:1 740:1 852:1 856:1 893:1 
-1 893:1 
-1 291:1 436:1 452:1 578:1 704:1 856:1 
-0.1400893742020294 291:1 317:1 441:1 644:1 856:1 892:1 
-0.5695027754554827 51:1 241:1 291:1 292:1 690:1 856:1 
-0.0857354247694965 267:1 740:1 785:1 984:1 
-0.8517928981275961 134:1 291:1 452:1 578:1 856:1 944:1 
-0.1076839390704262 190:1 291:1 622:1 856:1 
-0.879987117508328 35:1 291:1 624:1 856:1 
-0.1705419343600126 249:1 291:1 646:1 647:1 768:1 856:1 888:1 
-0.2629599054780523 291:1 352:1 452:1 578:1 816:1 848:1 856:1 
-0.6126124551912588 291:1 856:1 947:1 
-0.2587325776694387 16:1 54:1 241:1 372:1 436:1 452:1 578:1 767:1 
-0.3565805247316552 10:1 111:1 291:1 441:1 801:1 856:1 931:1 941:1 
-0.6473115365473754 291:1 745:1 747:1 856:1 970:1 
-0.1808516957444085 33:1 291:1 686:1 856:1 888:1 
-0.04501536160380228 170:1 247:1 268:1 291:1 317:1 452:1 770:1 833:1 856:1 975:1 
-1 291:1 452:1 455:1 578:1 856:1 
-0.08132444680892507 10:1 51:1 73:1 291:1 627:1 800:1 801:1 856:1 975:1 
-0.2047671445580729 263:1 268:1 291:1 704:1 800:1 801:1 856:1 
-1 291:1 704:1 745:1 856:1 
-0.2448241647699148 291:1 856:1 871:1 911:1 
-1 190:1 291:1 495:1 622:1 856:1 
-0.6744830280488787 283:1 291:1 745:1 801:1 856:1 
-0.8745435420587415 240:1 269:1 291:1 741:1 856:1 941:1 
-0.8454372074656438 291:1 292:1 347:1 626:1 785:1 856:1 
-0.3900983234359899 291:1 352:1 436:1 452:1 856:1 
-0.1496417146810584 241:1 248:1 291:1 292:1 345:1 452:1 467:1 856:1 938:1 
-0.6744532705514295 154:1 292:1 
-0.6669229578306375 190:1 292:1 320:1 622:1 745:1 808:1 892:1 
-0.1288160823978261 267:1 291:1 856:1 
-0.5155482797527864 291:1 511:1 688:1 856:1 
-0.05641210982297749 249:1 291:1 366:1 465:1 586:1 856:1 931:1 
-0.4304972245445173 181:1 249:1 291:1 542:1 801:1 856:1 901:1 
-0.7361466343873948 241:1 282:1 291:1 704:1 745:1 856:1 
-0.309044706429501 292:1 437:1 745:1 760:1 912:1 
-0.1336422974887548 291:1 312:1 626:1 724:1 856:1 
-0.2710231309633183 62:1 291:1 374:1 856:1 
-0.3542098170179392 79:1 160:1 241:1 469:1 816:1 856:1 943:1 
-0.1062184634146428 291:1 431:1 635:1 763:1 771:1 856:1 
-0.2606743815385134 291:1 772:1 856:1 888:1 938:1 
-0.8667658299099734 291:1 608:1 688:1 788:1 855:1 856:1 
-0.1675129477881393 103:1 348:1 
-1 193:1 291:1 856:1 912:1 
-0.1330162751002098 248:1 291:1 441:1 483:1 574:1 632:1 816:1 856:1 
-0.2085534086291128 10:1 250:1 283:1 291:1 587:1 682:1 801:1 853:1 856:1 944:1 
-0.1842349364925203 263:1 291:1 465:1 495:1 856:1 
-0.175148456921763 135:1 267:1 291:1 856:1 870:1 
-0.1507497524829776 291:1 452:1 704:1 770:1 856:1 
-0.2160926073530829 220:1 224:1 252:1 291:1 292:1 452:1 568:1 719:1 856:1 892:1 893:1 975:1 
-1 291:1 770:1 856:1 871:1 911:1 924:1 944:1 
-0.1683385711979254 11:1 12:1 148:1 291:1 579:1 856:1 918:1 919:1 
-0.4734864839079231 247:1 351:1 
-0.7999309072647349 105:1 108:1 117:1 241:1 452:1 483:1 578:1 
-0.1070394699616798 291:1 745:1 856:1 
-0.08318740386965406 292:1 307:1 340:1 943:1 
-0.176356942464313 255:1 291:1 572:1 690:1 816:1 817:1 856:1 
-0.04548990676429529 3:1 81:1 288:1 291:1 320:1 626:1 770:1 839:1 856:1 944:1 
-0.2455753054307258 46:1 65:1 91:1 240:1 291:1 317:1 690:1 856:1 
-0.1335102608413775 270:1 291:1 352:1 510:1 690:1 693:1 856:1 
-0.3543956185693404 240:1 263:1 268:1 291:1 313:1 745:1 848:1 856:1 931:1 938:1 
-0.2547631586114611 16:1 292:1 892:1 951:1 
-0.4913692517944689 291:1 292:1 352:1 745:1 856:1 
-0.1586183373497416 30:1 268:1 291:1 737:1 769:1 782:1 856:1 892:1 
-0.07064135881107991 268:1 291:1 452:1 578:1 703:1 745:1 856:1 927:1 931:1 
-1 268:1 291:1 577:1 745:1 856:1 
-0.5356206969207224 268:1 292:1 452:1 578:1 931:1 
-0.3023287935413257 268:1 291:1 292:1 317:1 745:1 856:1 
-0.8873864075592016 73:1 291:1 856:1 892:1 
-1 292:1 745:1 833:1 
-0.1446972372091727 23:1 255:1 277:1 419:1 
-1 190:1 291:1 320:1 451:1 622:1 745:1 856:1 892:1 
-0.1146637872131081 313:1 465:1 811:1 
-0.3522814998668322 16:1 291:1 541:1 578:1 856:1 
-0.04708781262175999 97:1 291:1 292:1 382:1 520:1 703:1 856:1 
-0.8934640062879097 46:1 66:1 
-0.4114758768193596 292:1 641:1 785:1 977:1 
-0.3041714729620748 2:1 291:1 317:1 785:1 856:1 
-0.2780303668752508 62:1 104:1 283:1 291:1 495:1 856:1 912:1 
-0.6128527318057659 291:1 301:1 374:1 498:1 683:1 856:1 
-1 292:1 452:1 578:1 
-0.5616749848318988 291:1 577:1 856:1 
-0.530214592974546 291:1 419:1 856:1 
-0.9353506247811179 292:1 690:1 704:1 
-0.3148214020397549 103:1 291:1 518:1 856:1 
-0.1806341125353061 291:1 320:1 452:1 578:1 690:1 770:1 856:1 943:1 
-0.2072670873324608 65:1 291:1 704:1 827:1 856:1 
-0.214722539999059 270:1 291:1 452:1 856:1 
-0.4399176390184049 30:1 291:1 568:1 856:1 
-0.6023068030496148 291:1 436:1 441:1 452:1 521:1 745:1 856:1 892:1 
-0.07159381355230542 288:1 291:1 330:1 366:1 554:1 856:1 891:1 
-0.2029169208162514 291:1 424:1 495:1 598:1 688:1 856:1 891:1 
-0.197256312563781 270:1 292:1 439:1 785:1 
-0.6032714740284799 291:1 650:1 856:1 
-1 241:1 291:1 292:1 452:1 578:1 690:1 856:1 
-0.3716433950269528 291:1 441:1 452:1 578:1 585:1 785:1 856:1 
-0.05972927979120263 143:1 291:1 452:1 578:1 748:1 811:1 856:1 
-0.3801297872895102 291:1 306:1 307:1 317:1 441:1 585:1 785:1 856:1 
-0.6508467991534292 291:1 856:1 904:1 
-0.4801592983332024 291:1 693:1 856:1 
-0.4823450050621287 143:1 378:1 462:1 495:1 584:1 688:1 728:1 966:1 977:1 
-0.3236318543241598 81:1 123:1 292:1 307:1 690:1 839:1 
-0.4077552808708704 240:1 241:1 291:1 452:1 468:1 578:1 856:1 908:1 
-0.3754853338106907 291:1 856:1 912:1 924:1 
-0.3133789707789097 129:1 292:1 441:1 585:1 785:1 924:1 
-0.2611931430254982 291:1 452:1 697:1 703:1 856:1 938:1 
-1 292:1 352:1 452:1 578:1 741:1 
-0.2181935397576309 46:1 48:1 81:1 292:1 452:1 578:1 
-0.3324895686264242 30:1 259:1 291:1 330:1 568:1 856:1 
-0.6026490667831297 291:1 556:1 690:1 856:1 
-0.09662942744232608 78:1 291:1 465:1 541:1 578:1 621:1 848:1 856:1 
-0.2962753203981999 292:1 690:1 
-0.7529833745272174 48:1 241:1 267:1 291:1 452:1 578:1 690:1 856:1 
-0.650626648970602 30:1 81:1 291:1 307:1 379:1 406:1 704:1 769:1 842:1 856:1 944:1 
-0.2617114148557896 160:1 291:1 317:1 441:1 856:1 
-0.3646690642542284 241:1 268:1 291:1 703:1 745:1 824:1 856:1 
-0.2065231399451754 292:1 628:1 801:1 
-0.4587635268750392 291:1 436:1 797:1 801:1 848:1 856:1 924:1 953:1 
-0.1898104225985525 241:1 291:1 704:1 747:1 789:1 856:1 871:1 938:1 
-0.7548420865998509 241:1 292:1 452:1 578:1 
-1 190:1 237:1 291:1 452:1 578:1 622:1 856:1 
-1 291:1 703:1 856:1 
-0.6372901742687018 60:1 688:1 763:1 
-1 737:1 892:1 
-0.3121534861073425 240:1 241:1 291:1 292:1 452:1 494:1 578:1 686:1 800:1 801:1 806:1 856:1 955:1 
-0.2809639798096819 291:1 686:1 856:1 931:1 
-0.566778088942875 291:1 772:1 824:1 856:1 
-0.1386177743789054 241:1 291:1 358:1 452:1 578:1 768:1 770:1 856:1 
-0.6863525629544711 241:1 292:1 366:1 686:1 938:1 
-0.4383250151681012 10:1 291:1 397:1 801:1 856:1 936:1 
-0.1509204311747077 292:1 358:1 452:1 578:1 874:1 
-1 10:1 291:1 801:1 856:1 
-0.7096875642743528 291:1 452:1 578:1 686:1 856:1 
-0.06302697397430723 291:1 352:1 452:1 494:1 578:1 801:1 856:1 955:1 
-0.5286331803459264 254:1 292:1 429:1 530:1 770:1 931:1 953:1 
-0.6870599129113449 291:1 494:1 801:1 856:1 955:1 
-0.731017881548192 291:1 452:1 578:1 686:1 768:1 856:1 
-0.2408397445046789 46:1 241:1 291:1 317:1 856:1 942:1 944:1 
-0.520938590729828 270:1 291:1 292:1 745:1 856:1 944:1 
-0.9142645752305035 268:1 292:1 745:1 
-0.2459821301591231 193:1 268:1 292:1 704:1 745:1 
-1 241:1 268:1 291:1 292:1 704:1 745:1 800:1 801:1 856:1 
-0.2459779324445857 268:1 292:1 529:1 572:1 704:1 801:1 
-1 240:1 241:1 291:1 452:1 852:1 856:1 938:1 
-0.8577606345069726 207:1 268:1 291:1 856:1 896:1 932:1 
-0.1737086371933823 46:1 291:1 856:1 
-1 291:1 801:1 856:1 930:1 
-0.5761835685837579 12:1 291:1 856:1 
-0.5576254625802307 178:1 291:1 436:1 481:1 833:1 856:1 
-0.8810686957837399 291:1 446:1 452:1 571:1 578:1 856:1 
-0.8075939083707885 291:1 628:1 690:1 830:1 856:1 
-1 92:1 291:1 745:1 856:1 
-0.1862118569456233 291:1 292:1 452:1 578:1 639:1 848:1 856:1 944:1 
-0.785277460000941 291:1 452:1 578:1 856:1 
-0.155240458199747 291:1 556:1 632:1 745:1 800:1 801:1 856:1 944:1 959:1 
-1 10:1 291:1 416:1 801:1 856:1 
-0.7804370206110514 222:1 276:1 291:1 621:1 856:1 
-0.835581696713017 73:1 79:1 240:1 241:1 291:1 452:1 578:1 856:1 
-0.524109839286157 241:1 292:1 466:1 687:1 690:1 704:1 728:1 
-1 291:1 483:1 856:1 
-1 291:1 785:1 856:1 
-0.7641746787434973 291:1 833:1 856:1 
-0.4981399886666886 108:1 110:1 167:1 291:1 686:1 741:1 856:1 
-0.1185359955022584 177:1 291:1 392:1 676:1 856:1 938:1 
-0.3196841849785957 191:1 291:1 452:1 578:1 856:1 
-0.2085363006467146 291:1 741:1 852:1 856:1 
-0.282401154593309 33:1 222:1 262:1 291:1 452:1 578:1 856:1 
-1 292:1 452:1 578:1 690:1 
-0.1404900835192479 271:1 282:1 291:1 452:1 578:1 745:1 800:1 801:1 856:1 
-0.06268365701164537 53:1 91:1 117:1 273:1 291:1 676:1 780:1 856:1 
-0.114263390543802 328:1 481:1 801:1 846:1 
-1 291:1 292:1 690:1 856:1 
-0.3143189980421466 291:1 358:1 398:1 686:1 856:1 
-0.374806060128145 9:1 47:1 292:1 304:1 468:1 745:1 944:1 
-1 291:1 801:1 856:1 
-0.1839643655494825 73:1 292:1 452:1 578:1 704:1 944:1 
-0.1488915878692462 79:1 247:1 291:1 307:1 856:1 931:1 
-0.2190697351122457 291:1 317:1 745:1 856:1 
-1 291:1 317:1 856:1 
-0.2495143273286419 292:1 317:1 436:1 511:1 552:1 690:1 
-0.08039581068610802 78:1 291:1 690:1 785:1 856:1 
-1 255:1 292:1 452:1 578:1 704:1 938:1 
-0.5458143667657961 137:1 241:1 291:1 452:1 578:1 856:1 
-0.1396101765360269 291:1 347:1 452:1 578:1 768:1 856:1 
-0.1015550653044321 89:1 241:1 291:1 292:1 317:1 351:1 745:1 856:1 938:1 
-0.2146160195706219 291:1 317:1 856:1 
-0.2859977868880396 291:1 495:1 688:1 785:1 829:1 856:1 
-0.8833943768606034 292:1 300:1 
-0.1522418842542129 291:1 483:1 856:1 
-0.1941857888057816 57:1 291:1 292:1 431:1 737:1 745:1 763:1 771:1 856:1 926:1 
-0.1913923143878825 241:1 248:1 292:1 
-1 291:1 693:1 856:1 
-0.0822039621730149 22:1 291:1 542:1 856:1 
-0.2110694512886928 110:1 291:1 473:1 856:1 
-0.1531791793902542 79:1 160:1 291:1 352:1 856:1 
-1 263:1 291:1 465:1 787:1 856:1 
-1 292:1 452:1 578:1 687:1 690:1 704:1 
-1 441:1 538:1 800:1 801:1 944:1 
-1 436:1 892:1 
-1 247:1 292:1 555:1 740:1 
-0.1126135924407984 190:1 291:1 451:1 622:1 690:1 747:1 856:1 892:1 
-1 291:1 856:1 892:1 
-0.823643057535687 291:1 318:1 572:1 768:1 856:1 
-1 268:1 291:1 509:1 555:1 690:1 856:1 914:1 
-0.7523874860568152 241:1 291:1 311:1 452:1 572:1 578:1 848:1 856:1 
-0.7315142278797536 292:1 352:1 452:1 578:1 691:1 737:1 
-0.1808342416754569 54:1 73:1 291:1 355:1 800:1 801:1 856:1 
-0.4453699685486793 120:1 291:1 335:1 806:1 856:1 
-0.8797284888792237 247:1 291:1 856:1 
-1 291:1 301:1 856:1 
-0.4812075881306012 292:1 441:1 833:1 848:1 944:1 
-0.5747590220918216 191:1 239:1 291:1 852:1 856:1 944:1 952:1 
-1 292:1 301:1 452:1 507:1 578:1 741:1 
-0.4236574635678418 79:1 292:1 924:1 
-0.3921402683907524 255:1 269:1 292:1 
-0.7065838414682525 193:1 268:1 291:1 292:1 745:1 856:1 
-0.2840228309156321 247:1 263:1 291:1 465:1 583:1 741:1 856:1 924:1 
-0.3867575492787891 124:1 234:1 291:1 815:1 828:1 856:1 
-0.1743921568050569 49:1 134:1 555:1 788:1 
-0.2773791354687413 626:1 724:1 
-0.3920221691367032 263:1 
-0.4709080609184157 870:1 
-0.1439149429599164 248:1 
-1 452:1 465:1 578:1 
-0.2067741201840007 301:1 804:1 842:1 966:1 
-0.1578325141374209 279:1 306:1 469:1 555:1 
-1 687:1 785:1 
-0.172116477756468 51:1 177:1 261:1 436:1 728:1 
