svm_type c_svc
kernel_type rbf
gamma 0.00101626
nr_class 2
total_sv 733
rho 0.953914
label 1 -1
nr_sv 275 458
SV
1 291:1 317:1 577:1 703:1 856:1 
1 270:1 291:1 292:1 745:1 856:1 944:1 
1 79:1 268:1 291:1 529:1 745:1 856:1 
1 241:1 268:1 291:1 452:1 745:1 856:1 938:1 
1 33:1 291:1 627:1 745:1 817:1 830:1 856:1 888:1 941:1 
1 268:1 291:1 345:1 745:1 856:1 944:1 
1 268:1 292:1 745:1 
1 167:1 291:1 688:1 769:1 856:1 865:1 944:1 
1 292:1 745:1 936:1 
1 73:1 268:1 291:1 745:1 823:1 856:1 
1 268:1 291:1 856:1 
1 193:1 268:1 292:1 704:1 745:1 
1 241:1 268:1 291:1 292:1 704:1 745:1 800:1 801:1 856:1 
1 58:1 73:1 268:1 269:1 292:1 770:1 944:1 968:1 
1 52:1 172:1 291:1 381:1 690:1 722:1 856:1 
1 291:1 352:1 452:1 578:1 688:1 846:1 856:1 
1 291:1 745:1 856:1 975:1 
1 268:1 292:1 529:1 572:1 704:1 801:1 
1 161:1 291:1 690:1 800:1 801:1 856:1 930:1 
1 268:1 292:1 690:1 
1 268:1 291:1 690:1 745:1 852:1 856:1 
1 30:1 268:1 291:1 745:1 807:1 856:1 
1 284:1 289:1 292:1 920:1 944:1 
1 58:1 268:1 291:1 345:1 452:1 741:1 856:1 931:1 938:1 
1 291:1 856:1 922:1 946:1 
1 291:1 457:1 847:1 856:1 
1 291:1 352:1 452:1 495:1 856:1 938:1 
1 207:1 268:1 291:1 856:1 896:1 932:1 
1 212:1 239:1 268:1 292:1 306:1 441:1 
1 193:1 268:1 291:1 452:1 578:1 745:1 856:1 
1 268:1 291:1 704:1 745:1 853:1 856:1 
1 33:1 291:1 515:1 856:1 964:1 
1 291:1 345:1 441:1 856:1 931:1 944:1 
1 241:1 291:1 800:1 801:1 856:1 
1 291:1 856:1 931:1 
1 291:1 801:1 856:1 930:1 
1 30:1 292:1 931:1 
1 30:1 494:1 568:1 800:1 801:1 931:1 955:1 
1 178:1 291:1 436:1 481:1 833:1 856:1 
1 291:1 303:1 639:1 690:1 745:1 856:1 
1 291:1 639:1 704:1 824:1 856:1 
1 268:1 291:1 745:1 830:1 856:1 
1 291:1 604:1 801:1 856:1 
1 291:1 446:1 452:1 571:1 578:1 856:1 
1 291:1 628:1 690:1 830:1 856:1 
1 292:1 639:1 687:1 690:1 704:1 848:1 931:1 944:1 
1 247:1 286:1 452:1 578:1 829:1 
1 49:1 291:1 318:1 687:1 856:1 
1 291:1 856:1 926:1 
1 291:1 452:1 578:1 856:1 
1 177:1 291:1 436:1 856:1 
1 291:1 856:1 936:1 
1 78:1 291:1 452:1 578:1 856:1 944:1 
1 151:1 291:1 452:1 578:1 856:1 
1 190:1 441:1 572:1 622:1 847:1 936:1 
1 291:1 816:1 856:1 936:1 
1 101:1 151:1 292:1 355:1 670:1 941:1 
1 10:1 291:1 416:1 801:1 856:1 
1 
1 241:1 247:1 291:1 704:1 848:1 856:1 944:1 
1 73:1 79:1 240:1 241:1 291:1 452:1 578:1 856:1 
1 241:1 292:1 466:1 687:1 690:1 704:1 728:1 
1 238:1 291:1 346:1 856:1 865:1 
1 291:1 856:1 
1 291:1 509:1 686:1 856:1 936:1 
1 116:1 416:1 437:1 631:1 869:1 936:1 957:1 
1 291:1 856:1 936:1 
1 291:1 452:1 578:1 671:1 856:1 
1 241:1 291:1 441:1 745:1 856:1 911:1 
1 291:1 308:1 404:1 768:1 856:1 936:1 
1 66:1 178:1 270:1 291:1 416:1 856:1 
1 291:1 800:1 801:1 856:1 878:1 944:1 
1 291:1 416:1 686:1 856:1 936:1 
1 177:1 308:1 320:1 404:1 926:1 
1 50:1 178:1 291:1 416:1 558:1 565:1 856:1 
1 119:1 800:1 801:1 
1 262:1 291:1 806:1 856:1 
1 291:1 856:1 865:1 931:1 
1 291:1 452:1 578:1 856:1 931:1 
1 108:1 110:1 167:1 291:1 686:1 741:1 856:1 
1 177:1 291:1 392:1 676:1 856:1 938:1 
1 291:1 452:1 515:1 578:1 676:1 741:1 770:1 856:1 944:1 
1 80:1 109:1 241:1 291:1 704:1 745:1 856:1 
1 112:1 291:1 676:1 741:1 856:1 
1 142:1 241:1 291:1 676:1 704:1 745:1 800:1 801:1 856:1 
1 241:1 292:1 621:1 936:1 943:1 
1 291:1 518:1 690:1 856:1 
1 291:1 467:1 676:1 856:1 
1 249:1 352:1 676:1 808:1 
1 271:1 282:1 291:1 452:1 578:1 745:1 800:1 801:1 856:1 
1 53:1 91:1 117:1 273:1 291:1 676:1 780:1 856:1 
1 80:1 109:1 292:1 687:1 690:1 704:1 
1 328:1 481:1 801:1 846:1 
1 191:1 292:1 676:1 741:1 
1 473:1 944:1 
1 291:1 352:1 452:1 578:1 856:1 
1 292:1 352:1 686:1 768:1 
1 291:1 358:1 398:1 686:1 856:1 
1 291:1 741:1 856:1 
1 50:1 191:1 291:1 676:1 741:1 856:1 944:1 
1 291:1 452:1 578:1 671:1 856:1 
1 9:1 47:1 292:1 304:1 468:1 745:1 944:1 
1 292:1 452:1 578:1 676:1 741:1 
1 112:1 142:1 193:1 291:1 576:1 676:1 741:1 856:1 
1 247:1 291:1 452:1 578:1 676:1 687:1 741:1 856:1 
1 241:1 291:1 364:1 379:1 745:1 800:1 801:1 856:1 
1 292:1 457:1 
1 291:1 632:1 856:1 968:1 
1 142:1 291:1 676:1 741:1 856:1 
1 73:1 
1 73:1 291:1 800:1 801:1 856:1 
1 291:1 687:1 741:1 856:1 
1 291:1 676:1 741:1 856:1 
1 291:1 452:1 578:1 671:1 856:1 
1 73:1 108:1 291:1 406:1 741:1 856:1 
1 241:1 291:1 591:1 704:1 745:1 856:1 
1 73:1 292:1 452:1 578:1 704:1 944:1 
1 241:1 291:1 452:1 856:1 931:1 
1 291:1 806:1 808:1 856:1 
1 73:1 291:1 317:1 856:1 
1 291:1 743:1 856:1 
1 73:1 193:1 241:1 291:1 452:1 578:1 856:1 
1 291:1 317:1 856:1 
1 22:1 241:1 271:1 291:1 577:1 637:1 745:1 856:1 943:1 
1 292:1 317:1 436:1 511:1 552:1 690:1 
1 78:1 291:1 690:1 785:1 856:1 
1 255:1 292:1 452:1 578:1 704:1 938:1 
1 241:1 291:1 313:1 452:1 578:1 856:1 944:1 
1 137:1 241:1 291:1 452:1 578:1 856:1 
1 178:1 291:1 856:1 
1 291:1 616:1 784:1 856:1 938:1 
1 137:1 241:1 291:1 452:1 578:1 856:1 
1 247:1 292:1 626:1 
1 241:1 291:1 704:1 848:1 856:1 944:1 
1 291:1 347:1 452:1 578:1 768:1 856:1 
1 283:1 291:1 435:1 778:1 816:1 856:1 
1 292:1 676:1 847:1 
1 292:1 553:1 800:1 801:1 
1 111:1 292:1 452:1 590:1 
1 292:1 641:1 938:1 
1 241:1 291:1 313:1 687:1 856:1 926:1 931:1 
1 73:1 241:1 291:1 690:1 800:1 801:1 856:1 
1 241:1 291:1 704:1 745:1 856:1 
1 241:1 291:1 591:1 690:1 745:1 856:1 
1 73:1 79:1 292:1 452:1 578:1 
1 112:1 193:1 291:1 468:1 847:1 856:1 938:1 
1 173:1 268:1 292:1 703:1 
1 178:1 291:1 345:1 631:1 688:1 768:1 856:1 
1 241:1 291:1 292:1 687:1 690:1 745:1 856:1 
1 292:1 300:1 
1 116:1 291:1 397:1 770:1 856:1 
1 291:1 452:1 578:1 856:1 966:1 
1 291:1 856:1 938:1 
1 291:1 646:1 647:1 856:1 
1 291:1 745:1 768:1 856:1 
1 241:1 269:1 291:1 690:1 848:1 856:1 944:1 
1 291:1 741:1 745:1 856:1 879:1 892:1 931:1 
1 193:1 291:1 856:1 879:1 892:1 
1 292:1 311:1 578:1 
1 190:1 291:1 622:1 856:1 911:1 912:1 
1 10:1 291:1 801:1 856:1 879:1 892:1 
1 241:1 292:1 452:1 578:1 687:1 690:1 704:1 892:1 
1 254:1 263:1 292:1 530:1 571:1 
1 241:1 291:1 703:1 745:1 856:1 
1 291:1 318:1 628:1 690:1 830:1 856:1 
1 222:1 292:1 745:1 
1 291:1 483:1 856:1 
1 33:1 291:1 676:1 688:1 856:1 
1 291:1 292:1 351:1 856:1 
1 291:1 741:1 852:1 856:1 
1 241:1 291:1 452:1 578:1 768:1 856:1 892:1 
1 291:1 856:1 938:1 
1 240:1 291:1 292:1 745:1 856:1 
1 291:1 686:1 833:1 856:1 892:1 944:1 
1 222:1 291:1 441:1 856:1 
1 241:1 292:1 693:1 
1 291:1 436:1 855:1 856:1 
1 292:1 454:1 704:1 947:1 
1 292:1 452:1 578:1 944:1 
1 222:1 291:1 856:1 
1 75:1 292:1 
1 16:1 419:1 904:1 944:1 
1 291:1 366:1 452:1 578:1 801:1 856:1 
1 79:1 291:1 688:1 856:1 
1 30:1 160:1 291:1 568:1 745:1 856:1 
1 51:1 291:1 317:1 352:1 452:1 468:1 556:1 578:1 801:1 848:1 856:1 
1 241:1 282:1 291:1 704:1 745:1 760:1 856:1 
1 291:1 687:1 690:1 811:1 856:1 
1 291:1 691:1 824:1 856:1 
1 110:1 292:1 542:1 
1 251:1 255:1 538:1 737:1 785:1 912:1 
1 292:1 452:1 538:1 690:1 
1 291:1 855:1 856:1 
1 108:1 110:1 451:1 555:1 740:1 943:1 
1 291:1 538:1 686:1 856:1 
1 255:1 291:1 827:1 856:1 
1 35:1 247:1 291:1 304:1 621:1 624:1 741:1 855:1 856:1 
1 190:1 237:1 291:1 292:1 452:1 622:1 856:1 931:1 938:1 
1 291:1 538:1 856:1 
1 190:1 291:1 622:1 724:1 856:1 879:1 
1 190:1 291:1 622:1 747:1 833:1 856:1 
1 291:1 352:1 452:1 856:1 931:1 938:1 
1 79:1 291:1 307:1 317:1 495:1 626:1 856:1 
1 291:1 317:1 508:1 555:1 593:1 856:1 
1 291:1 593:1 856:1 879:1 
1 241:1 291:1 856:1 
1 291:1 704:1 800:1 801:1 856:1 
1 247:1 248:1 263:1 291:1 848:1 856:1 
1 291:1 452:1 578:1 856:1 875:1 
1 452:1 578:1 737:1 741:1 
1 267:1 291:1 842:1 856:1 
1 292:1 441:1 452:1 572:1 578:1 650:1 800:1 801:1 944:1 
1 292:1 452:1 495:1 578:1 
1 137:1 291:1 452:1 578:1 704:1 801:1 856:1 
1 291:1 465:1 674:1 785:1 856:1 
1 11:1 12:1 291:1 392:1 856:1 
1 291:1 452:1 578:1 856:1 
1 291:1 555:1 704:1 745:1 856:1 914:1 
1 291:1 555:1 686:1 856:1 914:1 
1 241:1 291:1 424:1 452:1 578:1 856:1 
1 291:1 856:1 
1 291:1 511:1 856:1 
1 263:1 269:1 291:1 465:1 688:1 787:1 856:1 
1 241:1 291:1 441:1 693:1 848:1 856:1 944:1 
1 291:1 452:1 465:1 626:1 772:1 856:1 
1 291:1 856:1 953:1 
1 241:1 291:1 704:1 856:1 
1 241:1 291:1 452:1 578:1 690:1 856:1 
1 241:1 292:1 452:1 462:1 578:1 728:1 924:1 932:1 977:1 
1 291:1 704:1 801:1 856:1 924:1 930:1 932:1 
1 291:1 320:1 541:1 690:1 856:1 
1 46:1 240:1 292:1 452:1 578:1 704:1 
1 291:1 704:1 856:1 924:1 932:1 
1 352:1 436:1 745:1 769:1 833:1 856:1 
1 268:1 291:1 745:1 800:1 801:1 856:1 871:1 
1 292:1 452:1 578:1 838:1 
1 154:1 292:1 301:1 481:1 938:1 
1 241:1 269:1 291:1 292:1 374:1 690:1 856:1 912:1 
1 46:1 240:1 241:1 292:1 452:1 578:1 852:1 944:1 
1 291:1 301:1 465:1 856:1 
1 291:1 307:1 770:1 856:1 
1 10:1 291:1 690:1 801:1 856:1 
1 117:1 268:1 291:1 292:1 745:1 856:1 871:1 
1 62:1 103:1 134:1 291:1 452:1 578:1 856:1 
1 241:1 291:1 856:1 
1 300:1 572:1 
1 270:1 291:1 483:1 690:1 856:1 
1 292:1 452:1 578:1 
1 66:1 
1 292:1 441:1 462:1 585:1 728:1 785:1 888:1 952:1 
1 92:1 291:1 856:1 
1 291:1 301:1 785:1 856:1 
1 48:1 291:1 330:1 749:1 816:1 856:1 
1 292:1 301:1 495:1 688:1 
1 8:1 247:1 320:1 452:1 578:1 704:1 
1 267:1 291:1 301:1 358:1 452:1 455:1 483:1 578:1 785:1 856:1 
1 268:1 291:1 686:1 745:1 856:1 
1 191:1 249:1 268:1 291:1 446:1 745:1 815:1 856:1 
1 291:1 745:1 856:1 
1 10:1 178:1 292:1 452:1 578:1 768:1 801:1 941:1 
1 81:1 120:1 240:1 268:1 292:1 335:1 839:1 
1 73:1 193:1 291:1 292:1 770:1 856:1 
1 268:1 291:1 292:1 690:1 856:1 870:1 970:1 
1 73:1 291:1 745:1 856:1 
1 240:1 690:1 745:1 
1 291:1 347:1 577:1 785:1 815:1 856:1 
1 30:1 291:1 379:1 494:1 856:1 955:1 
1 292:1 745:1 944:1 
1 10:1 268:1 283:1 291:1 352:1 436:1 452:1 578:1 801:1 856:1 
1 117:1 268:1 292:1 452:1 578:1 687:1 690:1 745:1 
1 291:1 801:1 856:1 
1 54:1 436:1 763:1 892:1 
1 54:1 436:1 892:1 893:1 
1 892:1 
1 291:1 436:1 763:1 856:1 893:1 
-0.1890407927862186 193:1 291:1 436:1 646:1 647:1 748:1 856:1 970:1 
-1 240:1 291:1 687:1 704:1 856:1 
-1 142:1 291:1 856:1 
-0.1350019750607804 291:1 436:1 452:1 578:1 856:1 
-1 292:1 
-0.4003497770633073 2:1 9:1 291:1 304:1 441:1 679:1 856:1 
-1 291:1 686:1 856:1 936:1 
-0.08630900266813346 73:1 141:1 291:1 317:1 495:1 687:1 856:1 926:1 
-0.6614107824222558 58:1 178:1 263:1 291:1 856:1 912:1 
-1 178:1 291:1 515:1 856:1 912:1 
-0.599546751117253 241:1 291:1 441:1 452:1 578:1 687:1 704:1 747:1 852:1 856:1 944:1 
-0.2983621870952967 291:1 317:1 495:1 856:1 
-1 178:1 291:1 292:1 801:1 856:1 865:1 912:1 
-0.07133736211869858 58:1 207:1 291:1 461:1 741:1 856:1 
-0.710345351032291 291:1 301:1 352:1 436:1 690:1 799:1 856:1 
-1 190:1 291:1 320:1 622:1 676:1 856:1 
-0.1135104617055819 33:1 112:1 190:1 291:1 622:1 856:1 
-0.3838210481394209 222:1 291:1 404:1 626:1 745:1 856:1 
-0.2707985066136418 263:1 291:1 511:1 687:1 856:1 931:1 
-0.545695966036233 54:1 379:1 436:1 467:1 
-0.3114474319369347 241:1 352:1 416:1 452:1 558:1 578:1 926:1 
-0.8532970664817208 137:1 192:1 247:1 634:1 944:1 
-0.925544012169211 291:1 292:1 468:1 478:1 690:1 785:1 856:1 
-0.08216353388218343 44:1 83:1 157:1 241:1 291:1 577:1 745:1 800:1 801:1 847:1 856:1 
-1 50:1 291:1 352:1 856:1 944:1 
-0.4413739311571934 285:1 292:1 452:1 
-0.8569437950973082 291:1 436:1 452:1 578:1 704:1 856:1 
-0.4124657795025489 291:1 438:1 704:1 801:1 856:1 
-0.7735237461233802 267:1 291:1 745:1 760:1 856:1 
-0.2151214397843055 241:1 291:1 690:1 856:1 924:1 
-0.267607109615685 190:1 291:1 622:1 722:1 856:1 
-0.3084946772803143 734:1 838:1 
-1 78:1 346:1 892:1 
-1 79:1 291:1 687:1 856:1 
-0.2607397320198224 241:1 292:1 452:1 578:1 687:1 877:1 
-0.05600041640218329 289:1 291:1 452:1 476:1 578:1 688:1 699:1 847:1 856:1 
-1 52:1 241:1 291:1 292:1 704:1 856:1 
-0.7575097129287367 8:1 291:1 483:1 704:1 856:1 
-0.2041288174487729 291:1 313:1 345:1 441:1 483:1 856:1 944:1 
-0.7505899555393488 291:1 690:1 745:1 856:1 
-1 291:1 436:1 452:1 578:1 704:1 856:1 
-0.4017400786079672 50:1 173:1 291:1 770:1 856:1 
-0.3769497883381406 291:1 541:1 577:1 604:1 856:1 
-0.8241649044197219 110:1 241:1 269:1 292:1 316:1 892:1 931:1 
-1 73:1 241:1 282:1 291:1 452:1 578:1 687:1 704:1 856:1 
-0.1862580830804705 46:1 291:1 364:1 398:1 626:1 856:1 
-0.2613154313912445 73:1 291:1 358:1 576:1 687:1 856:1 
-0.471257253319968 137:1 241:1 291:1 386:1 445:1 745:1 856:1 912:1 
-1 291:1 452:1 578:1 848:1 856:1 944:1 
-1 73:1 291:1 452:1 578:1 856:1 
-0.3611144134446997 291:1 690:1 856:1 
-0.3057556539291768 151:1 291:1 602:1 722:1 833:1 856:1 
-0.2663850448974155 161:1 162:1 291:1 690:1 745:1 856:1 
-0.2262188106368119 84:1 374:1 441:1 944:1 
-0.266196019992281 241:1 452:1 578:1 916:1 944:1 
-1 241:1 291:1 690:1 745:1 856:1 
-0.235877174017239 291:1 292:1 704:1 856:1 
-0.2769755216734702 193:1 291:1 351:1 608:1 770:1 800:1 801:1 856:1 944:1 
-0.05618152644103758 58:1 66:1 241:1 247:1 291:1 292:1 856:1 
-0.1910296402899388 240:1 241:1 268:1 291:1 495:1 541:1 806:1 808:1 856:1 
-0.538309663708695 291:1 345:1 856:1 865:1 944:1 
-1 241:1 292:1 452:1 578:1 687:1 
-1 291:1 632:1 830:1 856:1 926:1 931:1 938:1 
-0.1255927552558027 206:1 291:1 307:1 452:1 578:1 856:1 
-0.3354499520332072 291:1 314:1 375:1 452:1 578:1 690:1 741:1 856:1 
-1 291:1 436:1 452:1 578:1 704:1 856:1 
-0.9604544334197598 241:1 269:1 452:1 578:1 741:1 931:1 
-1 893:1 
-0.00467831821221032 268:1 291:1 668:1 687:1 833:1 856:1 938:1 
-0.1195390036543286 291:1 292:1 452:1 578:1 630:1 690:1 856:1 
-0.4172919284228352 292:1 306:1 892:1 957:1 
-1 241:1 291:1 690:1 745:1 856:1 
-1 291:1 452:1 578:1 856:1 
-0.09935907678399417 213:1 253:1 267:1 291:1 434:1 741:1 856:1 930:1 
-0.4753750703602527 178:1 278:1 291:1 568:1 831:1 856:1 
-1 291:1 436:1 452:1 578:1 704:1 856:1 
-0.109905778058477 267:1 740:1 785:1 984:1 
-0.1265318310929594 73:1 240:1 269:1 291:1 856:1 
-1 112:1 291:1 452:1 578:1 856:1 
-0.5364801583001395 291:1 452:1 578:1 800:1 801:1 807:1 856:1 930:1 
-0.832186614081817 35:1 291:1 624:1 856:1 
-0.1372505735408106 291:1 816:1 848:1 856:1 
-0.4507679101548238 291:1 404:1 541:1 621:1 856:1 
-0.13273392943256 36:1 284:1 292:1 381:1 576:1 585:1 920:1 953:1 
-0.8519930627228084 249:1 291:1 646:1 647:1 768:1 856:1 888:1 
-0.7445482620951182 291:1 352:1 452:1 578:1 816:1 848:1 856:1 
-1 134:1 193:1 291:1 381:1 768:1 847:1 856:1 
-0.5746384885516052 291:1 856:1 947:1 
-0.1178371094548046 16:1 54:1 241:1 372:1 436:1 452:1 578:1 767:1 
-1 66:1 268:1 270:1 291:1 745:1 856:1 
-0.1829524855035326 16:1 241:1 291:1 745:1 856:1 941:1 
-1 10:1 111:1 291:1 441:1 801:1 856:1 931:1 941:1 
-0.2447235687161498 30:1 265:1 291:1 435:1 806:1 856:1 
-0.4875994626190446 33:1 291:1 686:1 856:1 888:1 
-0.2860271366535253 170:1 247:1 268:1 291:1 317:1 452:1 770:1 833:1 856:1 975:1 
-0.8720241859799418 291:1 452:1 455:1 578:1 856:1 
-0.844404002554788 10:1 51:1 73:1 291:1 627:1 800:1 801:1 856:1 975:1 
-0.1767781303354028 268:1 291:1 540:1 647:1 690:1 856:1 
-0.1034777486355207 268:1 291:1 436:1 779:1 856:1 
-0.5112491820015507 16:1 193:1 241:1 252:1 268:1 291:1 610:1 856:1 
-1 263:1 268:1 291:1 704:1 800:1 801:1 856:1 
-1 291:1 704:1 745:1 856:1 
-0.2997241344225024 73:1 291:1 687:1 800:1 801:1 856:1 943:1 944:1 
-0.2948329876246252 66:1 291:1 366:1 416:1 453:1 816:1 856:1 
-0.1230000696774328 22:1 190:1 237:1 291:1 622:1 856:1 
-0.2483101696951874 119:1 256:1 373:1 
-0.1930849106904441 241:1 291:1 745:1 847:1 856:1 
-1 291:1 626:1 639:1 741:1 745:1 856:1 
-0.9971737650803021 291:1 745:1 784:1 856:1 
-1 283:1 291:1 745:1 801:1 856:1 
-1 240:1 269:1 291:1 741:1 856:1 941:1 
-1 240:1 291:1 416:1 690:1 745:1 856:1 
-0.5340701652213131 241:1 291:1 704:1 745:1 747:1 856:1 
-1 241:1 291:1 704:1 745:1 800:1 801:1 856:1 
-1 241:1 291:1 704:1 745:1 856:1 
-0.5982289070999238 241:1 268:1 291:1 473:1 704:1 856:1 
-1 207:1 291:1 317:1 465:1 585:1 676:1 798:1 856:1 
-1 292:1 303:1 416:1 572:1 892:1 
-0.2476659805798893 190:1 291:1 292:1 622:1 856:1 
-0.5325222193154867 268:1 291:1 856:1 931:1 
-0.3230860242455627 86:1 108:1 291:1 452:1 578:1 856:1 892:1 
-1 291:1 292:1 347:1 626:1 785:1 856:1 
-0.05443664170053253 241:1 291:1 441:1 452:1 578:1 704:1 848:1 856:1 931:1 944:1 
-0.2942322999866016 291:1 352:1 436:1 452:1 856:1 
-0.586247035093606 241:1 248:1 291:1 292:1 345:1 452:1 467:1 856:1 938:1 
-1 154:1 292:1 
-0.2230482091654992 468:1 847:1 931:1 
-1 190:1 292:1 320:1 622:1 745:1 808:1 892:1 
-1 291:1 511:1 688:1 856:1 
-0.1453180909934096 241:1 291:1 743:1 745:1 853:1 856:1 
-1 177:1 291:1 690:1 856:1 
-0.1594759627429691 177:1 291:1 576:1 856:1 944:1 
-1 241:1 291:1 704:1 745:1 853:1 856:1 
-0.3167267326598011 282:1 291:1 292:1 572:1 816:1 847:1 856:1 
-0.6234655243796006 249:1 291:1 856:1 
-1 291:1 745:1 856:1 
-0.6990579770551758 283:1 291:1 687:1 704:1 856:1 938:1 
-0.3143606045300718 181:1 249:1 291:1 542:1 801:1 856:1 901:1 
-1 241:1 282:1 291:1 704:1 745:1 856:1 
-1 291:1 452:1 578:1 856:1 
-0.06757483626442842 71:1 241:1 291:1 293:1 704:1 745:1 856:1 
-0.0008288708351659665 79:1 160:1 241:1 469:1 816:1 856:1 943:1 
-0.2101880520846111 291:1 431:1 635:1 763:1 771:1 856:1 
-0.3476783848123102 291:1 772:1 856:1 888:1 938:1 
-0.5630878187939625 291:1 608:1 688:1 788:1 855:1 856:1 
-0.2881568567432838 292:1 518:1 
-0.09671613880777519 73:1 241:1 300:1 317:1 348:1 441:1 687:1 938:1 
-0.5981634433227949 291:1 441:1 856:1 944:1 
-0.1868616439525631 10:1 250:1 283:1 291:1 587:1 682:1 801:1 853:1 856:1 944:1 
-0.1003395208749787 230:1 291:1 452:1 626:1 856:1 
-0.251742793857642 292:1 
-1 291:1 745:1 856:1 
-0.4648178401588649 241:1 291:1 300:1 348:1 704:1 745:1 856:1 
-1 116:1 291:1 856:1 
-0.4254598435072223 292:1 300:1 348:1 
-1 291:1 452:1 578:1 856:1 
-0.2698818731765903 241:1 291:1 312:1 704:1 745:1 856:1 
-0.00586715065706369 291:1 578:1 690:1 704:1 824:1 856:1 
-0.4751460426795316 270:1 291:1 856:1 904:1 957:1 
-1 268:1 291:1 313:1 856:1 944:1 
-0.1729049331557664 291:1 452:1 704:1 770:1 856:1 
-1 73:1 291:1 317:1 856:1 
-0.2185885283792008 73:1 400:1 944:1 
-0.2508790863310623 78:1 358:1 606:1 846:1 
-0.0170601088958989 220:1 224:1 252:1 291:1 292:1 452:1 568:1 719:1 856:1 892:1 893:1 975:1 
-1 292:1 328:1 846:1 
-0.1135125299648521 73:1 173:1 291:1 307:1 353:1 417:1 460:1 724:1 806:1 856:1 
-0.8131212708957998 291:1 770:1 856:1 871:1 911:1 924:1 944:1 
-0.09099382036236879 291:1 800:1 801:1 833:1 848:1 856:1 930:1 938:1 944:1 
-0.2143505691633834 11:1 12:1 148:1 291:1 579:1 856:1 918:1 919:1 
-0.1486407256515644 247:1 351:1 
-0.3314668655023103 186:1 291:1 318:1 627:1 768:1 856:1 
-0.4199278241008721 73:1 193:1 397:1 406:1 451:1 745:1 
-0.6570644032835036 108:1 241:1 292:1 865:1 892:1 
-1 105:1 108:1 117:1 241:1 452:1 483:1 578:1 
-1 291:1 800:1 801:1 856:1 930:1 
-1 291:1 745:1 856:1 
-0.09961645908860194 33:1 291:1 435:1 586:1 745:1 819:1 834:1 856:1 
-0.3940732335560744 177:1 292:1 682:1 704:1 
-0.5643829632685564 255:1 291:1 572:1 690:1 816:1 817:1 856:1 
-0.454664717782211 57:1 241:1 291:1 452:1 578:1 690:1 704:1 856:1 
-0.2659359057167398 78:1 291:1 317:1 713:1 856:1 941:1 960:1 
-0.6043205177004589 73:1 284:1 292:1 441:1 687:1 719:1 944:1 
-0.8346612721898233 46:1 65:1 91:1 240:1 291:1 317:1 690:1 856:1 
-1 73:1 291:1 856:1 
-1 53:1 178:1 291:1 416:1 437:1 676:1 745:1 856:1 931:1 
-1 268:1 291:1 292:1 745:1 856:1 953:1 
-0.1227401732791168 16:1 241:1 291:1 379:1 856:1 
-0.309243408670524 160:1 161:1 291:1 345:1 748:1 785:1 856:1 946:1 
-0.429442978375107 101:1 291:1 457:1 578:1 670:1 856:1 
-0.3919127558323074 291:1 787:1 818:1 856:1 
-0.5620961464990487 240:1 263:1 268:1 291:1 313:1 745:1 848:1 856:1 931:1 938:1 
-0.6095717389511756 66:1 241:1 291:1 577:1 745:1 856:1 
-0.1889126401478917 73:1 177:1 291:1 687:1 856:1 921:1 944:1 
-0.07090483653593781 268:1 291:1 292:1 550:1 641:1 745:1 856:1 902:1 911:1 
-1 112:1 247:1 291:1 436:1 856:1 
-0.7060499697060222 108:1 248:1 292:1 631:1 852:1 863:1 
-0.05848160959328331 16:1 292:1 892:1 951:1 
-0.2493189540796903 268:1 291:1 452:1 578:1 856:1 931:1 
-0.8901686460011722 226:1 268:1 292:1 495:1 745:1 
-1 291:1 292:1 676:1 856:1 
-1 291:1 856:1 936:1 
-1 33:1 73:1 268:1 291:1 745:1 856:1 
-0.7139728633464747 30:1 268:1 291:1 737:1 769:1 782:1 856:1 892:1 
-0.4680759573543024 209:1 268:1 291:1 364:1 745:1 856:1 
-0.3547279900721122 79:1 268:1 291:1 680:1 694:1 745:1 856:1 
-0.8266620965859119 268:1 291:1 452:1 578:1 703:1 745:1 856:1 927:1 931:1 
-1 268:1 291:1 577:1 745:1 856:1 
-1 268:1 291:1 458:1 741:1 856:1 
-1 268:1 292:1 452:1 578:1 931:1 
-0.1595284260754642 268:1 291:1 364:1 680:1 745:1 856:1 
-1 268:1 291:1 292:1 317:1 745:1 856:1 
-1 268:1 291:1 745:1 856:1 
-1 268:1 292:1 
-0.1279758140200583 111:1 291:1 452:1 856:1 
-0.2556648240333874 268:1 292:1 347:1 911:1 977:1 
-0.2540985645690593 268:1 291:1 372:1 741:1 805:1 806:1 856:1 
-0.1427024435625779 73:1 291:1 856:1 892:1 
-0.109397408841564 268:1 291:1 399:1 452:1 453:1 578:1 846:1 856:1 
-0.2048611520420863 177:1 291:1 686:1 704:1 856:1 921:1 
-1 292:1 690:1 
-1 292:1 745:1 833:1 
-0.1918205215411685 292:1 322:1 745:1 
-0.1764219854121377 23:1 255:1 277:1 419:1 
-1 190:1 291:1 622:1 745:1 856:1 
-0.5635730906371443 291:1 639:1 768:1 800:1 801:1 856:1 
-0.1726096160563797 313:1 465:1 811:1 
-0.2103616611071792 188:1 241:1 292:1 576:1 848:1 922:1 946:1 949:1 
-1 291:1 345:1 441:1 856:1 944:1 
-0.1605891150098251 268:1 291:1 467:1 688:1 745:1 856:1 983:1 
-0.9880139811012016 73:1 291:1 352:1 687:1 801:1 856:1 938:1 
-1 241:1 291:1 688:1 741:1 745:1 856:1 
-1 193:1 241:1 291:1 292:1 856:1 938:1 
-0.2108682310324528 167:1 269:1 291:1 644:1 856:1 941:1 944:1 
-0.06441659355984042 97:1 291:1 292:1 382:1 520:1 703:1 856:1 
-0.21740644044181 271:1 291:1 292:1 704:1 856:1 
-0.2576237323632007 151:1 291:1 856:1 
-0.08991425462932218 191:1 291:1 398:1 625:1 842:1 856:1 
-0.3834877595778532 173:1 291:1 292:1 704:1 745:1 800:1 801:1 856:1 958:1 965:1 
-0.3717326455910007 292:1 641:1 785:1 977:1 
-0.7763963998135244 291:1 347:1 641:1 745:1 856:1 871:1 
-0.5241011103443103 291:1 301:1 374:1 498:1 683:1 856:1 
-1 292:1 452:1 578:1 
-1 292:1 690:1 704:1 
-1 291:1 704:1 856:1 
-0.6856851999310449 103:1 291:1 518:1 856:1 
-0.524773565511287 79:1 291:1 292:1 856:1 926:1 
-0.4541916234700929 42:1 193:1 292:1 421:1 465:1 778:1 
-0.609341407281789 30:1 291:1 856:1 
-0.1922529434523796 291:1 745:1 856:1 
-0.1905638292350095 134:1 193:1 291:1 452:1 578:1 856:1 931:1 
-0.8531896423884066 270:1 291:1 452:1 856:1 
-0.9190621549323791 268:1 291:1 741:1 841:1 856:1 938:1 
-0.6936295069949266 124:1 172:1 291:1 686:1 745:1 801:1 856:1 
-0.2031046609664403 123:1 167:1 291:1 780:1 801:1 856:1 931:1 
-0.3031401176206012 15:1 161:1 483:1 558:1 690:1 
-1 30:1 291:1 568:1 856:1 
-1 291:1 741:1 856:1 
-0.4796104944078132 291:1 436:1 441:1 452:1 521:1 745:1 856:1 892:1 
-0.2079070569987833 31:1 207:1 241:1 268:1 292:1 769:1 
-0.5403747050733241 241:1 291:1 465:1 621:1 690:1 856:1 944:1 
-0.1991468223696297 291:1 424:1 495:1 598:1 688:1 856:1 891:1 
-0.7708336165969358 241:1 268:1 270:1 291:1 439:1 452:1 690:1 856:1 938:1 
-1 291:1 452:1 578:1 848:1 856:1 944:1 
-0.7622248351317173 291:1 650:1 856:1 
-1 193:1 292:1 451:1 824:1 
-0.7029694943383715 291:1 446:1 856:1 938:1 
-1 241:1 291:1 292:1 452:1 578:1 690:1 856:1 
-0.272566208869829 291:1 856:1 904:1 
-0.1768249898025311 271:1 291:1 648:1 856:1 936:1 
-1 291:1 352:1 741:1 785:1 856:1 931:1 
-0.2711579525795165 272:1 291:1 457:1 847:1 856:1 
-0.07796882602874444 129:1 292:1 704:1 
-1 291:1 800:1 801:1 856:1 
-1 241:1 292:1 704:1 
-0.8179532662773088 41:1 178:1 291:1 416:1 437:1 741:1 745:1 800:1 801:1 856:1 
-0.5667464008052835 143:1 378:1 462:1 495:1 584:1 688:1 728:1 966:1 977:1 
-0.7793801032107059 292:1 457:1 770:1 847:1 970:1 
-0.1135306528263741 81:1 291:1 690:1 839:1 856:1 
-0.5069303702031193 190:1 291:1 622:1 856:1 896:1 944:1 
-0.3100391386914991 81:1 123:1 292:1 307:1 690:1 839:1 
-1 247:1 292:1 690:1 936:1 
-0.07513649262076272 73:1 100:1 291:1 313:1 345:1 441:1 465:1 483:1 745:1 856:1 941:1 944:1 
-0.7900406696651558 240:1 241:1 291:1 452:1 468:1 578:1 856:1 908:1 
-0.2203292942894487 129:1 292:1 441:1 585:1 785:1 924:1 
-0.1495026621408568 241:1 291:1 745:1 856:1 
-1 291:1 741:1 856:1 968:1 
-0.5185137816963642 291:1 452:1 697:1 703:1 856:1 938:1 
-1 292:1 352:1 452:1 578:1 741:1 
-0.2793473257190497 30:1 259:1 291:1 330:1 568:1 856:1 
-0.2326086981571962 48:1 241:1 253:1 292:1 452:1 493:1 578:1 628:1 690:1 704:1 
-0.5503166627678959 47:1 79:1 291:1 744:1 768:1 856:1 
-0.8319478685530008 291:1 556:1 690:1 856:1 
-1 48:1 167:1 267:1 268:1 292:1 690:1 944:1 
-0.4494837829079015 33:1 291:1 468:1 495:1 856:1 
-1 291:1 817:1 830:1 856:1 
-1 292:1 690:1 
-0.9749905067296738 30:1 81:1 291:1 307:1 379:1 406:1 704:1 769:1 842:1 856:1 944:1 
-0.3773734984242492 160:1 291:1 317:1 441:1 856:1 
-1 241:1 268:1 291:1 703:1 745:1 824:1 856:1 
-0.07112920756474517 167:1 291:1 856:1 
-1 292:1 628:1 801:1 
-0.4123762240992056 308:1 404:1 416:1 483:1 737:1 790:1 833:1 885:1 
-1 241:1 292:1 452:1 578:1 
-0.169525661938273 292:1 308:1 346:1 404:1 416:1 437:1 568:1 688:1 
-0.08958828091418414 8:1 241:1 291:1 690:1 747:1 780:1 789:1 848:1 856:1 
-0.7024811504068077 190:1 237:1 291:1 452:1 578:1 622:1 856:1 
-0.2319258671447361 135:1 291:1 823:1 856:1 
-0.2301067034650359 291:1 703:1 856:1 
-0.283067733127053 167:1 291:1 745:1 856:1 
-1 291:1 690:1 856:1 936:1 943:1 
-1 291:1 690:1 800:1 801:1 856:1 930:1 936:1 943:1 
-0.8679435590189567 49:1 292:1 690:1 
-0.7136171462783659 60:1 688:1 763:1 
-0.1647594814534138 737:1 892:1 
-0.3080729906974553 240:1 241:1 291:1 292:1 452:1 494:1 578:1 686:1 800:1 801:1 806:1 856:1 955:1 
-0.6131299439213734 289:1 291:1 509:1 686:1 856:1 936:1 
-0.9029470183617707 291:1 800:1 801:1 856:1 
-0.4363175589057761 241:1 291:1 452:1 494:1 578:1 621:1 686:1 806:1 856:1 955:1 
-0.9302714969983032 241:1 291:1 358:1 452:1 578:1 768:1 770:1 856:1 
-0.6107974308800981 241:1 292:1 366:1 686:1 938:1 
-1 10:1 291:1 397:1 801:1 856:1 936:1 
-1 291:1 452:1 578:1 856:1 
-0.7177987889188641 238:1 291:1 452:1 465:1 578:1 856:1 944:1 
-0.3153098303895728 292:1 358:1 452:1 578:1 874:1 
-0.05362366993278793 101:1 241:1 291:1 452:1 578:1 670:1 856:1 887:1 
-1 10:1 291:1 801:1 856:1 
-1 291:1 452:1 578:1 856:1 
-1 291:1 452:1 578:1 686:1 856:1 
-1 30:1 292:1 352:1 452:1 578:1 686:1 801:1 807:1 911:1 936:1 
-1 291:1 452:1 578:1 741:1 833:1 856:1 
-0.04885263385734581 16:1 291:1 494:1 801:1 856:1 930:1 938:1 955:1 
-1 291:1 352:1 452:1 494:1 578:1 801:1 856:1 955:1 
-1 292:1 686:1 
-0.242356304051413 495:1 968:1 
-0.2916462562601276 254:1 292:1 429:1 530:1 770:1 931:1 953:1 
-1 241:1 291:1 452:1 578:1 856:1 
-0.3063704930050734 291:1 494:1 801:1 856:1 955:1 
-1 291:1 856:1 936:1 
-1 291:1 452:1 578:1 686:1 768:1 856:1 
-0.2918450849079777 46:1 241:1 291:1 317:1 856:1 942:1 944:1 
-0.2607327512005063 268:1 291:1 572:1 745:1 770:1 828:1 856:1 
-1 291:1 704:1 856:1 
-0.1033106619857241 79:1 268:1 291:1 694:1 856:1 
-0.8744072447441973 291:1 452:1 577:1 578:1 856:1 
-1 241:1 291:1 452:1 856:1 938:1 
-0.4251741130006926 12:1 291:1 856:1 
-0.285302769456907 291:1 320:1 452:1 822:1 856:1 
-1 291:1 452:1 578:1 856:1 
-0.9955459738836379 73:1 241:1 291:1 515:1 856:1 944:1 
-0.8484838876653253 1:1 151:1 291:1 770:1 830:1 856:1 943:1 
-0.8134986500835772 92:1 291:1 745:1 856:1 
-1 271:1 317:1 552:1 690:1 745:1 
-1 268:1 291:1 639:1 745:1 856:1 931:1 
-0.5053026155964432 291:1 292:1 452:1 578:1 639:1 848:1 856:1 944:1 
-1 286:1 291:1 801:1 856:1 
-0.1166746765550329 291:1 556:1 632:1 745:1 800:1 801:1 856:1 944:1 959:1 
-0.7010117493763204 291:1 301:1 306:1 404:1 856:1 966:1 
-0.4823669315159542 291:1 743:1 856:1 
-0.1324999576249273 291:1 688:1 745:1 778:1 806:1 856:1 926:1 
-0.2231732364151399 62:1 291:1 352:1 856:1 936:1 
-0.1538246076015261 222:1 276:1 291:1 621:1 856:1 
-0.2432880593090997 101:1 291:1 670:1 745:1 856:1 
-1 291:1 800:1 801:1 856:1 878:1 944:1 
-1 247:1 291:1 856:1 944:1 
-1 291:1 785:1 856:1 
-1 291:1 466:1 728:1 856:1 931:1 
-0.1845498256739887 101:1 151:1 291:1 483:1 604:1 670:1 788:1 856:1 
-1 452:1 578:1 688:1 800:1 801:1 
-1 191:1 291:1 452:1 578:1 856:1 
-1 291:1 741:1 852:1 856:1 
-0.5649386837684705 419:1 
-1 33:1 222:1 262:1 291:1 452:1 578:1 856:1 
-1 292:1 452:1 578:1 690:1 
-1 291:1 292:1 690:1 856:1 
-0.1259412644875795 291:1 856:1 911:1 922:1 946:1 
-1 291:1 801:1 856:1 
-0.8901302826207702 73:1 291:1 856:1 
-0.7980918383910813 292:1 469:1 591:1 628:1 
-0.08274337008618338 79:1 247:1 291:1 307:1 856:1 931:1 
-0.3803490624331901 89:1 241:1 291:1 292:1 317:1 351:1 745:1 856:1 938:1 
-1 291:1 495:1 688:1 785:1 829:1 856:1 
-0.5126268452920513 291:1 741:1 856:1 931:1 
-0.6846707262756521 292:1 938:1 
-0.3524147301370546 104:1 241:1 292:1 693:1 
-1 241:1 291:1 345:1 452:1 856:1 944:1 
-1 292:1 446:1 
-0.3207680048894747 291:1 780:1 856:1 
-1 241:1 291:1 553:1 693:1 856:1 
-0.3198197221195833 291:1 693:1 856:1 
-0.2446432277995206 177:1 291:1 856:1 
-0.5874272259076553 22:1 291:1 542:1 856:1 
-1 110:1 291:1 473:1 856:1 
-1 268:1 291:1 745:1 856:1 938:1 
-0.1788607581354139 58:1 73:1 283:1 291:1 770:1 801:1 842:1 856:1 
-0.236388621173606 58:1 73:1 291:1 292:1 856:1 
-1 291:1 292:1 690:1 800:1 801:1 856:1 
-1 292:1 452:1 578:1 687:1 690:1 704:1 
-1 441:1 538:1 800:1 801:1 944:1 
-1 436:1 892:1 
-1 247:1 292:1 555:1 740:1 
-1 291:1 856:1 892:1 
-1 291:1 318:1 572:1 768:1 856:1 
-1 292:1 847:1 
-1 2:1 291:1 671:1 856:1 
-1 268:1 291:1 509:1 555:1 690:1 856:1 914:1 
-1 291:1 452:1 578:1 856:1 
-0.7605047473054015 241:1 291:1 311:1 452:1 572:1 578:1 848:1 856:1 
-0.7825740818968582 292:1 352:1 452:1 578:1 691:1 737:1 
-0.8145679182959831 291:1 452:1 578:1 856:1 
-1 54:1 73:1 291:1 355:1 800:1 801:1 856:1 
-0.6235860926167746 120:1 291:1 335:1 806:1 856:1 
-0.5261084506929538 100:1 292:1 686:1 936:1 968:1 
-1 291:1 301:1 856:1 
-1 292:1 441:1 833:1 848:1 944:1 
-1 191:1 239:1 291:1 852:1 856:1 944:1 952:1 
-1 292:1 301:1 452:1 507:1 578:1 741:1 
-1 241:1 291:1 704:1 856:1 
-1 79:1 292:1 924:1 
-1 255:1 269:1 292:1 
-1 255:1 292:1 398:1 856:1 
-0.3318272598518772 291:1 856:1 944:1 
-1 247:1 291:1 465:1 741:1 856:1 938:1 
-1 193:1 268:1 291:1 292:1 745:1 856:1 
-0.3623791247824514 247:1 263:1 291:1 465:1 583:1 741:1 856:1 924:1 
-0.5294125377841379 268:1 291:1 768:1 846:1 856:1 912:1 
-0.1459350240020612 124:1 234:1 291:1 815:1 828:1 856:1 
-0.2629952009447704 292:1 823:1 975:1 
-0.2785394586721002 292:1 358:1 896:1 
-0.6845336545669921 58:1 926:1 
-0.1872616074041764 49:1 134:1 555:1 788:1 
-0.3235870612363371 112:1 795:1 
-0.1343389767884276 313:1 352:1 457:1 924:1 
-0.8494974855600602 481:1 962:1 
-0.07040543251821098 110:1 247:1 585:1 975:1 
-0.4421228303467409 626:1 724:1 
-0.6172807731890813 870:1 
-0.3463164124422903 291:1 816:1 944:1 
-0.2487672333839621 263:1 307:1 576:1 926:1 
-1 79:1 
-0.534005716555666 946:1 964:1 
-1 741:1 865:1 
-0.4011645462106959 276:1 330:1 452:1 
-0.6764129387636629 212:1 
-0.5755318635232275 62:1 271:1 688:1 745:1 772:1 931:1 
-1 481:1 
-1 222:1 687:1 808:1 848:1 
-0.0868526395415872 37:1 483:1 936:1 
-1 944:1 
-0.47012353283548 320:1 452:1 804:1 
-0.1438927985521767 49:1 92:1 268:1 
-0.08766051118850494 455:1 816:1 
-0.3139324766554077 46:1 
-0.1115075272976663 173:1 816:1 
-0.1320564409810433 279:1 306:1 469:1 555:1 
-0.1798488302736748 722:1 
-0.6667458080610233 687:1 785:1 
-0.5855555019909222 51:1 177:1 261:1 436:1 728:1 
