svm_type c_svc
kernel_type rbf
gamma 0.00114679
nr_class 2
total_sv 959
rho 0.842919
label 1 -1
nr_sv 431 528
SV
1 250:1 305:1 350:1 434:1 632:1 664:1 759:1 
1 207:1 250:1 270:1 627:1 664:1 759:1 
1 66:1 250:1 275:1 759:1 
1 207:1 270:1 518:1 759:1 821:1 
1 250:1 270:1 759:1 
1 250:1 321:1 540:1 759:1 
1 207:1 250:1 270:1 664:1 759:1 
1 250:1 391:1 759:1 
1 207:1 250:1 329:1 573:1 664:1 759:1 851:1 
1 250:1 759:1 
1 29:1 250:1 401:1 413:1 500:1 518:1 759:1 
1 250:1 518:1 617:1 627:1 730:1 759:1 
1 250:1 270:1 627:1 759:1 
1 66:1 250:1 251:1 270:1 759:1 
1 93:1 151:1 250:1 413:1 759:1 
1 250:1 270:1 759:1 
1 66:1 250:1 275:1 759:1 
1 250:1 251:1 759:1 797:1 
1 865:1 
1 154:1 251:1 277:1 400:1 429:1 789:1 
1 177:1 178:1 251:1 353:1 401:1 518:1 561:1 705:1 784:1 
1 250:1 329:1 573:1 759:1 851:1 
1 66:1 303:1 391:1 461:1 615:1 739:1 842:1 
1 14:1 26:1 251:1 386:1 423:1 
1 236:1 251:1 270:1 387:1 
1 140:1 178:1 250:1 742:1 759:1 
1 66:1 353:1 833:1 
1 71:1 315:1 543:1 750:1 
1 250:1 759:1 
1 250:1 310:1 329:1 687:1 710:1 759:1 820:1 851:1 
1 251:1 286:1 750:1 
1 66:1 146:1 250:1 265:1 311:1 369:1 408:1 715:1 759:1 
1 250:1 759:1 
1 13:1 26:1 47:1 250:1 264:1 415:1 561:1 716:1 759:1 
1 250:1 759:1 
1 250:1 709:1 710:1 738:1 752:1 759:1 820:1 833:1 
1 207:1 250:1 329:1 627:1 664:1 759:1 851:1 
1 250:1 251:1 329:1 627:1 759:1 851:1 
1 212:1 250:1 309:1 368:1 561:1 759:1 
1 212:1 309:1 
1 250:1 391:1 751:1 759:1 
1 56:1 250:1 518:1 759:1 821:1 
1 90:1 250:1 759:1 
1 250:1 578:1 579:1 821:1 
1 250:1 391:1 751:1 759:1 
1 159:1 250:1 276:1 562:1 686:1 759:1 
1 66:1 350:1 359:1 400:1 664:1 
1 235:1 250:1 759:1 
1 251:1 264:1 841:1 
1 250:1 329:1 401:1 518:1 715:1 738:1 759:1 851:1 
1 207:1 250:1 329:1 359:1 400:1 626:1 627:1 759:1 851:1 
1 207:1 236:1 250:1 329:1 401:1 518:1 627:1 756:1 759:1 851:1 
1 96:1 207:1 251:1 788:1 
1 66:1 149:1 391:1 835:1 859:1 860:1 
1 94:1 96:1 102:1 207:1 401:1 429:1 518:1 
1 71:1 386:1 634:1 687:1 
1 248:1 750:1 
1 278:1 
1 250:1 709:1 710:1 759:1 820:1 
1 207:1 250:1 576:1 627:1 664:1 759:1 849:1 
1 250:1 294:1 413:1 545:1 592:1 751:1 759:1 
1 115:1 250:1 576:1 759:1 849:1 
1 42:1 59:1 98:1 207:1 250:1 271:1 759:1 
1 250:1 576:1 759:1 849:1 
1 94:1 251:1 429:1 434:1 632:1 640:1 
1 59:1 250:1 452:1 617:1 759:1 
1 178:1 239:1 250:1 264:1 429:1 562:1 759:1 817:1 
1 29:1 250:1 385:1 526:1 664:1 739:1 759:1 
1 250:1 271:1 759:1 
1 250:1 369:1 696:1 759:1 821:1 
1 47:1 250:1 271:1 310:1 759:1 
1 150:1 251:1 611:1 627:1 
1 250:1 759:1 
1 220:1 250:1 514:1 617:1 725:1 726:1 759:1 
1 42:1 59:1 250:1 350:1 759:1 
1 207:1 250:1 401:1 518:1 617:1 627:1 759:1 
1 250:1 576:1 627:1 759:1 849:1 
1 178:1 336:1 415:1 793:1 
1 94:1 250:1 359:1 400:1 759:1 833:1 
1 74:1 248:1 250:1 278:1 561:1 687:1 744:1 759:1 833:1 
1 71:1 250:1 275:1 634:1 759:1 830:1 849:1 
1 250:1 286:1 576:1 640:1 716:1 750:1 759:1 849:1 
1 66:1 244:1 251:1 391:1 615:1 640:1 833:1 
1 42:1 59:1 206:1 250:1 275:1 617:1 759:1 
1 60:1 250:1 401:1 518:1 759:1 
1 59:1 250:1 627:1 759:1 
1 59:1 207:1 250:1 510:1 759:1 
1 250:1 401:1 429:1 518:1 759:1 
1 250:1 310:1 386:1 413:1 710:1 759:1 
1 59:1 206:1 207:1 250:1 617:1 759:1 
1 49:1 151:1 250:1 368:1 387:1 605:1 664:1 759:1 821:1 
1 59:1 250:1 251:1 627:1 759:1 
1 42:1 59:1 206:1 
1 234:1 250:1 310:1 456:1 617:1 759:1 
1 77:1 250:1 309:1 752:1 759:1 821:1 
1 59:1 250:1 759:1 
1 42:1 59:1 206:1 250:1 452:1 759:1 
1 59:1 206:1 250:1 573:1 759:1 
1 42:1 59:1 206:1 
1 13:1 207:1 250:1 334:1 759:1 
1 59:1 250:1 627:1 759:1 
1 29:1 250:1 251:1 627:1 759:1 
1 91:1 250:1 405:1 518:1 599:1 759:1 
1 207:1 250:1 275:1 759:1 
1 59:1 250:1 759:1 
1 47:1 59:1 207:1 250:1 310:1 401:1 518:1 617:1 759:1 
1 206:1 227:1 250:1 271:1 664:1 752:1 759:1 821:1 
1 250:1 275:1 738:1 759:1 
1 250:1 390:1 401:1 518:1 759:1 
1 42:1 59:1 207:1 212:1 250:1 251:1 627:1 687:1 759:1 
1 59:1 250:1 578:1 579:1 759:1 
1 207:1 234:1 250:1 280:1 627:1 759:1 
1 42:1 59:1 250:1 759:1 
1 42:1 59:1 206:1 250:1 759:1 
1 250:1 400:1 752:1 759:1 
1 42:1 59:1 60:1 250:1 617:1 759:1 
1 232:1 250:1 251:1 494:1 573:1 664:1 759:1 798:1 
1 98:1 212:1 250:1 386:1 759:1 
1 60:1 148:1 250:1 310:1 759:1 
1 160:1 163:1 234:1 250:1 759:1 
1 59:1 236:1 250:1 756:1 759:1 
1 29:1 164:1 207:1 251:1 328:1 348:1 453:1 685:1 
1 96:1 213:1 251:1 565:1 756:1 766:1 
1 13:1 251:1 788:1 840:1 
1 207:1 250:1 759:1 
1 207:1 250:1 348:1 714:1 733:1 759:1 
1 207:1 250:1 251:1 387:1 397:1 718:1 738:1 759:1 
1 232:1 250:1 310:1 609:1 664:1 759:1 821:1 
1 232:1 251:1 441:1 664:1 
1 251:1 305:1 592:1 734:1 
1 214:1 250:1 453:1 527:1 759:1 
1 26:1 250:1 657:1 759:1 788:1 
1 250:1 278:1 310:1 518:1 664:1 687:1 730:1 759:1 821:1 
1 8:1 9:1 250:1 286:1 567:1 750:1 759:1 
1 250:1 494:1 627:1 759:1 798:1 
1 232:1 250:1 664:1 759:1 
1 232:1 250:1 406:1 759:1 
1 115:1 250:1 759:1 
1 232:1 250:1 251:1 275:1 664:1 759:1 
1 250:1 608:1 759:1 
1 250:1 581:1 664:1 759:1 
1 232:1 250:1 664:1 759:1 
1 232:1 251:1 
1 232:1 251:1 305:1 865:1 
1 232:1 250:1 328:1 714:1 715:1 759:1 
1 66:1 250:1 759:1 788:1 
1 232:1 250:1 352:1 401:1 518:1 750:1 759:1 
1 246:1 251:1 494:1 798:1 
1 250:1 328:1 685:1 759:1 814:1 835:1 
1 213:1 250:1 391:1 514:1 664:1 757:1 759:1 821:1 
1 207:1 221:1 246:1 250:1 664:1 728:1 759:1 
1 251:1 664:1 738:1 
1 250:1 617:1 759:1 
1 250:1 571:1 686:1 709:1 710:1 759:1 
1 250:1 401:1 518:1 759:1 854:1 
1 168:1 250:1 626:1 627:1 759:1 798:1 
1 250:1 278:1 310:1 759:1 821:1 842:1 
1 250:1 429:1 759:1 833:1 
1 271:1 413:1 720:1 
1 168:1 250:1 709:1 710:1 759:1 798:1 
1 207:1 246:1 250:1 617:1 664:1 759:1 
1 161:1 207:1 251:1 517:1 752:1 813:1 835:1 838:1 
1 250:1 387:1 397:1 561:1 759:1 787:1 
1 66:1 413:1 788:1 
1 140:1 178:1 250:1 328:1 759:1 
1 66:1 413:1 752:1 
1 38:1 140:1 250:1 759:1 
1 234:1 250:1 369:1 627:1 699:1 709:1 710:1 759:1 
1 146:1 250:1 627:1 759:1 847:1 854:1 
1 207:1 250:1 627:1 759:1 
1 250:1 275:1 759:1 
1 250:1 351:1 355:1 417:1 560:1 759:1 
1 213:1 250:1 309:1 368:1 759:1 
1 66:1 212:1 250:1 664:1 759:1 812:1 
1 29:1 90:1 250:1 370:1 755:1 759:1 
1 359:1 623:1 
1 37:1 309:1 368:1 
1 87:1 250:1 251:1 337:1 466:1 759:1 
1 235:1 250:1 251:1 627:1 759:1 
1 146:1 250:1 251:1 627:1 664:1 709:1 710:1 759:1 847:1 854:1 
1 251:1 573:1 696:1 865:1 
1 146:1 250:1 617:1 759:1 847:1 854:1 
1 250:1 305:1 573:1 664:1 759:1 773:1 
1 250:1 336:1 395:1 449:1 759:1 787:1 
1 84:1 250:1 617:1 664:1 757:1 759:1 
1 250:1 464:1 759:1 
1 370:1 611:1 619:1 
1 207:1 221:1 250:1 536:1 561:1 759:1 787:1 
1 250:1 260:1 330:1 444:1 612:1 759:1 
1 250:1 328:1 750:1 759:1 833:1 849:1 
1 250:1 304:1 330:1 422:1 567:1 657:1 759:1 
1 250:1 359:1 623:1 759:1 
1 74:1 250:1 359:1 687:1 759:1 
1 250:1 759:1 
1 250:1 584:1 709:1 710:1 759:1 812:1 
1 250:1 584:1 759:1 812:1 
1 251:1 291:1 417:1 617:1 
1 251:1 617:1 627:1 
1 250:1 617:1 759:1 
1 60:1 250:1 759:1 
1 236:1 250:1 401:1 518:1 615:1 759:1 821:1 832:1 
1 66:1 236:1 250:1 584:1 615:1 710:1 759:1 812:1 820:1 821:1 
1 57:1 250:1 759:1 821:1 
1 207:1 250:1 584:1 617:1 664:1 759:1 812:1 
1 29:1 74:1 250:1 359:1 400:1 744:1 759:1 
1 250:1 278:1 401:1 518:1 617:1 687:1 759:1 832:1 
1 250:1 441:1 545:1 617:1 759:1 833:1 
1 38:1 251:1 372:1 413:1 694:1 
1 196:1 235:1 250:1 310:1 759:1 
1 57:1 81:1 313:1 
1 251:1 275:1 551:1 563:1 
1 66:1 93:1 207:1 250:1 401:1 463:1 518:1 615:1 759:1 
1 26:1 250:1 759:1 
1 250:1 275:1 298:1 328:1 359:1 567:1 734:1 735:1 759:1 
1 204:1 212:1 250:1 617:1 759:1 821:1 
1 207:1 250:1 372:1 759:1 
1 60:1 250:1 759:1 
1 250:1 664:1 759:1 821:1 
1 250:1 759:1 
1 107:1 145:1 250:1 664:1 710:1 759:1 
1 140:1 250:1 710:1 759:1 821:1 
1 250:1 298:1 359:1 427:1 567:1 734:1 759:1 
1 12:1 134:1 429:1 502:1 617:1 
1 207:1 250:1 251:1 549:1 573:1 759:1 
1 250:1 275:1 752:1 759:1 842:1 
1 207:1 250:1 759:1 
1 204:1 236:1 250:1 627:1 715:1 759:1 821:1 
1 207:1 250:1 251:1 401:1 518:1 686:1 759:1 
1 250:1 759:1 
1 250:1 386:1 391:1 401:1 467:1 664:1 759:1 788:1 
1 248:1 250:1 288:1 498:1 759:1 787:1 
1 250:1 330:1 657:1 667:1 759:1 787:1 
1 66:1 615:1 750:1 
1 145:1 178:1 235:1 250:1 265:1 413:1 685:1 759:1 
1 207:1 250:1 413:1 617:1 759:1 833:1 
1 207:1 236:1 243:1 250:1 627:1 664:1 759:1 
1 124:1 413:1 417:1 519:1 810:1 827:1 
1 250:1 441:1 536:1 759:1 787:1 
1 207:1 232:1 234:1 250:1 389:1 401:1 617:1 759:1 
1 234:1 251:1 389:1 696:1 
1 72:1 93:1 251:1 517:1 567:1 657:1 842:1 
1 250:1 271:1 442:1 527:1 759:1 
1 212:1 234:1 250:1 359:1 387:1 389:1 759:1 
1 205:1 207:1 250:1 573:1 664:1 759:1 773:1 
1 250:1 514:1 692:1 759:1 
1 234:1 251:1 275:1 389:1 627:1 
1 251:1 400:1 730:1 
1 250:1 395:1 759:1 
1 207:1 212:1 250:1 271:1 759:1 792:1 821:1 833:1 
1 207:1 250:1 251:1 401:1 518:1 617:1 759:1 
1 250:1 391:1 401:1 518:1 525:1 696:1 759:1 
1 250:1 617:1 759:1 
1 250:1 759:1 
1 207:1 250:1 275:1 401:1 413:1 518:1 759:1 
1 250:1 264:1 265:1 275:1 391:1 525:1 696:1 759:1 
1 250:1 285:1 667:1 759:1 856:1 
1 250:1 309:1 328:1 377:1 400:1 632:1 759:1 
1 250:1 387:1 401:1 518:1 523:1 759:1 
1 13:1 328:1 359:1 387:1 685:1 
1 250:1 759:1 
1 111:1 250:1 251:1 759:1 815:1 821:1 
1 250:1 310:1 696:1 759:1 821:1 
1 251:1 350:1 561:1 833:1 
1 111:1 251:1 627:1 
1 111:1 207:1 250:1 627:1 664:1 759:1 
1 250:1 709:1 710:1 759:1 
1 207:1 251:1 627:1 
1 37:1 151:1 250:1 368:1 387:1 664:1 709:1 710:1 759:1 
1 251:1 462:1 561:1 619:1 
1 120:1 250:1 759:1 
1 74:1 250:1 617:1 744:1 759:1 
1 151:1 250:1 416:1 424:1 759:1 804:1 
1 250:1 416:1 759:1 804:1 
1 74:1 251:1 265:1 617:1 744:1 
1 212:1 251:1 617:1 826:1 
1 101:1 207:1 250:1 346:1 401:1 518:1 759:1 
1 206:1 207:1 250:1 401:1 416:1 518:1 759:1 804:1 
1 250:1 759:1 815:1 
1 111:1 251:1 391:1 525:1 696:1 815:1 
1 251:1 368:1 567:1 
1 64:1 359:1 640:1 716:1 
1 60:1 250:1 255:1 271:1 387:1 714:1 759:1 
1 250:1 275:1 400:1 627:1 759:1 
1 44:1 74:1 140:1 231:1 251:1 359:1 368:1 617:1 
1 562:1 750:1 
1 251:1 310:1 401:1 518:1 
1 42:1 44:1 74:1 251:1 401:1 518:1 
1 44:1 251:1 359:1 400:1 698:1 
1 313:1 441:1 560:1 652:1 653:1 
1 44:1 60:1 250:1 264:1 759:1 821:1 
1 44:1 207:1 218:1 251:1 401:1 439:1 518:1 617:1 627:1 
1 44:1 218:1 250:1 439:1 627:1 759:1 
1 250:1 359:1 759:1 
1 44:1 140:1 231:1 251:1 617:1 833:1 
1 251:1 306:1 870:1 
1 251:1 617:1 
1 44:1 207:1 231:1 250:1 401:1 518:1 617:1 759:1 
1 207:1 251:1 
1 26:1 74:1 250:1 265:1 334:1 359:1 627:1 746:1 759:1 833:1 
1 250:1 617:1 759:1 
1 44:1 218:1 251:1 401:1 439:1 518:1 617:1 
1 44:1 218:1 250:1 439:1 759:1 
1 250:1 413:1 437:1 598:1 759:1 
1 207:1 251:1 391:1 461:1 567:1 750:1 833:1 
1 66:1 328:1 461:1 615:1 685:1 739:1 833:1 
1 71:1 251:1 370:1 634:1 716:1 
1 44:1 178:1 207:1 251:1 457:1 596:1 
1 72:1 250:1 759:1 
1 250:1 752:1 759:1 
1 251:1 710:1 
1 250:1 391:1 525:1 696:1 752:1 759:1 826:1 
1 304:1 826:1 832:1 
1 187:1 251:1 657:1 701:1 781:1 788:1 826:1 
1 112:1 250:1 387:1 397:1 666:1 700:1 759:1 
1 250:1 251:1 759:1 
1 250:1 286:1 750:1 759:1 770:1 833:1 
1 5:1 207:1 250:1 617:1 666:1 700:1 752:1 759:1 
1 163:1 250:1 401:1 518:1 557:1 759:1 
1 250:1 305:1 573:1 759:1 
1 12:1 96:1 250:1 405:1 746:1 751:1 759:1 
1 207:1 250:1 666:1 700:1 759:1 
1 250:1 666:1 700:1 759:1 
1 140:1 250:1 664:1 759:1 
1 250:1 617:1 759:1 826:1 832:1 
1 250:1 617:1 709:1 710:1 759:1 820:1 826:1 832:1 
1 71:1 207:1 250:1 573:1 640:1 664:1 759:1 818:1 
1 45:1 251:1 617:1 
1 227:1 304:1 391:1 657:1 
1 54:1 682:1 
1 26:1 54:1 251:1 330:1 334:1 406:1 
1 657:1 788:1 
1 139:1 250:1 413:1 457:1 626:1 759:1 
1 56:1 251:1 386:1 835:1 
1 250:1 759:1 826:1 
1 206:1 207:1 250:1 251:1 401:1 440:1 518:1 709:1 710:1 715:1 759:1 844:1 
1 250:1 401:1 518:1 699:1 759:1 
1 250:1 759:1 
1 250:1 401:1 441:1 518:1 759:1 833:1 
1 131:1 250:1 386:1 636:1 759:1 821:1 
1 250:1 455:1 759:1 826:1 
1 47:1 250:1 310:1 401:1 518:1 578:1 579:1 759:1 
1 250:1 759:1 821:1 
1 207:1 250:1 310:1 401:1 518:1 752:1 759:1 855:1 
1 250:1 759:1 821:1 826:1 
1 250:1 251:1 348:1 759:1 855:1 
1 250:1 686:1 759:1 
1 250:1 759:1 
1 250:1 615:1 751:1 759:1 830:1 
1 250:1 391:1 401:1 518:1 759:1 821:1 833:1 
1 250:1 689:1 730:1 759:1 
1 250:1 413:1 759:1 821:1 833:1 
1 207:1 250:1 401:1 440:1 518:1 715:1 759:1 844:1 
1 207:1 250:1 271:1 379:1 401:1 518:1 759:1 
1 207:1 250:1 759:1 833:1 
1 250:1 759:1 826:1 
1 207:1 250:1 315:1 401:1 518:1 686:1 687:1 759:1 
1 207:1 251:1 
1 250:1 401:1 518:1 759:1 
1 7:1 250:1 350:1 710:1 759:1 826:1 
1 309:1 
1 250:1 759:1 821:1 826:1 
1 250:1 401:1 518:1 759:1 
1 250:1 264:1 429:1 759:1 855:1 
1 250:1 687:1 759:1 868:1 
1 250:1 759:1 821:1 
1 250:1 303:1 310:1 759:1 833:1 
1 204:1 250:1 401:1 413:1 518:1 759:1 833:1 
1 251:1 315:1 401:1 518:1 
1 91:1 207:1 250:1 401:1 518:1 599:1 759:1 783:1 
1 232:1 250:1 573:1 626:1 664:1 716:1 750:1 759:1 
1 250:1 379:1 664:1 759:1 821:1 
1 250:1 386:1 759:1 
1 47:1 212:1 250:1 401:1 413:1 518:1 759:1 826:1 
1 250:1 401:1 518:1 759:1 821:1 
1 250:1 401:1 518:1 759:1 
1 250:1 401:1 518:1 759:1 
1 26:1 251:1 310:1 401:1 518:1 710:1 716:1 826:1 
1 250:1 401:1 518:1 738:1 759:1 
1 13:1 250:1 440:1 710:1 759:1 820:1 844:1 
1 207:1 250:1 709:1 710:1 738:1 759:1 820:1 
1 250:1 759:1 
1 250:1 310:1 401:1 440:1 518:1 710:1 759:1 844:1 
1 250:1 413:1 759:1 833:1 
1 250:1 251:1 455:1 759:1 826:1 
1 250:1 514:1 709:1 710:1 759:1 821:1 
1 251:1 
1 250:1 545:1 709:1 710:1 759:1 
1 219:1 251:1 379:1 476:1 687:1 821:1 842:1 
1 250:1 455:1 759:1 821:1 826:1 
1 250:1 709:1 710:1 759:1 
1 250:1 440:1 710:1 759:1 844:1 
1 212:1 250:1 759:1 821:1 826:1 
1 250:1 759:1 
1 250:1 278:1 545:1 759:1 821:1 
1 207:1 250:1 413:1 759:1 821:1 
1 234:1 250:1 251:1 664:1 759:1 833:1 
1 72:1 232:1 250:1 475:1 664:1 759:1 
1 207:1 232:1 250:1 401:1 664:1 759:1 
1 29:1 250:1 562:1 664:1 726:1 735:1 759:1 784:1 830:1 
1 232:1 250:1 303:1 664:1 759:1 833:1 
1 232:1 251:1 664:1 
1 140:1 250:1 759:1 833:1 
1 251:1 664:1 826:1 
1 66:1 232:1 250:1 664:1 729:1 759:1 
1 232:1 250:1 759:1 
1 232:1 251:1 627:1 664:1 
1 207:1 250:1 251:1 627:1 664:1 709:1 710:1 759:1 
1 66:1 232:1 233:1 251:1 687:1 833:1 
1 48:1 145:1 250:1 336:1 617:1 643:1 759:1 
1 250:1 310:1 401:1 518:1 750:1 759:1 
1 250:1 664:1 759:1 863:1 
1 232:1 251:1 475:1 514:1 627:1 710:1 
1 134:1 250:1 617:1 709:1 710:1 759:1 820:1 
1 232:1 251:1 617:1 
1 232:1 250:1 617:1 664:1 756:1 759:1 
1 26:1 232:1 250:1 664:1 716:1 759:1 
1 244:1 251:1 811:1 833:1 
1 250:1 303:1 401:1 759:1 821:1 
1 250:1 759:1 813:1 835:1 
1 250:1 405:1 751:1 759:1 
1 250:1 310:1 401:1 441:1 759:1 
1 207:1 250:1 401:1 759:1 
1 178:1 232:1 250:1 759:1 792:1 822:1 
1 183:1 205:1 232:1 251:1 264:1 391:1 
1 250:1 401:1 518:1 664:1 759:1 
1 232:1 250:1 627:1 664:1 757:1 759:1 
1 29:1 250:1 461:1 759:1 853:1 
1 250:1 303:1 391:1 759:1 821:1 833:1 
1 207:1 250:1 709:1 710:1 759:1 
1 250:1 759:1 821:1 
1 250:1 710:1 759:1 820:1 
-1 250:1 251:1 627:1 759:1 
-1 47:1 140:1 194:1 251:1 310:1 359:1 845:1 
-0.1430129487679582 37:1 94:1 251:1 641:1 716:1 
-1 251:1 310:1 833:1 
-1 206:1 250:1 615:1 627:1 759:1 
-0.2502928315349631 26:1 250:1 547:1 640:1 657:1 716:1 759:1 773:1 
-1 250:1 251:1 391:1 437:1 759:1 
-0.5075690147478773 250:1 357:1 360:1 369:1 759:1 
-1 66:1 250:1 379:1 562:1 759:1 
-0.8256689644744141 250:1 549:1 738:1 759:1 
-1 218:1 250:1 709:1 710:1 759:1 820:1 
-1 71:1 359:1 585:1 845:1 
-1 359:1 685:1 
-1 71:1 111:1 303:1 715:1 717:1 
-1 250:1 251:1 627:1 759:1 
-1 251:1 
-0.2556094888897043 6:1 250:1 262:1 391:1 608:1 759:1 
-0.7005747370968636 160:1 250:1 502:1 626:1 627:1 705:1 759:1 
-1 250:1 759:1 826:1 
-1 151:1 227:1 250:1 759:1 
-0.9451443870123983 250:1 395:1 561:1 657:1 759:1 
-1 250:1 627:1 759:1 
-0.376210810650623 140:1 173:1 250:1 300:1 664:1 759:1 
-1 151:1 250:1 461:1 759:1 
-0.09240511413922661 250:1 368:1 388:1 401:1 514:1 518:1 627:1 759:1 
-1 207:1 250:1 617:1 664:1 759:1 
-0.4478977944931153 250:1 386:1 401:1 518:1 627:1 759:1 
-1 250:1 251:1 617:1 759:1 
-1 250:1 368:1 576:1 617:1 759:1 
-1 151:1 250:1 251:1 710:1 759:1 
-1 207:1 250:1 251:1 424:1 573:1 696:1 759:1 
-0.2196828342700563 250:1 260:1 310:1 386:1 617:1 708:1 759:1 
-0.3787371560332446 207:1 250:1 251:1 387:1 627:1 687:1 738:1 759:1 
-0.6733050228300826 66:1 250:1 413:1 514:1 734:1 759:1 
-1 84:1 250:1 278:1 359:1 400:1 576:1 752:1 759:1 821:1 
-1 119:1 710:1 
-0.6052437141617887 29:1 98:1 163:1 250:1 557:1 759:1 
-0.2037998537110252 212:1 234:1 250:1 275:1 540:1 759:1 
-1 207:1 250:1 617:1 664:1 759:1 
-1 250:1 627:1 759:1 
-1 207:1 212:1 250:1 251:1 400:1 759:1 788:1 
-1 207:1 212:1 250:1 251:1 350:1 759:1 
-1 207:1 250:1 251:1 387:1 627:1 759:1 
-1 56:1 233:1 250:1 309:1 413:1 518:1 759:1 821:1 
-0.2208271826699452 525:1 852:1 
-1 368:1 
-1 26:1 387:1 687:1 
-1 
-0.8618857116367404 207:1 310:1 368:1 401:1 502:1 518:1 817:1 
-1 165:1 212:1 567:1 833:1 
-0.1573005150960383 40:1 76:1 132:1 207:1 250:1 664:1 709:1 710:1 751:1 759:1 
-0.2210988038175611 207:1 251:1 401:1 424:1 518:1 
-0.27484021386147 250:1 643:1 759:1 
-1 106:1 250:1 275:1 315:1 401:1 518:1 759:1 
-1 212:1 250:1 759:1 
-0.116436241793381 26:1 207:1 250:1 251:1 759:1 788:1 
-1 245:1 251:1 401:1 
-1 250:1 251:1 617:1 759:1 
-0.802296463574705 48:1 250:1 387:1 397:1 424:1 627:1 696:1 710:1 715:1 716:1 759:1 
-0.9250615201736714 207:1 250:1 251:1 417:1 617:1 759:1 832:1 
-1 207:1 250:1 617:1 664:1 759:1 
-0.2172183983385091 37:1 250:1 759:1 
-0.6263928841547467 206:1 250:1 413:1 424:1 759:1 
-1 250:1 386:1 401:1 518:1 627:1 759:1 
-0.6743207036138698 250:1 514:1 617:1 759:1 
-1 250:1 388:1 627:1 710:1 759:1 
-1 250:1 275:1 413:1 759:1 
-1 94:1 248:1 416:1 
-1 696:1 
-0.9259667763489835 94:1 416:1 752:1 
-0.3653521572695625 250:1 608:1 759:1 
-1 207:1 250:1 617:1 759:1 815:1 
-1 250:1 251:1 617:1 759:1 
-0.2030479871705382 163:1 250:1 557:1 643:1 759:1 
-1 207:1 250:1 387:1 397:1 664:1 759:1 821:1 
-1 330:1 478:1 
-0.2360219498649371 654:1 743:1 
-1 71:1 304:1 788:1 
-1 250:1 251:1 400:1 617:1 759:1 
-1 207:1 236:1 250:1 759:1 852:1 
-0.08446951216677466 66:1 93:1 134:1 250:1 615:1 759:1 
-1 250:1 251:1 417:1 759:1 
-1 115:1 207:1 236:1 250:1 289:1 664:1 759:1 804:1 
-0.2631091146869361 66:1 250:1 417:1 517:1 759:1 
-1 90:1 250:1 251:1 664:1 709:1 710:1 759:1 
-1 66:1 250:1 391:1 759:1 
-0.3249506345593301 124:1 207:1 250:1 401:1 518:1 519:1 527:1 759:1 810:1 
-0.7797341872436079 42:1 217:1 250:1 251:1 351:1 561:1 759:1 
-0.69905791637115 49:1 250:1 331:1 442:1 759:1 851:1 
-0.658021900915678 207:1 251:1 401:1 518:1 615:1 776:1 
-1 250:1 617:1 759:1 
-0.6891140033212821 250:1 401:1 422:1 518:1 623:1 751:1 759:1 
-0.4898239716351346 48:1 207:1 250:1 251:1 627:1 759:1 
-0.6864448276825507 5:1 250:1 429:1 627:1 759:1 
-1 42:1 207:1 231:1 251:1 401:1 416:1 518:1 804:1 820:1 821:1 854:1 
-1 207:1 250:1 617:1 664:1 759:1 
-2.639285048887385e-05 250:1 271:1 303:1 391:1 429:1 759:1 833:1 
-1 250:1 617:1 664:1 759:1 
-1 250:1 400:1 617:1 759:1 
-1 250:1 386:1 401:1 518:1 627:1 759:1 
-0.1037224756808196 135:1 207:1 250:1 251:1 274:1 573:1 759:1 
-1 50:1 413:1 567:1 788:1 
-1 
-0.1869450791987446 94:1 251:1 659:1 788:1 
-1 29:1 250:1 759:1 
-0.799954804737414 66:1 207:1 243:1 250:1 401:1 518:1 615:1 627:1 759:1 
-0.2122166687630571 250:1 272:1 617:1 759:1 
-0.391995247920063 42:1 250:1 321:1 351:1 561:1 759:1 
-1 42:1 47:1 217:1 250:1 251:1 310:1 351:1 561:1 759:1 
-1 66:1 207:1 250:1 275:1 759:1 
-1 140:1 178:1 234:1 251:1 386:1 
-1 135:1 250:1 274:1 627:1 710:1 759:1 
-0.1195322437380941 250:1 265:1 278:1 387:1 441:1 759:1 808:1 
-1 250:1 401:1 518:1 752:1 759:1 833:1 
-1 66:1 250:1 401:1 518:1 759:1 
-1 250:1 617:1 759:1 
-1 250:1 310:1 617:1 759:1 
-0.4419845284379676 45:1 250:1 331:1 372:1 413:1 429:1 495:1 759:1 853:1 
-1 207:1 250:1 617:1 664:1 759:1 
-1 207:1 250:1 617:1 759:1 
-0.3716065985951681 134:1 135:1 250:1 617:1 664:1 759:1 
-0.284591653740927 250:1 457:1 540:1 752:1 759:1 
-1 250:1 311:1 408:1 738:1 759:1 835:1 
-1 250:1 573:1 759:1 
-0.1911622961279853 250:1 336:1 518:1 759:1 
-1 206:1 250:1 752:1 759:1 
-1 77:1 330:1 391:1 833:1 
-0.5224962639742015 413:1 642:1 
-1 96:1 400:1 
-1 207:1 401:1 518:1 808:1 833:1 
-1 207:1 250:1 617:1 664:1 759:1 
-1 250:1 251:1 627:1 759:1 
-0.2210476105830064 250:1 379:1 527:1 759:1 851:1 
-0.5428614032392145 60:1 250:1 310:1 759:1 
-0.2845163693285984 66:1 116:1 206:1 235:1 250:1 321:1 687:1 759:1 848:1 
-1 250:1 309:1 545:1 687:1 709:1 710:1 759:1 833:1 
-0.4963265104276119 96:1 250:1 400:1 561:1 759:1 
-1 250:1 310:1 405:1 759:1 
-1 250:1 309:1 545:1 687:1 709:1 710:1 759:1 833:1 
-1 60:1 207:1 212:1 250:1 251:1 759:1 
-1 44:1 250:1 264:1 759:1 851:1 
-1 207:1 251:1 401:1 518:1 615:1 
-1 177:1 250:1 265:1 401:1 518:1 759:1 
-1 56:1 251:1 518:1 738:1 821:1 
-1 250:1 386:1 401:1 518:1 627:1 759:1 
-1 96:1 207:1 251:1 821:1 
-1 789:1 
-1 250:1 709:1 710:1 759:1 821:1 
-0.6832281665836361 66:1 108:1 250:1 387:1 726:1 735:1 759:1 
-1 250:1 391:1 461:1 617:1 759:1 
-0.9295008681014272 250:1 251:1 401:1 518:1 564:1 617:1 759:1 
-1 26:1 251:1 350:1 440:1 615:1 756:1 844:1 
-1 250:1 461:1 617:1 759:1 
-1 250:1 315:1 752:1 759:1 792:1 
-0.842762462915162 251:1 264:1 788:1 846:1 
-1 26:1 146:1 207:1 231:1 251:1 734:1 821:1 
-1 207:1 250:1 617:1 664:1 759:1 
-1 26:1 250:1 326:1 617:1 640:1 759:1 
-1 250:1 401:1 518:1 759:1 
-0.9320771237371036 184:1 218:1 231:1 250:1 384:1 759:1 820:1 
-1 250:1 617:1 759:1 
-0.1034835728597922 165:1 250:1 518:1 617:1 759:1 
-1 250:1 386:1 401:1 518:1 627:1 759:1 
-0.8656986702364056 207:1 250:1 547:1 562:1 627:1 759:1 
-1 250:1 627:1 759:1 
-1 47:1 207:1 250:1 251:1 617:1 759:1 
-0.143738315880873 231:1 660:1 696:1 872:1 
-0.3016457202984325 177:1 207:1 
-1 66:1 206:1 233:1 250:1 759:1 
-1 98:1 250:1 401:1 518:1 759:1 
-1 250:1 401:1 518:1 709:1 710:1 716:1 759:1 820:1 
-1 250:1 401:1 518:1 759:1 
-0.4797418724928104 76:1 207:1 250:1 401:1 429:1 518:1 686:1 759:1 821:1 
-1 32:1 244:1 251:1 336:1 517:1 525:1 811:1 842:1 
-1 250:1 617:1 640:1 759:1 
-1 214:1 250:1 578:1 579:1 686:1 759:1 784:1 
-0.03046882092998406 43:1 246:1 250:1 304:1 429:1 663:1 759:1 851:1 
-1 250:1 310:1 401:1 518:1 725:1 752:1 759:1 
-0.3333145357244759 71:1 234:1 250:1 278:1 699:1 752:1 759:1 
-1 359:1 400:1 640:1 715:1 716:1 788:1 
-0.2407769811662473 4:1 742:1 
-1 13:1 50:1 207:1 328:1 386:1 401:1 518:1 685:1 
-0.536263848956565 482:1 
-1 43:1 663:1 686:1 833:1 
-1 60:1 232:1 234:1 250:1 664:1 759:1 
-0.7643744073163773 53:1 71:1 207:1 250:1 310:1 401:1 709:1 759:1 
-1 250:1 251:1 738:1 759:1 
-1 250:1 369:1 413:1 687:1 759:1 
-0.1285686470133029 7:1 250:1 391:1 710:1 759:1 821:1 830:1 
-0.3411242391691649 26:1 229:1 250:1 385:1 715:1 759:1 
-0.2554212555557007 29:1 250:1 759:1 784:1 
-1 143:1 212:1 232:1 250:1 275:1 401:1 687:1 738:1 759:1 863:1 
-0.001411534150258756 60:1 207:1 234:1 250:1 617:1 759:1 
-1 232:1 250:1 401:1 518:1 545:1 664:1 759:1 
-1 232:1 250:1 759:1 821:1 
-0.4064042068129569 19:1 250:1 346:1 664:1 759:1 
-0.62505418751444 250:1 401:1 403:1 518:1 759:1 
-1 7:1 47:1 66:1 250:1 562:1 709:1 710:1 759:1 863:1 
-1 13:1 232:1 250:1 313:1 429:1 687:1 759:1 
-0.4582766416098699 250:1 291:1 401:1 518:1 759:1 
-1 232:1 250:1 386:1 759:1 
-1 227:1 232:1 250:1 627:1 709:1 710:1 759:1 
-1 250:1 545:1 687:1 709:1 710:1 759:1 
-1 207:1 250:1 709:1 710:1 759:1 
-1 250:1 627:1 664:1 759:1 
-1 66:1 250:1 615:1 709:1 710:1 759:1 832:1 833:1 
-1 232:1 250:1 413:1 664:1 759:1 821:1 
-0.6718468744501177 107:1 178:1 202:1 213:1 232:1 250:1 759:1 
-1 178:1 232:1 234:1 251:1 386:1 821:1 
-1 107:1 178:1 202:1 213:1 232:1 251:1 615:1 
-0.5491079039487327 29:1 178:1 687:1 
-1 150:1 278:1 364:1 486:1 567:1 
-1 103:1 221:1 329:1 
-0.5872729373768071 387:1 523:1 
-0.7252157273040829 833:1 850:1 
-1 178:1 248:1 832:1 
-1 145:1 
-0.5151015260945886 207:1 250:1 330:1 368:1 387:1 401:1 759:1 
-1 235:1 250:1 251:1 523:1 617:1 622:1 664:1 759:1 
-1 250:1 664:1 759:1 
-1 115:1 236:1 250:1 391:1 751:1 759:1 833:1 
-1 146:1 251:1 821:1 
-1 250:1 664:1 710:1 759:1 
-0.800476915671253 206:1 233:1 250:1 759:1 830:1 
-1 206:1 250:1 368:1 617:1 664:1 759:1 
-0.7886903481113088 250:1 455:1 571:1 759:1 
-1 207:1 250:1 627:1 664:1 709:1 710:1 759:1 
-0.1939551292317991 250:1 368:1 401:1 518:1 571:1 664:1 759:1 821:1 
-1 207:1 250:1 627:1 664:1 759:1 
-0.6979709515999664 40:1 250:1 626:1 627:1 759:1 
-1 207:1 250:1 627:1 759:1 
-1 178:1 250:1 275:1 413:1 525:1 605:1 707:1 759:1 
-1 148:1 250:1 413:1 714:1 759:1 
-1 93:1 207:1 250:1 401:1 518:1 759:1 
-1 74:1 150:1 250:1 449:1 464:1 517:1 573:1 759:1 833:1 
-0.2525323456410353 250:1 401:1 518:1 759:1 821:1 
-1 207:1 250:1 627:1 759:1 
-0.4891941992488229 207:1 250:1 417:1 440:1 687:1 759:1 844:1 
-1 657:1 716:1 752:1 
-1 250:1 251:1 305:1 561:1 696:1 759:1 
-0.1670942001235264 116:1 153:1 251:1 413:1 441:1 
-0.1907308065705476 250:1 759:1 854:1 
-1 207:1 250:1 391:1 401:1 518:1 627:1 752:1 759:1 821:1 833:1 
-1 207:1 379:1 401:1 518:1 
-1 251:1 270:1 310:1 441:1 817:1 
-1 
-1 90:1 207:1 250:1 573:1 623:1 759:1 
-1 207:1 250:1 329:1 627:1 666:1 759:1 
-1 250:1 617:1 759:1 
-1 207:1 250:1 398:1 518:1 617:1 664:1 759:1 
-0.9201749596319582 129:1 251:1 
-1 250:1 275:1 286:1 351:1 355:1 750:1 759:1 861:1 
-0.8461605223769806 26:1 255:1 564:1 
-0.7933369199849631 94:1 250:1 401:1 518:1 623:1 759:1 
-1 
-1 250:1 457:1 759:1 
-0.5201463005175071 250:1 251:1 525:1 579:1 759:1 
-0.8782570195582237 251:1 588:1 
-1 207:1 250:1 627:1 664:1 757:1 759:1 
-1 65:1 250:1 252:1 573:1 759:1 773:1 
-0.8488058319189995 66:1 207:1 250:1 271:1 759:1 
-0.3184494260364512 19:1 250:1 251:1 387:1 401:1 518:1 759:1 
-1 250:1 350:1 579:1 617:1 759:1 
-1 74:1 104:1 250:1 293:1 348:1 573:1 715:1 759:1 
-1 264:1 
-1 250:1 275:1 759:1 
-0.155501980243946 128:1 147:1 752:1 
-1 160:1 250:1 286:1 640:1 750:1 759:1 
-0.4101063528489082 416:1 788:1 804:1 
-1 250:1 664:1 759:1 
-1 84:1 204:1 250:1 759:1 
-1 250:1 617:1 759:1 
-0.2795604661121408 250:1 391:1 759:1 
-1 250:1 401:1 518:1 738:1 759:1 
-1 250:1 434:1 632:1 640:1 664:1 666:1 716:1 759:1 
-0.6743905133064414 250:1 264:1 759:1 
-1 154:1 214:1 250:1 710:1 759:1 797:1 
-0.7933733235079236 207:1 243:1 250:1 627:1 664:1 759:1 
-1 251:1 387:1 664:1 679:1 
-1 250:1 401:1 518:1 759:1 
-1 250:1 270:1 561:1 759:1 
-0.1811453433731589 56:1 250:1 330:1 759:1 
-0.8416353225202705 29:1 350:1 759:1 821:1 
-0.1747267631922643 250:1 381:1 568:1 682:1 688:1 759:1 
-0.6650708968267027 250:1 689:1 759:1 784:1 
-1 250:1 251:1 368:1 413:1 627:1 759:1 821:1 
-1 126:1 236:1 250:1 271:1 759:1 821:1 
-1 234:1 250:1 275:1 759:1 851:1 
-1 251:1 466:1 
-1 250:1 617:1 759:1 
-0.855136204221191 251:1 464:1 
-0.4861529896688451 29:1 250:1 759:1 
-0.9496810147414708 12:1 152:1 207:1 250:1 400:1 401:1 518:1 759:1 
-0.3343006585835664 154:1 575:1 681:1 833:1 
-1 159:1 250:1 391:1 514:1 759:1 833:1 
-1 250:1 391:1 759:1 833:1 
-0.3936142931152518 7:1 215:1 250:1 527:1 611:1 710:1 757:1 759:1 833:1 
-0.7032761156842602 250:1 278:1 527:1 759:1 815:1 
-1 250:1 259:1 306:1 310:1 687:1 710:1 759:1 820:1 
-1 251:1 
-1 250:1 664:1 759:1 
-1 250:1 401:1 518:1 527:1 759:1 
-0.5356088394016993 101:1 250:1 759:1 
-1 207:1 250:1 305:1 573:1 759:1 
-1 246:1 250:1 759:1 
-1 140:1 250:1 742:1 759:1 
-1 250:1 617:1 759:1 
-1 250:1 401:1 518:1 759:1 
-1 250:1 320:1 328:1 362:1 685:1 759:1 
-0.1136417523321263 413:1 667:1 788:1 840:1 842:1 
-0.8924992239080263 100:1 144:1 250:1 348:1 440:1 759:1 844:1 
-0.2940242571654927 250:1 348:1 387:1 397:1 759:1 788:1 842:1 
-1 235:1 250:1 271:1 310:1 759:1 821:1 833:1 
-1 37:1 79:1 250:1 336:1 716:1 759:1 849:1 
-1 250:1 271:1 759:1 833:1 
-0.194580048326197 29:1 37:1 98:1 250:1 310:1 510:1 759:1 
-1 66:1 250:1 510:1 759:1 835:1 
-1 250:1 336:1 716:1 759:1 849:1 
-1 178:1 250:1 617:1 759:1 
-0.9052955348529869 250:1 578:1 579:1 759:1 
-0.4307526012313132 250:1 264:1 301:1 441:1 518:1 730:1 759:1 821:1 
-0.616825979638989 8:1 9:1 124:1 250:1 519:1 759:1 809:1 810:1 
-1 66:1 250:1 759:1 
-0.1735123339971498 250:1 310:1 518:1 759:1 842:1 
-1 250:1 329:1 759:1 851:1 
-1 250:1 350:1 664:1 759:1 
-1 250:1 664:1 759:1 
-1 250:1 391:1 759:1 
-0.6381104592937294 250:1 265:1 310:1 660:1 759:1 
-0.2455854655757653 251:1 561:1 699:1 751:1 783:1 
-1 251:1 265:1 298:1 832:1 
-0.6862042667698024 29:1 250:1 413:1 759:1 
-0.3242546372376869 75:1 250:1 578:1 759:1 
-1 250:1 576:1 759:1 849:1 
-1 59:1 251:1 387:1 615:1 
-1 250:1 576:1 759:1 821:1 849:1 
-0.8438869421767986 66:1 250:1 759:1 
-1 115:1 271:1 278:1 
-1 232:1 250:1 251:1 664:1 759:1 842:1 
-0.4024413365921885 415:1 832:1 
-1 13:1 246:1 251:1 
-1 134:1 250:1 303:1 667:1 696:1 759:1 835:1 
-0.8640960342235425 250:1 413:1 576:1 718:1 759:1 
-0.6417306173707695 250:1 698:1 759:1 
-1 60:1 207:1 250:1 664:1 759:1 
-1 59:1 207:1 250:1 759:1 821:1 
-1 59:1 250:1 759:1 
-1 66:1 161:1 250:1 452:1 759:1 833:1 
-0.4556251243072002 250:1 514:1 738:1 759:1 854:1 
-1 250:1 270:1 759:1 821:1 
-1 59:1 250:1 759:1 821:1 
-1 140:1 251:1 855:1 
-1 232:1 250:1 401:1 518:1 759:1 821:1 
-1 250:1 251:1 413:1 627:1 759:1 
-1 250:1 759:1 826:1 
-0.05074918224002294 93:1 225:1 250:1 401:1 518:1 759:1 821:1 830:1 
-1 29:1 66:1 232:1 250:1 664:1 759:1 
-1 250:1 251:1 310:1 664:1 759:1 
-1 180:1 232:1 250:1 321:1 664:1 759:1 
-1 72:1 232:1 250:1 609:1 664:1 759:1 
-1 232:1 250:1 401:1 518:1 664:1 759:1 821:1 
-1 250:1 275:1 759:1 851:1 
-0.7362319313872968 250:1 391:1 413:1 746:1 759:1 792:1 833:1 
-1 232:1 251:1 401:1 518:1 821:1 
-0.6194564505283884 232:1 250:1 321:1 609:1 664:1 759:1 
-1 232:1 250:1 664:1 759:1 821:1 
-1 250:1 251:1 264:1 305:1 413:1 715:1 759:1 
-1 250:1 626:1 664:1 730:1 759:1 
-0.6481275102737653 207:1 
-1 251:1 617:1 
-0.4564074383858462 72:1 250:1 560:1 759:1 833:1 
-1 251:1 280:1 664:1 
-0.5578309545004313 20:1 220:1 
-0.147330385792337 174:1 212:1 251:1 449:1 511:1 
-1 168:1 250:1 626:1 759:1 798:1 
-0.8375436253467524 163:1 250:1 278:1 400:1 557:1 664:1 759:1 788:1 
-1 47:1 250:1 251:1 581:1 664:1 759:1 
-1 751:1 
-0.4425821978345565 213:1 250:1 391:1 514:1 571:1 664:1 757:1 759:1 
-1 150:1 232:1 250:1 730:1 759:1 812:1 
-1 250:1 560:1 759:1 
-1 250:1 328:1 395:1 561:1 759:1 
-1 250:1 303:1 391:1 401:1 518:1 759:1 821:1 833:1 
-1 250:1 303:1 391:1 759:1 833:1 
-0.07803714262651075 250:1 415:1 664:1 759:1 871:1 
-1 212:1 250:1 759:1 
-1 251:1 413:1 449:1 787:1 
-1 250:1 251:1 334:1 368:1 387:1 429:1 596:1 759:1 
-1 29:1 250:1 251:1 759:1 
-1 66:1 250:1 310:1 615:1 710:1 759:1 
-1 146:1 250:1 617:1 627:1 759:1 847:1 854:1 
-0.5736113569535521 621:1 
-1 42:1 60:1 
-1 250:1 275:1 696:1 759:1 
-1 146:1 250:1 759:1 847:1 854:1 
-1 251:1 401:1 518:1 
-1 250:1 429:1 440:1 759:1 844:1 
-1 
-0.3315951994642337 250:1 251:1 331:1 584:1 759:1 812:1 821:1 
-0.9478657247471511 250:1 298:1 310:1 401:1 518:1 561:1 759:1 
-1 168:1 250:1 251:1 759:1 798:1 821:1 
-0.4495918813136349 250:1 251:1 289:1 584:1 759:1 812:1 821:1 
-0.9080139876892597 35:1 251:1 
-1 250:1 627:1 759:1 
-1 207:1 250:1 617:1 759:1 
-0.4160492288058957 220:1 250:1 617:1 713:1 759:1 
-1 250:1 251:1 584:1 759:1 812:1 821:1 
-1 250:1 429:1 514:1 759:1 787:1 821:1 
-1 250:1 359:1 401:1 518:1 699:1 759:1 
-1 251:1 304:1 
-0.3279666087699071 250:1 251:1 759:1 812:1 821:1 
-1 60:1 234:1 251:1 833:1 
-0.5480006802594536 183:1 250:1 699:1 759:1 
-1 250:1 664:1 759:1 
-0.7266360431182175 12:1 207:1 250:1 278:1 401:1 487:1 518:1 730:1 759:1 855:1 
-1 59:1 250:1 627:1 759:1 
-1 29:1 74:1 250:1 759:1 
-1 250:1 251:1 584:1 759:1 812:1 821:1 
-1 140:1 239:1 250:1 759:1 
-1 207:1 213:1 234:1 250:1 389:1 573:1 664:1 759:1 842:1 
-1 251:1 536:1 746:1 787:1 806:1 
-1 66:1 205:1 207:1 250:1 709:1 710:1 759:1 851:1 
-0.3840291317459347 26:1 250:1 510:1 759:1 
-1 140:1 251:1 821:1 
-0.7676671370677879 27:1 178:1 207:1 251:1 
-1 207:1 250:1 401:1 415:1 518:1 759:1 
-0.2170142249791627 207:1 250:1 368:1 401:1 518:1 680:1 759:1 
-0.7297623027492499 250:1 275:1 305:1 759:1 837:1 
-0.9250735466949945 234:1 250:1 251:1 277:1 389:1 759:1 821:1 
-1 250:1 401:1 518:1 752:1 759:1 833:1 
-1 207:1 234:1 250:1 389:1 664:1 759:1 
-0.2233704970379404 9:1 60:1 250:1 626:1 759:1 821:1 855:1 
-0.2654107397576794 250:1 275:1 401:1 728:1 759:1 821:1 842:1 
-0.08835049749676165 206:1 250:1 251:1 351:1 387:1 759:1 855:1 
-0.4856041917462873 250:1 692:1 759:1 
-1 250:1 401:1 518:1 667:1 720:1 759:1 
-1 
-0.5486388392769614 250:1 370:1 429:1 540:1 619:1 715:1 759:1 
-0.7684669165804023 205:1 250:1 275:1 627:1 759:1 
-0.8617640851412105 221:1 250:1 759:1 833:1 
-1 235:1 250:1 580:1 759:1 826:1 
-1 250:1 251:1 
-0.08152967444128492 250:1 455:1 759:1 821:1 
-0.2330997530581653 250:1 452:1 455:1 759:1 821:1 
-1 250:1 310:1 455:1 759:1 821:1 
-1 236:1 250:1 405:1 751:1 759:1 
-0.2393658354118963 250:1 265:1 757:1 759:1 842:1 
-0.9162837407689561 410:1 441:1 524:1 648:1 855:1 865:1 
-0.2768397454152741 251:1 405:1 687:1 751:1 858:1 
-1 111:1 250:1 759:1 
-1 207:1 251:1 
-0.3302845425617067 250:1 395:1 536:1 759:1 
-1 60:1 234:1 
-0.8972420420954185 66:1 90:1 250:1 271:1 303:1 391:1 413:1 429:1 664:1 759:1 830:1 833:1 
-0.6664123825387267 93:1 250:1 452:1 759:1 
-1 250:1 264:1 759:1 
-1 44:1 207:1 218:1 250:1 439:1 759:1 
-0.5506893940990043 251:1 715:1 
-1 250:1 341:1 391:1 401:1 429:1 518:1 759:1 821:1 851:1 
-0.6532153561800992 250:1 305:1 391:1 404:1 525:1 696:1 715:1 759:1 842:1 
-1 250:1 500:1 617:1 759:1 
-1 44:1 218:1 250:1 439:1 759:1 
-0.3298461285173632 250:1 303:1 657:1 759:1 832:1 833:1 842:1 
-1 96:1 251:1 413:1 
-0.07255794597982011 71:1 250:1 413:1 487:1 518:1 752:1 759:1 
-1 250:1 726:1 735:1 759:1 
-1 250:1 672:1 709:1 710:1 751:1 759:1 
-1 74:1 250:1 401:1 518:1 744:1 759:1 821:1 
-1 44:1 120:1 218:1 251:1 439:1 
-1 250:1 370:1 561:1 619:1 759:1 
-1 207:1 251:1 
-1 44:1 218:1 250:1 288:1 439:1 627:1 759:1 
-1 250:1 275:1 391:1 759:1 
-1 212:1 250:1 759:1 
-0.6982193078630345 250:1 315:1 379:1 441:1 759:1 
-1 250:1 271:1 401:1 756:1 759:1 
-0.4941411162937896 224:1 250:1 264:1 415:1 441:1 759:1 783:1 
-1 140:1 250:1 759:1 
-1 251:1 406:1 666:1 700:1 
-1 187:1 250:1 657:1 701:1 759:1 781:1 788:1 826:1 
-1 187:1 251:1 657:1 701:1 781:1 788:1 826:1 
-0.5127415569759257 250:1 386:1 706:1 710:1 752:1 759:1 815:1 842:1 
-1 657:1 751:1 752:1 
-1 250:1 666:1 700:1 757:1 759:1 826:1 
-0.6499018861766052 207:1 250:1 627:1 666:1 700:1 759:1 773:1 
-0.5188330141685397 310:1 429:1 830:1 
-0.4625244093902771 12:1 250:1 334:1 545:1 759:1 821:1 
-0.2878300432014139 250:1 310:1 664:1 759:1 
-1 207:1 251:1 401:1 518:1 
-1 93:1 207:1 212:1 250:1 759:1 833:1 
-1 250:1 271:1 664:1 759:1 821:1 833:1 
-1 206:1 250:1 310:1 759:1 
-0.2036961574279683 251:1 266:1 304:1 357:1 368:1 387:1 510:1 
-0.239362863503865 66:1 207:1 250:1 401:1 518:1 615:1 759:1 
-0.2801333990377362 227:1 574:1 
-1 91:1 250:1 291:1 599:1 759:1 
-1 250:1 709:1 710:1 759:1 
-1 13:1 250:1 265:1 759:1 
-1 7:1 250:1 710:1 759:1 
-0.2848098509873247 116:1 212:1 250:1 617:1 759:1 
-1 250:1 709:1 710:1 759:1 
-1 250:1 709:1 710:1 759:1 
-1 441:1 
-1 207:1 250:1 401:1 518:1 759:1 
-1 250:1 759:1 826:1 
-1 250:1 401:1 518:1 686:1 759:1 
-1 250:1 413:1 759:1 826:1 
-1 42:1 207:1 250:1 275:1 759:1 831:1 833:1 
-1 205:1 271:1 611:1 710:1 717:1 
-1 13:1 26:1 250:1 440:1 716:1 759:1 844:1 
-1 72:1 232:1 250:1 759:1 
-1 232:1 250:1 514:1 664:1 687:1 733:1 759:1 
-1 232:1 251:1 441:1 609:1 664:1 687:1 821:1 
-0.8665571294789278 250:1 313:1 461:1 730:1 759:1 
-0.2189516513492545 250:1 413:1 441:1 759:1 815:1 
-1 251:1 400:1 746:1 
-1 250:1 627:1 759:1 
-1 72:1 232:1 250:1 759:1 
-1 
-1 206:1 207:1 250:1 401:1 756:1 759:1 
-1 250:1 401:1 518:1 759:1 
-1 212:1 250:1 696:1 734:1 759:1 
-0.7802752102562103 250:1 310:1 330:1 759:1 830:1 
-1 250:1 664:1 756:1 759:1 
-1 42:1 250:1 759:1 
-0.572737207615557 250:1 275:1 759:1 
-1 251:1 832:1 
-1 232:1 250:1 666:1 759:1 
