svm_type c_svc
kernel_type rbf
gamma 0.00101626
nr_class 2
total_sv 525
rho 0.964158
label 1 -1
nr_sv 196 329
SV
1 291:1 317:1 577:1 703:1 856:1 
1 108:1 110:1 167:1 291:1 686:1 741:1 856:1 
1 177:1 291:1 392:1 676:1 856:1 938:1 
1 291:1 452:1 515:1 578:1 676:1 741:1 770:1 856:1 944:1 
1 80:1 109:1 241:1 291:1 704:1 745:1 856:1 
1 112:1 291:1 676:1 741:1 856:1 
1 142:1 241:1 291:1 676:1 704:1 745:1 800:1 801:1 856:1 
1 291:1 518:1 690:1 856:1 
1 291:1 467:1 676:1 856:1 
1 249:1 352:1 676:1 808:1 
1 271:1 282:1 291:1 452:1 578:1 745:1 800:1 801:1 856:1 
1 53:1 91:1 117:1 273:1 291:1 676:1 780:1 856:1 
1 80:1 109:1 292:1 687:1 690:1 704:1 
1 328:1 481:1 801:1 846:1 
1 191:1 292:1 676:1 741:1 
1 473:1 944:1 
1 291:1 352:1 452:1 578:1 856:1 
1 292:1 352:1 686:1 768:1 
1 291:1 358:1 398:1 686:1 856:1 
1 291:1 741:1 856:1 
1 50:1 191:1 291:1 676:1 741:1 856:1 944:1 
1 291:1 452:1 578:1 671:1 856:1 
1 9:1 47:1 292:1 304:1 468:1 745:1 944:1 
1 292:1 452:1 578:1 676:1 741:1 
1 112:1 142:1 193:1 291:1 576:1 676:1 741:1 856:1 
1 247:1 291:1 452:1 578:1 676:1 687:1 741:1 856:1 
1 241:1 291:1 364:1 379:1 745:1 800:1 801:1 856:1 
1 292:1 457:1 
1 291:1 632:1 856:1 968:1 
1 142:1 291:1 676:1 741:1 856:1 
1 73:1 
1 73:1 291:1 800:1 801:1 856:1 
1 291:1 687:1 741:1 856:1 
1 291:1 676:1 741:1 856:1 
1 291:1 452:1 578:1 671:1 856:1 
1 73:1 108:1 291:1 406:1 741:1 856:1 
1 241:1 291:1 591:1 704:1 745:1 856:1 
1 73:1 292:1 452:1 578:1 704:1 944:1 
1 241:1 291:1 452:1 856:1 931:1 
1 291:1 806:1 808:1 856:1 
1 73:1 291:1 317:1 856:1 
1 291:1 743:1 856:1 
1 73:1 193:1 241:1 291:1 452:1 578:1 856:1 
1 291:1 317:1 856:1 
1 22:1 241:1 271:1 291:1 577:1 637:1 745:1 856:1 943:1 
1 292:1 317:1 436:1 511:1 552:1 690:1 
1 78:1 291:1 690:1 785:1 856:1 
1 255:1 292:1 452:1 578:1 704:1 938:1 
1 241:1 291:1 313:1 452:1 578:1 856:1 944:1 
1 137:1 241:1 291:1 452:1 578:1 856:1 
1 178:1 291:1 856:1 
1 291:1 616:1 784:1 856:1 938:1 
1 137:1 241:1 291:1 452:1 578:1 856:1 
1 247:1 292:1 626:1 
1 241:1 291:1 704:1 848:1 856:1 944:1 
1 291:1 347:1 452:1 578:1 768:1 856:1 
1 283:1 291:1 435:1 778:1 816:1 856:1 
1 292:1 676:1 847:1 
1 292:1 553:1 800:1 801:1 
1 111:1 292:1 452:1 590:1 
1 292:1 641:1 938:1 
1 241:1 291:1 313:1 687:1 856:1 926:1 931:1 
1 73:1 241:1 291:1 690:1 800:1 801:1 856:1 
1 241:1 291:1 704:1 745:1 856:1 
1 241:1 291:1 591:1 690:1 745:1 856:1 
1 73:1 79:1 292:1 452:1 578:1 
1 112:1 193:1 291:1 468:1 847:1 856:1 938:1 
1 173:1 268:1 292:1 703:1 
1 178:1 291:1 345:1 631:1 688:1 768:1 856:1 
1 241:1 291:1 292:1 687:1 690:1 745:1 856:1 
1 292:1 300:1 
1 116:1 291:1 397:1 770:1 856:1 
1 291:1 452:1 578:1 856:1 966:1 
1 291:1 856:1 938:1 
1 291:1 646:1 647:1 856:1 
1 291:1 745:1 768:1 856:1 
1 241:1 269:1 291:1 690:1 848:1 856:1 944:1 
1 291:1 741:1 745:1 856:1 879:1 892:1 931:1 
1 193:1 291:1 856:1 879:1 892:1 
1 292:1 311:1 578:1 
1 190:1 291:1 622:1 856:1 911:1 912:1 
1 10:1 291:1 801:1 856:1 879:1 892:1 
1 241:1 292:1 452:1 578:1 687:1 690:1 704:1 892:1 
1 254:1 263:1 292:1 530:1 571:1 
1 241:1 291:1 703:1 745:1 856:1 
1 291:1 318:1 628:1 690:1 830:1 856:1 
1 222:1 292:1 745:1 
1 291:1 483:1 856:1 
1 33:1 291:1 676:1 688:1 856:1 
1 291:1 292:1 351:1 856:1 
1 291:1 741:1 852:1 856:1 
1 241:1 291:1 452:1 578:1 768:1 856:1 892:1 
1 291:1 856:1 938:1 
1 240:1 291:1 292:1 745:1 856:1 
1 291:1 686:1 833:1 856:1 892:1 944:1 
1 222:1 291:1 441:1 856:1 
1 241:1 292:1 693:1 
1 291:1 436:1 855:1 856:1 
1 292:1 454:1 704:1 947:1 
1 292:1 452:1 578:1 944:1 
1 222:1 291:1 856:1 
1 75:1 292:1 
1 16:1 419:1 904:1 944:1 
1 291:1 366:1 452:1 578:1 801:1 856:1 
1 79:1 291:1 688:1 856:1 
1 30:1 160:1 291:1 568:1 745:1 856:1 
1 51:1 291:1 317:1 352:1 452:1 468:1 556:1 578:1 801:1 848:1 856:1 
1 241:1 282:1 291:1 704:1 745:1 760:1 856:1 
1 291:1 687:1 690:1 811:1 856:1 
1 291:1 691:1 824:1 856:1 
1 110:1 292:1 542:1 
1 251:1 255:1 538:1 737:1 785:1 912:1 
1 292:1 452:1 538:1 690:1 
1 291:1 855:1 856:1 
1 108:1 110:1 451:1 555:1 740:1 943:1 
1 291:1 538:1 686:1 856:1 
1 255:1 291:1 827:1 856:1 
1 35:1 247:1 291:1 304:1 621:1 624:1 741:1 855:1 856:1 
1 190:1 237:1 291:1 292:1 452:1 622:1 856:1 931:1 938:1 
1 291:1 538:1 856:1 
1 190:1 291:1 622:1 724:1 856:1 879:1 
1 190:1 291:1 622:1 747:1 833:1 856:1 
1 291:1 352:1 452:1 856:1 931:1 938:1 
1 79:1 291:1 307:1 317:1 495:1 626:1 856:1 
1 291:1 317:1 508:1 555:1 593:1 856:1 
1 291:1 593:1 856:1 879:1 
1 241:1 291:1 856:1 
1 291:1 704:1 800:1 801:1 856:1 
1 247:1 248:1 263:1 291:1 848:1 856:1 
1 291:1 452:1 578:1 856:1 875:1 
1 452:1 578:1 737:1 741:1 
1 267:1 291:1 842:1 856:1 
1 292:1 441:1 452:1 572:1 578:1 650:1 800:1 801:1 944:1 
1 292:1 452:1 495:1 578:1 
1 137:1 291:1 452:1 578:1 704:1 801:1 856:1 
1 291:1 465:1 674:1 785:1 856:1 
1 11:1 12:1 291:1 392:1 856:1 
1 291:1 452:1 578:1 856:1 
1 291:1 555:1 704:1 745:1 856:1 914:1 
1 291:1 555:1 686:1 856:1 914:1 
1 241:1 291:1 424:1 452:1 578:1 856:1 
1 291:1 856:1 
1 291:1 511:1 856:1 
1 263:1 269:1 291:1 465:1 688:1 787:1 856:1 
1 241:1 291:1 441:1 693:1 848:1 856:1 944:1 
1 291:1 452:1 465:1 626:1 772:1 856:1 
1 291:1 856:1 953:1 
1 241:1 291:1 704:1 856:1 
1 241:1 291:1 452:1 578:1 690:1 856:1 
1 241:1 292:1 452:1 462:1 578:1 728:1 924:1 932:1 977:1 
1 291:1 704:1 801:1 856:1 924:1 930:1 932:1 
1 291:1 320:1 541:1 690:1 856:1 
1 46:1 240:1 292:1 452:1 578:1 704:1 
1 291:1 704:1 856:1 924:1 932:1 
1 352:1 436:1 745:1 769:1 833:1 856:1 
1 268:1 291:1 745:1 800:1 801:1 856:1 871:1 
1 292:1 452:1 578:1 838:1 
1 154:1 292:1 301:1 481:1 938:1 
1 241:1 269:1 291:1 292:1 374:1 690:1 856:1 912:1 
1 46:1 240:1 241:1 292:1 452:1 578:1 852:1 944:1 
1 291:1 301:1 465:1 856:1 
1 291:1 307:1 770:1 856:1 
1 10:1 291:1 690:1 801:1 856:1 
1 117:1 268:1 291:1 292:1 745:1 856:1 871:1 
1 62:1 103:1 134:1 291:1 452:1 578:1 856:1 
1 241:1 291:1 856:1 
1 300:1 572:1 
1 270:1 291:1 483:1 690:1 856:1 
1 292:1 452:1 578:1 
1 66:1 
1 292:1 441:1 462:1 585:1 728:1 785:1 888:1 952:1 
1 92:1 291:1 856:1 
1 291:1 301:1 785:1 856:1 
1 48:1 291:1 330:1 749:1 816:1 856:1 
1 292:1 301:1 495:1 688:1 
1 8:1 247:1 320:1 452:1 578:1 704:1 
1 267:1 291:1 301:1 358:1 452:1 455:1 483:1 578:1 785:1 856:1 
1 268:1 291:1 686:1 745:1 856:1 
1 191:1 249:1 268:1 291:1 446:1 745:1 815:1 856:1 
1 291:1 745:1 856:1 
1 10:1 178:1 292:1 452:1 578:1 768:1 801:1 941:1 
1 81:1 120:1 240:1 268:1 292:1 335:1 839:1 
1 73:1 193:1 291:1 292:1 770:1 856:1 
1 268:1 291:1 292:1 690:1 856:1 870:1 970:1 
1 73:1 291:1 745:1 856:1 
1 240:1 690:1 745:1 
1 291:1 347:1 577:1 785:1 815:1 856:1 
1 30:1 291:1 379:1 494:1 856:1 955:1 
1 292:1 745:1 944:1 
1 10:1 268:1 283:1 291:1 352:1 436:1 452:1 578:1 801:1 856:1 
1 117:1 268:1 292:1 452:1 578:1 687:1 690:1 745:1 
1 291:1 801:1 856:1 
1 54:1 436:1 763:1 892:1 
1 54:1 436:1 892:1 893:1 
1 892:1 
1 291:1 436:1 763:1 856:1 893:1 
-1 240:1 291:1 687:1 704:1 856:1 
-1 142:1 291:1 856:1 
-0.6485722859524324 291:1 784:1 856:1 
-1 292:1 
-0.6132910712905485 2:1 9:1 291:1 304:1 441:1 679:1 856:1 
-0.1882671294339936 178:1 291:1 515:1 856:1 912:1 
-1 291:1 317:1 495:1 856:1 
-0.8943454275557063 241:1 291:1 848:1 856:1 944:1 
-0.5716904589467809 178:1 291:1 292:1 801:1 856:1 865:1 912:1 
-0.1049455723630495 263:1 291:1 436:1 465:1 495:1 541:1 576:1 856:1 
-0.8894879287655302 291:1 301:1 352:1 436:1 690:1 799:1 856:1 
-1 190:1 291:1 320:1 622:1 676:1 856:1 
-0.7355616775959526 33:1 112:1 190:1 291:1 622:1 856:1 
-0.8940392206732634 241:1 247:1 291:1 292:1 397:1 741:1 856:1 
-0.5325548529406685 222:1 291:1 404:1 626:1 745:1 856:1 
-1 54:1 379:1 436:1 467:1 
-0.6380737241539867 137:1 192:1 247:1 634:1 944:1 
-1 291:1 292:1 468:1 478:1 690:1 785:1 856:1 
-0.1082344714565578 44:1 83:1 157:1 241:1 291:1 577:1 745:1 800:1 801:1 847:1 856:1 
-0.1916567393228381 122:1 291:1 317:1 358:1 452:1 578:1 856:1 
-0.4635735374164153 291:1 856:1 938:1 943:1 
-0.6050266279364749 50:1 291:1 352:1 856:1 944:1 
-0.1874065934211827 1:1 30:1 241:1 291:1 292:1 856:1 892:1 
-0.290350907728478 285:1 292:1 452:1 
-0.357357452946538 291:1 438:1 704:1 801:1 856:1 
-0.3235742458454897 688:1 785:1 
-0.8145262138736624 267:1 291:1 745:1 760:1 856:1 
-0.2801471479260652 734:1 838:1 
-0.214906824310739 100:1 291:1 292:1 577:1 745:1 800:1 801:1 856:1 
-0.8213070861606452 8:1 291:1 483:1 704:1 856:1 
-0.2157348705428089 291:1 313:1 345:1 441:1 483:1 856:1 944:1 
-0.1490254745473334 50:1 173:1 291:1 770:1 856:1 
-0.8050436562552169 249:1 291:1 313:1 856:1 944:1 
-0.1238489023049433 291:1 541:1 577:1 604:1 856:1 
-0.7095611315021528 110:1 241:1 269:1 292:1 316:1 892:1 931:1 
-0.7356881214811247 73:1 241:1 282:1 291:1 452:1 578:1 687:1 704:1 856:1 
-0.125221209538471 73:1 291:1 358:1 576:1 687:1 856:1 
-0.7256891218833088 137:1 241:1 291:1 386:1 445:1 745:1 856:1 912:1 
-1 73:1 291:1 452:1 578:1 856:1 
-0.359067385698999 291:1 511:1 602:1 848:1 856:1 
-0.7529506866628548 108:1 451:1 
-0.2635040417283111 241:1 452:1 578:1 916:1 944:1 
-1 241:1 291:1 690:1 745:1 856:1 
-0.1971658743574956 73:1 135:1 240:1 271:1 291:1 364:1 770:1 856:1 959:1 
-0.1649631972485328 193:1 291:1 351:1 608:1 770:1 800:1 801:1 856:1 944:1 
-0.935369233356603 241:1 292:1 452:1 578:1 687:1 
-0.5864136877367782 291:1 314:1 375:1 452:1 578:1 690:1 741:1 856:1 
-0.3912196372525867 291:1 436:1 452:1 578:1 704:1 856:1 
-0.4823932991708395 241:1 269:1 452:1 578:1 741:1 931:1 
-1 893:1 
-0.1344942705096916 291:1 292:1 452:1 578:1 630:1 690:1 856:1 
-0.2346911461374318 16:1 73:1 283:1 291:1 856:1 
-1 241:1 291:1 690:1 745:1 856:1 
-1 291:1 452:1 578:1 856:1 
-0.1842275987769093 213:1 253:1 267:1 291:1 434:1 741:1 856:1 930:1 
-1 291:1 436:1 452:1 578:1 704:1 856:1 
-0.09682014116130896 291:1 317:1 441:1 644:1 856:1 892:1 
-0.3321704088368292 291:1 704:1 856:1 938:1 
-0.4135863122632218 51:1 241:1 291:1 292:1 690:1 856:1 
-0.1105774964666217 267:1 740:1 785:1 984:1 
-0.0626541839610685 84:1 367:1 483:1 892:1 
-1 112:1 291:1 452:1 578:1 856:1 
-0.5323570767973426 134:1 291:1 452:1 578:1 856:1 944:1 
-0.7485780583400066 35:1 291:1 624:1 856:1 
-1 249:1 291:1 646:1 647:1 768:1 856:1 888:1 
-0.7206747045684212 291:1 352:1 452:1 578:1 816:1 848:1 856:1 
-0.4197755795488975 134:1 193:1 291:1 381:1 768:1 847:1 856:1 
-0.6898966748038575 291:1 856:1 947:1 
-0.2337131974650636 16:1 54:1 241:1 372:1 436:1 452:1 578:1 767:1 
-0.6273353693016046 10:1 111:1 291:1 441:1 801:1 856:1 931:1 941:1 
-1 291:1 452:1 455:1 578:1 856:1 
-0.4226425646134311 10:1 51:1 73:1 291:1 627:1 800:1 801:1 856:1 975:1 
-0.3313367556350497 263:1 268:1 291:1 704:1 800:1 801:1 856:1 
-1 291:1 704:1 745:1 856:1 
-1 73:1 291:1 687:1 800:1 801:1 856:1 943:1 944:1 
-0.7158728701998619 291:1 626:1 639:1 741:1 745:1 856:1 
-0.1195636859782351 190:1 291:1 495:1 622:1 856:1 
-0.09258393740797297 291:1 745:1 784:1 856:1 
-1 283:1 291:1 745:1 801:1 856:1 
-1 240:1 269:1 291:1 741:1 856:1 941:1 
-1 241:1 291:1 704:1 745:1 747:1 856:1 
-1 241:1 291:1 704:1 745:1 800:1 801:1 856:1 
-1 241:1 291:1 704:1 745:1 856:1 
-1 207:1 291:1 317:1 465:1 585:1 676:1 798:1 856:1 
-0.4466829478909308 86:1 108:1 291:1 452:1 578:1 856:1 892:1 
-1 291:1 292:1 347:1 626:1 785:1 856:1 
-0.1862252177049863 241:1 248:1 291:1 292:1 345:1 452:1 467:1 856:1 938:1 
-1 154:1 292:1 
-1 190:1 292:1 320:1 622:1 745:1 808:1 892:1 
-1 291:1 511:1 688:1 856:1 
-0.2167399898168292 282:1 291:1 292:1 572:1 816:1 847:1 856:1 
-0.8246730648131084 468:1 892:1 908:1 
-0.1476226514892208 181:1 249:1 291:1 542:1 801:1 856:1 901:1 
-1 241:1 282:1 291:1 704:1 745:1 856:1 
-1 291:1 452:1 578:1 856:1 
-0.3629360262418606 62:1 291:1 374:1 856:1 
-0.04902596587768517 79:1 160:1 241:1 469:1 816:1 856:1 943:1 
-0.06013596037429034 291:1 431:1 635:1 763:1 771:1 856:1 
-0.2278928933105503 291:1 772:1 856:1 888:1 938:1 
-0.589300861384654 291:1 608:1 688:1 788:1 855:1 856:1 
-0.5504321557550669 193:1 291:1 856:1 912:1 
-0.1812498791634005 248:1 291:1 441:1 483:1 574:1 632:1 816:1 856:1 
-0.3630543302905254 10:1 250:1 283:1 291:1 587:1 682:1 801:1 853:1 856:1 944:1 
-0.5374152928890876 292:1 
-0.5988612349118418 116:1 291:1 856:1 
-1 292:1 300:1 348:1 
-0.6140479582432326 291:1 690:1 856:1 
-1 291:1 452:1 578:1 856:1 
-0.2824568186198007 291:1 452:1 704:1 770:1 856:1 
-1 73:1 291:1 317:1 856:1 
-0.1958871654182776 181:1 292:1 319:1 451:1 483:1 893:1 
-0.3517786324602061 291:1 452:1 541:1 543:1 856:1 966:1 
-0.1935927053671702 220:1 224:1 252:1 291:1 292:1 452:1 568:1 719:1 856:1 892:1 893:1 975:1 
-1 292:1 328:1 846:1 
-0.1274003262682062 73:1 173:1 291:1 307:1 353:1 417:1 460:1 724:1 806:1 856:1 
-0.9224123296302927 291:1 770:1 856:1 871:1 911:1 924:1 944:1 
-0.1501089344529428 11:1 12:1 148:1 291:1 579:1 856:1 918:1 919:1 
-1 105:1 108:1 117:1 241:1 452:1 483:1 578:1 
-0.3847081762487345 255:1 291:1 572:1 690:1 816:1 817:1 856:1 
-0.8541432669937611 46:1 65:1 91:1 240:1 291:1 317:1 690:1 856:1 
-1 73:1 291:1 856:1 
-1 53:1 178:1 291:1 416:1 437:1 676:1 745:1 856:1 931:1 
-0.2376087931997316 270:1 291:1 352:1 510:1 690:1 693:1 856:1 
-0.1346864561973036 160:1 161:1 291:1 345:1 748:1 785:1 856:1 946:1 
-1 66:1 241:1 291:1 577:1 745:1 856:1 
-0.3019762339029577 112:1 247:1 291:1 436:1 856:1 
-0.5265951112338955 108:1 248:1 292:1 631:1 852:1 863:1 
-0.3966325067943084 16:1 292:1 892:1 951:1 
-1 291:1 292:1 676:1 856:1 
-0.06196914385138615 30:1 268:1 291:1 737:1 769:1 782:1 856:1 892:1 
-0.8507592967777279 268:1 291:1 577:1 745:1 856:1 
-0.3609790767811477 268:1 291:1 458:1 741:1 856:1 
-0.2923435942412199 111:1 291:1 452:1 856:1 
-1 73:1 291:1 856:1 892:1 
-0.2647263428677868 177:1 291:1 686:1 704:1 856:1 921:1 
-0.5211983223571155 292:1 690:1 
-1 292:1 745:1 833:1 
-0.2031834608312365 23:1 255:1 277:1 419:1 
-0.08817346807940377 190:1 291:1 320:1 451:1 622:1 745:1 856:1 892:1 
-0.5858077242726865 177:1 291:1 364:1 745:1 856:1 912:1 
-0.5302919822471496 313:1 465:1 811:1 
-0.5918896720472926 73:1 291:1 352:1 687:1 801:1 856:1 938:1 
-1 241:1 291:1 688:1 741:1 745:1 856:1 
-0.6423111990547494 193:1 241:1 291:1 292:1 856:1 938:1 
-0.4241482888934732 271:1 291:1 292:1 704:1 856:1 
-0.2457248941582513 191:1 291:1 398:1 625:1 842:1 856:1 
-0.3085124654568265 173:1 291:1 292:1 704:1 745:1 800:1 801:1 856:1 958:1 965:1 
-0.6257478792745576 292:1 641:1 785:1 977:1 
-0.7342592913319033 291:1 347:1 641:1 745:1 856:1 871:1 
-0.0712057041559883 62:1 104:1 283:1 291:1 495:1 856:1 912:1 
-0.541915172414262 291:1 301:1 374:1 498:1 683:1 856:1 
-0.1789255613123542 81:1 291:1 406:1 741:1 770:1 856:1 
-1 292:1 452:1 578:1 
-1 292:1 690:1 704:1 
-0.7832600101831708 103:1 291:1 518:1 856:1 
-0.3058920711786864 42:1 193:1 292:1 421:1 465:1 778:1 
-0.5215604411489232 268:1 291:1 741:1 841:1 856:1 938:1 
-0.2520059965884236 124:1 172:1 291:1 686:1 745:1 801:1 856:1 
-0.5560600203103301 291:1 435:1 856:1 953:1 
-0.1295368200519569 241:1 291:1 292:1 452:1 578:1 768:1 856:1 911:1 
-0.1506596969452327 30:1 291:1 568:1 856:1 
-1 291:1 741:1 856:1 
-0.6129397311381294 291:1 436:1 441:1 452:1 521:1 745:1 856:1 892:1 
-0.1570846433297611 291:1 424:1 495:1 598:1 688:1 856:1 891:1 
-0.1661778885306401 270:1 292:1 439:1 785:1 
-0.12449007108993 291:1 452:1 578:1 848:1 856:1 944:1 
-0.6575191920879802 291:1 650:1 856:1 
-0.05513368004123054 270:1 292:1 317:1 439:1 589:1 704:1 
-0.08155395119198687 193:1 292:1 451:1 824:1 
-1 241:1 291:1 292:1 452:1 578:1 690:1 856:1 
-0.3888254285880803 291:1 690:1 856:1 938:1 
-0.5761898039531519 291:1 856:1 904:1 
-1 291:1 352:1 741:1 785:1 856:1 931:1 
-0.4740806764547328 143:1 378:1 462:1 495:1 584:1 688:1 728:1 966:1 977:1 
-0.87023387679971 292:1 457:1 770:1 847:1 970:1 
-0.1116725934066432 81:1 291:1 690:1 839:1 856:1 
-0.1301964152282 291:1 292:1 317:1 340:1 856:1 943:1 
-0.218900834524233 81:1 123:1 292:1 307:1 690:1 839:1 
-0.1739479426769777 129:1 292:1 441:1 585:1 785:1 924:1 
-1 291:1 741:1 856:1 968:1 
-0.6022341312590556 291:1 452:1 697:1 703:1 856:1 938:1 
-1 292:1 352:1 452:1 578:1 741:1 
-0.2680780636349407 46:1 48:1 81:1 292:1 452:1 578:1 
-0.4218892991946129 30:1 259:1 291:1 330:1 568:1 856:1 
-0.6820457623066339 47:1 79:1 291:1 744:1 768:1 856:1 
-0.9581228107130559 291:1 556:1 690:1 856:1 
-0.8617592330714763 48:1 167:1 267:1 268:1 292:1 690:1 944:1 
-0.2545820852873599 33:1 291:1 468:1 626:1 856:1 
-1 292:1 690:1 
-0.8245367194593795 241:1 292:1 938:1 
-0.7597448070088756 30:1 81:1 291:1 307:1 379:1 406:1 704:1 769:1 842:1 856:1 944:1 
-0.4801906142970295 160:1 291:1 317:1 441:1 856:1 
-1 241:1 268:1 291:1 703:1 745:1 824:1 856:1 
-0.1550167255683252 291:1 313:1 452:1 852:1 856:1 938:1 
-0.2784489487792438 291:1 436:1 797:1 801:1 848:1 856:1 924:1 953:1 
-1 241:1 292:1 452:1 578:1 
-0.6875405834341864 291:1 292:1 632:1 856:1 
-0.177460115144534 8:1 241:1 291:1 690:1 747:1 780:1 789:1 848:1 856:1 
-1 190:1 237:1 291:1 452:1 578:1 622:1 856:1 
-1 291:1 703:1 856:1 
-0.5141227229091162 60:1 688:1 763:1 
-1 737:1 892:1 
-0.6816130768619793 240:1 241:1 291:1 292:1 452:1 494:1 578:1 686:1 800:1 801:1 806:1 856:1 955:1 
-1 291:1 800:1 801:1 856:1 
-0.2948394644752688 241:1 291:1 856:1 944:1 
-1 241:1 291:1 358:1 452:1 578:1 768:1 770:1 856:1 
-1 241:1 292:1 366:1 686:1 938:1 
-1 291:1 452:1 578:1 686:1 856:1 
-0.4524792483813838 10:1 291:1 397:1 801:1 856:1 936:1 
-1 291:1 452:1 578:1 856:1 
-0.4593186563918168 292:1 358:1 452:1 578:1 874:1 
-1 10:1 291:1 801:1 856:1 
-1 291:1 452:1 578:1 856:1 
-1 291:1 452:1 578:1 686:1 856:1 
-0.2268441208252601 30:1 292:1 352:1 452:1 578:1 686:1 801:1 807:1 911:1 936:1 
-1 291:1 452:1 578:1 741:1 833:1 856:1 
-0.775780849389764 291:1 800:1 801:1 856:1 
-1 292:1 686:1 
-0.2861832160089882 254:1 292:1 429:1 530:1 770:1 931:1 953:1 
-0.4942040071784981 291:1 494:1 801:1 856:1 955:1 
-1 291:1 452:1 578:1 686:1 768:1 856:1 
-0.3043923766475 46:1 241:1 291:1 317:1 856:1 942:1 944:1 
-0.1285539959839563 239:1 283:1 313:1 682:1 686:1 801:1 808:1 
-0.5106253400739249 270:1 291:1 292:1 745:1 856:1 944:1 
-0.04435694875285923 268:1 292:1 745:1 
-1 193:1 268:1 292:1 704:1 745:1 
-1 241:1 268:1 291:1 292:1 704:1 745:1 800:1 801:1 856:1 
-0.1059607793267367 268:1 292:1 529:1 572:1 704:1 801:1 
-0.8095093025662837 291:1 704:1 856:1 
-0.2993452431498155 58:1 268:1 291:1 345:1 452:1 741:1 856:1 931:1 938:1 
-0.5046913795134471 291:1 452:1 577:1 578:1 856:1 
-1 291:1 352:1 452:1 495:1 856:1 938:1 
-0.2768063642546637 241:1 291:1 452:1 856:1 938:1 
-0.4826031864453203 207:1 268:1 291:1 856:1 896:1 932:1 
-0.2636047723972934 193:1 268:1 291:1 452:1 578:1 745:1 856:1 
-0.01159598537673914 241:1 291:1 800:1 801:1 856:1 
-0.1360264297513675 292:1 943:1 
-1 291:1 801:1 856:1 930:1 
-0.5802244204511025 12:1 291:1 856:1 
-1 291:1 452:1 578:1 856:1 
-0.7657452349640703 73:1 241:1 291:1 515:1 856:1 944:1 
-1 178:1 291:1 436:1 481:1 833:1 856:1 
-1 291:1 446:1 452:1 571:1 578:1 856:1 
-0.6929011222147951 291:1 628:1 690:1 830:1 856:1 
-1 92:1 291:1 745:1 856:1 
-1 271:1 317:1 552:1 690:1 745:1 
-0.189661186977262 286:1 291:1 801:1 856:1 
-1 291:1 452:1 578:1 856:1 
-0.03292684682079788 291:1 556:1 632:1 745:1 800:1 801:1 856:1 944:1 959:1 
-1 78:1 291:1 452:1 578:1 856:1 944:1 
-0.631926140499329 291:1 743:1 856:1 
-0.2534549451365505 10:1 291:1 416:1 801:1 856:1 
-0.7459929747174389 241:1 247:1 291:1 704:1 848:1 856:1 944:1 
-0.6060457318240529 222:1 276:1 291:1 621:1 856:1 
-1 73:1 79:1 240:1 241:1 291:1 452:1 578:1 856:1 
-0.7211424188596884 241:1 292:1 466:1 687:1 690:1 704:1 728:1 
-0.1304145025403772 291:1 483:1 856:1 
-1 291:1 785:1 856:1 
-1 291:1 452:1 578:1 671:1 856:1 
-1 452:1 578:1 688:1 800:1 801:1 
-1 191:1 291:1 452:1 578:1 856:1 
-1 291:1 741:1 852:1 856:1 
-0.4858772770908838 419:1 
-0.2368843846592893 33:1 222:1 262:1 291:1 452:1 578:1 856:1 
-1 292:1 452:1 578:1 690:1 
-0.1653436091193822 291:1 345:1 452:1 578:1 626:1 848:1 856:1 944:1 
-1 291:1 292:1 690:1 856:1 
-1 291:1 801:1 856:1 
-0.138485777241001 73:1 291:1 856:1 
-0.5852955279033024 292:1 469:1 591:1 628:1 
-0.3613514346696078 291:1 317:1 745:1 856:1 
-0.4339823853086424 89:1 241:1 291:1 292:1 317:1 351:1 745:1 856:1 938:1 
-1 291:1 741:1 856:1 931:1 
-1 292:1 938:1 
-0.05484802064557044 22:1 291:1 370:1 373:1 568:1 770:1 856:1 944:1 
-0.2306283976493778 104:1 241:1 292:1 693:1 
-0.09098581462863554 241:1 291:1 345:1 452:1 856:1 944:1 
-0.3125907341722106 57:1 291:1 292:1 431:1 737:1 745:1 763:1 771:1 856:1 926:1 
-0.4439610561798143 291:1 780:1 856:1 
-1 241:1 291:1 553:1 693:1 856:1 
-0.2371677924578023 291:1 693:1 856:1 
-0.7225409200304727 22:1 291:1 542:1 856:1 
-1 110:1 291:1 473:1 856:1 
-0.06088301431356875 79:1 160:1 291:1 352:1 856:1 
-0.6533347998693221 263:1 291:1 465:1 787:1 856:1 
-1 292:1 452:1 578:1 687:1 690:1 704:1 
-1 441:1 538:1 800:1 801:1 944:1 
-1 436:1 892:1 
-1 247:1 292:1 555:1 740:1 
-1 291:1 856:1 892:1 
-0.2039585554521883 73:1 193:1 226:1 292:1 352:1 687:1 912:1 
-0.2328553755847338 291:1 465:1 468:1 483:1 856:1 
-0.9700355068807425 291:1 318:1 572:1 768:1 856:1 
-0.3357681243246121 292:1 847:1 
-1 268:1 291:1 509:1 555:1 690:1 856:1 914:1 
-0.1239456305331808 291:1 452:1 578:1 856:1 
-0.5158512850760029 241:1 291:1 311:1 452:1 572:1 578:1 848:1 856:1 
-0.6816074532093248 292:1 352:1 452:1 578:1 691:1 737:1 
-0.3122961646733798 54:1 73:1 291:1 355:1 800:1 801:1 856:1 
-0.6206439145182364 120:1 291:1 335:1 806:1 856:1 
-1 291:1 301:1 856:1 
-0.6782381333034387 191:1 239:1 291:1 852:1 856:1 944:1 952:1 
-1 292:1 301:1 452:1 507:1 578:1 741:1 
-0.3780576232907568 241:1 291:1 704:1 856:1 
-1 79:1 292:1 924:1 
-1 255:1 269:1 292:1 
-1 255:1 292:1 398:1 856:1 
-1 247:1 291:1 465:1 741:1 856:1 938:1 
-1 193:1 268:1 291:1 292:1 745:1 856:1 
-0.5987437178293211 247:1 263:1 291:1 465:1 583:1 741:1 856:1 924:1 
-0.3201489338233091 124:1 234:1 291:1 815:1 828:1 856:1 
-0.3696961173141868 768:1 
-0.2173450004158331 49:1 134:1 555:1 788:1 
-0.3070988777852049 112:1 795:1 
-0.3879114298331736 626:1 724:1 
-0.2541592070831353 263:1 
-0.586663037681972 870:1 
-0.7458407929168647 263:1 307:1 576:1 926:1 
-0.2082563860240375 741:1 865:1 
-0.2420574654314943 62:1 271:1 688:1 745:1 772:1 931:1 
-0.6314001755670873 481:1 
-0.930720317699099 222:1 687:1 808:1 848:1 
-1 944:1 
-0.1627645036365939 46:1 
-0.2206172621004826 173:1 816:1 
-0.3694324762018892 301:1 804:1 842:1 966:1 
-0.2119720501642215 279:1 306:1 469:1 555:1 
-1 687:1 785:1 
-0.1886236700227815 51:1 177:1 261:1 436:1 728:1 
