svm_type c_svc
kernel_type rbf
gamma 0.00101626
nr_class 2
total_sv 313
rho 0.989987
label 1 -1
nr_sv 94 219
SV
1 291:1 317:1 577:1 703:1 856:1 
1 291:1 366:1 452:1 578:1 801:1 856:1 
1 79:1 291:1 688:1 856:1 
1 30:1 160:1 291:1 568:1 745:1 856:1 
1 51:1 291:1 317:1 352:1 452:1 468:1 556:1 578:1 801:1 848:1 856:1 
1 241:1 282:1 291:1 704:1 745:1 760:1 856:1 
1 291:1 687:1 690:1 811:1 856:1 
1 291:1 691:1 824:1 856:1 
1 110:1 292:1 542:1 
1 251:1 255:1 538:1 737:1 785:1 912:1 
1 292:1 452:1 538:1 690:1 
1 291:1 855:1 856:1 
1 108:1 110:1 451:1 555:1 740:1 943:1 
1 291:1 538:1 686:1 856:1 
1 255:1 291:1 827:1 856:1 
1 35:1 247:1 291:1 304:1 621:1 624:1 741:1 855:1 856:1 
1 190:1 237:1 291:1 292:1 452:1 622:1 856:1 931:1 938:1 
1 291:1 538:1 856:1 
1 190:1 291:1 622:1 724:1 856:1 879:1 
1 190:1 291:1 622:1 747:1 833:1 856:1 
1 291:1 352:1 452:1 856:1 931:1 938:1 
1 79:1 291:1 307:1 317:1 495:1 626:1 856:1 
1 291:1 317:1 508:1 555:1 593:1 856:1 
1 291:1 593:1 856:1 879:1 
1 241:1 291:1 856:1 
1 291:1 704:1 800:1 801:1 856:1 
1 247:1 248:1 263:1 291:1 848:1 856:1 
1 291:1 452:1 578:1 856:1 875:1 
1 452:1 578:1 737:1 741:1 
1 267:1 291:1 842:1 856:1 
1 292:1 441:1 452:1 572:1 578:1 650:1 800:1 801:1 944:1 
1 292:1 452:1 495:1 578:1 
1 137:1 291:1 452:1 578:1 704:1 801:1 856:1 
1 291:1 465:1 674:1 785:1 856:1 
1 11:1 12:1 291:1 392:1 856:1 
1 291:1 452:1 578:1 856:1 
1 291:1 555:1 704:1 745:1 856:1 914:1 
1 291:1 555:1 686:1 856:1 914:1 
1 241:1 291:1 424:1 452:1 578:1 856:1 
1 291:1 856:1 
1 291:1 511:1 856:1 
1 263:1 269:1 291:1 465:1 688:1 787:1 856:1 
1 241:1 291:1 441:1 693:1 848:1 856:1 944:1 
1 291:1 452:1 465:1 626:1 772:1 856:1 
1 291:1 856:1 953:1 
1 241:1 291:1 704:1 856:1 
1 241:1 291:1 452:1 578:1 690:1 856:1 
1 241:1 292:1 452:1 462:1 578:1 728:1 924:1 932:1 977:1 
1 291:1 704:1 801:1 856:1 924:1 930:1 932:1 
1 291:1 320:1 541:1 690:1 856:1 
1 46:1 240:1 292:1 452:1 578:1 704:1 
1 291:1 704:1 856:1 924:1 932:1 
1 352:1 436:1 745:1 769:1 833:1 856:1 
1 268:1 291:1 745:1 800:1 801:1 856:1 871:1 
1 292:1 452:1 578:1 838:1 
1 154:1 292:1 301:1 481:1 938:1 
1 241:1 269:1 291:1 292:1 374:1 690:1 856:1 912:1 
1 46:1 240:1 241:1 292:1 452:1 578:1 852:1 944:1 
1 291:1 301:1 465:1 856:1 
1 291:1 307:1 770:1 856:1 
1 10:1 291:1 690:1 801:1 856:1 
1 117:1 268:1 291:1 292:1 745:1 856:1 871:1 
1 62:1 103:1 134:1 291:1 452:1 578:1 856:1 
1 241:1 291:1 856:1 
1 300:1 572:1 
1 270:1 291:1 483:1 690:1 856:1 
1 292:1 452:1 578:1 
1 66:1 
1 292:1 441:1 462:1 585:1 728:1 785:1 888:1 952:1 
1 92:1 291:1 856:1 
1 291:1 301:1 785:1 856:1 
1 48:1 291:1 330:1 749:1 816:1 856:1 
1 292:1 301:1 495:1 688:1 
1 8:1 247:1 320:1 452:1 578:1 704:1 
1 267:1 291:1 301:1 358:1 452:1 455:1 483:1 578:1 785:1 856:1 
1 268:1 291:1 686:1 745:1 856:1 
1 191:1 249:1 268:1 291:1 446:1 745:1 815:1 856:1 
1 291:1 745:1 856:1 
1 10:1 178:1 292:1 452:1 578:1 768:1 801:1 941:1 
1 81:1 120:1 240:1 268:1 292:1 335:1 839:1 
1 73:1 193:1 291:1 292:1 770:1 856:1 
1 268:1 291:1 292:1 690:1 856:1 870:1 970:1 
1 73:1 291:1 745:1 856:1 
1 240:1 690:1 745:1 
1 291:1 347:1 577:1 785:1 815:1 856:1 
1 30:1 291:1 379:1 494:1 856:1 955:1 
1 292:1 745:1 944:1 
1 10:1 268:1 283:1 291:1 352:1 436:1 452:1 578:1 801:1 856:1 
1 117:1 268:1 292:1 452:1 578:1 687:1 690:1 745:1 
1 291:1 801:1 856:1 
1 54:1 436:1 763:1 892:1 
1 54:1 436:1 892:1 893:1 
1 892:1 
1 291:1 436:1 763:1 856:1 893:1 
-0.2131884483161673 30:1 291:1 610:1 719:1 737:1 807:1 856:1 871:1 
-0.1980043338723263 291:1 292:1 639:1 856:1 871:1 931:1 
-0.4531777171739091 291:1 446:1 626:1 737:1 856:1 
-0.6456459878985541 291:1 317:1 495:1 856:1 
-0.3507307045601868 178:1 291:1 292:1 801:1 856:1 865:1 912:1 
-0.9326680122928253 291:1 301:1 352:1 436:1 690:1 799:1 856:1 
-0.381632786998539 54:1 379:1 436:1 467:1 
-0.1632839611941586 192:1 241:1 446:1 452:1 465:1 926:1 
-0.3185268310643464 291:1 292:1 468:1 478:1 690:1 785:1 856:1 
-0.2784052969730198 122:1 291:1 317:1 358:1 452:1 578:1 856:1 
-0.370841422412219 291:1 572:1 690:1 856:1 
-0.8943839032504309 688:1 785:1 
-0.8306399892644669 267:1 291:1 745:1 760:1 856:1 
-0.2341511670970427 734:1 838:1 
-0.6119210905830714 8:1 291:1 483:1 704:1 856:1 
-0.2499223456888567 46:1 241:1 267:1 292:1 452:1 468:1 578:1 908:1 930:1 931:1 965:1 
-0.152779204796944 54:1 465:1 634:1 892:1 
-0.2640393626714934 110:1 241:1 269:1 292:1 316:1 892:1 931:1 
-0.2048478675085207 291:1 307:1 495:1 704:1 856:1 916:1 970:1 
-0.1989541956421596 137:1 241:1 291:1 386:1 445:1 745:1 856:1 912:1 
-0.06891053546357045 114:1 171:1 291:1 451:1 740:1 852:1 856:1 893:1 
-0.2349213481193271 206:1 291:1 307:1 452:1 578:1 856:1 
-1 893:1 
-0.3180943205500687 291:1 577:1 690:1 856:1 
-1 291:1 436:1 452:1 578:1 704:1 856:1 
-0.5854685043886713 51:1 241:1 291:1 292:1 690:1 856:1 
-0.1033745438055177 267:1 740:1 785:1 984:1 
-0.5165303328392724 291:1 317:1 483:1 848:1 856:1 
-1 73:1 240:1 269:1 291:1 856:1 
-0.6190363949252321 190:1 291:1 622:1 856:1 
-0.7567921358808004 35:1 291:1 624:1 856:1 
-0.2197180609179786 291:1 404:1 541:1 621:1 856:1 
-0.1043050022976342 249:1 291:1 646:1 647:1 768:1 856:1 888:1 
-0.2548669599554775 291:1 352:1 452:1 578:1 816:1 848:1 856:1 
-0.1867747215582942 16:1 54:1 241:1 372:1 436:1 452:1 578:1 767:1 
-0.2589481030387278 10:1 111:1 291:1 441:1 801:1 856:1 931:1 941:1 
-0.5673352835980305 291:1 745:1 747:1 856:1 970:1 
-0.3171448280365153 170:1 247:1 268:1 291:1 317:1 452:1 770:1 833:1 856:1 975:1 
-0.2181888341758977 186:1 291:1 495:1 541:1 856:1 953:1 
-0.9041173699651041 291:1 452:1 455:1 578:1 856:1 
-0.4552563998430027 263:1 268:1 291:1 704:1 800:1 801:1 856:1 
-0.3959071569164483 291:1 704:1 745:1 856:1 
-1 283:1 291:1 745:1 801:1 856:1 
-0.5186044103218914 240:1 269:1 291:1 741:1 856:1 941:1 
-0.3483265450484818 240:1 291:1 416:1 690:1 745:1 856:1 
-0.2884831375038599 154:1 291:1 622:1 856:1 
-0.325498184565463 134:1 268:1 291:1 556:1 856:1 
-1 291:1 292:1 347:1 626:1 785:1 856:1 
-0.3832253168801835 154:1 292:1 
-0.128245253283025 267:1 291:1 856:1 
-0.5959321610524533 291:1 511:1 688:1 856:1 
-0.2938259933396911 249:1 291:1 366:1 465:1 586:1 856:1 931:1 
-0.3298907473895871 181:1 249:1 291:1 542:1 801:1 856:1 901:1 
-0.8713877669954619 241:1 282:1 291:1 704:1 745:1 856:1 
-0.1306169052357268 292:1 437:1 745:1 760:1 912:1 
-0.454279127429815 62:1 291:1 374:1 856:1 
-0.06190179513233333 91:1 103:1 241:1 291:1 779:1 833:1 856:1 
-0.2686938948790888 79:1 160:1 241:1 469:1 816:1 856:1 943:1 
-0.2190331575467946 291:1 431:1 635:1 763:1 771:1 856:1 
-0.617460344003962 291:1 772:1 856:1 888:1 938:1 
-0.07272082414370946 248:1 291:1 441:1 483:1 574:1 632:1 816:1 856:1 
-0.1035708089704255 230:1 291:1 452:1 626:1 856:1 
-0.2465078892845015 241:1 291:1 300:1 348:1 704:1 745:1 856:1 
-0.2381573635248944 135:1 267:1 291:1 856:1 870:1 
-0.153721718297861 33:1 291:1 452:1 465:1 556:1 578:1 688:1 856:1 
-0.3385861903225362 291:1 452:1 704:1 770:1 856:1 
-0.09826523755167919 181:1 292:1 319:1 451:1 483:1 893:1 
-0.05783188767297613 220:1 224:1 252:1 291:1 292:1 452:1 568:1 719:1 856:1 892:1 893:1 975:1 
-0.4966502110303456 291:1 770:1 856:1 871:1 911:1 924:1 944:1 
-0.09482918665703367 11:1 12:1 148:1 291:1 579:1 856:1 918:1 919:1 
-0.7332321397661503 105:1 108:1 117:1 241:1 452:1 483:1 578:1 
-0.08937078566241483 292:1 307:1 340:1 943:1 
-0.323827550771364 255:1 291:1 572:1 690:1 816:1 817:1 856:1 
-0.1194871184154049 270:1 291:1 352:1 510:1 690:1 693:1 856:1 
-0.09008534423331614 160:1 161:1 291:1 345:1 748:1 785:1 856:1 946:1 
-0.1928468975105898 240:1 263:1 268:1 291:1 313:1 745:1 848:1 856:1 931:1 938:1 
-0.1410691131865902 46:1 65:1 241:1 247:1 291:1 292:1 704:1 770:1 856:1 
-0.3547513390124028 66:1 241:1 291:1 577:1 745:1 856:1 
-0.2410466879257743 30:1 268:1 291:1 737:1 769:1 782:1 856:1 892:1 
-0.1884998753814343 11:1 12:1 291:1 328:1 634:1 846:1 856:1 
-0.3791780776046418 268:1 291:1 292:1 317:1 745:1 856:1 
-1 268:1 291:1 745:1 856:1 
-0.1976117015126631 248:1 291:1 441:1 572:1 745:1 853:1 856:1 931:1 
-1 292:1 745:1 833:1 
-0.6441548765489707 190:1 291:1 320:1 451:1 622:1 745:1 856:1 892:1 
-0.1020038134508727 248:1 291:1 441:1 572:1 639:1 745:1 853:1 856:1 
-0.2286078211614386 313:1 465:1 811:1 
-0.5060229839160226 46:1 66:1 
-0.1889230070276914 292:1 641:1 785:1 977:1 
-0.1237355106227654 291:1 347:1 641:1 745:1 856:1 871:1 
-0.1857493542630989 62:1 104:1 283:1 291:1 495:1 856:1 912:1 
-0.4639184162510264 291:1 301:1 374:1 498:1 683:1 856:1 
-1 292:1 452:1 578:1 
-0.8314124183336462 291:1 577:1 856:1 
-0.3585084503248413 92:1 190:1 291:1 622:1 856:1 
-0.1548735262047625 226:1 291:1 366:1 690:1 856:1 
-0.1384954391735116 103:1 291:1 518:1 856:1 
-0.03083327783414144 58:1 291:1 358:1 572:1 856:1 917:1 
-0.6938200483038577 291:1 320:1 452:1 578:1 690:1 770:1 856:1 943:1 
-0.2506912786982095 65:1 291:1 704:1 827:1 856:1 
-0.7280472428188918 270:1 291:1 452:1 856:1 
-0.2885425164577171 291:1 317:1 848:1 856:1 953:1 
-0.8572036967768063 30:1 291:1 568:1 856:1 
-0.0830880033716576 291:1 436:1 441:1 452:1 521:1 745:1 856:1 892:1 
-0.1247846773919915 288:1 291:1 330:1 366:1 554:1 856:1 891:1 
-0.2592676980298825 241:1 291:1 465:1 621:1 690:1 856:1 944:1 
-0.1648377534463667 291:1 424:1 495:1 598:1 688:1 856:1 891:1 
-0.1133627750783864 270:1 292:1 439:1 785:1 
-0.6756631497398455 291:1 650:1 856:1 
-0.6297941826448611 241:1 291:1 292:1 452:1 578:1 690:1 856:1 
-0.3409648174895497 291:1 441:1 452:1 578:1 585:1 785:1 856:1 
-0.4308444152877398 291:1 306:1 307:1 317:1 441:1 585:1 785:1 856:1 
-0.5170755077640873 143:1 378:1 462:1 495:1 584:1 688:1 728:1 966:1 977:1 
-0.08716049768330762 256:1 263:1 291:1 465:1 848:1 856:1 
-0.2823132831523848 81:1 123:1 292:1 307:1 690:1 839:1 
-0.9046085237585288 291:1 856:1 912:1 924:1 
-0.1730131669100491 129:1 292:1 441:1 585:1 785:1 924:1 
-0.6951475941089065 46:1 48:1 81:1 292:1 452:1 578:1 
-0.07789513351114109 30:1 259:1 291:1 330:1 568:1 856:1 
-0.1096309120594262 291:1 465:1 856:1 
-0.3804168657958639 291:1 556:1 690:1 856:1 
-0.305006064461497 78:1 291:1 465:1 541:1 578:1 621:1 848:1 856:1 
-0.2953443043736618 48:1 241:1 267:1 291:1 452:1 578:1 690:1 856:1 
-0.4164560529033904 30:1 81:1 291:1 307:1 379:1 406:1 704:1 769:1 842:1 856:1 944:1 
-0.456924907338972 160:1 291:1 317:1 441:1 856:1 
-0.9740728008700303 241:1 268:1 291:1 703:1 745:1 824:1 856:1 
-0.3899088923323178 291:1 436:1 797:1 801:1 848:1 856:1 924:1 953:1 
-0.1281076348802729 241:1 291:1 704:1 747:1 789:1 856:1 871:1 938:1 
-0.05672547958881542 8:1 241:1 291:1 690:1 747:1 780:1 789:1 848:1 856:1 
-1 190:1 237:1 291:1 452:1 578:1 622:1 856:1 
-0.6475784020453443 60:1 688:1 763:1 
-0.1808474471579013 240:1 241:1 291:1 292:1 452:1 494:1 578:1 686:1 800:1 801:1 806:1 856:1 955:1 
-0.1397808952257832 291:1 686:1 856:1 931:1 
-0.05465713963482102 241:1 292:1 366:1 686:1 938:1 
-0.2650600486544409 10:1 291:1 397:1 801:1 856:1 936:1 
-0.2140513588912887 292:1 358:1 452:1 578:1 874:1 
-1 10:1 291:1 801:1 856:1 
-1 291:1 452:1 578:1 686:1 856:1 
-0.7682408977279732 291:1 352:1 452:1 494:1 578:1 801:1 856:1 955:1 
-0.8948122563534369 291:1 452:1 578:1 686:1 768:1 856:1 
-1 241:1 268:1 291:1 292:1 704:1 745:1 800:1 801:1 856:1 
-0.4566570401278339 268:1 292:1 529:1 572:1 704:1 801:1 
-0.2065637145115267 291:1 429:1 785:1 848:1 856:1 
-0.2723541047067171 240:1 241:1 291:1 452:1 852:1 856:1 938:1 
-0.06916997707954395 291:1 452:1 577:1 578:1 856:1 
-0.9141681257648476 291:1 352:1 452:1 495:1 856:1 938:1 
-0.904902738551643 207:1 268:1 291:1 856:1 896:1 932:1 
-0.1450523614225318 247:1 291:1 474:1 785:1 829:1 856:1 
-0.7569376683987802 291:1 801:1 856:1 930:1 
-0.5107487304278628 12:1 291:1 856:1 
-0.2707999054297321 291:1 320:1 452:1 822:1 856:1 
-0.5762391572776678 178:1 291:1 436:1 481:1 833:1 856:1 
-0.1125231803017689 291:1 446:1 452:1 571:1 578:1 856:1 
-0.4881844155088744 92:1 291:1 745:1 856:1 
-0.7127738531646017 73:1 79:1 240:1 241:1 291:1 452:1 578:1 856:1 
-0.4245025535061432 241:1 292:1 466:1 687:1 690:1 704:1 728:1 
-1 291:1 785:1 856:1 
-0.4483889908414005 108:1 110:1 167:1 291:1 686:1 741:1 856:1 
-0.4374908536015238 191:1 291:1 452:1 578:1 856:1 
-1 292:1 452:1 578:1 690:1 
-0.128692869961205 53:1 91:1 117:1 273:1 291:1 676:1 780:1 856:1 
-0.2650723288026275 9:1 47:1 292:1 304:1 468:1 745:1 944:1 
-0.1692149947400941 291:1 358:1 842:1 856:1 
-0.2415731526799762 291:1 320:1 352:1 452:1 578:1 852:1 856:1 
-1 291:1 801:1 856:1 
-0.06780368116594702 79:1 247:1 291:1 307:1 856:1 931:1 
-0.3522291986924667 291:1 317:1 856:1 
-0.1420073940565402 292:1 317:1 436:1 511:1 552:1 690:1 
-1 255:1 292:1 452:1 578:1 704:1 938:1 
-0.4795495906265506 137:1 241:1 291:1 452:1 578:1 856:1 
-0.4070367632629012 292:1 300:1 
-0.09072355316958297 291:1 741:1 745:1 856:1 879:1 892:1 931:1 
-0.3856580745500677 193:1 291:1 856:1 879:1 892:1 
-1 10:1 291:1 801:1 856:1 879:1 892:1 
-0.06870462530623078 57:1 291:1 292:1 431:1 737:1 745:1 763:1 771:1 856:1 926:1 
-0.00712271112597912 241:1 248:1 292:1 
-0.4534369675684889 291:1 693:1 856:1 
-0.09054668441796634 22:1 291:1 542:1 856:1 
-0.4751503370935972 110:1 291:1 473:1 856:1 
-0.5415772536267619 240:1 291:1 292:1 745:1 856:1 
-1 291:1 436:1 855:1 856:1 
-1 292:1 452:1 578:1 944:1 
-0.1945223105506982 2:1 54:1 291:1 350:1 576:1 577:1 856:1 941:1 
-1 263:1 291:1 465:1 787:1 856:1 
-0.09497618214603254 291:1 292:1 690:1 800:1 801:1 856:1 
-1 292:1 452:1 578:1 687:1 690:1 704:1 
-1 441:1 538:1 800:1 801:1 944:1 
-1 247:1 292:1 555:1 740:1 
-0.1337646820646351 190:1 291:1 451:1 622:1 690:1 747:1 856:1 892:1 
-1 268:1 291:1 509:1 555:1 690:1 856:1 914:1 
-0.2706075899408328 241:1 291:1 311:1 452:1 572:1 578:1 848:1 856:1 
-0.8585279147138895 292:1 352:1 452:1 578:1 691:1 737:1 
-0.3978198151911666 54:1 73:1 291:1 355:1 800:1 801:1 856:1 
-0.4525759521638769 120:1 291:1 335:1 806:1 856:1 
-1 247:1 291:1 856:1 
-1 291:1 301:1 856:1 
-0.3702109943274745 191:1 239:1 291:1 852:1 856:1 944:1 952:1 
-1 292:1 301:1 452:1 507:1 578:1 741:1 
-0.8678166174763391 79:1 292:1 924:1 
-0.1568330330492267 255:1 269:1 292:1 
-0.2250280884939151 255:1 292:1 398:1 856:1 
-0.6223412311198884 193:1 268:1 291:1 292:1 745:1 856:1 
-0.07849427538186585 247:1 263:1 291:1 465:1 583:1 741:1 856:1 924:1 
-0.4003769635209068 124:1 234:1 291:1 815:1 828:1 856:1 
-0.5836042058258868 49:1 134:1 555:1 788:1 
-0.03953921028712126 110:1 247:1 585:1 975:1 
-0.5006091034568091 626:1 724:1 
-0.2242622367169842 100:1 103:1 
-0.3696721737035028 870:1 
-0.142996919650185 248:1 
-0.439415592272052 276:1 330:1 452:1 
-0.1118633582160265 62:1 271:1 688:1 745:1 772:1 931:1 
-0.1321833825236609 481:1 
-1 452:1 465:1 578:1 
-0.2117152537812504 437:1 848:1 871:1 944:1 
-0.2487685949469936 301:1 804:1 842:1 966:1 
-0.06001672041156461 279:1 306:1 469:1 555:1 
-0.6303278262964972 687:1 785:1 
-0.2738968478872024 51:1 177:1 261:1 436:1 728:1 
