svm_type c_svc
kernel_type rbf
gamma 0.00101626
nr_class 2
total_sv 4
rho 0.999997
label 1 -1
nr_sv 1 3
SV
1 291:1 317:1 577:1 703:1 856:1 
-0.5 291:1 703:1 856:1 
-0.1997965519674483 292:1 317:1 340:1 577:1 
-0.3002034480325517 291:1 317:1 856:1 
