svm_type c_svc
kernel_type rbf
gamma 0.00101626
nr_class 2
total_sv 835
rho 0.957046
label 1 -1
nr_sv 338 497
SV
1 291:1 317:1 577:1 703:1 856:1 
1 291:1 856:1 912:1 936:1 
1 240:1 241:1 291:1 292:1 452:1 494:1 578:1 686:1 800:1 801:1 806:1 856:1 955:1 
1 291:1 452:1 578:1 788:1 856:1 
1 291:1 856:1 
1 226:1 291:1 452:1 495:1 578:1 856:1 944:1 
1 156:1 291:1 436:1 715:1 856:1 931:1 
1 289:1 291:1 509:1 686:1 856:1 936:1 
1 51:1 291:1 352:1 452:1 578:1 646:1 647:1 856:1 911:1 
1 291:1 686:1 856:1 931:1 
1 241:1 291:1 352:1 452:1 578:1 848:1 856:1 966:1 
1 291:1 856:1 912:1 931:1 936:1 
1 291:1 292:1 395:1 856:1 966:1 
1 291:1 574:1 768:1 856:1 
1 291:1 856:1 
1 291:1 687:1 847:1 856:1 941:1 
1 291:1 441:1 452:1 578:1 856:1 931:1 944:1 
1 291:1 772:1 824:1 856:1 
1 291:1 465:1 856:1 931:1 944:1 
1 241:1 291:1 452:1 494:1 578:1 621:1 686:1 806:1 856:1 955:1 
1 241:1 291:1 313:1 429:1 452:1 578:1 856:1 
1 241:1 291:1 856:1 944:1 
1 291:1 686:1 856:1 865:1 912:1 936:1 
1 241:1 291:1 358:1 452:1 578:1 768:1 770:1 856:1 
1 241:1 292:1 366:1 686:1 938:1 
1 291:1 452:1 578:1 686:1 856:1 
1 10:1 291:1 397:1 801:1 856:1 936:1 
1 351:1 
1 291:1 856:1 865:1 911:1 931:1 936:1 
1 291:1 452:1 578:1 856:1 
1 58:1 143:1 291:1 306:1 483:1 574:1 856:1 966:1 
1 291:1 770:1 856:1 980:1 
1 291:1 856:1 931:1 
1 291:1 345:1 352:1 856:1 944:1 
1 238:1 291:1 452:1 465:1 578:1 856:1 944:1 
1 292:1 358:1 452:1 578:1 874:1 
1 101:1 241:1 291:1 452:1 578:1 670:1 856:1 887:1 
1 91:1 268:1 291:1 641:1 702:1 745:1 807:1 846:1 856:1 
1 291:1 429:1 745:1 856:1 931:1 
1 291:1 436:1 856:1 
1 51:1 247:1 291:1 452:1 465:1 578:1 856:1 936:1 
1 291:1 452:1 578:1 856:1 931:1 938:1 
1 291:1 452:1 578:1 856:1 
1 291:1 452:1 578:1 686:1 856:1 
1 30:1 292:1 352:1 452:1 578:1 686:1 801:1 807:1 911:1 936:1 
1 291:1 452:1 578:1 741:1 833:1 856:1 
1 16:1 291:1 494:1 801:1 856:1 930:1 938:1 955:1 
1 241:1 291:1 800:1 801:1 833:1 856:1 930:1 
1 291:1 856:1 865:1 
1 291:1 352:1 452:1 494:1 578:1 801:1 856:1 955:1 
1 291:1 465:1 856:1 878:1 944:1 
1 291:1 292:1 366:1 509:1 686:1 856:1 936:1 
1 291:1 572:1 686:1 800:1 801:1 856:1 911:1 931:1 
1 292:1 686:1 
1 291:1 608:1 800:1 801:1 856:1 
1 254:1 292:1 429:1 530:1 770:1 931:1 953:1 
1 291:1 509:1 577:1 856:1 912:1 931:1 936:1 
1 291:1 686:1 800:1 801:1 856:1 911:1 
1 291:1 494:1 801:1 856:1 955:1 
1 247:1 291:1 856:1 931:1 936:1 
1 291:1 856:1 
1 291:1 320:1 608:1 856:1 865:1 931:1 
1 241:1 291:1 465:1 856:1 931:1 
1 270:1 291:1 292:1 745:1 856:1 944:1 
1 79:1 268:1 291:1 529:1 745:1 856:1 
1 241:1 268:1 291:1 452:1 745:1 856:1 938:1 
1 33:1 291:1 627:1 745:1 817:1 830:1 856:1 888:1 941:1 
1 268:1 291:1 345:1 745:1 856:1 944:1 
1 268:1 292:1 745:1 
1 167:1 291:1 688:1 769:1 856:1 865:1 944:1 
1 292:1 745:1 936:1 
1 73:1 268:1 291:1 745:1 823:1 856:1 
1 268:1 291:1 856:1 
1 193:1 268:1 292:1 704:1 745:1 
1 241:1 268:1 291:1 292:1 704:1 745:1 800:1 801:1 856:1 
1 58:1 73:1 268:1 269:1 292:1 770:1 944:1 968:1 
1 52:1 172:1 291:1 381:1 690:1 722:1 856:1 
1 291:1 352:1 452:1 578:1 688:1 846:1 856:1 
1 291:1 745:1 856:1 975:1 
1 268:1 292:1 529:1 572:1 704:1 801:1 
1 161:1 291:1 690:1 800:1 801:1 856:1 930:1 
1 268:1 292:1 690:1 
1 268:1 291:1 690:1 745:1 852:1 856:1 
1 30:1 268:1 291:1 745:1 807:1 856:1 
1 284:1 289:1 292:1 920:1 944:1 
1 58:1 268:1 291:1 345:1 452:1 741:1 856:1 931:1 938:1 
1 291:1 856:1 922:1 946:1 
1 291:1 457:1 847:1 856:1 
1 291:1 352:1 452:1 495:1 856:1 938:1 
1 241:1 291:1 452:1 856:1 938:1 
1 207:1 268:1 291:1 856:1 896:1 932:1 
1 212:1 239:1 268:1 292:1 306:1 441:1 
1 193:1 268:1 291:1 452:1 578:1 745:1 856:1 
1 268:1 291:1 704:1 745:1 853:1 856:1 
1 33:1 291:1 515:1 856:1 964:1 
1 291:1 345:1 441:1 856:1 931:1 944:1 
1 241:1 291:1 800:1 801:1 856:1 
1 291:1 856:1 931:1 
1 291:1 801:1 856:1 930:1 
1 30:1 292:1 931:1 
1 30:1 494:1 568:1 800:1 801:1 931:1 955:1 
1 178:1 291:1 436:1 481:1 833:1 856:1 
1 291:1 303:1 639:1 690:1 745:1 856:1 
1 291:1 639:1 704:1 824:1 856:1 
1 268:1 291:1 745:1 830:1 856:1 
1 291:1 604:1 801:1 856:1 
1 291:1 446:1 452:1 571:1 578:1 856:1 
1 291:1 628:1 690:1 830:1 856:1 
1 292:1 639:1 687:1 690:1 704:1 848:1 931:1 944:1 
1 247:1 286:1 452:1 578:1 829:1 
1 49:1 291:1 318:1 687:1 856:1 
1 291:1 856:1 926:1 
1 291:1 452:1 578:1 856:1 
1 177:1 291:1 436:1 856:1 
1 291:1 856:1 936:1 
1 78:1 291:1 452:1 578:1 856:1 944:1 
1 151:1 291:1 452:1 578:1 856:1 
1 190:1 441:1 572:1 622:1 847:1 936:1 
1 291:1 816:1 856:1 936:1 
1 101:1 151:1 292:1 355:1 670:1 941:1 
1 10:1 291:1 416:1 801:1 856:1 
1 
1 241:1 247:1 291:1 704:1 848:1 856:1 944:1 
1 73:1 79:1 240:1 241:1 291:1 452:1 578:1 856:1 
1 241:1 292:1 466:1 687:1 690:1 704:1 728:1 
1 238:1 291:1 346:1 856:1 865:1 
1 291:1 856:1 
1 291:1 509:1 686:1 856:1 936:1 
1 116:1 416:1 437:1 631:1 869:1 936:1 957:1 
1 291:1 856:1 936:1 
1 291:1 452:1 578:1 671:1 856:1 
1 241:1 291:1 441:1 745:1 856:1 911:1 
1 291:1 308:1 404:1 768:1 856:1 936:1 
1 66:1 178:1 270:1 291:1 416:1 856:1 
1 291:1 800:1 801:1 856:1 878:1 944:1 
1 291:1 416:1 686:1 856:1 936:1 
1 177:1 308:1 320:1 404:1 926:1 
1 50:1 178:1 291:1 416:1 558:1 565:1 856:1 
1 119:1 800:1 801:1 
1 262:1 291:1 806:1 856:1 
1 291:1 856:1 865:1 931:1 
1 291:1 452:1 578:1 856:1 931:1 
1 108:1 110:1 167:1 291:1 686:1 741:1 856:1 
1 177:1 291:1 392:1 676:1 856:1 938:1 
1 291:1 452:1 515:1 578:1 676:1 741:1 770:1 856:1 944:1 
1 80:1 109:1 241:1 291:1 704:1 745:1 856:1 
1 112:1 291:1 676:1 741:1 856:1 
1 142:1 241:1 291:1 676:1 704:1 745:1 800:1 801:1 856:1 
1 241:1 292:1 621:1 936:1 943:1 
1 291:1 518:1 690:1 856:1 
1 291:1 467:1 676:1 856:1 
1 249:1 352:1 676:1 808:1 
1 271:1 282:1 291:1 452:1 578:1 745:1 800:1 801:1 856:1 
1 53:1 91:1 117:1 273:1 291:1 676:1 780:1 856:1 
1 80:1 109:1 292:1 687:1 690:1 704:1 
1 328:1 481:1 801:1 846:1 
1 191:1 292:1 676:1 741:1 
1 473:1 944:1 
1 291:1 352:1 452:1 578:1 856:1 
1 292:1 352:1 686:1 768:1 
1 291:1 358:1 398:1 686:1 856:1 
1 291:1 741:1 856:1 
1 50:1 191:1 291:1 676:1 741:1 856:1 944:1 
1 291:1 452:1 578:1 671:1 856:1 
1 9:1 47:1 292:1 304:1 468:1 745:1 944:1 
1 292:1 452:1 578:1 676:1 741:1 
1 112:1 142:1 193:1 291:1 576:1 676:1 741:1 856:1 
1 247:1 291:1 452:1 578:1 676:1 687:1 741:1 856:1 
1 241:1 291:1 364:1 379:1 745:1 800:1 801:1 856:1 
1 292:1 457:1 
1 291:1 632:1 856:1 968:1 
1 142:1 291:1 676:1 741:1 856:1 
1 73:1 
1 73:1 291:1 800:1 801:1 856:1 
1 291:1 687:1 741:1 856:1 
1 291:1 676:1 741:1 856:1 
1 291:1 452:1 578:1 671:1 856:1 
1 73:1 108:1 291:1 406:1 741:1 856:1 
1 241:1 291:1 591:1 704:1 745:1 856:1 
1 73:1 292:1 452:1 578:1 704:1 944:1 
1 241:1 291:1 452:1 856:1 931:1 
1 291:1 806:1 808:1 856:1 
1 73:1 291:1 317:1 856:1 
1 291:1 743:1 856:1 
1 73:1 193:1 241:1 291:1 452:1 578:1 856:1 
1 291:1 317:1 856:1 
1 22:1 241:1 271:1 291:1 577:1 637:1 745:1 856:1 943:1 
1 292:1 317:1 436:1 511:1 552:1 690:1 
1 78:1 291:1 690:1 785:1 856:1 
1 255:1 292:1 452:1 578:1 704:1 938:1 
1 241:1 291:1 313:1 452:1 578:1 856:1 944:1 
1 137:1 241:1 291:1 452:1 578:1 856:1 
1 178:1 291:1 856:1 
1 291:1 616:1 784:1 856:1 938:1 
1 137:1 241:1 291:1 452:1 578:1 856:1 
1 247:1 292:1 626:1 
1 241:1 291:1 704:1 848:1 856:1 944:1 
1 291:1 347:1 452:1 578:1 768:1 856:1 
1 283:1 291:1 435:1 778:1 816:1 856:1 
1 292:1 676:1 847:1 
1 292:1 553:1 800:1 801:1 
1 111:1 292:1 452:1 590:1 
1 292:1 641:1 938:1 
1 241:1 291:1 313:1 687:1 856:1 926:1 931:1 
1 73:1 241:1 291:1 690:1 800:1 801:1 856:1 
1 241:1 291:1 704:1 745:1 856:1 
1 241:1 291:1 591:1 690:1 745:1 856:1 
1 73:1 79:1 292:1 452:1 578:1 
1 112:1 193:1 291:1 468:1 847:1 856:1 938:1 
1 173:1 268:1 292:1 703:1 
1 178:1 291:1 345:1 631:1 688:1 768:1 856:1 
1 241:1 291:1 292:1 687:1 690:1 745:1 856:1 
1 292:1 300:1 
1 116:1 291:1 397:1 770:1 856:1 
1 291:1 452:1 578:1 856:1 966:1 
1 291:1 856:1 938:1 
1 291:1 646:1 647:1 856:1 
1 291:1 745:1 768:1 856:1 
1 241:1 269:1 291:1 690:1 848:1 856:1 944:1 
1 291:1 741:1 745:1 856:1 879:1 892:1 931:1 
1 193:1 291:1 856:1 879:1 892:1 
1 292:1 311:1 578:1 
1 190:1 291:1 622:1 856:1 911:1 912:1 
1 10:1 291:1 801:1 856:1 879:1 892:1 
1 241:1 292:1 452:1 578:1 687:1 690:1 704:1 892:1 
1 254:1 263:1 292:1 530:1 571:1 
1 241:1 291:1 703:1 745:1 856:1 
1 291:1 318:1 628:1 690:1 830:1 856:1 
1 222:1 292:1 745:1 
1 291:1 483:1 856:1 
1 33:1 291:1 676:1 688:1 856:1 
1 291:1 292:1 351:1 856:1 
1 291:1 741:1 852:1 856:1 
1 241:1 291:1 452:1 578:1 768:1 856:1 892:1 
1 291:1 856:1 938:1 
1 240:1 291:1 292:1 745:1 856:1 
1 291:1 686:1 833:1 856:1 892:1 944:1 
1 222:1 291:1 441:1 856:1 
1 241:1 292:1 693:1 
1 291:1 436:1 855:1 856:1 
1 292:1 454:1 704:1 947:1 
1 292:1 452:1 578:1 944:1 
1 222:1 291:1 856:1 
1 75:1 292:1 
1 16:1 419:1 904:1 944:1 
1 291:1 366:1 452:1 578:1 801:1 856:1 
1 79:1 291:1 688:1 856:1 
1 30:1 160:1 291:1 568:1 745:1 856:1 
1 51:1 291:1 317:1 352:1 452:1 468:1 556:1 578:1 801:1 848:1 856:1 
1 241:1 282:1 291:1 704:1 745:1 760:1 856:1 
1 291:1 687:1 690:1 811:1 856:1 
1 291:1 691:1 824:1 856:1 
1 110:1 292:1 542:1 
1 251:1 255:1 538:1 737:1 785:1 912:1 
1 292:1 452:1 538:1 690:1 
1 291:1 855:1 856:1 
1 108:1 110:1 451:1 555:1 740:1 943:1 
1 291:1 538:1 686:1 856:1 
1 255:1 291:1 827:1 856:1 
1 35:1 247:1 291:1 304:1 621:1 624:1 741:1 855:1 856:1 
1 190:1 237:1 291:1 292:1 452:1 622:1 856:1 931:1 938:1 
1 291:1 538:1 856:1 
1 190:1 291:1 622:1 724:1 856:1 879:1 
1 190:1 291:1 622:1 747:1 833:1 856:1 
1 291:1 352:1 452:1 856:1 931:1 938:1 
1 79:1 291:1 307:1 317:1 495:1 626:1 856:1 
1 291:1 317:1 508:1 555:1 593:1 856:1 
1 291:1 593:1 856:1 879:1 
1 241:1 291:1 856:1 
1 291:1 704:1 800:1 801:1 856:1 
1 247:1 248:1 263:1 291:1 848:1 856:1 
1 291:1 452:1 578:1 856:1 875:1 
1 452:1 578:1 737:1 741:1 
1 267:1 291:1 842:1 856:1 
1 292:1 441:1 452:1 572:1 578:1 650:1 800:1 801:1 944:1 
1 292:1 452:1 495:1 578:1 
1 137:1 291:1 452:1 578:1 704:1 801:1 856:1 
1 291:1 465:1 674:1 785:1 856:1 
1 11:1 12:1 291:1 392:1 856:1 
1 291:1 452:1 578:1 856:1 
1 291:1 555:1 704:1 745:1 856:1 914:1 
1 291:1 555:1 686:1 856:1 914:1 
1 241:1 291:1 424:1 452:1 578:1 856:1 
1 291:1 856:1 
1 291:1 511:1 856:1 
1 263:1 269:1 291:1 465:1 688:1 787:1 856:1 
1 241:1 291:1 441:1 693:1 848:1 856:1 944:1 
1 291:1 452:1 465:1 626:1 772:1 856:1 
1 291:1 856:1 953:1 
1 241:1 291:1 704:1 856:1 
1 241:1 291:1 452:1 578:1 690:1 856:1 
1 241:1 292:1 452:1 462:1 578:1 728:1 924:1 932:1 977:1 
1 291:1 704:1 801:1 856:1 924:1 930:1 932:1 
1 291:1 320:1 541:1 690:1 856:1 
1 46:1 240:1 292:1 452:1 578:1 704:1 
1 291:1 704:1 856:1 924:1 932:1 
1 352:1 436:1 745:1 769:1 833:1 856:1 
1 268:1 291:1 745:1 800:1 801:1 856:1 871:1 
1 292:1 452:1 578:1 838:1 
1 154:1 292:1 301:1 481:1 938:1 
1 241:1 269:1 291:1 292:1 374:1 690:1 856:1 912:1 
1 46:1 240:1 241:1 292:1 452:1 578:1 852:1 944:1 
1 291:1 301:1 465:1 856:1 
1 291:1 307:1 770:1 856:1 
1 10:1 291:1 690:1 801:1 856:1 
1 117:1 268:1 291:1 292:1 745:1 856:1 871:1 
1 62:1 103:1 134:1 291:1 452:1 578:1 856:1 
1 241:1 291:1 856:1 
1 300:1 572:1 
1 270:1 291:1 483:1 690:1 856:1 
1 292:1 452:1 578:1 
1 66:1 
1 292:1 441:1 462:1 585:1 728:1 785:1 888:1 952:1 
1 92:1 291:1 856:1 
1 291:1 301:1 785:1 856:1 
1 48:1 291:1 330:1 749:1 816:1 856:1 
1 292:1 301:1 495:1 688:1 
1 8:1 247:1 320:1 452:1 578:1 704:1 
1 267:1 291:1 301:1 358:1 452:1 455:1 483:1 578:1 785:1 856:1 
1 268:1 291:1 686:1 745:1 856:1 
1 191:1 249:1 268:1 291:1 446:1 745:1 815:1 856:1 
1 291:1 745:1 856:1 
1 10:1 178:1 292:1 452:1 578:1 768:1 801:1 941:1 
1 81:1 120:1 240:1 268:1 292:1 335:1 839:1 
1 73:1 193:1 291:1 292:1 770:1 856:1 
1 268:1 291:1 292:1 690:1 856:1 870:1 970:1 
1 73:1 291:1 745:1 856:1 
1 240:1 690:1 745:1 
1 291:1 347:1 577:1 785:1 815:1 856:1 
1 30:1 291:1 379:1 494:1 856:1 955:1 
1 292:1 745:1 944:1 
1 10:1 268:1 283:1 291:1 352:1 436:1 452:1 578:1 801:1 856:1 
1 117:1 268:1 292:1 452:1 578:1 687:1 690:1 745:1 
1 291:1 801:1 856:1 
1 54:1 436:1 763:1 892:1 
1 54:1 436:1 892:1 893:1 
1 892:1 
1 291:1 436:1 763:1 856:1 893:1 
-1 292:1 352:1 944:1 
-1 240:1 291:1 687:1 704:1 856:1 
-1 142:1 291:1 856:1 
-1 291:1 436:1 452:1 578:1 856:1 
-1 292:1 
-0.3853397281743978 2:1 9:1 291:1 304:1 441:1 679:1 856:1 
-1 291:1 686:1 856:1 936:1 
-0.9327397213764811 58:1 178:1 263:1 291:1 856:1 912:1 
-1 178:1 291:1 515:1 856:1 912:1 
-1 291:1 436:1 452:1 578:1 704:1 856:1 
-1 178:1 291:1 292:1 801:1 856:1 865:1 912:1 
-0.4550461249710542 291:1 301:1 352:1 436:1 690:1 799:1 856:1 
-1 190:1 291:1 320:1 622:1 676:1 856:1 
-1 140:1 801:1 865:1 
-0.4960788195997342 33:1 112:1 190:1 291:1 622:1 856:1 
-0.9115993421704783 91:1 241:1 247:1 291:1 292:1 451:1 856:1 892:1 
-1 241:1 247:1 291:1 292:1 397:1 741:1 856:1 
-0.7607795051749506 222:1 291:1 404:1 626:1 745:1 856:1 
-0.0617581665582002 263:1 291:1 511:1 687:1 856:1 931:1 
-0.2993620114708654 54:1 379:1 436:1 467:1 
-0.9114028830366359 241:1 352:1 416:1 452:1 558:1 578:1 926:1 
-0.6752350817141088 137:1 192:1 247:1 634:1 944:1 
-0.8933639866177371 291:1 292:1 468:1 478:1 690:1 785:1 856:1 
-0.2378136531775766 44:1 83:1 157:1 241:1 291:1 577:1 745:1 800:1 801:1 847:1 856:1 
-0.638187173454332 122:1 291:1 317:1 358:1 452:1 578:1 856:1 
-1 50:1 291:1 352:1 856:1 944:1 
-0.6246737157806236 285:1 292:1 452:1 
-1 291:1 436:1 452:1 578:1 704:1 856:1 
-0.3936588758204654 291:1 572:1 690:1 856:1 
-1 291:1 438:1 704:1 801:1 856:1 
-0.6540559212030538 688:1 785:1 
-0.6738297581259252 267:1 291:1 745:1 760:1 856:1 
-0.4606869683775471 291:1 292:1 856:1 
-0.6818894538780388 190:1 291:1 622:1 722:1 856:1 
-0.308196107104559 734:1 838:1 
-0.2462811332037786 78:1 346:1 892:1 
-1 79:1 291:1 687:1 856:1 
-0.4202559487827205 73:1 291:1 856:1 865:1 
-0.6672805537758535 241:1 292:1 452:1 578:1 687:1 877:1 
-0.3484609363346623 289:1 291:1 452:1 476:1 578:1 688:1 699:1 847:1 856:1 
-0.7925418728765805 52:1 241:1 291:1 292:1 704:1 856:1 
-0.4008349542956936 8:1 291:1 483:1 704:1 856:1 
-1 291:1 690:1 745:1 856:1 
-1 291:1 436:1 452:1 578:1 704:1 856:1 
-0.308522271123703 50:1 173:1 291:1 770:1 856:1 
-0.2480777084656484 249:1 291:1 313:1 856:1 944:1 
-0.1092215180793619 291:1 541:1 577:1 604:1 856:1 
-0.9063644632865127 110:1 241:1 269:1 292:1 316:1 892:1 931:1 
-1 73:1 241:1 282:1 291:1 452:1 578:1 687:1 704:1 856:1 
-0.2060820396240312 73:1 291:1 358:1 576:1 687:1 856:1 
-0.7867672250464458 137:1 241:1 291:1 386:1 445:1 745:1 856:1 912:1 
-1 291:1 452:1 578:1 848:1 856:1 944:1 
-1 73:1 291:1 452:1 578:1 856:1 
-0.2375436459492412 151:1 291:1 602:1 722:1 833:1 856:1 
-0.5502893917949707 161:1 162:1 291:1 690:1 745:1 856:1 
-0.4421404275024483 268:1 291:1 381:1 578:1 856:1 
-0.2279481086051572 84:1 374:1 441:1 944:1 
-0.6284528760739319 241:1 452:1 578:1 916:1 944:1 
-1 241:1 291:1 690:1 745:1 856:1 
-1 193:1 291:1 351:1 608:1 770:1 800:1 801:1 856:1 944:1 
-0.07778845281418192 193:1 291:1 351:1 608:1 770:1 800:1 801:1 856:1 944:1 
-0.6944531973752688 240:1 241:1 268:1 291:1 495:1 541:1 806:1 808:1 856:1 
-1 291:1 345:1 856:1 865:1 944:1 
-1 241:1 292:1 452:1 578:1 687:1 
-1 291:1 632:1 830:1 856:1 926:1 931:1 938:1 
-0.3964607350272687 206:1 291:1 307:1 452:1 578:1 856:1 
-0.670344422491679 291:1 314:1 375:1 452:1 578:1 690:1 741:1 856:1 
-1 291:1 436:1 452:1 578:1 704:1 856:1 
-0.1866075568901409 143:1 213:1 291:1 434:1 741:1 856:1 
-1 241:1 269:1 452:1 578:1 741:1 931:1 
-1 893:1 
-0.23383697175107 289:1 291:1 495:1 753:1 856:1 
-0.3522106593001882 268:1 291:1 668:1 687:1 833:1 856:1 938:1 
-0.552782257954069 291:1 292:1 452:1 578:1 630:1 690:1 856:1 
-1 30:1 292:1 397:1 494:1 687:1 852:1 955:1 
-0.554643418397494 292:1 306:1 892:1 957:1 
-0.1280622009031742 30:1 173:1 241:1 267:1 292:1 829:1 931:1 
-1 241:1 291:1 690:1 745:1 856:1 
-1 291:1 452:1 578:1 856:1 
-0.3019753929193169 178:1 278:1 291:1 568:1 831:1 856:1 
-1 291:1 436:1 452:1 578:1 704:1 856:1 
-1 51:1 241:1 291:1 292:1 690:1 856:1 
-0.1984074463841098 52:1 58:1 291:1 687:1 760:1 856:1 931:1 
-0.3910767186141318 73:1 240:1 269:1 291:1 856:1 
-1 112:1 291:1 452:1 578:1 856:1 
-1 291:1 452:1 578:1 800:1 801:1 807:1 856:1 930:1 
-0.3031503152484695 134:1 291:1 452:1 578:1 856:1 944:1 
-1 291:1 452:1 578:1 686:1 856:1 911:1 
-0.8556743720608456 35:1 291:1 624:1 856:1 
-0.9110746050102456 249:1 291:1 646:1 647:1 768:1 856:1 888:1 
-0.5066611645328838 291:1 352:1 452:1 578:1 816:1 848:1 856:1 
-0.8568457650833574 241:1 291:1 452:1 578:1 770:1 816:1 856:1 931:1 
-0.3978778491695286 134:1 193:1 291:1 381:1 768:1 847:1 856:1 
-0.588365110439222 291:1 856:1 947:1 
-0.6867130361830689 47:1 744:1 768:1 944:1 
-0.7739691311508281 66:1 268:1 270:1 291:1 745:1 856:1 
-0.4203087720626221 291:1 292:1 833:1 856:1 
-1 10:1 111:1 291:1 441:1 801:1 856:1 931:1 941:1 
-0.07398550724713417 30:1 265:1 291:1 435:1 806:1 856:1 
-1 33:1 291:1 686:1 856:1 888:1 
-0.2639073283940543 170:1 247:1 268:1 291:1 317:1 452:1 770:1 833:1 856:1 975:1 
-1 268:1 291:1 452:1 578:1 608:1 745:1 856:1 
-1 291:1 366:1 856:1 
-1 291:1 452:1 455:1 578:1 856:1 
-1 10:1 51:1 73:1 291:1 627:1 800:1 801:1 856:1 975:1 
-0.1798084854529747 268:1 291:1 540:1 647:1 690:1 856:1 
-0.1589635644710487 16:1 193:1 241:1 252:1 268:1 291:1 610:1 856:1 
-1 263:1 268:1 291:1 704:1 800:1 801:1 856:1 
-0.520345158867471 241:1 291:1 800:1 801:1 856:1 
-1 291:1 704:1 745:1 856:1 
-0.3083217595810425 73:1 291:1 687:1 800:1 801:1 856:1 943:1 944:1 
-0.09597489792716392 66:1 291:1 366:1 416:1 453:1 816:1 856:1 
-0.2077980323029902 119:1 256:1 373:1 
-0.156205617974578 241:1 291:1 745:1 847:1 856:1 
-0.7765925306264606 291:1 626:1 639:1 741:1 745:1 856:1 
-0.1019206966337197 151:1 291:1 602:1 856:1 941:1 
-0.8971262721092522 291:1 745:1 784:1 856:1 
-1 283:1 291:1 745:1 801:1 856:1 
-0.2688728536164944 291:1 345:1 856:1 931:1 944:1 
-1 240:1 269:1 291:1 741:1 856:1 941:1 
-1 240:1 291:1 416:1 690:1 745:1 856:1 
-0.09326476195612686 291:1 509:1 639:1 856:1 
-1 241:1 291:1 704:1 745:1 800:1 801:1 856:1 
-0.5310613518334536 291:1 303:1 416:1 452:1 578:1 639:1 745:1 856:1 931:1 
-1 241:1 291:1 704:1 745:1 856:1 
-0.3762256697297036 241:1 268:1 291:1 473:1 704:1 856:1 
-1 207:1 291:1 317:1 465:1 585:1 676:1 798:1 856:1 
-0.1919082431173975 291:1 452:1 578:1 856:1 931:1 950:1 
-1 291:1 452:1 576:1 578:1 856:1 931:1 
-0.4245672105206154 151:1 291:1 646:1 856:1 
-1 291:1 452:1 578:1 856:1 931:1 
-0.4758326205728015 291:1 429:1 824:1 856:1 
-0.9333437384420317 241:1 291:1 469:1 494:1 770:1 856:1 955:1 
-0.5587928238749782 86:1 108:1 291:1 452:1 578:1 856:1 892:1 
-0.729711368642754 291:1 292:1 347:1 626:1 785:1 856:1 
-1 241:1 291:1 745:1 856:1 
-0.6455020464084085 241:1 291:1 441:1 452:1 578:1 704:1 848:1 856:1 931:1 944:1 
-1 291:1 352:1 436:1 452:1 856:1 
-1 241:1 429:1 452:1 578:1 878:1 
-0.1056075302524248 241:1 291:1 449:1 578:1 787:1 856:1 
-0.4768723471254572 241:1 248:1 291:1 292:1 345:1 452:1 467:1 856:1 938:1 
-1 154:1 292:1 
-0.8064311440985865 468:1 847:1 931:1 
-0.6541786448725712 190:1 292:1 320:1 622:1 745:1 808:1 892:1 
-1 291:1 511:1 688:1 856:1 
-0.1738882236831986 177:1 291:1 690:1 856:1 
-0.3575693526765719 51:1 58:1 247:1 291:1 495:1 552:1 856:1 926:1 
-0.2939372636851473 291:1 320:1 856:1 
-0.8952005533005954 282:1 291:1 292:1 572:1 816:1 847:1 856:1 
-1 291:1 745:1 856:1 
-0.5817981619479189 92:1 238:1 291:1 856:1 
-0.05650141440822684 92:1 291:1 306:1 745:1 856:1 944:1 970:1 
-1 291:1 452:1 578:1 833:1 856:1 
-0.6831567516515993 181:1 249:1 291:1 542:1 801:1 856:1 901:1 
-0.3052155578995344 241:1 282:1 291:1 704:1 745:1 856:1 
-1 291:1 452:1 578:1 856:1 
-0.3865464316280062 91:1 103:1 241:1 291:1 779:1 833:1 856:1 
-0.269532332709336 291:1 431:1 635:1 763:1 771:1 856:1 
-0.681306775016487 291:1 772:1 856:1 888:1 938:1 
-0.798102033289835 291:1 608:1 688:1 788:1 855:1 856:1 
-0.1070833351882564 190:1 291:1 313:1 429:1 622:1 856:1 966:1 
-0.6718073240405851 292:1 518:1 
-0.9741069260952829 193:1 291:1 856:1 912:1 
-1 291:1 441:1 856:1 944:1 
-0.5493573374803645 10:1 250:1 283:1 291:1 587:1 682:1 801:1 853:1 856:1 944:1 
-1 291:1 300:1 348:1 352:1 770:1 801:1 856:1 930:1 
-1 292:1 
-1 291:1 745:1 856:1 
-1 116:1 291:1 856:1 
-1 291:1 452:1 578:1 856:1 
-1 114:1 171:1 291:1 395:1 494:1 856:1 955:1 
-0.3914224538162272 212:1 291:1 572:1 856:1 938:1 
-1 291:1 312:1 686:1 856:1 
-0.02750616618149367 270:1 291:1 856:1 904:1 957:1 
-1 268:1 291:1 313:1 856:1 944:1 
-1 291:1 452:1 704:1 770:1 856:1 
-0.5039988904218206 73:1 291:1 317:1 856:1 
-0.7474482444904109 78:1 358:1 606:1 846:1 
-0.1363376455070269 291:1 452:1 541:1 543:1 856:1 966:1 
-0.6326557977335185 291:1 577:1 646:1 647:1 856:1 
-0.1066329884184593 220:1 224:1 252:1 291:1 292:1 452:1 568:1 719:1 856:1 892:1 893:1 975:1 
-1 292:1 328:1 846:1 
-0.2067746751997013 73:1 173:1 291:1 307:1 353:1 417:1 460:1 724:1 806:1 856:1 
-0.8645090347747389 291:1 770:1 856:1 871:1 911:1 924:1 944:1 
-0.1640868187781203 291:1 345:1 847:1 856:1 
-1 291:1 800:1 801:1 833:1 848:1 856:1 930:1 938:1 944:1 
-0.1707770448386038 11:1 12:1 148:1 291:1 579:1 856:1 918:1 919:1 
-0.5174992386964006 73:1 291:1 574:1 856:1 
-0.3347586884097847 186:1 291:1 318:1 627:1 768:1 856:1 
-0.445356581602506 292:1 306:1 952:1 
-0.9896131287355862 108:1 241:1 292:1 865:1 892:1 
-1 105:1 108:1 117:1 241:1 452:1 483:1 578:1 
-1 291:1 800:1 801:1 856:1 930:1 
-1 291:1 745:1 856:1 
-0.06610668014554261 291:1 452:1 461:1 578:1 635:1 750:1 856:1 931:1 941:1 
-0.627269546431375 291:1 769:1 829:1 856:1 
-0.5150339909434807 255:1 291:1 572:1 690:1 816:1 817:1 856:1 
-0.7215664767917394 57:1 241:1 291:1 452:1 578:1 690:1 704:1 856:1 
-0.2229130534026139 78:1 291:1 317:1 713:1 856:1 941:1 960:1 
-0.6667927506062111 73:1 284:1 292:1 441:1 687:1 719:1 944:1 
-0.4970069169536431 46:1 65:1 91:1 240:1 291:1 317:1 690:1 856:1 
-1 66:1 291:1 452:1 578:1 856:1 938:1 
-0.6274915984917457 291:1 452:1 483:1 578:1 856:1 
-1 291:1 352:1 436:1 465:1 801:1 856:1 
-1 53:1 178:1 291:1 416:1 437:1 676:1 745:1 856:1 931:1 
-1 268:1 291:1 292:1 745:1 856:1 953:1 
-0.4740158901687548 16:1 241:1 291:1 379:1 856:1 
-1 101:1 291:1 457:1 578:1 670:1 856:1 
-0.2713509013370123 291:1 787:1 818:1 856:1 
-0.1845327952860375 240:1 263:1 268:1 291:1 313:1 745:1 848:1 856:1 931:1 938:1 
-0.4169201942824262 291:1 440:1 452:1 578:1 856:1 
-0.08630808238733584 151:1 291:1 313:1 856:1 
-0.2379873600698163 268:1 291:1 292:1 550:1 641:1 745:1 856:1 902:1 911:1 
-0.8539605809400258 112:1 247:1 291:1 436:1 856:1 
-0.5178352907513259 108:1 248:1 292:1 631:1 852:1 863:1 
-0.2032268358906592 167:1 292:1 966:1 
-1 268:1 291:1 452:1 578:1 856:1 931:1 
-1 226:1 268:1 292:1 495:1 745:1 
-1 291:1 292:1 676:1 856:1 
-1 291:1 366:1 856:1 
-1 291:1 856:1 936:1 
-1 33:1 73:1 268:1 291:1 745:1 856:1 
-0.1244000283102844 292:1 347:1 662:1 829:1 911:1 
-0.2586073213825278 291:1 292:1 352:1 745:1 856:1 
-0.3099517212361432 30:1 268:1 291:1 737:1 769:1 782:1 856:1 892:1 
-0.3568042508816149 209:1 268:1 291:1 364:1 745:1 856:1 
-0.9394582947029047 268:1 291:1 452:1 578:1 703:1 745:1 856:1 927:1 931:1 
-1 268:1 291:1 577:1 745:1 856:1 
-1 268:1 291:1 458:1 741:1 856:1 
-1 268:1 292:1 452:1 578:1 931:1 
-1 268:1 291:1 292:1 317:1 745:1 856:1 
-1 268:1 291:1 745:1 856:1 
-1 268:1 292:1 
-0.2276784969873008 111:1 291:1 452:1 856:1 
-0.1911852906836283 107:1 268:1 291:1 745:1 856:1 931:1 
-0.4331202323622343 268:1 291:1 372:1 741:1 805:1 806:1 856:1 
-0.3528700024452106 73:1 291:1 856:1 892:1 
-0.2898638331854609 268:1 291:1 399:1 452:1 453:1 578:1 846:1 856:1 
-1 177:1 291:1 686:1 704:1 856:1 921:1 
-1 291:1 702:1 745:1 824:1 856:1 
-1 292:1 690:1 
-0.8174030008830639 291:1 574:1 856:1 
-1 292:1 745:1 833:1 
-0.1933168254764661 292:1 322:1 745:1 
-0.1106276002933815 23:1 255:1 277:1 419:1 
-0.5297619269657293 79:1 92:1 291:1 856:1 
-0.3056659818397457 190:1 291:1 622:1 745:1 856:1 
-0.3761645862487339 190:1 291:1 320:1 451:1 622:1 745:1 856:1 892:1 
-0.7199993187627298 177:1 291:1 364:1 745:1 856:1 912:1 
-0.1234513032421738 51:1 291:1 292:1 649:1 745:1 856:1 
-1 291:1 856:1 944:1 
-1 291:1 639:1 768:1 800:1 801:1 856:1 
-0.3681430044770126 313:1 465:1 811:1 
-1 291:1 345:1 441:1 452:1 578:1 856:1 931:1 944:1 
-1 291:1 345:1 441:1 856:1 944:1 
-0.2479286450060783 248:1 291:1 351:1 416:1 577:1 856:1 
-1 73:1 291:1 352:1 687:1 801:1 856:1 938:1 
-1 241:1 291:1 688:1 741:1 745:1 856:1 
-1 193:1 241:1 291:1 292:1 856:1 938:1 
-0.4063311607604339 173:1 291:1 292:1 704:1 745:1 800:1 801:1 856:1 958:1 965:1 
-0.7841192707428801 292:1 641:1 785:1 977:1 
-1 291:1 347:1 641:1 745:1 856:1 871:1 
-0.5131569998176559 291:1 301:1 374:1 498:1 683:1 856:1 
-0.2519664355787011 291:1 366:1 856:1 911:1 
-1 292:1 452:1 578:1 
-0.1174363240592582 291:1 577:1 856:1 
-1 291:1 856:1 944:1 
-1 291:1 483:1 494:1 856:1 955:1 
-0.2864983514521128 291:1 340:1 352:1 419:1 452:1 578:1 626:1 856:1 938:1 
-0.1953524964329407 291:1 419:1 856:1 
-1 292:1 690:1 704:1 
-1 291:1 704:1 856:1 
-0.2849193944251487 103:1 291:1 518:1 856:1 
-1 79:1 291:1 292:1 856:1 926:1 
-0.3749964892760563 58:1 291:1 358:1 572:1 856:1 917:1 
-0.3113972367466795 193:1 291:1 406:1 452:1 578:1 788:1 856:1 
-0.3139160170670351 42:1 193:1 292:1 421:1 465:1 778:1 
-0.0683932506599971 73:1 104:1 241:1 291:1 452:1 517:1 578:1 687:1 856:1 
-0.2400812799966305 30:1 291:1 856:1 
-0.760409512754154 238:1 247:1 291:1 690:1 856:1 931:1 
-0.8555129327334362 291:1 745:1 856:1 
-0.8249599334886639 134:1 193:1 291:1 452:1 578:1 856:1 931:1 
-0.3737356481569106 15:1 241:1 291:1 320:1 452:1 541:1 578:1 824:1 856:1 966:1 
-0.1795729426855256 65:1 291:1 704:1 827:1 856:1 
-1 270:1 291:1 452:1 856:1 
-1 268:1 291:1 741:1 841:1 856:1 938:1 
-1 124:1 172:1 291:1 686:1 745:1 801:1 856:1 
-1 123:1 167:1 291:1 780:1 801:1 856:1 931:1 
-0.5008267774305695 291:1 435:1 856:1 953:1 
-0.1883633118394249 238:1 272:1 291:1 704:1 806:1 856:1 931:1 
-1 241:1 291:1 292:1 452:1 578:1 768:1 856:1 911:1 
-1 30:1 291:1 568:1 856:1 
-1 291:1 741:1 856:1 
-0.587760631635315 291:1 436:1 441:1 452:1 521:1 745:1 856:1 892:1 
-0.1533690174860805 288:1 291:1 330:1 366:1 554:1 856:1 891:1 
-0.764267212047862 241:1 291:1 452:1 467:1 578:1 856:1 865:1 
-1 241:1 291:1 465:1 621:1 690:1 856:1 944:1 
-0.1061192768487531 291:1 424:1 495:1 598:1 688:1 856:1 891:1 
-0.936013778294375 241:1 268:1 270:1 291:1 439:1 452:1 690:1 856:1 938:1 
-1 291:1 452:1 578:1 848:1 856:1 944:1 
-0.7271228028166574 291:1 650:1 856:1 
-0.5954586035689986 291:1 446:1 856:1 938:1 
-1 241:1 291:1 292:1 452:1 578:1 690:1 856:1 
-1 241:1 291:1 317:1 452:1 465:1 578:1 856:1 
-0.6208411657851236 291:1 856:1 904:1 
-1 271:1 291:1 648:1 856:1 936:1 
-1 291:1 352:1 741:1 785:1 856:1 931:1 
-1 291:1 509:1 856:1 931:1 
-0.2006405602710778 291:1 506:1 509:1 577:1 856:1 931:1 
-0.4483360889131175 291:1 856:1 966:1 
-0.1497911667948143 129:1 292:1 704:1 
-1 291:1 800:1 801:1 856:1 
-1 241:1 292:1 704:1 
-0.9439692142453118 41:1 178:1 291:1 416:1 437:1 741:1 745:1 800:1 801:1 856:1 
-0.5893029941929686 143:1 378:1 462:1 495:1 584:1 688:1 728:1 966:1 977:1 
-0.7555098997689252 292:1 457:1 770:1 847:1 970:1 
-0.1199989006319387 291:1 446:1 574:1 598:1 856:1 911:1 
-0.1427010823243875 190:1 291:1 622:1 856:1 896:1 944:1 
-1 247:1 292:1 690:1 936:1 
-1 240:1 241:1 291:1 452:1 468:1 578:1 856:1 908:1 
-0.1124319570526282 291:1 856:1 912:1 924:1 
-1 241:1 291:1 745:1 856:1 
-1 291:1 741:1 856:1 968:1 
-0.3182048512135923 291:1 452:1 697:1 703:1 856:1 938:1 
-1 292:1 352:1 452:1 578:1 741:1 
-0.5148389674123054 46:1 48:1 81:1 292:1 452:1 578:1 
-0.3523177702029963 30:1 259:1 291:1 330:1 568:1 856:1 
-0.1781351345095659 48:1 241:1 253:1 292:1 452:1 493:1 578:1 628:1 690:1 704:1 
-0.880339912238524 48:1 167:1 267:1 268:1 292:1 690:1 944:1 
-1 291:1 817:1 830:1 856:1 
-1 292:1 690:1 
-0.3652181912056313 81:1 143:1 291:1 452:1 578:1 839:1 856:1 865:1 931:1 
-1 241:1 292:1 938:1 
-0.6744494699705518 30:1 81:1 291:1 307:1 379:1 406:1 704:1 769:1 842:1 856:1 944:1 
-1 241:1 268:1 291:1 703:1 745:1 824:1 856:1 
-0.326499042247818 291:1 358:1 429:1 495:1 856:1 968:1 
-1 292:1 628:1 801:1 
-0.266429904831062 291:1 381:1 509:1 577:1 856:1 941:1 942:1 
-0.6029488438771126 217:1 292:1 737:1 790:1 885:1 892:1 936:1 
-1 291:1 441:1 585:1 785:1 848:1 856:1 936:1 938:1 
-1 346:1 936:1 943:1 
-0.5390404458042798 291:1 436:1 797:1 801:1 848:1 856:1 924:1 953:1 
-1 207:1 556:1 686:1 748:1 848:1 931:1 
-1 291:1 747:1 789:1 853:1 856:1 936:1 
-1 217:1 292:1 737:1 790:1 885:1 892:1 936:1 
-1 241:1 292:1 452:1 578:1 
-0.1620532344930448 292:1 398:1 856:1 
-0.1995461560140705 292:1 308:1 346:1 404:1 416:1 437:1 568:1 688:1 
-1 190:1 237:1 291:1 452:1 578:1 622:1 856:1 
-0.310483524637356 135:1 291:1 823:1 856:1 
-1 291:1 690:1 856:1 936:1 943:1 
-1 291:1 690:1 800:1 801:1 856:1 930:1 936:1 943:1 
-0.3190191516483421 49:1 292:1 690:1 
-0.6200559469605142 60:1 688:1 763:1 
-0.09720709976164507 166:1 291:1 465:1 511:1 702:1 856:1 
-0.6472314866609573 73:1 241:1 291:1 452:1 578:1 687:1 694:1 856:1 
-1 263:1 642:1 686:1 911:1 
-1 291:1 800:1 801:1 856:1 
-0.857427165273531 291:1 856:1 941:1 
-0.4628119227410054 16:1 291:1 307:1 856:1 938:1 
-1 10:1 291:1 801:1 856:1 
-1 58:1 291:1 800:1 801:1 856:1 
-0.4474802492614632 291:1 800:1 801:1 856:1 
-0.3162169014494907 73:1 267:1 291:1 465:1 574:1 856:1 941:1 
-1 241:1 291:1 452:1 578:1 856:1 
-1 291:1 856:1 936:1 
-1 291:1 452:1 578:1 686:1 768:1 856:1 
-1 291:1 465:1 686:1 856:1 911:1 936:1 
-1 239:1 283:1 313:1 682:1 686:1 801:1 808:1 
-1 16:1 30:1 289:1 291:1 494:1 807:1 856:1 955:1 
-0.2674342054072156 268:1 291:1 572:1 745:1 770:1 828:1 856:1 
-0.4429024045901859 268:1 292:1 495:1 680:1 745:1 770:1 931:1 
-1 291:1 704:1 856:1 
-0.8114829366541443 240:1 241:1 291:1 452:1 852:1 856:1 938:1 
-1 291:1 452:1 577:1 578:1 856:1 
-0.5968159729952224 46:1 291:1 856:1 
-0.7685002782253239 268:1 806:1 856:1 931:1 
-0.5910218709827203 12:1 291:1 856:1 
-0.5217943272936042 291:1 320:1 452:1 822:1 856:1 
-1 291:1 452:1 578:1 856:1 
-0.758456551394224 291:1 303:1 509:1 639:1 690:1 745:1 856:1 
-1 73:1 241:1 291:1 515:1 856:1 944:1 
-0.4527972524116685 1:1 151:1 291:1 770:1 830:1 856:1 943:1 
-0.4642399364837322 271:1 317:1 552:1 690:1 745:1 
-0.1093531993123291 291:1 292:1 452:1 578:1 639:1 848:1 856:1 944:1 
-1 22:1 291:1 292:1 452:1 578:1 856:1 931:1 
-1 286:1 291:1 801:1 856:1 
-0.3898297970585541 291:1 800:1 801:1 856:1 878:1 944:1 
-0.1797926705800872 291:1 556:1 632:1 745:1 800:1 801:1 856:1 944:1 959:1 
-1 291:1 301:1 306:1 404:1 856:1 966:1 
-0.6736180257151165 291:1 743:1 856:1 
-1 62:1 291:1 352:1 856:1 936:1 
-0.7295505338214568 222:1 276:1 291:1 621:1 856:1 
-0.656229759613611 101:1 291:1 670:1 745:1 856:1 
-1 291:1 800:1 801:1 856:1 878:1 944:1 
-0.872959375548515 247:1 291:1 856:1 944:1 
-1 291:1 785:1 856:1 
-1 291:1 466:1 728:1 856:1 931:1 
-0.631212762104041 241:1 291:1 745:1 856:1 911:1 
-0.2928903581496127 101:1 151:1 291:1 483:1 604:1 670:1 788:1 856:1 
-0.1591879946521582 79:1 291:1 292:1 625:1 856:1 
-0.3769484988799162 291:1 833:1 856:1 
-1 452:1 578:1 688:1 800:1 801:1 
-1 191:1 291:1 452:1 578:1 856:1 
-0.3258287595713347 104:1 291:1 452:1 578:1 856:1 
-0.8314867318876412 291:1 741:1 852:1 856:1 
-1 33:1 222:1 262:1 291:1 452:1 578:1 856:1 
-1 292:1 452:1 578:1 690:1 
-1 291:1 292:1 690:1 856:1 
-0.1850051606687604 78:1 406:1 655:1 768:1 931:1 956:1 
-0.5848411658111974 291:1 856:1 911:1 922:1 946:1 
-1 291:1 801:1 856:1 
-0.5733853309650243 73:1 291:1 856:1 
-0.5393970431405232 292:1 469:1 591:1 628:1 
-0.1189164530302277 79:1 247:1 291:1 307:1 856:1 931:1 
-0.4118054430855271 89:1 241:1 291:1 292:1 317:1 351:1 745:1 856:1 938:1 
-0.1283154452359358 291:1 495:1 688:1 785:1 829:1 856:1 
-1 291:1 741:1 856:1 931:1 
-0.3048008929535049 292:1 
-1 292:1 938:1 
-1 241:1 291:1 704:1 856:1 
-0.2722451666653969 143:1 212:1 291:1 358:1 495:1 856:1 931:1 957:1 
-1 241:1 291:1 345:1 452:1 856:1 944:1 
-1 292:1 446:1 
-0.9183843273979472 241:1 291:1 553:1 693:1 856:1 
-0.8383673483936807 291:1 693:1 856:1 
-0.4684324138970155 177:1 291:1 856:1 
-1 110:1 291:1 473:1 856:1 
-1 268:1 291:1 745:1 856:1 938:1 
-0.1122077478111479 58:1 73:1 291:1 292:1 856:1 
-0.3017232836548085 66:1 212:1 241:1 270:1 291:1 452:1 578:1 856:1 931:1 
-0.8513381960660982 79:1 160:1 291:1 352:1 856:1 
-0.2167073677766328 190:1 291:1 621:1 622:1 747:1 856:1 911:1 
-1 291:1 292:1 690:1 800:1 801:1 856:1 
-1 292:1 452:1 578:1 687:1 690:1 704:1 
-1 441:1 538:1 800:1 801:1 944:1 
-0.06160776646198564 241:1 271:1 291:1 452:1 697:1 856:1 931:1 
-1 247:1 292:1 555:1 740:1 
-0.7040488652771999 291:1 856:1 892:1 
-0.4908864887176255 73:1 193:1 226:1 292:1 352:1 687:1 912:1 
-0.3174724615389047 292:1 333:1 452:1 578:1 795:1 
-0.04100186621234769 54:1 241:1 291:1 352:1 688:1 856:1 938:1 
-1 291:1 318:1 572:1 768:1 856:1 
-1 292:1 847:1 
-1 2:1 291:1 671:1 856:1 
-1 268:1 291:1 509:1 555:1 690:1 856:1 914:1 
-1 291:1 452:1 578:1 856:1 
-0.9670460026009181 241:1 291:1 311:1 452:1 572:1 578:1 848:1 856:1 
-0.7829957724507818 292:1 352:1 452:1 578:1 691:1 737:1 
-1 291:1 452:1 578:1 856:1 
-1 54:1 73:1 291:1 355:1 800:1 801:1 856:1 
-0.07488533777761783 268:1 291:1 687:1 819:1 856:1 
-0.7548490505997134 120:1 291:1 335:1 806:1 856:1 
-0.3068675365640555 286:1 291:1 452:1 578:1 856:1 931:1 
-1 100:1 292:1 686:1 936:1 968:1 
-1 30:1 291:1 465:1 494:1 626:1 806:1 807:1 842:1 944:1 955:1 
-1 291:1 301:1 856:1 
-0.5728530948302515 292:1 441:1 833:1 848:1 944:1 
-0.5644295650400653 191:1 239:1 291:1 852:1 856:1 944:1 952:1 
-0.1680028832191679 291:1 452:1 807:1 856:1 931:1 
-0.3539257883187384 241:1 291:1 352:1 800:1 801:1 856:1 865:1 
-1 292:1 301:1 452:1 507:1 578:1 741:1 
-0.7790190198365985 241:1 291:1 704:1 856:1 
-1 79:1 292:1 924:1 
-1 255:1 269:1 292:1 
-0.213426348703061 291:1 509:1 621:1 856:1 975:1 
-0.1520604722993499 54:1 291:1 806:1 856:1 
-1 255:1 292:1 398:1 856:1 
-1 291:1 856:1 944:1 
-1 247:1 291:1 465:1 741:1 856:1 938:1 
-0.1578679350522494 260:1 291:1 628:1 856:1 944:1 957:1 
-1 193:1 268:1 291:1 292:1 745:1 856:1 
-0.2184580872497901 247:1 263:1 291:1 465:1 583:1 741:1 856:1 924:1 
-1 268:1 291:1 768:1 846:1 856:1 912:1 
-0.6799905590498891 291:1 495:1 745:1 856:1 931:1 
-0.08166872585427395 124:1 234:1 291:1 815:1 828:1 856:1 
-1 292:1 358:1 896:1 
-0.3252884587105851 49:1 407:1 621:1 
-0.7546002519426649 687:1 703:1 874:1 
-1 768:1 
-0.2407078932652441 49:1 134:1 555:1 788:1 
-0.8026480419004698 481:1 962:1 
-0.6284980758352043 870:1 
-0.2766179558991753 647:1 688:1 980:1 
-0.4761041528236716 946:1 964:1 
-1 741:1 865:1 
-0.4701700098715746 62:1 271:1 688:1 745:1 772:1 931:1 
-0.5430473918915464 291:1 452:1 578:1 
-1 481:1 
-1 37:1 483:1 936:1 
-1 944:1 
-0.5871789488520593 320:1 452:1 804:1 
-1 452:1 465:1 578:1 
-1 317:1 429:1 704:1 966:1 
-0.2936931408104745 687:1 785:1 
-0.487090633973407 51:1 177:1 261:1 436:1 728:1 
-0.1708673219062048 352:1 687:1 833:1 847:1 970:1 
