svm_type c_svc
kernel_type rbf
gamma 0.0011467889908256881
nr_class 2
total_sv 959
rho 0.8429188417280812
label 1 -1
nr_sv 431 528
SV
1.0 250:1.0 305:1.0 350:1.0 434:1.0 632:1.0 664:1.0 759:1.0 
1.0 207:1.0 250:1.0 270:1.0 627:1.0 664:1.0 759:1.0 
1.0 66:1.0 250:1.0 275:1.0 759:1.0 
1.0 207:1.0 270:1.0 518:1.0 759:1.0 821:1.0 
1.0 250:1.0 270:1.0 759:1.0 
1.0 250:1.0 321:1.0 540:1.0 759:1.0 
1.0 207:1.0 250:1.0 270:1.0 664:1.0 759:1.0 
1.0 250:1.0 391:1.0 759:1.0 
1.0 207:1.0 250:1.0 329:1.0 573:1.0 664:1.0 759:1.0 851:1.0 
1.0 250:1.0 759:1.0 
1.0 29:1.0 250:1.0 401:1.0 413:1.0 500:1.0 518:1.0 759:1.0 
1.0 250:1.0 518:1.0 617:1.0 627:1.0 730:1.0 759:1.0 
1.0 250:1.0 270:1.0 627:1.0 759:1.0 
1.0 66:1.0 250:1.0 251:1.0 270:1.0 759:1.0 
1.0 93:1.0 151:1.0 250:1.0 413:1.0 759:1.0 
1.0 250:1.0 270:1.0 759:1.0 
1.0 66:1.0 250:1.0 275:1.0 759:1.0 
1.0 250:1.0 251:1.0 759:1.0 797:1.0 
1.0 865:1.0 
1.0 154:1.0 251:1.0 277:1.0 400:1.0 429:1.0 789:1.0 
1.0 177:1.0 178:1.0 251:1.0 353:1.0 401:1.0 518:1.0 561:1.0 705:1.0 784:1.0 
1.0 250:1.0 329:1.0 573:1.0 759:1.0 851:1.0 
1.0 66:1.0 303:1.0 391:1.0 461:1.0 615:1.0 739:1.0 842:1.0 
1.0 14:1.0 26:1.0 251:1.0 386:1.0 423:1.0 
1.0 236:1.0 251:1.0 270:1.0 387:1.0 
1.0 140:1.0 178:1.0 250:1.0 742:1.0 759:1.0 
1.0 66:1.0 353:1.0 833:1.0 
1.0 71:1.0 315:1.0 543:1.0 750:1.0 
1.0 250:1.0 759:1.0 
1.0 250:1.0 310:1.0 329:1.0 687:1.0 710:1.0 759:1.0 820:1.0 851:1.0 
1.0 251:1.0 286:1.0 750:1.0 
1.0 66:1.0 146:1.0 250:1.0 265:1.0 311:1.0 369:1.0 408:1.0 715:1.0 759:1.0 
1.0 250:1.0 759:1.0 
1.0 13:1.0 26:1.0 47:1.0 250:1.0 264:1.0 415:1.0 561:1.0 716:1.0 759:1.0 
1.0 250:1.0 759:1.0 
1.0 250:1.0 709:1.0 710:1.0 738:1.0 752:1.0 759:1.0 820:1.0 833:1.0 
1.0 207:1.0 250:1.0 329:1.0 627:1.0 664:1.0 759:1.0 851:1.0 
1.0 250:1.0 251:1.0 329:1.0 627:1.0 759:1.0 851:1.0 
1.0 212:1.0 250:1.0 309:1.0 368:1.0 561:1.0 759:1.0 
1.0 212:1.0 309:1.0 
1.0 250:1.0 391:1.0 751:1.0 759:1.0 
1.0 56:1.0 250:1.0 518:1.0 759:1.0 821:1.0 
1.0 90:1.0 250:1.0 759:1.0 
1.0 250:1.0 578:1.0 579:1.0 821:1.0 
1.0 250:1.0 391:1.0 751:1.0 759:1.0 
1.0 159:1.0 250:1.0 276:1.0 562:1.0 686:1.0 759:1.0 
1.0 66:1.0 350:1.0 359:1.0 400:1.0 664:1.0 
1.0 235:1.0 250:1.0 759:1.0 
1.0 251:1.0 264:1.0 841:1.0 
1.0 250:1.0 329:1.0 401:1.0 518:1.0 715:1.0 738:1.0 759:1.0 851:1.0 
1.0 207:1.0 250:1.0 329:1.0 359:1.0 400:1.0 626:1.0 627:1.0 759:1.0 851:1.0 
1.0 207:1.0 236:1.0 250:1.0 329:1.0 401:1.0 518:1.0 627:1.0 756:1.0 759:1.0 851:1.0 
1.0 96:1.0 207:1.0 251:1.0 788:1.0 
1.0 66:1.0 149:1.0 391:1.0 835:1.0 859:1.0 860:1.0 
1.0 94:1.0 96:1.0 102:1.0 207:1.0 401:1.0 429:1.0 518:1.0 
1.0 71:1.0 386:1.0 634:1.0 687:1.0 
1.0 248:1.0 750:1.0 
1.0 278:1.0 
1.0 250:1.0 709:1.0 710:1.0 759:1.0 820:1.0 
1.0 207:1.0 250:1.0 576:1.0 627:1.0 664:1.0 759:1.0 849:1.0 
1.0 250:1.0 294:1.0 413:1.0 545:1.0 592:1.0 751:1.0 759:1.0 
1.0 115:1.0 250:1.0 576:1.0 759:1.0 849:1.0 
1.0 42:1.0 59:1.0 98:1.0 207:1.0 250:1.0 271:1.0 759:1.0 
1.0 250:1.0 576:1.0 759:1.0 849:1.0 
1.0 94:1.0 251:1.0 429:1.0 434:1.0 632:1.0 640:1.0 
1.0 59:1.0 250:1.0 452:1.0 617:1.0 759:1.0 
1.0 178:1.0 239:1.0 250:1.0 264:1.0 429:1.0 562:1.0 759:1.0 817:1.0 
1.0 29:1.0 250:1.0 385:1.0 526:1.0 664:1.0 739:1.0 759:1.0 
1.0 250:1.0 271:1.0 759:1.0 
1.0 250:1.0 369:1.0 696:1.0 759:1.0 821:1.0 
1.0 47:1.0 250:1.0 271:1.0 310:1.0 759:1.0 
1.0 150:1.0 251:1.0 611:1.0 627:1.0 
1.0 250:1.0 759:1.0 
1.0 220:1.0 250:1.0 514:1.0 617:1.0 725:1.0 726:1.0 759:1.0 
1.0 42:1.0 59:1.0 250:1.0 350:1.0 759:1.0 
1.0 207:1.0 250:1.0 401:1.0 518:1.0 617:1.0 627:1.0 759:1.0 
1.0 250:1.0 576:1.0 627:1.0 759:1.0 849:1.0 
1.0 178:1.0 336:1.0 415:1.0 793:1.0 
1.0 94:1.0 250:1.0 359:1.0 400:1.0 759:1.0 833:1.0 
1.0 74:1.0 248:1.0 250:1.0 278:1.0 561:1.0 687:1.0 744:1.0 759:1.0 833:1.0 
1.0 71:1.0 250:1.0 275:1.0 634:1.0 759:1.0 830:1.0 849:1.0 
1.0 250:1.0 286:1.0 576:1.0 640:1.0 716:1.0 750:1.0 759:1.0 849:1.0 
1.0 66:1.0 244:1.0 251:1.0 391:1.0 615:1.0 640:1.0 833:1.0 
1.0 42:1.0 59:1.0 206:1.0 250:1.0 275:1.0 617:1.0 759:1.0 
1.0 60:1.0 250:1.0 401:1.0 518:1.0 759:1.0 
1.0 59:1.0 250:1.0 627:1.0 759:1.0 
1.0 59:1.0 207:1.0 250:1.0 510:1.0 759:1.0 
1.0 250:1.0 401:1.0 429:1.0 518:1.0 759:1.0 
1.0 250:1.0 310:1.0 386:1.0 413:1.0 710:1.0 759:1.0 
1.0 59:1.0 206:1.0 207:1.0 250:1.0 617:1.0 759:1.0 
1.0 49:1.0 151:1.0 250:1.0 368:1.0 387:1.0 605:1.0 664:1.0 759:1.0 821:1.0 
1.0 59:1.0 250:1.0 251:1.0 627:1.0 759:1.0 
1.0 42:1.0 59:1.0 206:1.0 
1.0 234:1.0 250:1.0 310:1.0 456:1.0 617:1.0 759:1.0 
1.0 77:1.0 250:1.0 309:1.0 752:1.0 759:1.0 821:1.0 
1.0 59:1.0 250:1.0 759:1.0 
1.0 42:1.0 59:1.0 206:1.0 250:1.0 452:1.0 759:1.0 
1.0 59:1.0 206:1.0 250:1.0 573:1.0 759:1.0 
1.0 42:1.0 59:1.0 206:1.0 
1.0 13:1.0 207:1.0 250:1.0 334:1.0 759:1.0 
1.0 59:1.0 250:1.0 627:1.0 759:1.0 
1.0 29:1.0 250:1.0 251:1.0 627:1.0 759:1.0 
1.0 91:1.0 250:1.0 405:1.0 518:1.0 599:1.0 759:1.0 
1.0 207:1.0 250:1.0 275:1.0 759:1.0 
1.0 59:1.0 250:1.0 759:1.0 
1.0 47:1.0 59:1.0 207:1.0 250:1.0 310:1.0 401:1.0 518:1.0 617:1.0 759:1.0 
1.0 206:1.0 227:1.0 250:1.0 271:1.0 664:1.0 752:1.0 759:1.0 821:1.0 
1.0 250:1.0 275:1.0 738:1.0 759:1.0 
1.0 250:1.0 390:1.0 401:1.0 518:1.0 759:1.0 
1.0 42:1.0 59:1.0 207:1.0 212:1.0 250:1.0 251:1.0 627:1.0 687:1.0 759:1.0 
1.0 59:1.0 250:1.0 578:1.0 579:1.0 759:1.0 
1.0 207:1.0 234:1.0 250:1.0 280:1.0 627:1.0 759:1.0 
1.0 42:1.0 59:1.0 250:1.0 759:1.0 
1.0 42:1.0 59:1.0 206:1.0 250:1.0 759:1.0 
1.0 250:1.0 400:1.0 752:1.0 759:1.0 
1.0 42:1.0 59:1.0 60:1.0 250:1.0 617:1.0 759:1.0 
1.0 232:1.0 250:1.0 251:1.0 494:1.0 573:1.0 664:1.0 759:1.0 798:1.0 
1.0 98:1.0 212:1.0 250:1.0 386:1.0 759:1.0 
1.0 60:1.0 148:1.0 250:1.0 310:1.0 759:1.0 
1.0 160:1.0 163:1.0 234:1.0 250:1.0 759:1.0 
1.0 59:1.0 236:1.0 250:1.0 756:1.0 759:1.0 
1.0 29:1.0 164:1.0 207:1.0 251:1.0 328:1.0 348:1.0 453:1.0 685:1.0 
1.0 96:1.0 213:1.0 251:1.0 565:1.0 756:1.0 766:1.0 
1.0 13:1.0 251:1.0 788:1.0 840:1.0 
1.0 207:1.0 250:1.0 759:1.0 
1.0 207:1.0 250:1.0 348:1.0 714:1.0 733:1.0 759:1.0 
1.0 207:1.0 250:1.0 251:1.0 387:1.0 397:1.0 718:1.0 738:1.0 759:1.0 
1.0 232:1.0 250:1.0 310:1.0 609:1.0 664:1.0 759:1.0 821:1.0 
1.0 232:1.0 251:1.0 441:1.0 664:1.0 
1.0 251:1.0 305:1.0 592:1.0 734:1.0 
1.0 214:1.0 250:1.0 453:1.0 527:1.0 759:1.0 
1.0 26:1.0 250:1.0 657:1.0 759:1.0 788:1.0 
1.0 250:1.0 278:1.0 310:1.0 518:1.0 664:1.0 687:1.0 730:1.0 759:1.0 821:1.0 
1.0 8:1.0 9:1.0 250:1.0 286:1.0 567:1.0 750:1.0 759:1.0 
1.0 250:1.0 494:1.0 627:1.0 759:1.0 798:1.0 
1.0 232:1.0 250:1.0 664:1.0 759:1.0 
1.0 232:1.0 250:1.0 406:1.0 759:1.0 
1.0 115:1.0 250:1.0 759:1.0 
1.0 232:1.0 250:1.0 251:1.0 275:1.0 664:1.0 759:1.0 
1.0 250:1.0 608:1.0 759:1.0 
1.0 250:1.0 581:1.0 664:1.0 759:1.0 
1.0 232:1.0 250:1.0 664:1.0 759:1.0 
1.0 232:1.0 251:1.0 
1.0 232:1.0 251:1.0 305:1.0 865:1.0 
1.0 232:1.0 250:1.0 328:1.0 714:1.0 715:1.0 759:1.0 
1.0 66:1.0 250:1.0 759:1.0 788:1.0 
1.0 232:1.0 250:1.0 352:1.0 401:1.0 518:1.0 750:1.0 759:1.0 
1.0 246:1.0 251:1.0 494:1.0 798:1.0 
1.0 250:1.0 328:1.0 685:1.0 759:1.0 814:1.0 835:1.0 
1.0 213:1.0 250:1.0 391:1.0 514:1.0 664:1.0 757:1.0 759:1.0 821:1.0 
1.0 207:1.0 221:1.0 246:1.0 250:1.0 664:1.0 728:1.0 759:1.0 
1.0 251:1.0 664:1.0 738:1.0 
1.0 250:1.0 617:1.0 759:1.0 
1.0 250:1.0 571:1.0 686:1.0 709:1.0 710:1.0 759:1.0 
1.0 250:1.0 401:1.0 518:1.0 759:1.0 854:1.0 
1.0 168:1.0 250:1.0 626:1.0 627:1.0 759:1.0 798:1.0 
1.0 250:1.0 278:1.0 310:1.0 759:1.0 821:1.0 842:1.0 
1.0 250:1.0 429:1.0 759:1.0 833:1.0 
1.0 271:1.0 413:1.0 720:1.0 
1.0 168:1.0 250:1.0 709:1.0 710:1.0 759:1.0 798:1.0 
1.0 207:1.0 246:1.0 250:1.0 617:1.0 664:1.0 759:1.0 
1.0 161:1.0 207:1.0 251:1.0 517:1.0 752:1.0 813:1.0 835:1.0 838:1.0 
1.0 250:1.0 387:1.0 397:1.0 561:1.0 759:1.0 787:1.0 
1.0 66:1.0 413:1.0 788:1.0 
1.0 140:1.0 178:1.0 250:1.0 328:1.0 759:1.0 
1.0 66:1.0 413:1.0 752:1.0 
1.0 38:1.0 140:1.0 250:1.0 759:1.0 
1.0 234:1.0 250:1.0 369:1.0 627:1.0 699:1.0 709:1.0 710:1.0 759:1.0 
1.0 146:1.0 250:1.0 627:1.0 759:1.0 847:1.0 854:1.0 
1.0 207:1.0 250:1.0 627:1.0 759:1.0 
1.0 250:1.0 275:1.0 759:1.0 
1.0 250:1.0 351:1.0 355:1.0 417:1.0 560:1.0 759:1.0 
1.0 213:1.0 250:1.0 309:1.0 368:1.0 759:1.0 
1.0 66:1.0 212:1.0 250:1.0 664:1.0 759:1.0 812:1.0 
1.0 29:1.0 90:1.0 250:1.0 370:1.0 755:1.0 759:1.0 
1.0 359:1.0 623:1.0 
1.0 37:1.0 309:1.0 368:1.0 
1.0 87:1.0 250:1.0 251:1.0 337:1.0 466:1.0 759:1.0 
1.0 235:1.0 250:1.0 251:1.0 627:1.0 759:1.0 
1.0 146:1.0 250:1.0 251:1.0 627:1.0 664:1.0 709:1.0 710:1.0 759:1.0 847:1.0 854:1.0 
1.0 251:1.0 573:1.0 696:1.0 865:1.0 
1.0 146:1.0 250:1.0 617:1.0 759:1.0 847:1.0 854:1.0 
1.0 250:1.0 305:1.0 573:1.0 664:1.0 759:1.0 773:1.0 
1.0 250:1.0 336:1.0 395:1.0 449:1.0 759:1.0 787:1.0 
1.0 84:1.0 250:1.0 617:1.0 664:1.0 757:1.0 759:1.0 
1.0 250:1.0 464:1.0 759:1.0 
1.0 370:1.0 611:1.0 619:1.0 
1.0 207:1.0 221:1.0 250:1.0 536:1.0 561:1.0 759:1.0 787:1.0 
1.0 250:1.0 260:1.0 330:1.0 444:1.0 612:1.0 759:1.0 
1.0 250:1.0 328:1.0 750:1.0 759:1.0 833:1.0 849:1.0 
1.0 250:1.0 304:1.0 330:1.0 422:1.0 567:1.0 657:1.0 759:1.0 
1.0 250:1.0 359:1.0 623:1.0 759:1.0 
1.0 74:1.0 250:1.0 359:1.0 687:1.0 759:1.0 
1.0 250:1.0 759:1.0 
1.0 250:1.0 584:1.0 709:1.0 710:1.0 759:1.0 812:1.0 
1.0 250:1.0 584:1.0 759:1.0 812:1.0 
1.0 251:1.0 291:1.0 417:1.0 617:1.0 
1.0 251:1.0 617:1.0 627:1.0 
1.0 250:1.0 617:1.0 759:1.0 
1.0 60:1.0 250:1.0 759:1.0 
1.0 236:1.0 250:1.0 401:1.0 518:1.0 615:1.0 759:1.0 821:1.0 832:1.0 
1.0 66:1.0 236:1.0 250:1.0 584:1.0 615:1.0 710:1.0 759:1.0 812:1.0 820:1.0 821:1.0 
1.0 57:1.0 250:1.0 759:1.0 821:1.0 
1.0 207:1.0 250:1.0 584:1.0 617:1.0 664:1.0 759:1.0 812:1.0 
1.0 29:1.0 74:1.0 250:1.0 359:1.0 400:1.0 744:1.0 759:1.0 
1.0 250:1.0 278:1.0 401:1.0 518:1.0 617:1.0 687:1.0 759:1.0 832:1.0 
1.0 250:1.0 441:1.0 545:1.0 617:1.0 759:1.0 833:1.0 
1.0 38:1.0 251:1.0 372:1.0 413:1.0 694:1.0 
1.0 196:1.0 235:1.0 250:1.0 310:1.0 759:1.0 
1.0 57:1.0 81:1.0 313:1.0 
1.0 251:1.0 275:1.0 551:1.0 563:1.0 
1.0 66:1.0 93:1.0 207:1.0 250:1.0 401:1.0 463:1.0 518:1.0 615:1.0 759:1.0 
1.0 26:1.0 250:1.0 759:1.0 
1.0 250:1.0 275:1.0 298:1.0 328:1.0 359:1.0 567:1.0 734:1.0 735:1.0 759:1.0 
1.0 204:1.0 212:1.0 250:1.0 617:1.0 759:1.0 821:1.0 
1.0 207:1.0 250:1.0 372:1.0 759:1.0 
1.0 60:1.0 250:1.0 759:1.0 
1.0 250:1.0 664:1.0 759:1.0 821:1.0 
1.0 250:1.0 759:1.0 
1.0 107:1.0 145:1.0 250:1.0 664:1.0 710:1.0 759:1.0 
1.0 140:1.0 250:1.0 710:1.0 759:1.0 821:1.0 
1.0 250:1.0 298:1.0 359:1.0 427:1.0 567:1.0 734:1.0 759:1.0 
1.0 12:1.0 134:1.0 429:1.0 502:1.0 617:1.0 
1.0 207:1.0 250:1.0 251:1.0 549:1.0 573:1.0 759:1.0 
1.0 250:1.0 275:1.0 752:1.0 759:1.0 842:1.0 
1.0 207:1.0 250:1.0 759:1.0 
1.0 204:1.0 236:1.0 250:1.0 627:1.0 715:1.0 759:1.0 821:1.0 
1.0 207:1.0 250:1.0 251:1.0 401:1.0 518:1.0 686:1.0 759:1.0 
1.0 250:1.0 759:1.0 
1.0 250:1.0 386:1.0 391:1.0 401:1.0 467:1.0 664:1.0 759:1.0 788:1.0 
1.0 248:1.0 250:1.0 288:1.0 498:1.0 759:1.0 787:1.0 
1.0 250:1.0 330:1.0 657:1.0 667:1.0 759:1.0 787:1.0 
1.0 66:1.0 615:1.0 750:1.0 
1.0 145:1.0 178:1.0 235:1.0 250:1.0 265:1.0 413:1.0 685:1.0 759:1.0 
1.0 207:1.0 250:1.0 413:1.0 617:1.0 759:1.0 833:1.0 
1.0 207:1.0 236:1.0 243:1.0 250:1.0 627:1.0 664:1.0 759:1.0 
1.0 124:1.0 413:1.0 417:1.0 519:1.0 810:1.0 827:1.0 
1.0 250:1.0 441:1.0 536:1.0 759:1.0 787:1.0 
1.0 207:1.0 232:1.0 234:1.0 250:1.0 389:1.0 401:1.0 617:1.0 759:1.0 
1.0 234:1.0 251:1.0 389:1.0 696:1.0 
1.0 72:1.0 93:1.0 251:1.0 517:1.0 567:1.0 657:1.0 842:1.0 
1.0 250:1.0 271:1.0 442:1.0 527:1.0 759:1.0 
1.0 212:1.0 234:1.0 250:1.0 359:1.0 387:1.0 389:1.0 759:1.0 
1.0 205:1.0 207:1.0 250:1.0 573:1.0 664:1.0 759:1.0 773:1.0 
1.0 250:1.0 514:1.0 692:1.0 759:1.0 
1.0 234:1.0 251:1.0 275:1.0 389:1.0 627:1.0 
1.0 251:1.0 400:1.0 730:1.0 
1.0 250:1.0 395:1.0 759:1.0 
1.0 207:1.0 212:1.0 250:1.0 271:1.0 759:1.0 792:1.0 821:1.0 833:1.0 
1.0 207:1.0 250:1.0 251:1.0 401:1.0 518:1.0 617:1.0 759:1.0 
1.0 250:1.0 391:1.0 401:1.0 518:1.0 525:1.0 696:1.0 759:1.0 
1.0 250:1.0 617:1.0 759:1.0 
1.0 250:1.0 759:1.0 
1.0 207:1.0 250:1.0 275:1.0 401:1.0 413:1.0 518:1.0 759:1.0 
1.0 250:1.0 264:1.0 265:1.0 275:1.0 391:1.0 525:1.0 696:1.0 759:1.0 
1.0 250:1.0 285:1.0 667:1.0 759:1.0 856:1.0 
1.0 250:1.0 309:1.0 328:1.0 377:1.0 400:1.0 632:1.0 759:1.0 
1.0 250:1.0 387:1.0 401:1.0 518:1.0 523:1.0 759:1.0 
1.0 13:1.0 328:1.0 359:1.0 387:1.0 685:1.0 
1.0 250:1.0 759:1.0 
1.0 111:1.0 250:1.0 251:1.0 759:1.0 815:1.0 821:1.0 
1.0 250:1.0 310:1.0 696:1.0 759:1.0 821:1.0 
1.0 251:1.0 350:1.0 561:1.0 833:1.0 
1.0 111:1.0 251:1.0 627:1.0 
1.0 111:1.0 207:1.0 250:1.0 627:1.0 664:1.0 759:1.0 
1.0 250:1.0 709:1.0 710:1.0 759:1.0 
1.0 207:1.0 251:1.0 627:1.0 
1.0 37:1.0 151:1.0 250:1.0 368:1.0 387:1.0 664:1.0 709:1.0 710:1.0 759:1.0 
1.0 251:1.0 462:1.0 561:1.0 619:1.0 
1.0 120:1.0 250:1.0 759:1.0 
1.0 74:1.0 250:1.0 617:1.0 744:1.0 759:1.0 
1.0 151:1.0 250:1.0 416:1.0 424:1.0 759:1.0 804:1.0 
1.0 250:1.0 416:1.0 759:1.0 804:1.0 
1.0 74:1.0 251:1.0 265:1.0 617:1.0 744:1.0 
1.0 212:1.0 251:1.0 617:1.0 826:1.0 
1.0 101:1.0 207:1.0 250:1.0 346:1.0 401:1.0 518:1.0 759:1.0 
1.0 206:1.0 207:1.0 250:1.0 401:1.0 416:1.0 518:1.0 759:1.0 804:1.0 
1.0 250:1.0 759:1.0 815:1.0 
1.0 111:1.0 251:1.0 391:1.0 525:1.0 696:1.0 815:1.0 
1.0 251:1.0 368:1.0 567:1.0 
1.0 64:1.0 359:1.0 640:1.0 716:1.0 
1.0 60:1.0 250:1.0 255:1.0 271:1.0 387:1.0 714:1.0 759:1.0 
1.0 250:1.0 275:1.0 400:1.0 627:1.0 759:1.0 
1.0 44:1.0 74:1.0 140:1.0 231:1.0 251:1.0 359:1.0 368:1.0 617:1.0 
1.0 562:1.0 750:1.0 
1.0 251:1.0 310:1.0 401:1.0 518:1.0 
1.0 42:1.0 44:1.0 74:1.0 251:1.0 401:1.0 518:1.0 
1.0 44:1.0 251:1.0 359:1.0 400:1.0 698:1.0 
1.0 313:1.0 441:1.0 560:1.0 652:1.0 653:1.0 
1.0 44:1.0 60:1.0 250:1.0 264:1.0 759:1.0 821:1.0 
1.0 44:1.0 207:1.0 218:1.0 251:1.0 401:1.0 439:1.0 518:1.0 617:1.0 627:1.0 
1.0 44:1.0 218:1.0 250:1.0 439:1.0 627:1.0 759:1.0 
1.0 250:1.0 359:1.0 759:1.0 
1.0 44:1.0 140:1.0 231:1.0 251:1.0 617:1.0 833:1.0 
1.0 251:1.0 306:1.0 870:1.0 
1.0 251:1.0 617:1.0 
1.0 44:1.0 207:1.0 231:1.0 250:1.0 401:1.0 518:1.0 617:1.0 759:1.0 
1.0 207:1.0 251:1.0 
1.0 26:1.0 74:1.0 250:1.0 265:1.0 334:1.0 359:1.0 627:1.0 746:1.0 759:1.0 833:1.0 
1.0 250:1.0 617:1.0 759:1.0 
1.0 44:1.0 218:1.0 251:1.0 401:1.0 439:1.0 518:1.0 617:1.0 
1.0 44:1.0 218:1.0 250:1.0 439:1.0 759:1.0 
1.0 250:1.0 413:1.0 437:1.0 598:1.0 759:1.0 
1.0 207:1.0 251:1.0 391:1.0 461:1.0 567:1.0 750:1.0 833:1.0 
1.0 66:1.0 328:1.0 461:1.0 615:1.0 685:1.0 739:1.0 833:1.0 
1.0 71:1.0 251:1.0 370:1.0 634:1.0 716:1.0 
1.0 44:1.0 178:1.0 207:1.0 251:1.0 457:1.0 596:1.0 
1.0 72:1.0 250:1.0 759:1.0 
1.0 250:1.0 752:1.0 759:1.0 
1.0 251:1.0 710:1.0 
1.0 250:1.0 391:1.0 525:1.0 696:1.0 752:1.0 759:1.0 826:1.0 
1.0 304:1.0 826:1.0 832:1.0 
1.0 187:1.0 251:1.0 657:1.0 701:1.0 781:1.0 788:1.0 826:1.0 
1.0 112:1.0 250:1.0 387:1.0 397:1.0 666:1.0 700:1.0 759:1.0 
1.0 250:1.0 251:1.0 759:1.0 
1.0 250:1.0 286:1.0 750:1.0 759:1.0 770:1.0 833:1.0 
1.0 5:1.0 207:1.0 250:1.0 617:1.0 666:1.0 700:1.0 752:1.0 759:1.0 
1.0 163:1.0 250:1.0 401:1.0 518:1.0 557:1.0 759:1.0 
1.0 250:1.0 305:1.0 573:1.0 759:1.0 
1.0 12:1.0 96:1.0 250:1.0 405:1.0 746:1.0 751:1.0 759:1.0 
1.0 207:1.0 250:1.0 666:1.0 700:1.0 759:1.0 
1.0 250:1.0 666:1.0 700:1.0 759:1.0 
1.0 140:1.0 250:1.0 664:1.0 759:1.0 
1.0 250:1.0 617:1.0 759:1.0 826:1.0 832:1.0 
1.0 250:1.0 617:1.0 709:1.0 710:1.0 759:1.0 820:1.0 826:1.0 832:1.0 
1.0 71:1.0 207:1.0 250:1.0 573:1.0 640:1.0 664:1.0 759:1.0 818:1.0 
1.0 45:1.0 251:1.0 617:1.0 
1.0 227:1.0 304:1.0 391:1.0 657:1.0 
1.0 54:1.0 682:1.0 
1.0 26:1.0 54:1.0 251:1.0 330:1.0 334:1.0 406:1.0 
1.0 657:1.0 788:1.0 
1.0 139:1.0 250:1.0 413:1.0 457:1.0 626:1.0 759:1.0 
1.0 56:1.0 251:1.0 386:1.0 835:1.0 
1.0 250:1.0 759:1.0 826:1.0 
1.0 206:1.0 207:1.0 250:1.0 251:1.0 401:1.0 440:1.0 518:1.0 709:1.0 710:1.0 715:1.0 759:1.0 844:1.0 
1.0 250:1.0 401:1.0 518:1.0 699:1.0 759:1.0 
1.0 250:1.0 759:1.0 
1.0 250:1.0 401:1.0 441:1.0 518:1.0 759:1.0 833:1.0 
1.0 131:1.0 250:1.0 386:1.0 636:1.0 759:1.0 821:1.0 
1.0 250:1.0 455:1.0 759:1.0 826:1.0 
1.0 47:1.0 250:1.0 310:1.0 401:1.0 518:1.0 578:1.0 579:1.0 759:1.0 
1.0 250:1.0 759:1.0 821:1.0 
1.0 207:1.0 250:1.0 310:1.0 401:1.0 518:1.0 752:1.0 759:1.0 855:1.0 
1.0 250:1.0 759:1.0 821:1.0 826:1.0 
1.0 250:1.0 251:1.0 348:1.0 759:1.0 855:1.0 
1.0 250:1.0 686:1.0 759:1.0 
1.0 250:1.0 759:1.0 
1.0 250:1.0 615:1.0 751:1.0 759:1.0 830:1.0 
1.0 250:1.0 391:1.0 401:1.0 518:1.0 759:1.0 821:1.0 833:1.0 
1.0 250:1.0 689:1.0 730:1.0 759:1.0 
1.0 250:1.0 413:1.0 759:1.0 821:1.0 833:1.0 
1.0 207:1.0 250:1.0 401:1.0 440:1.0 518:1.0 715:1.0 759:1.0 844:1.0 
1.0 207:1.0 250:1.0 271:1.0 379:1.0 401:1.0 518:1.0 759:1.0 
1.0 207:1.0 250:1.0 759:1.0 833:1.0 
1.0 250:1.0 759:1.0 826:1.0 
1.0 207:1.0 250:1.0 315:1.0 401:1.0 518:1.0 686:1.0 687:1.0 759:1.0 
1.0 207:1.0 251:1.0 
1.0 250:1.0 401:1.0 518:1.0 759:1.0 
1.0 7:1.0 250:1.0 350:1.0 710:1.0 759:1.0 826:1.0 
1.0 309:1.0 
1.0 250:1.0 759:1.0 821:1.0 826:1.0 
1.0 250:1.0 401:1.0 518:1.0 759:1.0 
1.0 250:1.0 264:1.0 429:1.0 759:1.0 855:1.0 
1.0 250:1.0 687:1.0 759:1.0 868:1.0 
1.0 250:1.0 759:1.0 821:1.0 
1.0 250:1.0 303:1.0 310:1.0 759:1.0 833:1.0 
1.0 204:1.0 250:1.0 401:1.0 413:1.0 518:1.0 759:1.0 833:1.0 
1.0 251:1.0 315:1.0 401:1.0 518:1.0 
1.0 91:1.0 207:1.0 250:1.0 401:1.0 518:1.0 599:1.0 759:1.0 783:1.0 
1.0 232:1.0 250:1.0 573:1.0 626:1.0 664:1.0 716:1.0 750:1.0 759:1.0 
1.0 250:1.0 379:1.0 664:1.0 759:1.0 821:1.0 
1.0 250:1.0 386:1.0 759:1.0 
1.0 47:1.0 212:1.0 250:1.0 401:1.0 413:1.0 518:1.0 759:1.0 826:1.0 
1.0 250:1.0 401:1.0 518:1.0 759:1.0 821:1.0 
1.0 250:1.0 401:1.0 518:1.0 759:1.0 
1.0 250:1.0 401:1.0 518:1.0 759:1.0 
1.0 26:1.0 251:1.0 310:1.0 401:1.0 518:1.0 710:1.0 716:1.0 826:1.0 
1.0 250:1.0 401:1.0 518:1.0 738:1.0 759:1.0 
1.0 13:1.0 250:1.0 440:1.0 710:1.0 759:1.0 820:1.0 844:1.0 
1.0 207:1.0 250:1.0 709:1.0 710:1.0 738:1.0 759:1.0 820:1.0 
1.0 250:1.0 759:1.0 
1.0 250:1.0 310:1.0 401:1.0 440:1.0 518:1.0 710:1.0 759:1.0 844:1.0 
1.0 250:1.0 413:1.0 759:1.0 833:1.0 
1.0 250:1.0 251:1.0 455:1.0 759:1.0 826:1.0 
1.0 250:1.0 514:1.0 709:1.0 710:1.0 759:1.0 821:1.0 
1.0 251:1.0 
1.0 250:1.0 545:1.0 709:1.0 710:1.0 759:1.0 
1.0 219:1.0 251:1.0 379:1.0 476:1.0 687:1.0 821:1.0 842:1.0 
1.0 250:1.0 455:1.0 759:1.0 821:1.0 826:1.0 
1.0 250:1.0 709:1.0 710:1.0 759:1.0 
1.0 250:1.0 440:1.0 710:1.0 759:1.0 844:1.0 
1.0 212:1.0 250:1.0 759:1.0 821:1.0 826:1.0 
1.0 250:1.0 759:1.0 
1.0 250:1.0 278:1.0 545:1.0 759:1.0 821:1.0 
1.0 207:1.0 250:1.0 413:1.0 759:1.0 821:1.0 
1.0 234:1.0 250:1.0 251:1.0 664:1.0 759:1.0 833:1.0 
1.0 72:1.0 232:1.0 250:1.0 475:1.0 664:1.0 759:1.0 
1.0 207:1.0 232:1.0 250:1.0 401:1.0 664:1.0 759:1.0 
1.0 29:1.0 250:1.0 562:1.0 664:1.0 726:1.0 735:1.0 759:1.0 784:1.0 830:1.0 
1.0 232:1.0 250:1.0 303:1.0 664:1.0 759:1.0 833:1.0 
1.0 232:1.0 251:1.0 664:1.0 
1.0 140:1.0 250:1.0 759:1.0 833:1.0 
1.0 251:1.0 664:1.0 826:1.0 
1.0 66:1.0 232:1.0 250:1.0 664:1.0 729:1.0 759:1.0 
1.0 232:1.0 250:1.0 759:1.0 
1.0 232:1.0 251:1.0 627:1.0 664:1.0 
1.0 207:1.0 250:1.0 251:1.0 627:1.0 664:1.0 709:1.0 710:1.0 759:1.0 
1.0 66:1.0 232:1.0 233:1.0 251:1.0 687:1.0 833:1.0 
1.0 48:1.0 145:1.0 250:1.0 336:1.0 617:1.0 643:1.0 759:1.0 
1.0 250:1.0 310:1.0 401:1.0 518:1.0 750:1.0 759:1.0 
1.0 250:1.0 664:1.0 759:1.0 863:1.0 
1.0 232:1.0 251:1.0 475:1.0 514:1.0 627:1.0 710:1.0 
1.0 134:1.0 250:1.0 617:1.0 709:1.0 710:1.0 759:1.0 820:1.0 
1.0 232:1.0 251:1.0 617:1.0 
1.0 232:1.0 250:1.0 617:1.0 664:1.0 756:1.0 759:1.0 
1.0 26:1.0 232:1.0 250:1.0 664:1.0 716:1.0 759:1.0 
1.0 244:1.0 251:1.0 811:1.0 833:1.0 
1.0 250:1.0 303:1.0 401:1.0 759:1.0 821:1.0 
1.0 250:1.0 759:1.0 813:1.0 835:1.0 
1.0 250:1.0 405:1.0 751:1.0 759:1.0 
1.0 250:1.0 310:1.0 401:1.0 441:1.0 759:1.0 
1.0 207:1.0 250:1.0 401:1.0 759:1.0 
1.0 178:1.0 232:1.0 250:1.0 759:1.0 792:1.0 822:1.0 
1.0 183:1.0 205:1.0 232:1.0 251:1.0 264:1.0 391:1.0 
1.0 250:1.0 401:1.0 518:1.0 664:1.0 759:1.0 
1.0 232:1.0 250:1.0 627:1.0 664:1.0 757:1.0 759:1.0 
1.0 29:1.0 250:1.0 461:1.0 759:1.0 853:1.0 
1.0 250:1.0 303:1.0 391:1.0 759:1.0 821:1.0 833:1.0 
1.0 207:1.0 250:1.0 709:1.0 710:1.0 759:1.0 
1.0 250:1.0 759:1.0 821:1.0 
1.0 250:1.0 710:1.0 759:1.0 820:1.0 
-1.0 250:1.0 251:1.0 627:1.0 759:1.0 
-1.0 47:1.0 140:1.0 194:1.0 251:1.0 310:1.0 359:1.0 845:1.0 
-0.14301294876795823 37:1.0 94:1.0 251:1.0 641:1.0 716:1.0 
-1.0 251:1.0 310:1.0 833:1.0 
-1.0 206:1.0 250:1.0 615:1.0 627:1.0 759:1.0 
-0.25029283153496307 26:1.0 250:1.0 547:1.0 640:1.0 657:1.0 716:1.0 759:1.0 773:1.0 
-1.0 250:1.0 251:1.0 391:1.0 437:1.0 759:1.0 
-0.5075690147478773 250:1.0 357:1.0 360:1.0 369:1.0 759:1.0 
-1.0 66:1.0 250:1.0 379:1.0 562:1.0 759:1.0 
-0.8256689644744141 250:1.0 549:1.0 738:1.0 759:1.0 
-1.0 218:1.0 250:1.0 709:1.0 710:1.0 759:1.0 820:1.0 
-1.0 71:1.0 359:1.0 585:1.0 845:1.0 
-1.0 359:1.0 685:1.0 
-1.0 71:1.0 111:1.0 303:1.0 715:1.0 717:1.0 
-1.0 250:1.0 251:1.0 627:1.0 759:1.0 
-1.0 251:1.0 
-0.2556094888897043 6:1.0 250:1.0 262:1.0 391:1.0 608:1.0 759:1.0 
-0.7005747370968636 160:1.0 250:1.0 502:1.0 626:1.0 627:1.0 705:1.0 759:1.0 
-1.0 250:1.0 759:1.0 826:1.0 
-1.0 151:1.0 227:1.0 250:1.0 759:1.0 
-0.9451443870123983 250:1.0 395:1.0 561:1.0 657:1.0 759:1.0 
-1.0 250:1.0 627:1.0 759:1.0 
-0.37621081065062295 140:1.0 173:1.0 250:1.0 300:1.0 664:1.0 759:1.0 
-1.0 151:1.0 250:1.0 461:1.0 759:1.0 
-0.09240511413922661 250:1.0 368:1.0 388:1.0 401:1.0 514:1.0 518:1.0 627:1.0 759:1.0 
-1.0 207:1.0 250:1.0 617:1.0 664:1.0 759:1.0 
-0.4478977944931153 250:1.0 386:1.0 401:1.0 518:1.0 627:1.0 759:1.0 
-1.0 250:1.0 251:1.0 617:1.0 759:1.0 
-1.0 250:1.0 368:1.0 576:1.0 617:1.0 759:1.0 
-1.0 151:1.0 250:1.0 251:1.0 710:1.0 759:1.0 
-1.0 207:1.0 250:1.0 251:1.0 424:1.0 573:1.0 696:1.0 759:1.0 
-0.21968283427005633 250:1.0 260:1.0 310:1.0 386:1.0 617:1.0 708:1.0 759:1.0 
-0.37873715603324465 207:1.0 250:1.0 251:1.0 387:1.0 627:1.0 687:1.0 738:1.0 759:1.0 
-0.6733050228300826 66:1.0 250:1.0 413:1.0 514:1.0 734:1.0 759:1.0 
-1.0 84:1.0 250:1.0 278:1.0 359:1.0 400:1.0 576:1.0 752:1.0 759:1.0 821:1.0 
-1.0 119:1.0 710:1.0 
-0.6052437141617887 29:1.0 98:1.0 163:1.0 250:1.0 557:1.0 759:1.0 
-0.20379985371102521 212:1.0 234:1.0 250:1.0 275:1.0 540:1.0 759:1.0 
-1.0 207:1.0 250:1.0 617:1.0 664:1.0 759:1.0 
-1.0 250:1.0 627:1.0 759:1.0 
-1.0 207:1.0 212:1.0 250:1.0 251:1.0 400:1.0 759:1.0 788:1.0 
-1.0 207:1.0 212:1.0 250:1.0 251:1.0 350:1.0 759:1.0 
-1.0 207:1.0 250:1.0 251:1.0 387:1.0 627:1.0 759:1.0 
-1.0 56:1.0 233:1.0 250:1.0 309:1.0 413:1.0 518:1.0 759:1.0 821:1.0 
-0.22082718266994517 525:1.0 852:1.0 
-1.0 368:1.0 
-1.0 26:1.0 387:1.0 687:1.0 
-1.0 
-0.8618857116367404 207:1.0 310:1.0 368:1.0 401:1.0 502:1.0 518:1.0 817:1.0 
-1.0 165:1.0 212:1.0 567:1.0 833:1.0 
-0.15730051509603835 40:1.0 76:1.0 132:1.0 207:1.0 250:1.0 664:1.0 709:1.0 710:1.0 751:1.0 759:1.0 
-0.22109880381756108 207:1.0 251:1.0 401:1.0 424:1.0 518:1.0 
-0.27484021386146995 250:1.0 643:1.0 759:1.0 
-1.0 106:1.0 250:1.0 275:1.0 315:1.0 401:1.0 518:1.0 759:1.0 
-1.0 212:1.0 250:1.0 759:1.0 
-0.11643624179338097 26:1.0 207:1.0 250:1.0 251:1.0 759:1.0 788:1.0 
-1.0 245:1.0 251:1.0 401:1.0 
-1.0 250:1.0 251:1.0 617:1.0 759:1.0 
-0.802296463574705 48:1.0 250:1.0 387:1.0 397:1.0 424:1.0 627:1.0 696:1.0 710:1.0 715:1.0 716:1.0 759:1.0 
-0.9250615201736714 207:1.0 250:1.0 251:1.0 417:1.0 617:1.0 759:1.0 832:1.0 
-1.0 207:1.0 250:1.0 617:1.0 664:1.0 759:1.0 
-0.21721839833850912 37:1.0 250:1.0 759:1.0 
-0.6263928841547467 206:1.0 250:1.0 413:1.0 424:1.0 759:1.0 
-1.0 250:1.0 386:1.0 401:1.0 518:1.0 627:1.0 759:1.0 
-0.6743207036138698 250:1.0 514:1.0 617:1.0 759:1.0 
-1.0 250:1.0 388:1.0 627:1.0 710:1.0 759:1.0 
-1.0 250:1.0 275:1.0 413:1.0 759:1.0 
-1.0 94:1.0 248:1.0 416:1.0 
-1.0 696:1.0 
-0.9259667763489835 94:1.0 416:1.0 752:1.0 
-0.3653521572695625 250:1.0 608:1.0 759:1.0 
-1.0 207:1.0 250:1.0 617:1.0 759:1.0 815:1.0 
-1.0 250:1.0 251:1.0 617:1.0 759:1.0 
-0.2030479871705382 163:1.0 250:1.0 557:1.0 643:1.0 759:1.0 
-1.0 207:1.0 250:1.0 387:1.0 397:1.0 664:1.0 759:1.0 821:1.0 
-1.0 330:1.0 478:1.0 
-0.23602194986493708 654:1.0 743:1.0 
-1.0 71:1.0 304:1.0 788:1.0 
-1.0 250:1.0 251:1.0 400:1.0 617:1.0 759:1.0 
-1.0 207:1.0 236:1.0 250:1.0 759:1.0 852:1.0 
-0.08446951216677466 66:1.0 93:1.0 134:1.0 250:1.0 615:1.0 759:1.0 
-1.0 250:1.0 251:1.0 417:1.0 759:1.0 
-1.0 115:1.0 207:1.0 236:1.0 250:1.0 289:1.0 664:1.0 759:1.0 804:1.0 
-0.2631091146869361 66:1.0 250:1.0 417:1.0 517:1.0 759:1.0 
-1.0 90:1.0 250:1.0 251:1.0 664:1.0 709:1.0 710:1.0 759:1.0 
-1.0 66:1.0 250:1.0 391:1.0 759:1.0 
-0.3249506345593301 124:1.0 207:1.0 250:1.0 401:1.0 518:1.0 519:1.0 527:1.0 759:1.0 810:1.0 
-0.7797341872436079 42:1.0 217:1.0 250:1.0 251:1.0 351:1.0 561:1.0 759:1.0 
-0.69905791637115 49:1.0 250:1.0 331:1.0 442:1.0 759:1.0 851:1.0 
-0.658021900915678 207:1.0 251:1.0 401:1.0 518:1.0 615:1.0 776:1.0 
-1.0 250:1.0 617:1.0 759:1.0 
-0.6891140033212821 250:1.0 401:1.0 422:1.0 518:1.0 623:1.0 751:1.0 759:1.0 
-0.48982397163513464 48:1.0 207:1.0 250:1.0 251:1.0 627:1.0 759:1.0 
-0.6864448276825507 5:1.0 250:1.0 429:1.0 627:1.0 759:1.0 
-1.0 42:1.0 207:1.0 231:1.0 251:1.0 401:1.0 416:1.0 518:1.0 804:1.0 820:1.0 821:1.0 854:1.0 
-1.0 207:1.0 250:1.0 617:1.0 664:1.0 759:1.0 
-2.6392850488873854E-5 250:1.0 271:1.0 303:1.0 391:1.0 429:1.0 759:1.0 833:1.0 
-1.0 250:1.0 617:1.0 664:1.0 759:1.0 
-1.0 250:1.0 400:1.0 617:1.0 759:1.0 
-1.0 250:1.0 386:1.0 401:1.0 518:1.0 627:1.0 759:1.0 
-0.10372247568081962 135:1.0 207:1.0 250:1.0 251:1.0 274:1.0 573:1.0 759:1.0 
-1.0 50:1.0 413:1.0 567:1.0 788:1.0 
-1.0 
-0.18694507919874456 94:1.0 251:1.0 659:1.0 788:1.0 
-1.0 29:1.0 250:1.0 759:1.0 
-0.799954804737414 66:1.0 207:1.0 243:1.0 250:1.0 401:1.0 518:1.0 615:1.0 627:1.0 759:1.0 
-0.21221666876305711 250:1.0 272:1.0 617:1.0 759:1.0 
-0.39199524792006296 42:1.0 250:1.0 321:1.0 351:1.0 561:1.0 759:1.0 
-1.0 42:1.0 47:1.0 217:1.0 250:1.0 251:1.0 310:1.0 351:1.0 561:1.0 759:1.0 
-1.0 66:1.0 207:1.0 250:1.0 275:1.0 759:1.0 
-1.0 140:1.0 178:1.0 234:1.0 251:1.0 386:1.0 
-1.0 135:1.0 250:1.0 274:1.0 627:1.0 710:1.0 759:1.0 
-0.11953224373809411 250:1.0 265:1.0 278:1.0 387:1.0 441:1.0 759:1.0 808:1.0 
-1.0 250:1.0 401:1.0 518:1.0 752:1.0 759:1.0 833:1.0 
-1.0 66:1.0 250:1.0 401:1.0 518:1.0 759:1.0 
-1.0 250:1.0 617:1.0 759:1.0 
-1.0 250:1.0 310:1.0 617:1.0 759:1.0 
-0.4419845284379676 45:1.0 250:1.0 331:1.0 372:1.0 413:1.0 429:1.0 495:1.0 759:1.0 853:1.0 
-1.0 207:1.0 250:1.0 617:1.0 664:1.0 759:1.0 
-1.0 207:1.0 250:1.0 617:1.0 759:1.0 
-0.3716065985951681 134:1.0 135:1.0 250:1.0 617:1.0 664:1.0 759:1.0 
-0.28459165374092704 250:1.0 457:1.0 540:1.0 752:1.0 759:1.0 
-1.0 250:1.0 311:1.0 408:1.0 738:1.0 759:1.0 835:1.0 
-1.0 250:1.0 573:1.0 759:1.0 
-0.19116229612798533 250:1.0 336:1.0 518:1.0 759:1.0 
-1.0 206:1.0 250:1.0 752:1.0 759:1.0 
-1.0 77:1.0 330:1.0 391:1.0 833:1.0 
-0.5224962639742015 413:1.0 642:1.0 
-1.0 96:1.0 400:1.0 
-1.0 207:1.0 401:1.0 518:1.0 808:1.0 833:1.0 
-1.0 207:1.0 250:1.0 617:1.0 664:1.0 759:1.0 
-1.0 250:1.0 251:1.0 627:1.0 759:1.0 
-0.22104761058300643 250:1.0 379:1.0 527:1.0 759:1.0 851:1.0 
-0.5428614032392145 60:1.0 250:1.0 310:1.0 759:1.0 
-0.28451636932859836 66:1.0 116:1.0 206:1.0 235:1.0 250:1.0 321:1.0 687:1.0 759:1.0 848:1.0 
-1.0 250:1.0 309:1.0 545:1.0 687:1.0 709:1.0 710:1.0 759:1.0 833:1.0 
-0.4963265104276119 96:1.0 250:1.0 400:1.0 561:1.0 759:1.0 
-1.0 250:1.0 310:1.0 405:1.0 759:1.0 
-1.0 250:1.0 309:1.0 545:1.0 687:1.0 709:1.0 710:1.0 759:1.0 833:1.0 
-1.0 60:1.0 207:1.0 212:1.0 250:1.0 251:1.0 759:1.0 
-1.0 44:1.0 250:1.0 264:1.0 759:1.0 851:1.0 
-1.0 207:1.0 251:1.0 401:1.0 518:1.0 615:1.0 
-1.0 177:1.0 250:1.0 265:1.0 401:1.0 518:1.0 759:1.0 
-1.0 56:1.0 251:1.0 518:1.0 738:1.0 821:1.0 
-1.0 250:1.0 386:1.0 401:1.0 518:1.0 627:1.0 759:1.0 
-1.0 96:1.0 207:1.0 251:1.0 821:1.0 
-1.0 789:1.0 
-1.0 250:1.0 709:1.0 710:1.0 759:1.0 821:1.0 
-0.683228166583636 66:1.0 108:1.0 250:1.0 387:1.0 726:1.0 735:1.0 759:1.0 
-1.0 250:1.0 391:1.0 461:1.0 617:1.0 759:1.0 
-0.9295008681014272 250:1.0 251:1.0 401:1.0 518:1.0 564:1.0 617:1.0 759:1.0 
-1.0 26:1.0 251:1.0 350:1.0 440:1.0 615:1.0 756:1.0 844:1.0 
-1.0 250:1.0 461:1.0 617:1.0 759:1.0 
-1.0 250:1.0 315:1.0 752:1.0 759:1.0 792:1.0 
-0.842762462915162 251:1.0 264:1.0 788:1.0 846:1.0 
-1.0 26:1.0 146:1.0 207:1.0 231:1.0 251:1.0 734:1.0 821:1.0 
-1.0 207:1.0 250:1.0 617:1.0 664:1.0 759:1.0 
-1.0 26:1.0 250:1.0 326:1.0 617:1.0 640:1.0 759:1.0 
-1.0 250:1.0 401:1.0 518:1.0 759:1.0 
-0.9320771237371036 184:1.0 218:1.0 231:1.0 250:1.0 384:1.0 759:1.0 820:1.0 
-1.0 250:1.0 617:1.0 759:1.0 
-0.10348357285979223 165:1.0 250:1.0 518:1.0 617:1.0 759:1.0 
-1.0 250:1.0 386:1.0 401:1.0 518:1.0 627:1.0 759:1.0 
-0.8656986702364056 207:1.0 250:1.0 547:1.0 562:1.0 627:1.0 759:1.0 
-1.0 250:1.0 627:1.0 759:1.0 
-1.0 47:1.0 207:1.0 250:1.0 251:1.0 617:1.0 759:1.0 
-0.14373831588087302 231:1.0 660:1.0 696:1.0 872:1.0 
-0.3016457202984325 177:1.0 207:1.0 
-1.0 66:1.0 206:1.0 233:1.0 250:1.0 759:1.0 
-1.0 98:1.0 250:1.0 401:1.0 518:1.0 759:1.0 
-1.0 250:1.0 401:1.0 518:1.0 709:1.0 710:1.0 716:1.0 759:1.0 820:1.0 
-1.0 250:1.0 401:1.0 518:1.0 759:1.0 
-0.47974187249281036 76:1.0 207:1.0 250:1.0 401:1.0 429:1.0 518:1.0 686:1.0 759:1.0 821:1.0 
-1.0 32:1.0 244:1.0 251:1.0 336:1.0 517:1.0 525:1.0 811:1.0 842:1.0 
-1.0 250:1.0 617:1.0 640:1.0 759:1.0 
-1.0 214:1.0 250:1.0 578:1.0 579:1.0 686:1.0 759:1.0 784:1.0 
-0.030468820929984056 43:1.0 246:1.0 250:1.0 304:1.0 429:1.0 663:1.0 759:1.0 851:1.0 
-1.0 250:1.0 310:1.0 401:1.0 518:1.0 725:1.0 752:1.0 759:1.0 
-0.3333145357244759 71:1.0 234:1.0 250:1.0 278:1.0 699:1.0 752:1.0 759:1.0 
-1.0 359:1.0 400:1.0 640:1.0 715:1.0 716:1.0 788:1.0 
-0.2407769811662473 4:1.0 742:1.0 
-1.0 13:1.0 50:1.0 207:1.0 328:1.0 386:1.0 401:1.0 518:1.0 685:1.0 
-0.536263848956565 482:1.0 
-1.0 43:1.0 663:1.0 686:1.0 833:1.0 
-1.0 60:1.0 232:1.0 234:1.0 250:1.0 664:1.0 759:1.0 
-0.7643744073163773 53:1.0 71:1.0 207:1.0 250:1.0 310:1.0 401:1.0 709:1.0 759:1.0 
-1.0 250:1.0 251:1.0 738:1.0 759:1.0 
-1.0 250:1.0 369:1.0 413:1.0 687:1.0 759:1.0 
-0.1285686470133029 7:1.0 250:1.0 391:1.0 710:1.0 759:1.0 821:1.0 830:1.0 
-0.3411242391691649 26:1.0 229:1.0 250:1.0 385:1.0 715:1.0 759:1.0 
-0.2554212555557007 29:1.0 250:1.0 759:1.0 784:1.0 
-1.0 143:1.0 212:1.0 232:1.0 250:1.0 275:1.0 401:1.0 687:1.0 738:1.0 759:1.0 863:1.0 
-0.0014115341502587558 60:1.0 207:1.0 234:1.0 250:1.0 617:1.0 759:1.0 
-1.0 232:1.0 250:1.0 401:1.0 518:1.0 545:1.0 664:1.0 759:1.0 
-1.0 232:1.0 250:1.0 759:1.0 821:1.0 
-0.40640420681295686 19:1.0 250:1.0 346:1.0 664:1.0 759:1.0 
-0.62505418751444 250:1.0 401:1.0 403:1.0 518:1.0 759:1.0 
-1.0 7:1.0 47:1.0 66:1.0 250:1.0 562:1.0 709:1.0 710:1.0 759:1.0 863:1.0 
-1.0 13:1.0 232:1.0 250:1.0 313:1.0 429:1.0 687:1.0 759:1.0 
-0.4582766416098699 250:1.0 291:1.0 401:1.0 518:1.0 759:1.0 
-1.0 232:1.0 250:1.0 386:1.0 759:1.0 
-1.0 227:1.0 232:1.0 250:1.0 627:1.0 709:1.0 710:1.0 759:1.0 
-1.0 250:1.0 545:1.0 687:1.0 709:1.0 710:1.0 759:1.0 
-1.0 207:1.0 250:1.0 709:1.0 710:1.0 759:1.0 
-1.0 250:1.0 627:1.0 664:1.0 759:1.0 
-1.0 66:1.0 250:1.0 615:1.0 709:1.0 710:1.0 759:1.0 832:1.0 833:1.0 
-1.0 232:1.0 250:1.0 413:1.0 664:1.0 759:1.0 821:1.0 
-0.6718468744501177 107:1.0 178:1.0 202:1.0 213:1.0 232:1.0 250:1.0 759:1.0 
-1.0 178:1.0 232:1.0 234:1.0 251:1.0 386:1.0 821:1.0 
-1.0 107:1.0 178:1.0 202:1.0 213:1.0 232:1.0 251:1.0 615:1.0 
-0.5491079039487327 29:1.0 178:1.0 687:1.0 
-1.0 150:1.0 278:1.0 364:1.0 486:1.0 567:1.0 
-1.0 103:1.0 221:1.0 329:1.0 
-0.5872729373768071 387:1.0 523:1.0 
-0.7252157273040829 833:1.0 850:1.0 
-1.0 178:1.0 248:1.0 832:1.0 
-1.0 145:1.0 
-0.5151015260945886 207:1.0 250:1.0 330:1.0 368:1.0 387:1.0 401:1.0 759:1.0 
-1.0 235:1.0 250:1.0 251:1.0 523:1.0 617:1.0 622:1.0 664:1.0 759:1.0 
-1.0 250:1.0 664:1.0 759:1.0 
-1.0 115:1.0 236:1.0 250:1.0 391:1.0 751:1.0 759:1.0 833:1.0 
-1.0 146:1.0 251:1.0 821:1.0 
-1.0 250:1.0 664:1.0 710:1.0 759:1.0 
-0.800476915671253 206:1.0 233:1.0 250:1.0 759:1.0 830:1.0 
-1.0 206:1.0 250:1.0 368:1.0 617:1.0 664:1.0 759:1.0 
-0.7886903481113088 250:1.0 455:1.0 571:1.0 759:1.0 
-1.0 207:1.0 250:1.0 627:1.0 664:1.0 709:1.0 710:1.0 759:1.0 
-0.19395512923179908 250:1.0 368:1.0 401:1.0 518:1.0 571:1.0 664:1.0 759:1.0 821:1.0 
-1.0 207:1.0 250:1.0 627:1.0 664:1.0 759:1.0 
-0.6979709515999664 40:1.0 250:1.0 626:1.0 627:1.0 759:1.0 
-1.0 207:1.0 250:1.0 627:1.0 759:1.0 
-1.0 178:1.0 250:1.0 275:1.0 413:1.0 525:1.0 605:1.0 707:1.0 759:1.0 
-1.0 148:1.0 250:1.0 413:1.0 714:1.0 759:1.0 
-1.0 93:1.0 207:1.0 250:1.0 401:1.0 518:1.0 759:1.0 
-1.0 74:1.0 150:1.0 250:1.0 449:1.0 464:1.0 517:1.0 573:1.0 759:1.0 833:1.0 
-0.2525323456410353 250:1.0 401:1.0 518:1.0 759:1.0 821:1.0 
-1.0 207:1.0 250:1.0 627:1.0 759:1.0 
-0.4891941992488229 207:1.0 250:1.0 417:1.0 440:1.0 687:1.0 759:1.0 844:1.0 
-1.0 657:1.0 716:1.0 752:1.0 
-1.0 250:1.0 251:1.0 305:1.0 561:1.0 696:1.0 759:1.0 
-0.16709420012352638 116:1.0 153:1.0 251:1.0 413:1.0 441:1.0 
-0.19073080657054764 250:1.0 759:1.0 854:1.0 
-1.0 207:1.0 250:1.0 391:1.0 401:1.0 518:1.0 627:1.0 752:1.0 759:1.0 821:1.0 833:1.0 
-1.0 207:1.0 379:1.0 401:1.0 518:1.0 
-1.0 251:1.0 270:1.0 310:1.0 441:1.0 817:1.0 
-1.0 
-1.0 90:1.0 207:1.0 250:1.0 573:1.0 623:1.0 759:1.0 
-1.0 207:1.0 250:1.0 329:1.0 627:1.0 666:1.0 759:1.0 
-1.0 250:1.0 617:1.0 759:1.0 
-1.0 207:1.0 250:1.0 398:1.0 518:1.0 617:1.0 664:1.0 759:1.0 
-0.9201749596319582 129:1.0 251:1.0 
-1.0 250:1.0 275:1.0 286:1.0 351:1.0 355:1.0 750:1.0 759:1.0 861:1.0 
-0.8461605223769806 26:1.0 255:1.0 564:1.0 
-0.7933369199849631 94:1.0 250:1.0 401:1.0 518:1.0 623:1.0 759:1.0 
-1.0 
-1.0 250:1.0 457:1.0 759:1.0 
-0.5201463005175071 250:1.0 251:1.0 525:1.0 579:1.0 759:1.0 
-0.8782570195582237 251:1.0 588:1.0 
-1.0 207:1.0 250:1.0 627:1.0 664:1.0 757:1.0 759:1.0 
-1.0 65:1.0 250:1.0 252:1.0 573:1.0 759:1.0 773:1.0 
-0.8488058319189995 66:1.0 207:1.0 250:1.0 271:1.0 759:1.0 
-0.3184494260364512 19:1.0 250:1.0 251:1.0 387:1.0 401:1.0 518:1.0 759:1.0 
-1.0 250:1.0 350:1.0 579:1.0 617:1.0 759:1.0 
-1.0 74:1.0 104:1.0 250:1.0 293:1.0 348:1.0 573:1.0 715:1.0 759:1.0 
-1.0 264:1.0 
-1.0 250:1.0 275:1.0 759:1.0 
-0.15550198024394601 128:1.0 147:1.0 752:1.0 
-1.0 160:1.0 250:1.0 286:1.0 640:1.0 750:1.0 759:1.0 
-0.4101063528489082 416:1.0 788:1.0 804:1.0 
-1.0 250:1.0 664:1.0 759:1.0 
-1.0 84:1.0 204:1.0 250:1.0 759:1.0 
-1.0 250:1.0 617:1.0 759:1.0 
-0.2795604661121408 250:1.0 391:1.0 759:1.0 
-1.0 250:1.0 401:1.0 518:1.0 738:1.0 759:1.0 
-1.0 250:1.0 434:1.0 632:1.0 640:1.0 664:1.0 666:1.0 716:1.0 759:1.0 
-0.6743905133064414 250:1.0 264:1.0 759:1.0 
-1.0 154:1.0 214:1.0 250:1.0 710:1.0 759:1.0 797:1.0 
-0.7933733235079236 207:1.0 243:1.0 250:1.0 627:1.0 664:1.0 759:1.0 
-1.0 251:1.0 387:1.0 664:1.0 679:1.0 
-1.0 250:1.0 401:1.0 518:1.0 759:1.0 
-1.0 250:1.0 270:1.0 561:1.0 759:1.0 
-0.18114534337315885 56:1.0 250:1.0 330:1.0 759:1.0 
-0.8416353225202705 29:1.0 350:1.0 759:1.0 821:1.0 
-0.1747267631922643 250:1.0 381:1.0 568:1.0 682:1.0 688:1.0 759:1.0 
-0.6650708968267027 250:1.0 689:1.0 759:1.0 784:1.0 
-1.0 250:1.0 251:1.0 368:1.0 413:1.0 627:1.0 759:1.0 821:1.0 
-1.0 126:1.0 236:1.0 250:1.0 271:1.0 759:1.0 821:1.0 
-1.0 234:1.0 250:1.0 275:1.0 759:1.0 851:1.0 
-1.0 251:1.0 466:1.0 
-1.0 250:1.0 617:1.0 759:1.0 
-0.855136204221191 251:1.0 464:1.0 
-0.4861529896688451 29:1.0 250:1.0 759:1.0 
-0.9496810147414708 12:1.0 152:1.0 207:1.0 250:1.0 400:1.0 401:1.0 518:1.0 759:1.0 
-0.3343006585835664 154:1.0 575:1.0 681:1.0 833:1.0 
-1.0 159:1.0 250:1.0 391:1.0 514:1.0 759:1.0 833:1.0 
-1.0 250:1.0 391:1.0 759:1.0 833:1.0 
-0.39361429311525176 7:1.0 215:1.0 250:1.0 527:1.0 611:1.0 710:1.0 757:1.0 759:1.0 833:1.0 
-0.7032761156842602 250:1.0 278:1.0 527:1.0 759:1.0 815:1.0 
-1.0 250:1.0 259:1.0 306:1.0 310:1.0 687:1.0 710:1.0 759:1.0 820:1.0 
-1.0 251:1.0 
-1.0 250:1.0 664:1.0 759:1.0 
-1.0 250:1.0 401:1.0 518:1.0 527:1.0 759:1.0 
-0.5356088394016993 101:1.0 250:1.0 759:1.0 
-1.0 207:1.0 250:1.0 305:1.0 573:1.0 759:1.0 
-1.0 246:1.0 250:1.0 759:1.0 
-1.0 140:1.0 250:1.0 742:1.0 759:1.0 
-1.0 250:1.0 617:1.0 759:1.0 
-1.0 250:1.0 401:1.0 518:1.0 759:1.0 
-1.0 250:1.0 320:1.0 328:1.0 362:1.0 685:1.0 759:1.0 
-0.11364175233212626 413:1.0 667:1.0 788:1.0 840:1.0 842:1.0 
-0.8924992239080263 100:1.0 144:1.0 250:1.0 348:1.0 440:1.0 759:1.0 844:1.0 
-0.29402425716549274 250:1.0 348:1.0 387:1.0 397:1.0 759:1.0 788:1.0 842:1.0 
-1.0 235:1.0 250:1.0 271:1.0 310:1.0 759:1.0 821:1.0 833:1.0 
-1.0 37:1.0 79:1.0 250:1.0 336:1.0 716:1.0 759:1.0 849:1.0 
-1.0 250:1.0 271:1.0 759:1.0 833:1.0 
-0.19458004832619705 29:1.0 37:1.0 98:1.0 250:1.0 310:1.0 510:1.0 759:1.0 
-1.0 66:1.0 250:1.0 510:1.0 759:1.0 835:1.0 
-1.0 250:1.0 336:1.0 716:1.0 759:1.0 849:1.0 
-1.0 178:1.0 250:1.0 617:1.0 759:1.0 
-0.9052955348529869 250:1.0 578:1.0 579:1.0 759:1.0 
-0.4307526012313132 250:1.0 264:1.0 301:1.0 441:1.0 518:1.0 730:1.0 759:1.0 821:1.0 
-0.616825979638989 8:1.0 9:1.0 124:1.0 250:1.0 519:1.0 759:1.0 809:1.0 810:1.0 
-1.0 66:1.0 250:1.0 759:1.0 
-0.17351233399714977 250:1.0 310:1.0 518:1.0 759:1.0 842:1.0 
-1.0 250:1.0 329:1.0 759:1.0 851:1.0 
-1.0 250:1.0 350:1.0 664:1.0 759:1.0 
-1.0 250:1.0 664:1.0 759:1.0 
-1.0 250:1.0 391:1.0 759:1.0 
-0.6381104592937294 250:1.0 265:1.0 310:1.0 660:1.0 759:1.0 
-0.24558546557576527 251:1.0 561:1.0 699:1.0 751:1.0 783:1.0 
-1.0 251:1.0 265:1.0 298:1.0 832:1.0 
-0.6862042667698024 29:1.0 250:1.0 413:1.0 759:1.0 
-0.32425463723768694 75:1.0 250:1.0 578:1.0 759:1.0 
-1.0 250:1.0 576:1.0 759:1.0 849:1.0 
-1.0 59:1.0 251:1.0 387:1.0 615:1.0 
-1.0 250:1.0 576:1.0 759:1.0 821:1.0 849:1.0 
-0.8438869421767986 66:1.0 250:1.0 759:1.0 
-1.0 115:1.0 271:1.0 278:1.0 
-1.0 232:1.0 250:1.0 251:1.0 664:1.0 759:1.0 842:1.0 
-0.4024413365921885 415:1.0 832:1.0 
-1.0 13:1.0 246:1.0 251:1.0 
-1.0 134:1.0 250:1.0 303:1.0 667:1.0 696:1.0 759:1.0 835:1.0 
-0.8640960342235425 250:1.0 413:1.0 576:1.0 718:1.0 759:1.0 
-0.6417306173707695 250:1.0 698:1.0 759:1.0 
-1.0 60:1.0 207:1.0 250:1.0 664:1.0 759:1.0 
-1.0 59:1.0 207:1.0 250:1.0 759:1.0 821:1.0 
-1.0 59:1.0 250:1.0 759:1.0 
-1.0 66:1.0 161:1.0 250:1.0 452:1.0 759:1.0 833:1.0 
-0.4556251243072002 250:1.0 514:1.0 738:1.0 759:1.0 854:1.0 
-1.0 250:1.0 270:1.0 759:1.0 821:1.0 
-1.0 59:1.0 250:1.0 759:1.0 821:1.0 
-1.0 140:1.0 251:1.0 855:1.0 
-1.0 232:1.0 250:1.0 401:1.0 518:1.0 759:1.0 821:1.0 
-1.0 250:1.0 251:1.0 413:1.0 627:1.0 759:1.0 
-1.0 250:1.0 759:1.0 826:1.0 
-0.05074918224002294 93:1.0 225:1.0 250:1.0 401:1.0 518:1.0 759:1.0 821:1.0 830:1.0 
-1.0 29:1.0 66:1.0 232:1.0 250:1.0 664:1.0 759:1.0 
-1.0 250:1.0 251:1.0 310:1.0 664:1.0 759:1.0 
-1.0 180:1.0 232:1.0 250:1.0 321:1.0 664:1.0 759:1.0 
-1.0 72:1.0 232:1.0 250:1.0 609:1.0 664:1.0 759:1.0 
-1.0 232:1.0 250:1.0 401:1.0 518:1.0 664:1.0 759:1.0 821:1.0 
-1.0 250:1.0 275:1.0 759:1.0 851:1.0 
-0.7362319313872968 250:1.0 391:1.0 413:1.0 746:1.0 759:1.0 792:1.0 833:1.0 
-1.0 232:1.0 251:1.0 401:1.0 518:1.0 821:1.0 
-0.6194564505283884 232:1.0 250:1.0 321:1.0 609:1.0 664:1.0 759:1.0 
-1.0 232:1.0 250:1.0 664:1.0 759:1.0 821:1.0 
-1.0 250:1.0 251:1.0 264:1.0 305:1.0 413:1.0 715:1.0 759:1.0 
-1.0 250:1.0 626:1.0 664:1.0 730:1.0 759:1.0 
-0.6481275102737653 207:1.0 
-1.0 251:1.0 617:1.0 
-0.4564074383858462 72:1.0 250:1.0 560:1.0 759:1.0 833:1.0 
-1.0 251:1.0 280:1.0 664:1.0 
-0.5578309545004313 20:1.0 220:1.0 
-0.14733038579233704 174:1.0 212:1.0 251:1.0 449:1.0 511:1.0 
-1.0 168:1.0 250:1.0 626:1.0 759:1.0 798:1.0 
-0.8375436253467524 163:1.0 250:1.0 278:1.0 400:1.0 557:1.0 664:1.0 759:1.0 788:1.0 
-1.0 47:1.0 250:1.0 251:1.0 581:1.0 664:1.0 759:1.0 
-1.0 751:1.0 
-0.4425821978345565 213:1.0 250:1.0 391:1.0 514:1.0 571:1.0 664:1.0 757:1.0 759:1.0 
-1.0 150:1.0 232:1.0 250:1.0 730:1.0 759:1.0 812:1.0 
-1.0 250:1.0 560:1.0 759:1.0 
-1.0 250:1.0 328:1.0 395:1.0 561:1.0 759:1.0 
-1.0 250:1.0 303:1.0 391:1.0 401:1.0 518:1.0 759:1.0 821:1.0 833:1.0 
-1.0 250:1.0 303:1.0 391:1.0 759:1.0 833:1.0 
-0.07803714262651075 250:1.0 415:1.0 664:1.0 759:1.0 871:1.0 
-1.0 212:1.0 250:1.0 759:1.0 
-1.0 251:1.0 413:1.0 449:1.0 787:1.0 
-1.0 250:1.0 251:1.0 334:1.0 368:1.0 387:1.0 429:1.0 596:1.0 759:1.0 
-1.0 29:1.0 250:1.0 251:1.0 759:1.0 
-1.0 66:1.0 250:1.0 310:1.0 615:1.0 710:1.0 759:1.0 
-1.0 146:1.0 250:1.0 617:1.0 627:1.0 759:1.0 847:1.0 854:1.0 
-0.5736113569535521 621:1.0 
-1.0 42:1.0 60:1.0 
-1.0 250:1.0 275:1.0 696:1.0 759:1.0 
-1.0 146:1.0 250:1.0 759:1.0 847:1.0 854:1.0 
-1.0 251:1.0 401:1.0 518:1.0 
-1.0 250:1.0 429:1.0 440:1.0 759:1.0 844:1.0 
-1.0 
-0.3315951994642337 250:1.0 251:1.0 331:1.0 584:1.0 759:1.0 812:1.0 821:1.0 
-0.9478657247471511 250:1.0 298:1.0 310:1.0 401:1.0 518:1.0 561:1.0 759:1.0 
-1.0 168:1.0 250:1.0 251:1.0 759:1.0 798:1.0 821:1.0 
-0.4495918813136349 250:1.0 251:1.0 289:1.0 584:1.0 759:1.0 812:1.0 821:1.0 
-0.9080139876892597 35:1.0 251:1.0 
-1.0 250:1.0 627:1.0 759:1.0 
-1.0 207:1.0 250:1.0 617:1.0 759:1.0 
-0.4160492288058957 220:1.0 250:1.0 617:1.0 713:1.0 759:1.0 
-1.0 250:1.0 251:1.0 584:1.0 759:1.0 812:1.0 821:1.0 
-1.0 250:1.0 429:1.0 514:1.0 759:1.0 787:1.0 821:1.0 
-1.0 250:1.0 359:1.0 401:1.0 518:1.0 699:1.0 759:1.0 
-1.0 251:1.0 304:1.0 
-0.3279666087699071 250:1.0 251:1.0 759:1.0 812:1.0 821:1.0 
-1.0 60:1.0 234:1.0 251:1.0 833:1.0 
-0.5480006802594536 183:1.0 250:1.0 699:1.0 759:1.0 
-1.0 250:1.0 664:1.0 759:1.0 
-0.7266360431182175 12:1.0 207:1.0 250:1.0 278:1.0 401:1.0 487:1.0 518:1.0 730:1.0 759:1.0 855:1.0 
-1.0 59:1.0 250:1.0 627:1.0 759:1.0 
-1.0 29:1.0 74:1.0 250:1.0 759:1.0 
-1.0 250:1.0 251:1.0 584:1.0 759:1.0 812:1.0 821:1.0 
-1.0 140:1.0 239:1.0 250:1.0 759:1.0 
-1.0 207:1.0 213:1.0 234:1.0 250:1.0 389:1.0 573:1.0 664:1.0 759:1.0 842:1.0 
-1.0 251:1.0 536:1.0 746:1.0 787:1.0 806:1.0 
-1.0 66:1.0 205:1.0 207:1.0 250:1.0 709:1.0 710:1.0 759:1.0 851:1.0 
-0.3840291317459347 26:1.0 250:1.0 510:1.0 759:1.0 
-1.0 140:1.0 251:1.0 821:1.0 
-0.7676671370677879 27:1.0 178:1.0 207:1.0 251:1.0 
-1.0 207:1.0 250:1.0 401:1.0 415:1.0 518:1.0 759:1.0 
-0.21701422497916273 207:1.0 250:1.0 368:1.0 401:1.0 518:1.0 680:1.0 759:1.0 
-0.7297623027492499 250:1.0 275:1.0 305:1.0 759:1.0 837:1.0 
-0.9250735466949945 234:1.0 250:1.0 251:1.0 277:1.0 389:1.0 759:1.0 821:1.0 
-1.0 250:1.0 401:1.0 518:1.0 752:1.0 759:1.0 833:1.0 
-1.0 207:1.0 234:1.0 250:1.0 389:1.0 664:1.0 759:1.0 
-0.22337049703794037 9:1.0 60:1.0 250:1.0 626:1.0 759:1.0 821:1.0 855:1.0 
-0.2654107397576794 250:1.0 275:1.0 401:1.0 728:1.0 759:1.0 821:1.0 842:1.0 
-0.08835049749676165 206:1.0 250:1.0 251:1.0 351:1.0 387:1.0 759:1.0 855:1.0 
-0.4856041917462873 250:1.0 692:1.0 759:1.0 
-1.0 250:1.0 401:1.0 518:1.0 667:1.0 720:1.0 759:1.0 
-1.0 
-0.5486388392769614 250:1.0 370:1.0 429:1.0 540:1.0 619:1.0 715:1.0 759:1.0 
-0.7684669165804023 205:1.0 250:1.0 275:1.0 627:1.0 759:1.0 
-0.8617640851412105 221:1.0 250:1.0 759:1.0 833:1.0 
-1.0 235:1.0 250:1.0 580:1.0 759:1.0 826:1.0 
-1.0 250:1.0 251:1.0 
-0.08152967444128492 250:1.0 455:1.0 759:1.0 821:1.0 
-0.23309975305816533 250:1.0 452:1.0 455:1.0 759:1.0 821:1.0 
-1.0 250:1.0 310:1.0 455:1.0 759:1.0 821:1.0 
-1.0 236:1.0 250:1.0 405:1.0 751:1.0 759:1.0 
-0.2393658354118963 250:1.0 265:1.0 757:1.0 759:1.0 842:1.0 
-0.9162837407689561 410:1.0 441:1.0 524:1.0 648:1.0 855:1.0 865:1.0 
-0.2768397454152741 251:1.0 405:1.0 687:1.0 751:1.0 858:1.0 
-1.0 111:1.0 250:1.0 759:1.0 
-1.0 207:1.0 251:1.0 
-0.3302845425617067 250:1.0 395:1.0 536:1.0 759:1.0 
-1.0 60:1.0 234:1.0 
-0.8972420420954185 66:1.0 90:1.0 250:1.0 271:1.0 303:1.0 391:1.0 413:1.0 429:1.0 664:1.0 759:1.0 830:1.0 833:1.0 
-0.6664123825387267 93:1.0 250:1.0 452:1.0 759:1.0 
-1.0 250:1.0 264:1.0 759:1.0 
-1.0 44:1.0 207:1.0 218:1.0 250:1.0 439:1.0 759:1.0 
-0.5506893940990043 251:1.0 715:1.0 
-1.0 250:1.0 341:1.0 391:1.0 401:1.0 429:1.0 518:1.0 759:1.0 821:1.0 851:1.0 
-0.6532153561800992 250:1.0 305:1.0 391:1.0 404:1.0 525:1.0 696:1.0 715:1.0 759:1.0 842:1.0 
-1.0 250:1.0 500:1.0 617:1.0 759:1.0 
-1.0 44:1.0 218:1.0 250:1.0 439:1.0 759:1.0 
-0.3298461285173632 250:1.0 303:1.0 657:1.0 759:1.0 832:1.0 833:1.0 842:1.0 
-1.0 96:1.0 251:1.0 413:1.0 
-0.07255794597982011 71:1.0 250:1.0 413:1.0 487:1.0 518:1.0 752:1.0 759:1.0 
-1.0 250:1.0 726:1.0 735:1.0 759:1.0 
-1.0 250:1.0 672:1.0 709:1.0 710:1.0 751:1.0 759:1.0 
-1.0 74:1.0 250:1.0 401:1.0 518:1.0 744:1.0 759:1.0 821:1.0 
-1.0 44:1.0 120:1.0 218:1.0 251:1.0 439:1.0 
-1.0 250:1.0 370:1.0 561:1.0 619:1.0 759:1.0 
-1.0 207:1.0 251:1.0 
-1.0 44:1.0 218:1.0 250:1.0 288:1.0 439:1.0 627:1.0 759:1.0 
-1.0 250:1.0 275:1.0 391:1.0 759:1.0 
-1.0 212:1.0 250:1.0 759:1.0 
-0.6982193078630345 250:1.0 315:1.0 379:1.0 441:1.0 759:1.0 
-1.0 250:1.0 271:1.0 401:1.0 756:1.0 759:1.0 
-0.4941411162937896 224:1.0 250:1.0 264:1.0 415:1.0 441:1.0 759:1.0 783:1.0 
-1.0 140:1.0 250:1.0 759:1.0 
-1.0 251:1.0 406:1.0 666:1.0 700:1.0 
-1.0 187:1.0 250:1.0 657:1.0 701:1.0 759:1.0 781:1.0 788:1.0 826:1.0 
-1.0 187:1.0 251:1.0 657:1.0 701:1.0 781:1.0 788:1.0 826:1.0 
-0.5127415569759257 250:1.0 386:1.0 706:1.0 710:1.0 752:1.0 759:1.0 815:1.0 842:1.0 
-1.0 657:1.0 751:1.0 752:1.0 
-1.0 250:1.0 666:1.0 700:1.0 757:1.0 759:1.0 826:1.0 
-0.6499018861766052 207:1.0 250:1.0 627:1.0 666:1.0 700:1.0 759:1.0 773:1.0 
-0.5188330141685397 310:1.0 429:1.0 830:1.0 
-0.46252440939027706 12:1.0 250:1.0 334:1.0 545:1.0 759:1.0 821:1.0 
-0.2878300432014139 250:1.0 310:1.0 664:1.0 759:1.0 
-1.0 207:1.0 251:1.0 401:1.0 518:1.0 
-1.0 93:1.0 207:1.0 212:1.0 250:1.0 759:1.0 833:1.0 
-1.0 250:1.0 271:1.0 664:1.0 759:1.0 821:1.0 833:1.0 
-1.0 206:1.0 250:1.0 310:1.0 759:1.0 
-0.20369615742796826 251:1.0 266:1.0 304:1.0 357:1.0 368:1.0 387:1.0 510:1.0 
-0.239362863503865 66:1.0 207:1.0 250:1.0 401:1.0 518:1.0 615:1.0 759:1.0 
-0.28013339903773615 227:1.0 574:1.0 
-1.0 91:1.0 250:1.0 291:1.0 599:1.0 759:1.0 
-1.0 250:1.0 709:1.0 710:1.0 759:1.0 
-1.0 13:1.0 250:1.0 265:1.0 759:1.0 
-1.0 7:1.0 250:1.0 710:1.0 759:1.0 
-0.2848098509873247 116:1.0 212:1.0 250:1.0 617:1.0 759:1.0 
-1.0 250:1.0 709:1.0 710:1.0 759:1.0 
-1.0 250:1.0 709:1.0 710:1.0 759:1.0 
-1.0 441:1.0 
-1.0 207:1.0 250:1.0 401:1.0 518:1.0 759:1.0 
-1.0 250:1.0 759:1.0 826:1.0 
-1.0 250:1.0 401:1.0 518:1.0 686:1.0 759:1.0 
-1.0 250:1.0 413:1.0 759:1.0 826:1.0 
-1.0 42:1.0 207:1.0 250:1.0 275:1.0 759:1.0 831:1.0 833:1.0 
-1.0 205:1.0 271:1.0 611:1.0 710:1.0 717:1.0 
-1.0 13:1.0 26:1.0 250:1.0 440:1.0 716:1.0 759:1.0 844:1.0 
-1.0 72:1.0 232:1.0 250:1.0 759:1.0 
-1.0 232:1.0 250:1.0 514:1.0 664:1.0 687:1.0 733:1.0 759:1.0 
-1.0 232:1.0 251:1.0 441:1.0 609:1.0 664:1.0 687:1.0 821:1.0 
-0.8665571294789278 250:1.0 313:1.0 461:1.0 730:1.0 759:1.0 
-0.21895165134925448 250:1.0 413:1.0 441:1.0 759:1.0 815:1.0 
-1.0 251:1.0 400:1.0 746:1.0 
-1.0 250:1.0 627:1.0 759:1.0 
-1.0 72:1.0 232:1.0 250:1.0 759:1.0 
-1.0 
-1.0 206:1.0 207:1.0 250:1.0 401:1.0 756:1.0 759:1.0 
-1.0 250:1.0 401:1.0 518:1.0 759:1.0 
-1.0 212:1.0 250:1.0 696:1.0 734:1.0 759:1.0 
-0.7802752102562103 250:1.0 310:1.0 330:1.0 759:1.0 830:1.0 
-1.0 250:1.0 664:1.0 756:1.0 759:1.0 
-1.0 42:1.0 250:1.0 759:1.0 
-0.572737207615557 250:1.0 275:1.0 759:1.0 
-1.0 251:1.0 832:1.0 
-1.0 232:1.0 250:1.0 666:1.0 759:1.0 
